Layer,dense_24
Weights
-0.043238454,-0.013976917,-0.06466679,-0.051058978,-0.056805566,0.022567712,0.0034428015,0.018848307,-0.050075013,-0.02989588
0.026236832,0.022769801,0.08672955,-0.03922508,-0.055492707,0.0023930967,-0.062731534,-0.08304034,-0.022719458,0.014304094
-0.0864842,-0.05500004,-0.035701472,0.07249347,-0.0029627532,-0.06670378,-0.054873988,0.0073408782,0.035074048,-0.07892138
0.013085738,0.04950527,-0.058514155,0.07432593,-0.05347035,-0.012263246,-0.0018609688,-0.064338855,-0.007396899,-0.018644325
-0.051533055,-0.016752213,-0.008638918,0.06523835,-0.010529101,0.05543863,-0.056175925,0.073351376,0.017040692,-0.07839822
-0.057150602,-0.029091626,0.0074496195,-0.01750113,0.050630607,-0.03408718,-0.032563545,0.035772108,0.070707105,0.0038220137
-0.06459896,-0.06174425,0.040337376,-0.031819414,-0.07486721,-0.024786748,0.006784357,-0.014579967,0.007934846,0.07518961
0.03829857,-0.038416,-0.072614,-0.044779457,-0.015676036,0.038969226,0.02642674,0.004075676,0.06399455,0.0065711886
0.005703807,-0.06705119,-0.01961977,-0.08274449,0.05723796,0.06065779,0.083179705,0.038062707,0.04041458,-0.004778266
0.05997286,-0.06133697,-0.055980545,-0.07484303,-0.06207385,-0.07266907,0.006724708,-0.040322248,0.07470035,-0.018416055
0.0105583295,0.035761267,-0.0035601854,0.014686704,-0.026344478,-0.018354498,-0.03548779,0.032318987,0.07123808,0.033506595
-0.03653466,0.043722324,0.058506034,0.07437623,-0.015522465,0.05425767,-0.059601955,-0.0041833445,-0.029567506,-0.076736405
0.05109079,-0.100422956,-0.23366809,-0.25737336,-0.13316777,-0.12024846,0.16216716,0.0003176245,-0.2125554,-0.094555266
-0.011068345,-0.043572355,-0.22517505,-0.25885254,-0.28446686,-0.2556334,0.18356225,-0.112472944,-0.16500448,-0.23864712
-0.09333287,-0.030201146,0.29396075,-0.08850884,-0.05980687,-0.06863706,-0.17149764,-0.030529184,-0.06791547,-0.09421539
-0.042344507,0.006449946,0.17166057,-0.011627102,0.043210622,-0.025911765,-0.0004936541,0.08079558,-0.02296101,0.0030315274
-0.010983571,-0.06335377,0.0030147582,0.040552117,0.04192514,0.067015626,0.07832255,-0.06030318,0.031594627,-0.054356076
-0.024238437,0.0320841,0.048456334,-0.05448549,0.060972072,0.031012468,0.014543183,0.061030753,-0.06074445,-0.03832304
-0.06911356,-0.033792194,0.019349761,-0.033982456,0.030953191,0.032928936,0.084320046,-0.028423972,0.0077407956,-0.0373551
0.0036651045,0.068741865,0.0033136755,0.07096926,0.03635066,0.011779889,0.008685961,0.054191075,0.041787274,0.08250255
0.026502326,0.059688546,0.057042666,0.04643538,0.02448067,0.08568034,0.015084781,-0.055777226,0.07598879,0.0799335
-0.01746726,0.08664828,-0.016761638,-0.056797337,0.020910375,-0.07631174,0.021795727,0.011017606,0.031533696,-0.048277944
-0.055462882,0.07154586,0.062478326,-0.077883005,0.07914599,0.04275038,-0.048400972,0.026353084,0.08359373,-0.085526615
-0.054945614,-0.032221097,0.042095236,-0.051094357,-0.0499084,0.059048094,-0.0388709,-0.070795685,0.055826165,0.076533936
-0.012920953,-0.057364576,-0.086490646,0.036531776,0.049788527,-0.07084667,0.08038225,-0.012685016,0.043059863,-0.04658208
-0.019684039,-0.04553511,-0.08454939,0.08245713,-0.0093635395,-0.020088933,-0.018209115,-0.04202854,0.013063274,-0.076920055
0.025599167,0.021027759,0.06124618,0.080400445,-0.04736283,-0.014740117,-0.020142078,0.077007525,0.011482,-0.023396812
0.03139753,-0.007989526,-0.054267827,-0.020981297,-0.08143399,-0.045931403,0.048190303,-0.008959293,0.062453367,-0.046175156
-0.059768505,0.080061056,0.04212024,-0.036911905,0.074004926,0.086252026,0.07150405,-0.08008472,0.081435405,0.041407056
-0.07324969,0.026540667,0.024657689,-0.026463423,-0.051527936,-0.04098055,-0.0034346133,-0.036252957,-0.0027871877,0.010054283
-0.0234107,-0.06538216,-0.0368136,0.08005095,-0.0007422641,-0.026094902,-0.007903218,0.014413685,-0.050639432,-0.032310735
0.048723675,-0.062203735,0.039144255,0.0054864213,0.010827072,0.030370228,0.073546834,0.046885557,-0.02119454,-0.0509853
-0.08958204,0.075892895,-0.2095223,-0.06630681,-0.21348895,-0.02038016,0.24877995,0.008744971,-0.09222337,-0.062074397
-0.04435539,-0.034675162,-0.15929478,0.06616972,-0.29945305,0.010103609,0.3705837,0.0035861286,-0.10804287,-0.022533715
0.054046944,0.025146466,-0.34161198,-0.07075186,-0.49798027,-0.043704618,0.36965606,-0.08861664,0.02151128,-0.13819964
0.024035359,-0.25836042,-0.24236082,-0.09896488,-0.51073956,-0.02939598,0.504157,-0.24957174,-0.021963554,-0.20103976
-0.09059248,-0.24943075,-0.08031269,-0.16622536,-0.5025073,-0.25389352,0.3951789,-0.31990007,-0.18396503,-0.27718645
-0.20451832,-0.33172935,-0.13259377,-0.2532085,-0.7067432,-0.19996965,0.48045552,-0.30120048,-0.21167704,-0.21278562
-0.4956261,-0.28637972,-0.31709746,-0.20637915,-0.64423615,-0.336988,0.635772,-0.43997452,-0.3739046,-0.4301757
0.21270752,-0.23404078,-0.32212353,-0.3039682,-0.8828957,-0.43445808,0.4577423,-0.44815534,-0.38736644,-0.59969485
0.291579,-0.25486898,-0.56837505,-0.36145756,-1.0138401,-0.29666564,0.5516881,-0.56215733,-0.37637618,-0.56265134
0.16158485,-0.39091054,-0.53719234,-0.5983633,-0.7040129,-0.5993459,0.5104255,-0.3644585,-0.655987,-0.63275236
-0.6393265,0.34782007,-0.03010965,-0.43261248,-0.18608032,-0.63130975,-0.091794424,-0.47612953,-0.518809,-0.5025508
0.19843385,0.24948817,0.1357647,-0.40535095,-0.6919323,-0.7305336,0.28145066,-0.38939494,-0.7890344,-0.34840125
0.15435237,-0.5181296,0.4901148,-0.8713053,-0.8105118,-0.8194186,-0.16554472,-0.25309306,-0.8380435,-0.26529756
0.24171463,-0.7317225,0.047724973,-0.7195848,-0.65188265,-0.88044065,0.36343566,-0.4138995,-0.5053225,-0.42231557
-0.46424854,-0.1748723,-0.63627785,-0.473657,-0.98982507,-0.421222,0.8186675,-0.07199212,-0.5166542,-0.5128037
-0.45767313,-0.11506591,-0.6112901,-0.46405673,-0.5039267,-0.60528374,0.5298762,-0.19485742,-0.55890036,-0.3711769
-0.42909965,-0.12943213,-0.49247175,-0.51317817,-0.4858327,-0.7620097,0.5292381,-0.20764695,-0.56476533,-0.42541227
-0.1507544,0.000630272,-0.37237117,-0.35238937,-0.39456907,-0.5487692,0.4425957,-0.08902452,-0.22869484,-0.27920687
-0.024461666,-0.012455467,-0.41089624,0.01406734,-0.46239087,-0.20760106,0.43645513,-0.24867022,-0.30946645,-0.42386055
-0.06935528,0.0071214526,-0.16692011,0.022891363,-0.38245085,-0.09595911,0.25656188,-0.2376847,-0.19779435,-0.18634434
-0.06272394,-0.028201569,0.08413301,0.036914513,-0.020687222,0.025696471,0.0033828616,-0.011276156,-0.04843028,0.0013485923
-0.009038545,-0.020228751,0.067691274,-0.025509179,-0.0015272424,0.04414382,-0.055473927,0.0011606887,-0.039625768,-0.03293764
0.07209847,-0.076697566,-0.03383862,0.0675321,-0.023412526,0.07356905,0.057138108,-0.08078466,-0.08329952,0.029980458
0.017779224,-0.041579396,0.04870402,0.07625375,0.08510015,0.051009007,0.070538275,0.009940416,0.021272987,0.084940515
0.06609536,-0.018627621,-0.08345388,-0.04534885,-0.031370707,-0.018424094,-0.04824157,-0.08246585,0.02363646,-0.06379937
0.058179833,-0.0541545,0.07063801,-0.05443133,0.06525121,-0.047935292,0.0060398504,-0.061211687,-0.08312749,0.051605277
-0.028629465,-0.034546435,0.034638267,0.052559327,-0.1764968,-0.04980638,0.21544954,0.049758617,0.0035662504,-0.051682577
0.27061984,-0.059393264,-0.30901444,-0.04949421,-0.31102413,-0.35347196,0.18168414,-0.19143641,-0.14592998,-0.27815935
0.3519582,-0.10842887,-0.43778276,-0.07810326,-0.5660919,-0.33064324,0.51213014,-0.23251145,-0.28373185,-0.34211817
-0.26919112,-0.12845095,-0.14206538,-0.34110844,-0.21680436,-0.23560737,0.38006592,-0.07565563,-0.15936181,0.028152792
-0.31777754,-0.1628306,-0.016589615,-0.3090973,-0.5012128,-0.10513985,0.61400414,-0.19308206,-0.2304004,-0.022036906
-0.19399884,-0.3247615,-0.17394054,-0.4574914,-0.788038,-0.42385113,0.7991581,-0.32567158,-0.46684146,-0.31482676
-0.5172061,-0.48173386,0.14924277,-0.64762974,-0.955943,-0.53380436,0.76705754,-0.3620772,-0.6224514,-0.3988901
-0.74121237,-0.32491538,0.2831099,-1.0049361,-1.2318765,-0.6258217,0.4017852,-0.69249064,-1.0791886,-0.4927686
-1.2801666,-0.6305807,0.14732896,-0.08062276,-1.2413334,-0.44910595,0.79685044,-0.7889234,-1.3007833,-0.8365757
-0.4155845,-0.62723655,0.24319232,-0.04807834,-1.9150519,-0.52151006,0.62789273,-0.6542517,-1.1347356,-1.0226961
-0.43430668,-0.14963897,0.2124508,0.025180705,-1.1445123,-0.7788789,0.5026938,-0.58571446,-1.5957147,-0.9299639
-0.5918871,0.32757765,0.025252586,-0.10615491,-0.7019316,-1.3348458,0.27629268,-0.69376916,-1.7742152,-1.0902607
-1.0602486,0.21062393,0.0032013631,-0.07887574,-0.36606416,-1.3920139,0.33826694,-0.43143237,-2.0392368,-1.2225878
-1.2576236,0.53218967,0.118394755,-0.42083818,-0.6924706,-0.5607354,0.23838937,-0.4753561,-2.15509,-1.175547
-0.7454672,0.4281081,0.1435284,-0.30645564,-0.8503241,-0.09453355,0.14517258,-0.714667,-2.1812987,-0.8364249
-1.4073755,-0.11286782,-0.07408784,-0.29656947,-0.538587,0.049584106,0.20296283,-0.55411124,-0.8078747,-1.1567881
-1.5008417,-0.0791041,-0.05459585,-0.29939538,-1.4549227,0.0691499,0.3067881,-0.31393135,-0.19077131,-1.0409865
-0.884432,-0.066050686,-0.26137155,-0.4406261,-1.238438,0.0053699613,0.32009354,-0.35607237,-1.3446562,-0.86705625
-1.1890471,-0.17018817,-0.23248963,-0.5382144,-1.0407003,-0.27044135,0.5196316,-0.1969935,-1.479002,-0.7405639
-0.9310939,-0.5267892,-0.186522,-0.5280315,-0.65255034,-0.3353073,0.65286636,-0.29170623,-0.9968614,-0.5205198
-0.70537585,-0.3524739,-0.6242799,-0.58430225,-0.4703985,-0.32601115,0.6267326,-0.24663302,-0.6561644,-0.41974527
-0.49255168,-0.3064204,0.120163724,-0.51570034,-0.6764071,-0.36988533,0.695368,-0.12815148,-0.6940308,-0.24928878
-0.39346093,-0.27923617,0.1772481,-0.20097555,-0.5623588,-0.5697421,-0.08618627,0.028944029,-0.5567295,0.019748092
-0.1351981,-0.053720508,0.30166677,0.050259344,-0.41792095,-0.30123654,-0.237621,-0.034188278,-0.2764598,-0.00805396
-0.018174067,0.06276975,-0.024273276,0.032786883,-0.04853316,0.08281296,-0.013785519,-0.012727194,0.032676227,-0.03836978
0.052195154,0.07026806,-0.055916026,0.045849584,-0.018286064,0.058055855,0.016983613,0.07092903,-0.0074034855,0.039479874
-0.05774588,0.010244317,-0.040117707,0.032312624,0.028444141,-0.046241518,0.021039344,0.062340446,0.0070689544,-0.06878666
0.010312498,0.08358369,0.05343934,0.05702194,-0.05451755,0.059838034,-0.003260769,-0.031654004,-0.07968088,-0.06140416
-0.06558698,0.20276448,-0.20792294,-0.3147726,-0.20294021,-0.21946077,-0.29967394,-0.06008915,-0.34960338,0.015186171
0.22196396,0.24981435,-0.639169,-0.39141318,-0.33825877,0.08035407,0.24171326,-0.34092006,-0.2727234,-0.42095694
-0.16130786,-0.21486798,-0.43070674,-0.33563402,-0.56301445,0.16044892,0.10793665,-0.3571241,-0.4939862,-0.29785186
-0.31003958,-0.44927293,-0.14206056,0.3583381,-0.40914732,-0.34795207,0.3314279,-0.27357295,-0.663632,-0.21409954
-0.40076363,-0.61787224,-0.04890388,0.19275932,-0.5279133,-0.38821632,0.49668732,-0.6552029,-0.7417493,-0.43182015
-0.5675015,-0.7606893,0.11792117,0.2961713,-0.49046186,-0.83800036,0.30045614,-0.83419234,-0.8338463,-0.5148864
-0.04290895,-0.7032639,0.1317127,0.3282714,-0.810898,-0.433796,0.30143312,-0.7433098,-0.3580927,-0.70612895
-0.22962637,-0.4106854,0.46832436,0.033454966,-1.1125014,-0.2826124,0.22521943,-1.1142397,-0.31928512,-0.8053384
-0.19709826,-0.6468323,0.35701525,0.16138572,-0.78138673,-0.1580179,0.25463542,-0.90302044,-0.269356,-1.4829632
-0.022975702,-0.7707908,0.35784638,0.33822188,-1.0657196,-0.35516295,0.2780696,-0.8770551,-0.32216305,-1.428543
-0.0898107,-0.30662513,0.29325137,0.46504438,-1.1780839,-0.0611519,0.050479162,-1.1003261,-0.40454057,-1.8775243
0.06047457,-0.09502283,0.41471085,0.24601711,-1.4952701,-0.14215697,0.2365221,-1.0748138,-0.1893401,-1.8081137
0.08015356,-0.360253,0.25245517,0.34508803,-0.9324723,-0.093344375,0.1319155,-0.8147139,-0.2938143,-2.113684
-0.023881564,-0.10168954,0.06220766,0.22600596,-0.82777494,0.048682213,0.113429055,-0.92067415,-0.25577694,-2.3126688
0.0044969385,0.044282828,0.18035705,0.20155588,-0.7469063,-0.13404681,-0.052911468,-0.73035556,-0.24605134,-2.0354574
0.051496346,-0.23255183,0.017754333,0.22638954,-0.49856845,0.043151516,0.02022979,-0.96195173,-0.1459833,-1.3741763
-0.37572262,-0.53112763,-0.19362581,0.20493004,-0.64339244,0.14634581,0.083560616,-0.6500969,-0.017203772,-0.3583333
-0.42071953,-0.27551425,-0.28007728,0.14693607,-0.2018617,0.10888929,0.26796094,-0.7613505,-0.34507746,-0.96799433
-0.26276997,-0.35075146,-0.26047456,0.44651017,-0.13081017,0.26805162,-0.021448404,-0.69981647,-0.3076724,-1.1031375
-0.6279626,-0.42476213,-0.16920434,-0.17050019,-0.11947236,0.30105212,0.18807589,-0.6181991,-0.026426502,-1.0649421
-0.5663538,-0.7004667,-0.3642408,-0.8069294,0.032392114,0.19735327,0.2778275,-0.43285626,0.13683255,-0.81835073
-0.32238954,-0.8341405,-1.09635,-0.57460636,-0.03477081,-0.15869284,0.43862668,-0.14350674,0.27472523,-0.43504822
-0.20419265,-0.76610225,-0.012037967,-0.41866788,-0.41651976,0.0116079785,0.14761122,-0.044735737,-0.22653517,-0.39342788
-0.020071216,-0.37965932,0.2225452,-0.28394595,-0.53913313,0.19746378,-0.21507038,-0.11411353,-0.0880625,-0.12224329
-0.31539991,-0.31924233,-0.33117965,-0.010594416,-0.33860466,0.15759748,0.17080463,0.008700956,-0.24325535,-0.074098036
-0.0052512065,-0.047587227,-0.044195432,0.0501894,0.05340766,-0.033686556,-0.0737018,-0.026546262,-0.025095478,0.056775846
0.026413329,-0.081340626,-0.051949803,-0.069326036,-0.039856173,0.03953036,-0.012576722,0.008913361,0.005168967,0.07360067
-0.003042019,-0.07250499,-0.13630272,0.2357562,0.041766006,-0.11625785,0.05636187,0.07355276,-0.01793178,0.041600168
-0.13441916,0.2958363,-0.44106504,0.24188803,-0.12756616,-0.46551552,-0.24778901,-0.07562251,-0.12688725,-0.1851485
-0.09603452,-0.06336377,-0.38187918,0.3119582,-0.4244211,-0.16724786,-0.1266206,0.28675318,-0.5802821,-0.21668634
-0.40459484,0.2044971,-0.42222682,0.30123097,0.2914267,-0.8163531,0.21653202,-0.1983709,-0.70119405,-0.23510115
-0.6827351,0.08956727,0.064735875,0.5314905,0.11404846,-0.6644095,0.16292255,-0.5454577,-0.9508539,-0.5119989
-0.5329475,-0.011228134,0.41788146,0.32069257,-0.42207983,-0.435334,-0.058071647,-0.9170151,-0.6059397,-0.80609626
-0.07756837,-0.09978899,0.087822504,0.2029952,-0.08726207,-0.23606962,-0.10547747,-1.1812339,-0.20753142,-1.1160328
0.040696688,0.04651456,0.081699185,0.32986233,-0.3477064,-0.41410905,0.045198742,-1.2259487,0.04448499,-1.3548068
0.07966079,-0.1884459,0.3073913,0.1425915,-0.4555809,-0.2930104,-0.13855657,-1.0790544,0.09178869,-1.6177671
-0.029165952,-0.112868145,0.2340252,0.26120597,-0.5589694,-0.1735032,-0.012691629,-1.4436002,0.061531346,-0.7461799
0.099567495,-0.3834031,0.15663034,0.27851936,-0.39879325,0.03737307,-0.23775986,-0.89945656,0.041410133,-0.45533568
-0.15580165,-0.17965683,0.2014371,0.21874237,-0.38042668,-0.04573713,-0.2997153,-0.64624053,0.15993667,-0.5336087
0.0030735235,0.115498304,0.19932725,0.331221,-0.17799263,-0.28646624,-0.12290173,-0.69337523,0.054904398,-0.31340715
-0.03264495,0.06839447,0.19914116,0.2122374,-0.4369921,-0.10072882,-0.14669342,-0.7112031,0.25228313,-0.43963912
0.081526905,0.033351086,0.13181756,0.13380133,-0.5230409,0.15590112,-0.14830983,-0.9611471,0.18837708,-0.50082934
-0.13441253,-0.07655937,0.06177601,0.24114813,-0.23992883,0.03125041,-0.074949495,-1.3412883,0.16012752,-0.6569177
0.045292508,-0.113089204,0.0580992,0.10044504,-0.1860017,0.09983339,0.101722986,-1.9926738,0.06880833,-0.59620947
0.035163194,-0.16273423,-0.012033099,0.14154944,-0.2031077,0.253807,-0.0897338,-1.8112031,0.08073918,-0.63574886
-0.07564574,0.15253657,-0.11892856,0.11965521,0.1686786,0.06935355,0.10298979,-1.8183948,0.00015834252,-0.79799736
-0.041262582,0.027277108,-0.12767395,-0.11255358,0.38337654,-0.14023176,0.07627062,-1.121861,0.14004415,-0.569772
-0.18632685,0.022955414,-0.40741953,-0.25301978,0.39938337,0.067574814,0.14839514,-0.2217109,-0.006949577,-2.1925895
-0.05391473,-0.26528013,-0.55720735,-0.20354483,0.47302887,0.058810588,0.28165025,-0.578882,-0.041750703,-1.7427535
-0.04472683,-0.27546373,-0.81630284,-1.0189543,0.4387131,0.2033793,0.2989852,-0.6278891,-0.15471996,-0.93722045
-0.4284689,-0.70957625,-0.75284046,-1.3748692,0.4407312,0.54530317,-0.248919,-0.54191524,0.2361796,-0.7424087
-0.41171825,-0.96627337,0.066767156,-0.9791249,0.038759053,0.5330994,-0.30613863,-0.30250496,0.3551459,-0.49360144
-0.4715584,-0.6499489,-0.28686324,-0.3283284,-0.381447,0.20455569,-0.06726584,-0.39313984,0.2490651,-0.37789142
-0.2856564,-0.35364857,-0.19080712,-0.1136417,-0.25283062,-0.47957882,0.18991382,-0.0452595,-0.0630365,-0.23239882
0.06972333,-0.048410714,-0.0106120035,0.033104874,-0.06510715,0.020061165,0.029674798,-0.08151076,0.007725917,0.06797496
0.05260604,0.03848391,0.07227806,-0.039097328,-0.030086845,0.08437426,0.003148079,0.036316253,-0.05966581,0.048827507
-0.32442576,0.27847654,0.13104919,0.097926304,-0.41438973,-0.47693712,0.14117216,-0.20658118,-0.5068582,-0.25610808
-0.24516317,0.28092396,-0.09556365,0.45552808,-0.09800705,-0.34400085,-0.49640277,-0.049537163,-0.61815035,-0.35156545
-0.5353809,0.36216438,0.11605349,0.46276194,0.20768729,-0.78879875,0.15731534,-0.4443733,-0.8607958,-0.4339184
-0.6458902,0.35556135,0.10008227,0.46333092,0.05776004,-0.45960388,-0.32101712,0.17092365,-0.82773465,-0.96223956
-0.14191687,0.3103347,0.004489417,0.24668935,-0.12365731,-0.4614034,-0.18903124,0.056181923,-0.2943865,-1.6331908
-0.07243238,-0.10526823,0.011879862,0.18789963,-0.1352803,-0.17056257,-0.20575057,0.22219452,0.023419064,-0.63332736
0.008504774,-0.4729486,0.09422253,0.10098443,-0.10012018,-0.14205247,-0.027667148,0.25987747,-0.09240369,-0.4858039
0.011203716,-0.46583468,0.013631934,0.10300003,0.07028347,-0.00756468,-0.103675835,0.15153073,-0.071635336,-0.42370626
0.07851808,-0.2388371,0.0595337,0.12000398,-0.17493246,0.025820896,0.032917764,-0.1764951,-0.14973986,-0.22404851
0.090756856,-0.50505847,0.22136684,0.15509948,-0.121845625,0.0004571182,-0.46081206,-0.20093441,0.084264256,0.175536
-0.15054893,-0.33770838,0.14749186,0.04902675,-0.09431229,-0.056525685,-0.29427615,-0.07941773,0.17917837,0.058579266
0.12921445,-0.14028074,0.10100585,0.08383667,-0.23983194,-0.0722962,-0.2625596,-0.18245211,0.18099973,0.035053812
0.177818,-0.07683853,0.120519295,0.048534926,-0.0885269,-0.064760946,-0.16163296,-0.27889457,0.14661975,-0.16615582
0.047082245,-0.009525719,0.13874462,0.14607428,0.02809764,-0.18174545,-0.17502369,-0.2643796,0.11412789,-0.12390212
0.052510753,-0.16692299,0.24967729,0.19081384,0.003666804,0.0047013154,-0.12645288,-0.25938734,0.12172939,-0.5084116
0.20867258,-0.360943,0.11729618,-0.0069269226,-8.2214785e-05,0.15261674,-0.07935766,-0.4885758,0.26802722,-0.3166938
0.21228343,-0.17081808,0.08718375,-0.006705666,0.08411833,0.15244165,0.053228185,-0.39461267,-0.116387725,-0.35768712
0.022678392,-0.12668517,-0.056879256,0.09231592,0.07009972,-0.0010685459,0.16468789,-0.7932406,0.078087255,-0.26909044
-0.18597001,-0.030712493,-0.03862086,-0.1285493,0.048450105,0.19733107,0.09150789,-1.1256193,0.17839254,-0.31267926
0.008040275,0.16970211,-0.01969225,-0.12977262,-0.048039377,0.080987334,0.13167714,-0.8252051,-0.044586334,-0.34794217
-0.03193485,0.14792317,-0.10348504,-0.1779086,0.05093479,0.090080924,-0.03407556,-0.6712203,-0.10423121,-0.8431088
-0.274908,0.14768136,-0.2257056,-0.41575596,0.50240076,0.21143,0.32078966,-1.3623265,-0.32945326,-2.2002144
-0.47419518,-0.15847595,-0.6634262,-0.5391653,0.06978475,0.28751245,0.19203636,-1.1392374,-0.10393439,-2.1549904
-0.99481976,-1.0753832,-0.17475268,-1.5455976,-0.20227748,0.5818966,-0.20750313,-0.87405306,0.38971725,-1.1447015
-0.8092101,-0.49355915,-0.33804727,-0.531821,-0.46392614,0.3617024,0.19331707,-0.5584959,-0.096702956,-0.7471987
-0.3238518,-0.34814978,-0.28426468,-0.24644734,-0.47052217,0.04558764,0.23402998,-0.16792917,-0.16147259,-0.005736256
0.056229047,0.083954684,0.04786294,-0.07958695,0.016148888,-0.0738967,0.016110443,0.00930611,-0.023489416,-0.055247545
-0.1308171,-0.10377273,-0.17921546,0.2946543,-0.021439731,-0.26923764,-0.07723752,-0.12217937,-0.31014943,-0.3344421
-0.2657525,-0.4383291,-0.189955,-0.060349528,-0.5298049,0.15832151,-0.1423376,0.2951344,-0.6221627,-0.44592038
-0.6543553,0.088395186,-0.07558293,0.31476793,-0.4502366,-0.8661641,-0.7667662,0.55215156,-0.8226112,-0.6020378
-0.5355691,0.3401984,0.16329475,0.05186148,0.075168416,-0.41038042,-0.091212794,-0.009348362,-0.555571,-0.8192312
-0.08721006,-0.1569076,-0.0065339664,0.09836249,0.12244452,-0.10852783,-0.2704058,0.21286257,-0.27844304,-1.1213015
0.05502218,-0.022184812,0.120854,0.22674443,-0.12074287,-0.12533316,-0.359033,0.25688154,-0.29995733,-0.50348604
0.0019324571,-0.38068816,0.12694763,0.068275504,0.014792635,-0.0364749,-0.068123825,0.20365067,-0.060747143,-0.36680606
-0.09699201,-0.411406,0.03416035,0.090278864,-0.08349053,-0.027255045,-0.1314213,0.32574844,-0.03360572,-0.20368345
-0.4055674,-0.3990026,0.11700181,0.18881266,0.013805325,-0.025313172,-0.15556936,0.08879327,-0.07485738,-0.0059248405
-0.033374988,-0.27024627,0.032308966,0.19457284,-0.17829782,-0.064305305,-0.2847698,0.2177264,-0.12797731,0.00085348496
-0.13029522,-0.13252738,-0.00030646572,0.13055824,-0.24899453,0.03153137,-0.28420267,0.3154978,0.036957372,0.113341324
-0.059731852,-0.26077113,0.01815622,0.1068272,-0.33575538,0.005283945,-0.10815996,0.12762144,0.1286944,0.16449401
0.20924675,-0.2501307,0.05666789,0.21754369,-0.47574764,-0.05240411,-0.23474862,-0.019036392,0.07602623,0.27289498
0.16027309,-0.24803741,0.05211626,0.08758578,-0.44482875,0.07012145,-0.17554446,-0.05909506,0.06345858,0.32980216
-0.024008265,-0.3159217,0.063026,0.17405707,-0.4711023,-0.049894206,-0.07134549,-0.03927517,0.19279347,0.21907608
0.052093342,-0.32775074,0.11299163,0.12536815,-0.4241936,-0.044588175,-0.19080073,0.021846438,0.14674789,0.28294486
0.1461593,-0.37511548,0.01392206,0.06719674,-0.31714964,-0.012513043,-0.10932339,0.03618769,0.028102212,0.30154982
0.15237866,-0.11502401,-0.096983775,0.12831289,-0.3523425,0.07602589,-0.23485707,-0.00025674197,-0.059198163,0.26343477
0.13563125,-0.16790737,-0.08751563,-0.10371313,-0.16755635,0.22038011,-0.14420931,-0.057929534,0.1851679,0.12102409
0.07556459,-0.017868549,-0.15891582,0.028297575,-0.20202611,0.17576082,-0.10358659,-0.054581005,0.042246304,0.036342498
0.26139346,0.057747554,-0.052371606,0.023800118,-0.21428922,0.033676874,-0.056067355,0.020646589,0.042498536,-0.0003997686
0.27593118,0.033460777,-0.14405142,-0.08549857,0.10049713,0.19649309,0.0027860948,0.044179797,-0.05470935,-0.3137867
-0.10384002,-0.034372464,-0.7002162,-0.22446063,0.3264052,0.14665437,0.22371954,-0.6985786,0.07865466,-0.46960402
-0.7136617,-0.119155586,-0.7948954,-0.2482915,-0.05552645,0.62430143,0.12162089,-0.71219325,0.013813086,-0.6865185
-1.4262946,-1.4936156,-0.512445,-1.7707132,-0.29701632,0.5118899,0.0072168508,-1.0490077,0.42417282,-0.43291932
-1.0757025,-0.5175186,-0.6898149,-0.65849435,0.0811625,0.26124722,-0.168803,-0.76598585,-0.06567354,-0.64335436
-0.39768985,-0.2411629,-0.34112838,-0.055815063,-0.5431584,0.14780758,0.1951605,-0.28288266,-0.12833653,-0.26955935
0.038657885,0.020918453,0.066968486,-0.052494768,0.019511037,-0.06756328,-0.017414173,0.02257401,0.08136884,-0.06993088
-0.5278551,-0.2630635,-0.41946933,0.5327868,-0.26648045,-0.5572935,-0.14055058,0.005628402,-0.6529957,-0.44736955
-0.2187216,-0.39970922,0.1290677,-0.25042394,-0.6150198,-0.024688214,-0.24953637,0.44355235,-0.83607465,-0.7026465
-0.34376904,-0.42400444,0.11269112,0.12024239,-0.17474736,-1.1716291,-0.6482814,0.69929653,-0.56328845,-0.7830525
-0.79152006,0.034446124,0.2951911,0.36334857,0.112145916,-1.0071113,0.022196304,0.11214239,-0.13649282,-1.1326532
-0.01650165,-0.39109027,0.07816532,0.26352748,0.28464398,-0.27441338,-0.14886568,-0.046624374,-0.06254666,-0.8549657
0.07345847,-0.43072712,0.18000874,0.1757785,0.0019284483,-0.11223422,-0.39876327,0.24139082,-0.13314052,-0.33276397
-0.048711926,-0.20853195,-0.06308262,0.05147498,-0.016042668,0.029993134,0.04958221,0.34855753,-0.014762097,-0.33816844
-0.34471187,-0.49922916,0.10562337,0.06347739,-0.047156963,0.18944032,-0.1090022,0.020341758,0.13612166,-0.048097856
0.060180463,-0.3287298,-0.034653217,0.0828172,-0.051134326,0.05290818,-0.15397853,0.21793306,-0.008417417,-0.102054685
0.066709064,-0.21680544,-0.06081298,0.015495714,-0.20306444,0.16336527,-0.19771478,0.23498361,0.0256457,-0.038603544
0.06784915,-0.19489078,0.06271755,0.020020701,-0.2064028,0.13935143,-0.016563762,0.22808981,-0.06510672,0.03496503
-0.0050850655,-0.053256918,0.007036612,0.097487114,-0.38768595,0.08027629,-0.13570036,0.17568418,-0.024205148,0.23776725
0.15516266,-0.16240998,0.09592103,0.04882295,-0.33709675,-0.06635151,-0.20973639,0.12542707,-0.07264955,0.3856264
0.018469892,-0.11014928,0.09470231,0.28084734,-0.47150937,0.06660042,-0.15196317,-0.07768148,-0.1509343,0.43384862
0.09283851,-0.40850082,-0.057575386,0.11838282,-0.48430195,-0.14751962,-0.13180983,0.06019651,0.12576272,0.45376906
0.11792319,-0.25536236,-0.051934704,0.06652355,-0.46282867,0.07008868,-0.36130205,0.17942238,0.05929406,0.42353815
0.23690717,-0.202125,-0.18991049,0.063696876,-0.19515483,0.06640738,-0.24639717,0.25499842,-0.11049608,0.22502173
0.25798246,-0.2121282,-0.061857678,-0.01594257,-0.19598427,0.07120762,-0.29366228,0.30348542,0.082657434,0.1340306
0.18259835,0.018934676,-0.03401417,0.11145699,-0.090600245,0.023729885,-0.39686844,0.05886551,-0.00241964,0.013379778
0.08000569,0.14292271,-0.06454985,-0.003852077,-0.067431636,0.111455865,-0.23074895,0.21825151,0.06478633,0.104333065
0.015272187,-0.12265678,-0.08827822,-0.22907649,0.04251294,0.07370203,-0.09468405,0.14764094,0.13641398,0.033063956
-0.026230698,-0.1369373,0.062840424,-0.14659128,0.01490438,0.14675729,-0.23986024,-0.032462686,-0.009013416,-0.23600894
0.20500489,-0.26897973,-0.5549609,-0.30749312,0.18405089,0.19522941,-0.25460258,-0.22225495,0.26214248,-0.31616858
-0.18043949,-0.78640366,-0.93351537,-0.666267,0.029141879,0.55632573,0.13179396,-0.34573814,0.10117619,-0.47640806
-1.141171,-1.4241183,-0.392613,-1.7126298,-0.18971701,0.75826627,-0.25002012,-0.6284735,-0.042432062,-0.56742126
-1.200679,-0.5921553,-0.6250758,-0.6943254,0.22607839,0.04502775,-0.13799697,-1.2497196,0.0949012,-1.0297368
-0.54808515,-0.35438475,-0.55506384,-0.28538427,-0.68907326,0.22842151,0.009734241,-0.5239115,-0.15066636,-0.50603443
0.28019217,-0.12210999,-0.223772,-0.16662608,-0.3412595,-0.05701779,-0.059206188,-0.23497623,-0.1428387,-0.20218876
-0.3857756,-0.22971666,0.20397033,-0.2259339,-0.42717415,-0.349604,0.0021233228,0.5529297,-0.52106297,-0.6230243
0.03806782,-0.24800362,0.06311807,-0.12751089,0.21422875,-0.57971555,-0.40659112,0.3075019,-0.8050704,-0.90601987
0.18390965,-0.43585962,-0.001754823,0.0847039,-0.09550066,-1.1969111,-0.8962021,0.5879912,0.08726888,-0.7934413
-0.6569268,-0.13295822,0.37223375,0.3051856,-0.019096818,-1.176775,0.001089636,0.19925039,-0.04311391,-0.57119894
-0.20160654,-0.42639247,0.06857012,0.06496979,0.12701817,-0.22874935,-0.20190579,0.13722444,-0.06313897,-0.2351755
-0.13134263,-0.50609064,-0.09796939,-0.008127542,0.013911711,-0.19761546,-0.3478738,0.20893306,0.15657355,-0.13410722
-0.1493858,-0.27841762,0.032244135,0.04884792,0.01148057,-0.15077722,-0.19855049,0.45883277,0.16338103,-0.35567003
-0.05389887,-0.41453183,-0.0015390383,-0.05385768,-0.13637123,0.094227806,-0.2198583,0.2645377,0.016248,0.0954792
0.09872506,-0.45705584,-0.029461225,-0.04300201,0.06250416,0.077393405,-0.08945049,0.20390649,0.16539265,-0.12408841
0.010670223,-0.14078638,0.21256779,0.004561106,-0.18250522,0.031227494,-0.21315865,0.09699684,0.038213752,-0.082834385
0.0011821695,-0.27237973,0.007912503,0.036948442,-0.1415593,0.09942336,-0.14997953,0.21688811,-0.020191194,-0.12968099
0.11381419,-0.069129154,-0.029910313,0.098774515,-0.27355963,-0.00042089896,-0.19472308,0.34989986,0.18019675,-0.15026562
0.07658604,-0.012100576,-0.029471377,0.0578003,-0.23673442,-0.098529555,-0.24405555,0.07969525,0.17657264,0.117435396
0.15184753,0.032607283,0.057838254,0.14290158,-0.40893018,-0.13500106,-0.21843861,0.16554274,-0.15499331,0.25465804
0.17146882,-0.010955995,0.052402105,0.101335794,-0.31394637,-0.21228519,-0.4648191,0.18889417,-0.11512501,0.15839425
0.3528108,-0.16475138,-0.05892449,0.104607984,-0.3554876,-0.13088277,-0.39358932,0.19054937,0.07303933,0.086261384
0.2278244,0.050707705,-0.059386183,0.028828597,-0.21960227,-0.015175536,-0.3787094,0.21886641,-0.03550384,-0.019433329
0.18908903,-0.05680323,-0.14419642,0.2003119,-0.041766107,-0.050196197,-0.59530336,0.2832622,0.056270722,0.03966671
0.08877684,-0.091214664,0.08433445,0.053592812,-0.10386996,0.089278325,-0.5065442,0.13936557,0.10756751,-0.002714474
0.15171766,-0.26052368,0.08262407,0.12074362,-0.049109887,0.2904253,-0.33253035,0.09473775,0.064525604,-0.10548699
0.09406547,-0.27311653,-0.073331155,-0.010991734,-0.08034348,0.1923886,-0.23101136,-0.09637295,0.07389319,0.0969774
0.10471189,-0.24043544,0.018813128,0.16195959,-0.20703256,0.16478683,-0.4100507,0.10783387,0.18832625,-0.14142123
0.2257527,-0.56227636,-0.11424307,-0.5995884,-0.07194941,0.48133302,-0.5453939,0.029416773,0.0897778,-0.30195114
0.06987627,-1.0722818,-1.2921125,-1.3147063,-0.19527642,0.8467832,-0.6612515,-0.5009873,0.34179714,-0.41620186
-1.422169,-1.3105694,-1.3970519,-1.815,0.01799423,0.71982455,-0.932372,-0.8065154,0.104273155,-0.5917423
-1.3761119,-0.59238833,-0.7699393,-0.75097144,-0.1574933,0.17508483,-0.50598997,-0.90789795,0.32087046,-1.3432599
-0.6472215,-0.36599684,-0.539856,-0.41032913,-0.45146173,0.0065608653,-0.34939855,-0.43320182,0.4036804,-0.45438474
-0.12513176,-0.16352601,-0.079110496,-0.30460733,-0.1974139,-0.24723123,-0.09510457,0.37690797,-0.118730046,-0.21974188
-0.24377213,-0.23224021,-0.5816822,-0.21637107,-0.57038397,-0.3054557,-0.19821341,0.47078303,-0.53615403,-0.39863464
0.2502233,-0.35281685,-0.1189203,0.079216935,-0.053545527,-0.6892353,-0.44461948,0.24593732,-0.5613742,-0.8107121
0.059007615,-0.31362534,0.079505704,0.300643,-0.5764541,-1.1381949,-0.706711,0.416746,-0.17956096,-0.4583324
-0.17559132,-0.33200294,0.15842591,0.4081031,-0.45910695,-0.69798255,0.033361662,0.24747725,-0.19430289,-0.48234934
-0.07537859,-0.80600125,0.28516892,0.13073862,-0.19386835,-0.3870157,-0.28597638,0.19132285,0.01024546,-0.08141844
-0.14557971,-0.4582718,-0.11787811,0.06743998,-0.157475,-0.19740188,-0.31236416,0.2373009,0.10964107,0.1614615
-0.1795552,-0.067257,-0.051014293,0.16730976,-0.08398509,-0.11282138,-0.059095856,0.11105145,0.07397545,-0.019925613
-0.14629184,-0.17923082,-0.08879554,0.046209484,-0.08705816,0.07313686,-0.18101723,0.06592645,0.14400196,0.0075746765
-0.07165476,-0.28162572,0.038993165,-0.06493542,-0.12715386,-0.023797672,-0.26204315,0.06293868,0.14071278,-0.0739183
0.057622172,-0.22691648,0.08662809,-0.17085701,-0.19506864,0.09878175,-0.2610387,-0.07289971,0.07431143,0.07359519
-0.08637606,-0.05484737,0.013448314,-0.34532264,-0.07486473,0.29117498,-0.14810093,0.18184568,0.09700686,-0.0069860662
-0.015404976,-0.02594858,-0.011503754,-0.29393408,-0.13950978,0.14864859,-0.19664347,0.21641356,0.04134047,-0.005179079
0.23958686,0.039168235,-0.02447688,-0.055499412,-0.1233131,-0.07117331,-0.36471185,0.097302854,-0.03686419,0.02456746
-0.0011871187,0.2065982,0.12901452,0.19397312,-0.6444491,-0.22602026,-0.2945298,0.38415375,-0.17488612,0.069493406
-0.11677604,0.39665195,0.16554148,0.33879024,-0.4135745,-0.4170884,-0.36857378,0.34841067,-0.45374593,0.19542721
0.19858669,0.08636828,0.14207783,0.25979376,-0.14607286,-0.3472613,-0.5345872,0.29167864,-0.112528205,-0.024929391
0.3308656,-0.002455644,0.06177348,0.10572755,-0.114526935,-0.24801007,-0.66894585,0.30264536,0.0086342,-0.09910412
0.2986337,-0.15222028,0.07298148,0.13084625,-0.053624496,-0.06371529,-0.617164,0.23834679,-0.07188769,0.024386572
0.2581944,-0.24816659,0.032856416,0.18599464,-0.025579808,-0.15714172,-0.44169632,0.17002295,0.10123311,-0.050621767
0.13430187,-0.35962746,-0.035852555,0.26783258,-0.04623215,-0.03325489,-0.24309991,0.039194476,0.061603114,-0.010095507
-0.10004203,-0.25696754,-0.15025878,0.17996076,-0.07368625,0.20707802,-0.13866965,0.10217457,0.17613128,-0.24616341
-0.08246396,-0.41565743,-0.03534083,0.33824646,-0.074364044,0.15660606,-0.42022586,-0.008011983,0.09455736,-0.13056199
0.25254044,-0.79376215,-0.095966175,-0.18194273,-0.18925077,0.49770463,-0.4078074,-0.10128671,0.16594762,-0.41902
0.16180386,-0.91626775,-1.3362464,-2.2856917,-0.5710954,1.0679566,-0.625643,-0.35152912,0.028678425,-0.48044962
-1.1340582,-1.2071244,-1.251141,-0.8226348,-0.53474945,1.0491939,-1.2439442,-0.38300788,0.18820845,-0.7386481
-1.3522116,-0.55412656,-0.2192761,-0.96395075,-0.5346483,0.4291142,-1.1027675,-0.07472504,0.406345,-1.1999153
-0.5624296,-0.3428118,-0.5223655,-0.41161337,-0.44886854,0.24168095,-0.7045898,0.25651997,-0.29931554,-0.45204943
-0.11974957,-0.25668034,-0.07932044,-0.3553528,-0.18638887,-0.16807435,-0.1154718,0.22437368,-0.19005814,-0.20943424
-0.26503834,-0.005848034,-0.3170398,-0.45054573,-0.37803763,-0.4391039,-0.14839514,0.53108364,-0.42799136,-0.34633884
0.21543095,-0.24616297,-0.14717297,-0.00019086419,-0.24190126,-0.58636117,-0.30929896,0.52718776,-0.67487127,-1.0298333
0.18570416,-0.37950036,0.21198793,0.59215516,-0.5897037,-1.0399771,-0.7481293,0.36360875,-0.41241372,-0.43644166
-0.1080827,-0.3204948,-0.102022566,0.18649763,-0.34086004,-0.14016768,-0.11628233,0.31620386,0.19226028,-0.2806414
0.1208715,-0.883521,0.27833983,-0.0399333,-0.32556653,-0.1587622,-0.25734806,0.20279065,0.02017998,0.11603748
-0.14146006,-0.6471765,0.2118496,0.008168823,-0.38641483,-0.18068683,-0.2751354,0.0217218,0.14157134,0.17444247
-0.18653975,-0.27247906,-0.13116185,-0.090609446,-0.09784335,0.13855033,-0.07529825,0.062396802,0.1819032,-0.03338566
-0.104736015,-0.16991754,-0.10977528,-0.31319955,-0.019954128,0.27623713,-0.060710274,-0.12822762,0.13418435,0.07125824
0.009585132,-0.26750997,-0.19806862,-0.5387243,0.059427194,0.24569494,-0.23868138,-0.016128313,0.1514502,0.051146526
-0.18473808,-0.048125625,-0.10328448,-0.43116865,0.028251458,0.22750182,-0.06479329,-0.03876935,0.2572655,0.12062284
0.06144413,0.04886487,-0.05918196,-0.4895426,0.051848438,0.23224084,-0.22097419,-0.022696877,0.21004589,0.15889406
-0.042199843,-0.09316975,-0.054287888,-0.47687584,0.09742996,0.3110241,-0.22444697,-0.15089397,0.14008151,0.047042985
0.06267221,0.25225356,-0.27922425,-0.053831436,-0.2608798,0.21296097,-0.0373454,0.14504942,-0.018694019,-0.20208667
0.01463238,0.52668476,-0.12960179,0.12311512,-0.8424522,-0.003072401,-0.2746745,0.25972497,-0.102900475,-0.09309004
-0.13385198,0.7481396,-0.14217138,0.101220936,-0.15220623,-0.18799242,-0.48495016,0.46363673,-0.35953495,-0.14270942
-0.06443138,0.3424839,0.008565782,0.17177048,-0.09212904,-0.27900422,-0.523888,0.5016177,-0.3079746,-0.08407824
0.20763186,0.017712912,0.112338774,0.15580066,0.004364856,-0.43541208,-0.4576145,0.32376274,-0.23564307,-0.0033093593
0.15710163,-0.262122,-0.048698477,0.11987119,-0.020395266,-0.3872676,-0.5040161,0.2799165,0.051215086,0.036860317
0.027875405,-0.18853776,-0.0029840777,0.13732551,-0.039339785,-0.3929555,-0.36008883,0.2292399,0.17425337,-0.0554479
0.1835701,-0.5069721,0.012761034,0.27111962,-0.07740962,-0.21518596,-0.27792898,0.34841782,0.13544577,-0.011458049
0.105230145,-0.14462928,-0.1386123,0.035058524,-0.0571868,-0.06423396,-0.297819,0.3026409,0.09347062,-0.02794107
0.21323383,-0.44882193,-0.12028331,0.18654771,-0.12071707,-0.062058337,-0.4101108,0.22404608,0.16477063,-0.13214464
0.29155383,-0.7521951,-0.2129973,0.11857891,-0.624478,0.4499277,-0.21267332,-0.29975426,0.104595,-0.26256835
0.25222394,-1.7414906,-0.92201114,-2.0511405,-0.5740293,1.2973559,-0.31243002,-0.5725916,-0.32528585,-0.6584924
-0.9861012,-0.45294717,-0.5574743,-0.28854215,-0.7068038,1.4685476,-1.1376784,-0.31654015,-0.4556374,-0.46461043
-1.1386496,-0.38257882,-0.010437141,-0.9863735,-0.8320668,1.1600304,-1.0068694,-0.15641008,0.04747179,-1.064963
-0.22630005,0.20874944,-0.46506146,-0.18360893,-0.45726287,-0.08942251,-0.32253858,0.18030713,0.13053142,-0.45193645
-0.103520684,-0.15307747,-0.06122313,-0.50940454,-0.2849816,-0.18361871,-0.11414735,0.45487583,-0.19690691,-0.33315027
0.15640773,0.19969407,-0.50361663,-0.345275,-0.46675634,-0.49860764,-0.2442581,0.3885405,-0.6211502,-0.646933
-0.3170238,0.10509592,-0.5392528,0.12505865,-0.7230871,-0.4242189,-0.5132352,0.8041549,-0.8748544,-0.7779975
-0.061199933,-0.36943066,-0.21545298,0.7068858,-0.24991058,-0.8710801,-0.5936594,0.41338602,-0.16343093,-0.42309725
-0.4963433,-0.2530612,-0.21589783,0.2673905,-0.32267052,-0.08150873,-0.094834544,0.4311392,0.08533806,-0.119877055
-0.25512996,-0.49212003,0.13617747,-0.32928234,-0.066460736,-0.03941305,-0.075227395,0.06239598,0.13220498,0.17012735
-0.003682188,-0.7331396,-0.116707765,-0.27483335,-0.00139549,0.1756305,-0.16174647,0.017460838,0.021017708,0.15618387
0.03624941,-0.46411753,-0.37576354,-0.5057203,0.019897364,0.11002112,0.14255555,0.09278623,0.32958686,0.17161952
-0.038243737,-0.3704186,-0.43824652,-0.5245745,0.08159429,0.08996955,-0.009730828,-0.0051447777,0.22372822,0.34123334
-0.21667707,-0.38902166,-0.55234474,-0.47889057,0.24496253,0.09417951,0.09432345,0.15435317,0.28979954,0.13414401
-0.11992093,-0.18826011,-0.7029971,-0.3878278,0.32188937,0.117871806,-0.03910701,0.16128063,0.22161703,0.20117587
0.028431963,-0.14591558,-0.5745088,-0.19871025,0.20560732,0.15128158,-0.05193664,0.12382786,0.13041444,0.2950335
-0.2634836,-0.19063452,-0.7363112,-0.101195656,0.34558687,0.16318922,-0.0043070186,-0.06995651,0.117308885,0.020323213
-0.09551444,0.2896348,-0.8628404,0.035433352,-0.58636975,0.38917664,0.063203126,0.005649108,0.28361753,-0.08316841
-0.42693633,0.677236,-0.6369141,0.16178364,-0.8539657,0.037604664,-0.3018006,0.29441893,0.2841008,0.010673915
-0.6672425,0.62708914,-0.5037499,0.0648254,0.11340632,-0.18704967,-0.59062105,0.3505171,-0.050876193,0.12762894
-0.47684553,0.26132426,-0.1995555,0.021880677,0.34942377,-0.22135529,-0.22237483,0.40920413,-0.19370876,0.25322953
-0.08864601,-0.04673858,-0.26673052,0.17248823,0.1264035,-0.21039693,-0.374156,0.314854,-0.15527785,0.27494973
-0.120400116,-0.10115978,-0.11145586,0.030495696,-0.097326405,-0.26409438,-0.35905427,0.36930418,-0.13164571,0.18417323
-0.0053950683,-0.1054337,0.050272074,0.055319123,0.024963662,-0.37915933,-0.23424281,0.11313539,-0.07997774,0.16414295
0.1918511,-0.1130165,-0.0652257,0.19807212,-0.25793353,-0.6836782,-0.157015,0.20429108,0.019079164,0.4451258
0.26788774,-0.21429925,-0.052266087,-0.08622143,-0.22427666,-0.58081645,0.019312073,0.14746018,0.00871042,0.20687261
0.20865978,-0.40569487,-0.13405609,-0.05949043,-0.22764666,-0.76508445,-0.10305366,0.19690533,0.16428728,0.17421508
0.14199927,-0.41342738,-0.23661709,-0.27813587,-0.63253367,0.057009194,0.362688,-0.30002952,0.24032436,-0.15483801
0.22890617,-1.1915942,-0.33033565,-1.39385,-1.0221411,0.77745056,0.0012163843,-0.8929517,0.19428773,-0.56991285
-0.61258423,-0.30392855,0.09501824,-0.05783743,-0.7772088,1.4611484,-0.7794328,-1.0628107,-0.3239986,-0.68015885
-1.0469412,-0.28690583,-0.027409593,-0.610716,-0.6409757,0.93978626,-1.0679989,-0.443488,0.48168573,-0.56983286
-0.28345987,0.23148437,-0.27272728,-0.3806675,-0.47160193,0.03343382,0.011821272,0.25469342,0.024738325,-0.5411257
-0.031861342,0.08321197,-0.088597454,-0.25301084,-0.090575635,-0.06810172,-0.04828823,0.26823577,-0.08461242,-0.26923218
0.044404984,-0.23890834,-0.25720236,-0.38649827,-0.36656767,-0.2396658,-0.17382953,0.6589451,-0.35312554,-0.7371704
-0.331466,-0.34384736,-0.57028705,-0.62379026,-0.56384605,-0.52135,-0.41019705,0.71306235,-0.83319247,-0.6411043
-0.16851653,-0.0391591,-0.53912324,0.02363239,-0.29289752,-0.37276596,-0.59686494,0.56197554,0.10918391,-0.25213292
-0.27005067,0.09752664,-0.39799473,-0.13355638,-0.5241409,0.036704246,-0.17966437,0.38678324,-0.0008822682,0.28934863
-0.16744049,-0.32144776,-0.40511897,-0.36820605,-0.1474476,-0.0018028911,-0.031921495,0.11887127,0.27988517,0.29226747
0.15973228,-0.14362927,-0.84520113,-0.38159424,0.14396878,0.22421274,0.1390136,-0.067031674,-0.009774466,0.3221703
0.016490964,-0.12007148,-1.0284883,-0.43560454,0.27588227,0.05327818,0.18261887,0.25248015,0.16305211,0.15876225
-0.10838309,-0.2616784,-0.6225148,-0.36557722,0.34540635,-0.017982299,0.09933271,0.27632427,-0.03521233,0.17882292
-0.09246775,-0.042846493,-0.51778555,-0.17221868,0.29903546,-0.055956136,0.1876017,-0.05659608,0.073590115,0.25161085
-0.016492443,-0.38820952,-0.60388887,-0.057109594,0.37972072,0.09579828,-0.013336973,-0.069961846,-0.17525844,0.2511812
-0.05906022,-0.42743054,-0.56254864,-0.12534659,0.5161999,0.1942522,0.24303408,-0.13886808,-0.11009896,0.07553981
0.0642128,-0.061918784,-0.57982415,-0.037797876,0.6510755,0.2215042,0.11203876,-0.6497561,0.05371535,-0.25584862
-0.18619727,0.22370753,-0.51051795,0.10074216,-0.09305152,0.21011789,0.09245267,-0.89470893,0.321192,-0.04516159
-0.6536528,0.72315705,-0.48793694,0.24088055,-0.4552197,-0.08286326,-0.29525313,-0.15168309,0.16684341,0.19210163
-0.89103234,0.50399786,-0.4784228,0.07452264,0.1355616,-0.1836315,-0.44655642,0.33337083,0.028031116,0.21002571
-0.7154672,0.14230314,-0.3852659,0.0017311984,0.26961368,-0.34154686,-0.13167766,0.41680616,0.015299771,0.25797886
-0.15034027,-0.031919755,-0.3680157,0.041029245,0.07304369,-0.42961654,-0.17336935,0.33497506,-0.07883715,0.33417198
-0.06309417,-0.048934836,-0.18300894,0.10214715,-0.010088098,-0.24699163,-0.2357173,0.2621464,-0.07816893,0.30482885
-0.013319026,-0.2930866,0.07010426,0.00057901756,0.022209728,-0.36026376,-0.37339547,-0.028443277,0.17901441,0.3672298
0.054824196,-0.28913546,-0.03141301,-0.18547416,0.09070747,-0.40727824,-0.19098583,-0.038260054,0.21362904,0.3123219
0.06204104,0.042727537,-0.06609138,-0.5348453,0.22152412,-0.8286528,0.10372281,0.037816823,0.2663308,0.372874
0.22335641,-0.03764791,-0.16821976,-0.6271792,0.014164191,-1.1742628,0.37633157,0.062030885,0.30980554,0.32030332
0.33180025,-0.11472438,-0.42816147,-0.62226176,-0.37010443,-1.2501566,0.6912556,-0.26614723,0.590619,0.41303167
0.47822204,-0.8691623,0.18746245,-1.2058619,-0.1509642,-1.3735008,0.39430022,-0.67717624,0.69125557,-0.8000204
-0.09861612,-0.3497335,0.63309187,0.29113558,-0.49528763,0.0961341,-0.40476185,-0.0450965,-0.036793042,-1.8232332
-0.73964113,-0.51929003,0.6086562,-0.48382342,-0.35498384,0.73359543,-0.96353316,0.2452995,-0.019345962,-0.9283321
-0.28730893,0.11180605,0.25829303,-0.27878496,-0.5543357,-0.4797224,-0.2907061,0.17704383,-0.42138928,-0.37423703
0.031379703,0.18471207,-0.13150795,-0.11069829,-0.053107463,-0.09429231,0.03180891,-0.24725825,-0.076849304,-0.106653556
0.17603865,-0.16718422,-0.3381898,-0.26519325,-0.086872116,-0.29765165,-0.30955985,0.331369,-0.2559246,-0.42951864
0.030073293,-0.32297686,-0.24519534,-0.5945823,-0.42763662,-0.5664813,-0.2754498,0.72347873,-0.62264556,-0.69232345
-0.058805633,0.32680094,-0.45135504,0.059790708,-0.51618296,-0.07417252,-0.5512852,0.5051749,-0.03913716,-0.1645663
0.072135925,0.13264063,-0.9050498,-0.41648886,-0.10463471,-0.01003863,-0.25681,0.2784569,-0.17272362,0.4453196
-0.028182387,-0.1967455,-1.02597,-0.31301337,0.16779323,0.10637358,0.18712573,0.10141812,0.024635037,0.35478303
0.20371836,-0.06389105,-1.0691224,-0.36633897,0.33740434,-0.063102946,0.3513496,0.1654704,-0.11472257,0.16136482
0.12042629,-0.16203855,-0.7545929,-0.38815787,0.31231862,0.11119491,0.016190285,0.040225483,-0.034070615,0.19001798
0.04493303,0.16462938,-0.45936078,-0.286952,0.33523923,-0.13212459,0.010785863,-0.045088213,-0.1436056,0.17225239
0.06744575,-0.17603023,-0.2850406,-0.1442823,0.30442733,0.020041112,0.0060413163,-0.12988923,-0.009428478,0.085079014
0.075256705,-0.7032412,-0.19970226,-0.16936709,0.39350274,0.16512538,0.18857005,-0.11335738,-0.16751426,0.018259445
-0.002484627,-0.6027161,-0.06516323,-0.19598551,0.5493486,0.21917436,-0.04679737,-0.3816239,0.0009123314,-0.054450992
0.0288237,-0.16096933,-0.0708446,-0.040551912,0.4510087,0.30859095,0.17150697,-1.0301799,0.16944242,-0.31192106
-0.4595386,0.3320165,-0.016752556,0.23807707,-0.283656,0.20682374,-0.008632695,-1.0755366,0.2934792,0.059815876
-0.7437171,0.549882,-0.14513761,0.09905542,-0.12849121,-0.117525965,-0.2885484,-0.26315686,0.014904062,0.15390551
-0.8315494,0.385311,-0.26065624,-0.006675089,0.25572938,-0.30797866,-0.031041274,-0.0015253512,0.23129237,0.26202965
-0.5962118,0.106305085,-0.25000668,-0.009558066,0.2873885,-0.45318785,0.04642256,0.20876725,0.10980918,0.35363272
-0.15967646,0.30657172,-0.17575024,0.017438486,0.2877466,-0.24544032,-0.19121271,0.10987988,-0.1092926,0.2868909
-0.031442236,-0.2543991,-0.14515533,0.112546064,0.28237423,-0.14838788,-0.18484297,0.06818256,0.011786268,0.28919727
-0.0988627,-0.48542464,-0.07832622,-0.11655669,0.20968542,-0.07551289,-0.029011216,-0.13482252,-0.010045935,0.33827692
-0.28181708,-0.28320846,-0.22536832,-0.33709684,0.32554254,-0.05186214,-0.07176102,0.10569054,0.09070082,0.30480304
-0.022735802,-0.1717369,-0.055022616,-0.5630358,0.30648378,-0.35874262,0.089091346,0.010609797,-0.111958265,0.2521233
0.13211022,-0.61191386,-0.16868216,-0.82762945,0.21726535,-0.38135514,0.25457147,-0.03333208,-0.066509366,0.23364133
0.2850783,-0.673174,-0.20816159,-0.40353084,-0.18302059,-0.8578801,0.65755665,-0.27626556,0.14751022,-0.28818336
0.36920667,-0.98625976,0.45910195,-0.42509115,-0.4772021,-1.1890111,0.48997286,-0.08786163,0.15511249,-0.9934732
0.14093062,-0.4841557,0.7489306,0.029418768,-0.22970866,-0.5823619,-0.42255378,-0.039652597,-0.035030667,-1.0396417
-0.4951956,-0.48018223,1.1729597,-0.6384971,-0.36232188,0.04519167,-1.0114883,-0.19720455,-0.39413813,-0.6728739
-0.2835897,-0.34316224,0.39685676,-0.2987994,-0.28523022,-0.25838625,-0.3749445,-0.31793272,-0.39491618,-0.3310026
-0.1345075,-0.023953779,-0.25983158,-0.20129861,-0.302838,0.31115788,-0.17787437,-0.27751353,-0.20518658,-0.32930866
-0.09922764,-0.09680602,-0.32402417,0.10582876,-0.076801494,-0.32213774,0.03763453,0.21270564,-0.3375026,-0.2809234
-0.20978415,0.21727952,-0.31906658,-0.022808973,-0.40033332,-0.45170915,-0.14865804,0.64947414,-0.43510082,-0.57640374
-0.5424722,0.28348497,-0.34082425,-0.05855523,-0.063611604,-0.092155285,-0.6010304,0.29463494,-0.26637605,0.044105407
-0.17979403,0.318946,-0.69001275,-0.31872532,0.3706279,0.04234988,-0.7575682,0.13636951,-0.6127204,0.2645703
0.235599,-0.14241242,-0.6911593,-0.4478664,0.3583705,-0.0653043,0.16387418,0.16858004,-0.09912696,0.09519662
0.17855026,-0.49487403,-0.36580306,-0.4964781,0.25637585,-0.13559212,0.16383287,-0.055475686,-0.08671076,0.19114676
0.3077751,-0.53149545,-0.12616216,-0.47982013,0.24850346,-0.098219536,-0.024638575,-0.14994217,-0.49092397,0.041721426
0.18615936,0.16421692,-0.1330101,-0.1417539,0.23780362,0.012010033,0.13127014,-0.1537762,-0.3096536,-0.026188618
0.10270617,-0.23582725,-0.13384895,-0.13654953,0.25848353,0.08569074,0.18353526,-0.26758838,-0.28036556,-0.07143077
0.0814033,-0.79885113,-0.087643184,-0.21867584,0.26563877,0.25544888,0.18544146,-0.1752238,-0.122362666,0.0017121767
0.09120263,-0.6173591,-0.033805728,-0.18797274,0.34395528,0.02715017,0.33585545,-0.5020563,0.17064375,-0.036529075
0.05424074,0.04199796,-0.0167771,0.070432894,0.28676957,0.09910452,0.07382512,-1.0354174,0.29601458,-0.15407872
-0.20020391,0.29863855,0.079731554,0.05253659,-0.21045661,-0.058568355,-0.109769225,-0.611703,0.28075853,0.026715444
-0.9368034,0.56897116,0.0064605703,-0.0025363795,-0.12128884,-0.17422329,-0.15559942,-0.20070077,0.13657336,-0.055068474
-0.784971,0.39007884,-0.22894189,-0.021084696,0.15550794,-0.22363394,-0.016098533,-0.06714116,0.119076006,0.17604597
-0.75753564,0.20034164,-0.08365803,-0.0840186,0.36690012,-0.2893887,0.034896325,0.030565316,0.019607617,0.36219162
-0.1862456,-0.0547604,-0.20413713,0.021901336,0.4468167,-0.28524226,-0.31312647,0.18243611,-0.048470978,0.2578588
-0.08754918,-0.44563714,-0.067525774,0.028436204,0.2271804,-0.14089823,-0.14827222,0.41471574,-0.06024856,0.21904366
-0.18412541,-0.5907899,-0.12978116,-0.14253919,0.34751824,-0.26387724,-0.0476128,0.39391422,-0.11589757,0.103258364
0.028996594,-0.32482243,-0.05114166,-0.28309724,0.14587797,-0.069914915,-0.08047328,0.28322166,-0.24803063,0.16572478
0.05283196,-0.25638083,-0.22849426,-0.095222734,0.041109037,-0.18275125,0.124579504,0.08771305,-0.25680727,0.13064896
0.01567246,-0.14932469,-0.23105313,-0.3573297,0.15365665,0.030853596,0.3130299,0.1622125,-0.44929853,0.024262974
0.21357636,-0.21193995,-0.03880333,-0.24423541,-0.22063203,0.037855797,0.27949563,0.32281312,-0.5774497,-0.6227549
0.34268895,-0.22676037,0.30348727,-0.19688852,-0.49833387,-0.21791191,0.20214313,-0.16322482,-0.41057444,-1.3759136
0.11453122,-0.20533545,0.5344632,-0.544492,-0.17135102,-0.9236022,0.08579035,-0.6064147,0.20634826,-0.82313114
-0.7039049,0.029649323,1.021311,-0.5796036,-0.6066013,-0.5740638,-0.86720806,-0.66716284,-0.5241036,-0.47685575
-0.42249972,-0.15985265,0.5164337,-0.39092126,-0.35735708,-0.4799448,-0.4181856,-0.33679453,-0.41613376,-0.25911072
-0.27012813,-0.11304505,-0.13893232,-0.2356639,-0.2761246,0.20931865,-0.27145264,0.20895228,-0.335513,-0.34773642
0.022312995,0.007481386,-0.2016863,0.32666174,0.23513328,-0.19811894,0.050390497,-0.09227858,-0.23453242,-0.09625377
-0.57900655,0.3537472,-0.26638725,0.34332347,0.40319714,-0.67590815,-0.34409615,0.30262455,-0.6120717,-0.95671237
-0.6064167,0.3992379,0.030859048,0.0049145995,0.097755566,-0.19264495,-0.8600401,0.21335496,-0.20465362,-0.06298647
0.09295848,0.2545109,0.107744224,-0.11440665,0.27484939,-0.19873244,-1.0943466,-0.022013659,-0.727523,0.12662049
0.26129052,-0.7393902,0.21154743,-0.1527586,0.041930377,-0.34144458,-0.068752006,-0.09607054,-0.48715308,-0.00068851316
-0.13959472,-0.78459466,0.2585725,-0.21214834,0.17419314,-0.18210414,0.1447774,-0.012899436,-0.3687687,0.074302055
0.34998864,-0.167574,-0.051182456,-0.33241883,0.31031054,-0.27941275,0.21195969,-0.13798729,-0.33678624,0.025290031
0.17447358,0.07213668,-0.024575822,-0.43798417,0.2739119,-0.10377462,0.114738435,-0.30987173,-0.302762,0.06944067
0.2611619,-0.32469004,0.037442066,-0.23675622,0.3468104,0.1860162,0.15499467,-0.32030722,-0.050414,-0.0993187
0.20531961,-0.4705898,-0.014848251,-0.17472552,0.17329179,0.051316317,0.23117743,-0.28178295,-0.101850934,0.052526746
0.080432676,-0.22709064,-0.06338092,-0.12558962,0.32917333,0.00019404198,0.30525014,-0.56675607,-0.05984531,-0.030963246
-0.030090813,0.10465125,-0.061336257,0.0053162733,0.11116129,0.073144846,0.19389755,-0.65249467,0.18502794,-0.09849264
-0.60129577,0.42348716,0.13052452,0.057297286,-0.20949768,-0.046055313,0.070669405,-0.40523493,0.26521307,-0.17546208
-1.0759969,0.58629656,0.017373707,0.12144636,0.03777459,-0.32269713,0.13821153,-0.38470435,0.30890837,-0.19383653
-0.74473226,0.22556297,0.04057807,0.091134675,0.33105353,-0.28308025,0.068906635,-0.031035192,0.057852447,0.11727601
-0.5194537,0.15195645,-0.10070633,-0.133085,0.41747004,-0.30669627,-0.06638275,-0.15547886,-0.13646562,0.19123681
-0.28942272,-0.47385082,-0.15722856,-0.13440242,0.3707517,-0.24959768,-0.14767411,0.47314587,-0.15343727,0.26020774
-0.051182773,-0.6701017,-0.093566224,-0.12145283,0.1476633,0.070454605,-0.036408212,0.42512318,-0.044229064,0.032957412
-0.10831677,-1.0280547,-0.03762478,-0.003984756,0.14829585,-0.041879408,-0.05019248,0.269225,-0.17086379,0.021167016
0.106059425,-0.7983636,-0.2817128,0.18498974,-0.14559352,-0.16535273,0.094914615,0.35667783,-0.37620965,0.06665619
0.107085966,-0.35834712,-0.14601915,0.08686171,-0.091333285,-0.033250052,0.13748848,0.3465776,-0.3493845,-0.0451157
0.066125676,-0.49276885,-0.20739909,0.2622669,0.17255034,-0.12554444,-0.06461266,0.36280942,-0.31285894,-0.14648417
0.21642148,-0.7244123,-0.22811764,0.3509057,-0.2432874,0.019538417,0.03630836,0.104256846,-0.36162052,-0.51252955
0.3719693,-0.50660145,0.34894282,0.26308608,-0.8513138,0.27698773,0.07830492,-0.26581258,-0.5253145,-1.3869962
-0.10176595,-0.53613144,0.5453672,-1.3942122,-0.59882826,-0.5710892,0.21896312,-0.9573623,0.0038363584,-0.95970476
-0.82446957,-0.38755968,0.858585,0.0798401,-0.07605389,-0.7515799,-0.9090971,-0.46077377,-1.0116149,-0.27305746
-0.45321292,-0.44531548,0.53610325,-0.41842604,-0.36547017,-0.43850896,-0.63036245,-0.22599858,-0.46200648,-0.25542438
-0.057046305,-0.029330045,-0.021810496,-0.15094088,-0.28781524,-0.2530406,0.011299021,0.31100363,-0.20140919,-0.24893735
0.017837059,0.17817234,-0.25714442,0.26996687,-0.012830809,-0.29931456,-0.09508311,-0.22274531,-0.3393967,-0.23039304
-0.45113555,0.36928996,-0.009631021,0.46070665,-0.28869268,-0.72849166,-0.34162897,-0.22467193,-0.5896306,-0.7000894
-0.3856,-0.38419542,0.47033238,0.095156714,-0.2740336,-0.03509017,-0.8392662,-0.29911363,-0.17600366,-0.1075084
0.15832397,-0.14307502,0.23745888,0.26364565,-0.42655402,-0.39257213,-0.70667326,0.06020065,-0.64975345,0.093973756
0.2724218,-0.3799707,0.26271543,0.030772168,-0.17644681,-0.175252,0.09551001,-0.2302282,-0.3975985,0.04460694
0.11111904,-0.55041146,0.29629254,-0.13843834,0.03584673,-0.22201693,0.18206069,0.004933048,-0.19026147,-0.19038688
0.23816957,-0.2882876,0.0110971015,-0.28579098,0.18211676,-0.49550205,0.23813906,0.09808023,-0.052175928,-0.06664568
0.249493,-0.22057602,-0.21615012,-0.5013811,0.3466712,-0.3567989,0.19876239,-0.17060724,-0.08001717,0.049846377
0.20901537,-0.012438197,0.04124981,-0.20252699,0.17951508,-0.3839533,0.21001089,-0.1898475,0.022523213,-0.096934155
0.18710394,-0.1413547,0.15917292,-0.24329932,-0.108630955,-0.17558931,0.31633675,-0.510386,-0.012508511,-0.0011585105
0.06998172,-0.13854836,0.17430766,-0.029066924,0.003123853,-0.12277435,0.58303386,-0.714526,0.05950715,0.051693115
-0.25273597,-0.111072786,0.27990445,0.036402285,-0.04529647,-0.050279945,0.054749683,-0.28705847,0.26547015,-0.118608214
-0.97990805,0.38747704,0.28202444,0.18686903,0.00046128506,-0.1758944,-0.046247438,-0.16650273,0.1745719,-0.25132892
-0.73939204,0.58872545,0.10444357,-0.056673527,0.2541311,-0.31216308,0.15506682,-0.22944608,0.08814204,-0.0956974
-0.37596542,-0.073531255,-0.019292751,-0.13156252,0.45157743,-0.1440605,-0.003586732,0.027259009,0.047872096,0.027156513
-0.29523167,-0.15612485,0.085793324,-0.24328771,0.39433217,-0.30987692,-0.068096176,0.029608132,0.08917922,0.19245867
-0.12611698,-0.84745795,0.17827483,-0.075821206,0.23659253,-0.16503093,-0.24120612,0.21116897,-0.06316851,0.14094442
-0.0012564666,-0.7019305,-0.032087546,0.18977776,0.14333351,-0.09859476,0.063145965,0.18811122,-0.28924873,0.104625314
-0.020514343,-0.6639561,-0.06738944,0.20274746,0.11331991,0.0064381347,0.03448997,0.21900266,-0.36564398,-0.10120164
0.11895667,-0.35181305,-0.08541576,0.118076846,0.19864912,0.07919408,-0.06419883,0.19968648,-0.3625716,-0.16101845
0.021403149,-0.29898584,0.20712852,0.06703787,0.12002241,-0.033904355,-0.022431301,0.17394756,-0.3689774,-0.30391473
0.05277922,-0.42488772,0.11121451,0.14812353,-0.11591977,0.09579122,-0.08681389,-0.0612119,-0.3855236,-0.045782592
0.12503593,-0.68428797,0.15583035,0.3700591,-0.20100902,0.16706073,-0.019528665,-0.27647492,-0.04421211,-0.54082173
-0.097516395,-0.164431,0.39671007,0.6422575,-0.5469092,0.073891774,-0.03227746,-0.4013993,-0.29672876,-1.1398715
-0.4193704,-0.6237123,1.0773443,-0.9934449,-0.55960643,-0.54287624,0.15356067,-1.1432259,-0.5382049,-1.114551
-0.7978375,-0.23858398,1.025748,-0.8251926,-0.47607586,-0.95648426,-0.998658,-0.68039495,-0.9415312,-0.5800643
-0.057327244,-0.41898015,0.57582885,-0.43818456,-0.32394755,-0.4114742,-0.59948224,-0.26093394,-0.27219394,-0.45393813
0.01906006,0.028326273,-0.07458862,-0.0566414,-0.040417563,-0.0016540214,0.08419561,-0.04055006,0.079162024,-0.051624246
-0.14364348,0.31322402,-0.46034217,0.33927828,0.044044066,-0.40078735,-0.047379307,-0.24915347,-0.46329525,-0.3124513
-0.6111581,0.08659592,0.18174788,0.15161388,0.049305167,-0.77679497,-0.324982,-0.19786933,-0.4313738,-0.5025078
-0.19259869,-0.38858888,0.38770202,0.42360324,-0.7802725,0.13230714,-0.6783051,-0.3722632,-0.30444592,-0.31017673
0.016213374,-0.19256684,0.302465,0.35580096,-0.3891125,0.028514301,-0.77394634,0.1741647,-0.34334546,-0.4452288
0.14420465,-0.704619,0.30207762,0.13027972,-0.36497563,0.17824876,2.5732355e-05,-0.051014826,-0.42055535,-0.28088298
0.08767262,-0.7701283,0.19837643,-0.14294483,-0.15085998,0.28160506,-0.02163835,-0.1195284,-0.24090311,-0.17252824
0.031760167,-0.3247631,0.07149791,-0.17084397,0.18112874,-0.25257036,0.151449,-0.19997966,0.072529115,-0.00060098653
0.1434373,-0.11374747,0.07219907,-0.27812165,0.18906991,-0.40094268,0.317422,-0.20190893,0.13050826,0.0619105
0.30166316,-0.15397394,0.12461216,-0.53933924,0.03100344,-0.35394773,0.3461908,-0.18328671,0.1227103,-0.08882384
0.38580924,-0.084270075,0.21301472,-0.59437597,-0.060531173,-0.38785434,0.46613628,-0.51896363,0.09626914,0.06967928
0.10284321,-0.34163362,0.21346638,-0.52355134,-0.13122809,-0.34758645,0.4834665,-0.32749778,0.1862138,0.037545975
-0.15446165,0.019291144,0.29612303,-0.27857098,0.002214564,-0.4732514,0.14695518,-0.1111151,0.30459577,-0.053967815
-0.8066753,0.28716153,0.25292492,-0.22832054,0.16323894,-0.4731761,0.02136139,0.039746154,0.1434887,-0.022439772
-0.60451394,0.5140233,0.012071101,-0.41900638,0.38826054,-0.37035528,0.1651447,0.05415522,-0.05306351,-0.10798578
-0.33875406,-0.011799582,0.062900394,-0.28915507,0.41395774,-0.022397753,-0.055097833,0.1097345,-0.13620637,0.22003801
-0.10307011,-0.432021,-0.0069997734,-0.042640496,0.35782015,0.03719513,-0.12132272,-0.061413433,0.033002924,0.027187806
0.023139328,-0.721066,-0.05253557,0.18095699,0.18791993,0.11067147,0.08117839,0.037266985,-0.11486654,0.1089036
-0.0471124,-0.4736764,-0.0021143768,-0.006440519,0.12802242,0.10749987,0.050824884,0.046803955,-0.2904018,-0.059078347
0.09686921,-0.14604433,0.022695696,0.32487872,-0.05889861,0.03897149,0.12634143,0.018497482,-0.17294894,-0.14882925
0.11857336,-0.23001894,-0.062438652,-0.024691515,0.055884764,0.044111922,0.07744707,0.09275241,-0.15274343,-0.10367965
-0.028970871,-0.10862309,0.07949114,0.14629316,0.07590468,0.05880067,0.015138692,-0.009467535,-0.24490806,-0.2275424
0.0932961,-0.013755504,0.09230248,0.2271131,-0.13444799,0.024231486,0.069378495,-0.055179987,-0.22732005,-0.38008296
0.02112941,-0.18903777,-0.039328206,0.35670376,-0.15880986,0.13247149,-0.00022710749,-0.1909121,0.07103093,-0.6469468
-0.08678063,-0.121552706,0.2989198,-0.18767537,-0.51790667,0.09211481,0.11128329,0.106942624,0.12103504,-1.0061737
-0.28367347,-0.516499,1.0812885,-1.1069418,-0.899588,-0.7208492,0.17229642,0.053680647,-1.2171212,-0.9920677
-0.6485714,-0.17296167,0.6846887,-0.7643258,-0.61270404,-0.9555163,-0.9035563,0.16543405,-1.1142851,-0.7021953
0.15507694,-0.4381228,0.67653364,-0.4448691,-0.2640761,-0.39944485,-0.8601155,-0.35711923,-0.60411364,-0.34281942
-0.29368398,-0.17874245,-0.1365364,-0.36697108,-0.3850266,-0.30267957,-0.09979051,0.18507978,-0.3603558,0.09549893
-0.11722895,0.2495445,-0.38167578,0.4596963,-0.07805862,-0.46456826,-0.074277654,0.051850248,-0.55877864,-0.21909331
-0.62046725,-0.35418108,-0.21091755,0.21496782,-0.12086002,-0.5602008,-0.38961768,0.28369123,-0.8485972,-0.50713104
-0.5705844,-0.5056607,0.13804056,0.6569589,-0.39190906,0.077489346,-0.20554689,-0.2422934,-1.186799,-0.68493503
-0.070590705,-1.005496,0.30214986,0.24807492,-0.24916317,0.22782443,-0.582578,0.014202083,-0.33908993,-0.6391758
-0.06897454,-1.018437,0.27481836,0.14255098,-0.17809153,0.28019062,-0.412565,-0.057438698,-0.12069557,-0.43933883
-0.057725456,-1.071342,0.18759014,0.075261734,-0.16686948,0.38653457,-0.111279055,-0.5886219,-0.2023264,-0.14641686
0.013590492,-0.50717384,0.24108164,-0.15688275,-0.11614062,0.11744491,0.06701176,-0.40590933,-0.10221408,-0.127791
0.23635198,-0.1019161,0.04680697,-0.19094916,0.036097985,-0.033196613,0.07291289,-0.33699018,-0.002609649,-0.15542285
0.22153862,-0.091092445,0.099706545,-0.38138458,0.010217355,-0.20516308,0.25742742,-0.3150307,0.3062653,-0.04691884
0.36322773,-0.23958227,0.16324894,-0.40430036,-0.25460142,-0.21330947,0.18314877,-0.44116265,0.22065715,0.20506807
0.011535951,-0.26448867,0.187892,-0.46495897,-0.2104994,-0.17642908,0.21847688,-0.22887687,0.12913036,0.09715628
-0.28601745,-0.038640033,0.26222742,-0.49344307,0.18190812,-0.23150522,0.45907533,-0.19149978,0.15166081,-0.330841
-0.67079175,0.16848496,0.24418513,-0.37955856,0.24298729,-0.065697156,0.24464148,0.027692525,-0.049948763,-0.20418485
-0.5290622,0.19598496,0.06422425,-0.30680373,0.25671467,0.03283665,-0.054200303,-0.04003458,-0.13775285,0.12152178
-0.29382452,-0.22294585,0.014154156,0.110431746,0.18446092,-0.035447545,0.029683359,-0.06256287,-0.07501486,0.05106465
-0.053995837,-0.51527727,0.03521512,0.2577082,0.18018723,0.011697748,0.082739025,-0.17181885,-0.119704016,-0.03973185
-0.1042126,-0.23546977,0.20677043,0.18515867,-0.14872201,0.13439599,0.13247809,-0.13864896,-0.19791402,-0.0971572
-0.06738441,-0.070190564,0.05107183,0.11901814,-0.1716173,-0.07068185,0.15456598,-0.06925853,-0.16052973,-0.17153299
-0.09192063,-0.03991116,0.104936,0.20634836,-0.08015426,0.034400743,-0.041547462,-0.07847911,-0.04458208,-0.07175969
-0.15933415,0.097258545,-0.015068015,0.04536318,-0.03490712,0.086552545,-0.042325657,-0.056395177,-0.04624967,0.0055601
-0.021590421,0.02995116,0.11008525,0.20316602,0.054468535,0.039404225,-0.045231227,-0.15970218,-0.19693471,-0.16391572
0.039820276,-0.15648173,0.20053342,0.24793503,-0.40480536,0.0034151988,-0.025821056,-0.25666815,-0.071357995,-0.32281715
-0.05101508,-0.26945674,0.30853164,0.04911103,-0.3686973,0.07248704,-0.045032695,-0.6061474,0.060553182,-0.6841457
-0.13845797,-0.08998931,0.62726897,-0.4876746,-0.46660984,0.16885756,-0.013357424,-0.45771602,-0.071578555,-1.0413259
-0.3871649,-0.021196896,0.8837051,-1.2492673,-1.012792,-0.6368545,0.17012379,-0.2598753,-1.1502459,-0.6216842
-0.4709568,0.062128052,0.20205927,-0.7097954,-0.4202109,-0.7506556,-0.4240229,0.38350213,-0.90301794,-0.66140693
-0.30485955,0.28235054,0.5020345,-0.29128188,-0.24053301,-0.5057672,-0.58075744,-0.39910197,-0.3992687,-0.4091174
0.054261036,0.16531178,-0.28039023,-0.03310389,0.054218087,-0.022320352,0.055897146,-0.09949818,-0.23132333,-0.035928518
0.35258958,0.17741019,-0.33912918,-0.0028180275,-0.22504279,-0.4616452,-0.22314225,0.29471508,-0.39666218,-0.410787
-0.1874643,-0.03523412,-0.17913021,-0.18554431,-0.21897992,0.3338914,-0.4944978,0.4142909,-0.88272685,-0.97643626
-0.4321082,-0.5244969,-0.2762805,0.5381858,0.10353262,0.068645716,-0.51227385,-0.3213569,-0.68041193,-0.49023923
-0.09606268,-0.99912727,0.11271234,0.14974841,-0.22417346,0.26399785,-0.26722544,0.08845294,-0.39905846,-0.63506335
-0.075921096,-1.3475059,0.037278052,0.39611655,-0.078116156,0.117683634,-0.35287136,-0.27739045,0.024012962,-0.3864544
0.070313156,-0.41203806,0.06955232,0.05528043,-0.062883064,0.28378662,-0.112602144,-0.4386974,0.001199825,-0.19635397
0.14845641,-0.09874438,0.2839346,-0.1078761,-0.25034684,0.042478018,-0.061043944,-0.6539882,-0.16666551,-0.0614841
0.14403702,-0.03557658,0.20439948,0.004246327,-0.33860925,0.29269952,-0.04646539,-0.24721576,0.018330626,-0.17156826
0.07980043,0.082824685,0.21209677,-0.10527878,-0.44124037,0.017709887,0.18464756,-0.25217098,0.06501577,-0.34893224
0.20677888,-0.064763136,0.2225349,-0.16748886,-0.4828756,-0.009382403,0.35819525,-0.51783925,0.123081215,-0.21259207
0.26195014,-0.08949842,0.13774605,-0.3173618,-0.3656284,-0.0009546865,0.44776958,-0.30895296,-0.08810661,-0.3583692
0.07786359,-0.13233234,0.17752859,-0.31851524,-0.36537775,-0.06969841,0.4504149,-0.17215009,-0.09415345,-0.2688478
-0.17549561,0.14702448,0.32626522,-0.13054849,-0.17194186,0.025337007,0.26244617,-0.11884926,-0.13088356,-0.2671807
-0.16955695,-0.09766757,0.08318885,-0.031624585,0.19392869,-0.06758104,0.26019526,0.10017401,-0.24014862,-0.22569424
-0.18542013,0.006774756,0.20140396,0.10872858,0.06322659,0.10919777,0.2159766,-0.09776525,-0.076195635,-0.15445293
-0.18844628,0.10516409,0.21611357,0.17842624,-0.022929754,-0.06928349,0.221053,-0.31703803,-0.09682479,-0.15667708
0.0069907936,-0.13672875,0.18255477,0.26914737,-0.12937956,-0.08304017,0.15814608,-0.30630627,-0.009671121,-0.24699125
-0.10778589,0.08647667,0.07101616,0.19997475,-0.06153859,0.015522343,0.16221957,-0.42679504,0.055676673,-0.16564186
-0.06977376,0.2414759,-0.08326551,0.14547282,-0.18550159,0.030083857,0.0064063957,-0.14755091,0.0057538673,-0.013815268
-0.0038286222,0.08004442,0.0494623,0.046790175,-0.24358581,0.17281722,-0.015944269,-0.3007926,0.017167833,-0.040118553
0.012871369,-0.050840184,0.12878902,0.1531682,-0.11220954,0.026477437,0.011522249,-0.37468696,-0.09302367,-0.3808016
0.21511266,-0.09977235,0.28264013,0.07994244,-0.7588065,0.11119841,0.09582381,-0.5709927,0.1894512,-0.4305413
-0.13347214,-0.006226765,0.17609301,0.089396104,-0.6664636,0.17892902,-0.054338478,-0.8935179,0.14409803,-0.3795665
-0.020645812,0.107894294,0.23094046,-0.25746214,-0.63403463,0.31494507,-0.14515644,-0.3191431,-0.1397874,-0.3590922
-0.68328524,0.20869474,0.8559593,-1.8770983,-0.76594085,-0.1983292,-0.31816745,-0.45961955,-1.1113088,-0.41605908
-0.49906492,0.09574005,0.6535513,-0.87077975,-0.27906734,-0.64405286,-0.6864942,-0.26275164,-0.7659233,-0.3462776
-0.31946597,0.38597745,0.31606022,-0.31772205,-0.0070358156,-0.34945032,-0.43632203,-0.26732662,-0.28198034,-0.29377377
-0.07790887,-0.0444173,0.08293458,-0.02546582,-0.077268556,0.06258523,0.06489397,0.062464423,0.058308937,0.0015135258
0.21595179,-0.091406114,-0.20930158,-0.17102475,-0.2312185,-0.52470547,-0.32590112,0.113514856,-0.2002641,-0.3382272
-0.25770244,-0.5092782,0.131052,-0.25924855,-0.036980223,0.22695144,-0.31317797,-0.22072728,-0.9396014,-0.6530316
-0.22295575,-0.20373538,0.023974922,0.4547573,0.047461223,0.13169399,-0.90663093,-0.7946081,-0.75239676,-0.85086066
0.041765068,-0.36721718,0.211822,0.20121464,-0.15588874,0.02589255,-0.34198695,-0.8502938,-0.31164962,-0.27203727
0.04264559,-0.76316,0.06858634,0.24608885,-0.4772271,0.1781851,-0.4055765,-0.64753884,-0.10978119,-0.046665862
-0.020571254,-0.11455086,0.13601808,0.29410553,-0.29141203,0.046419926,-0.24595292,-0.76948595,-0.040934183,-0.21314438
-0.02214209,-0.087889194,0.29742593,0.13629664,-0.47339588,-0.06542129,0.039756864,-0.5294025,0.13157795,-0.30947962
0.051826358,0.1390645,0.16985281,0.10283532,-0.51135516,0.15612888,-0.11216538,-0.30731937,0.027183067,-0.29966238
0.048709027,0.10878279,0.20279303,0.16483656,-0.48886055,0.16872299,0.1315152,-0.42650273,-0.09578968,-0.49932876
0.27056572,0.10135149,0.21146241,-0.12159454,-0.4534445,-0.018226312,0.3462832,-0.24486461,-0.018311929,-0.61875516
0.3218582,0.101129316,0.21467626,-0.20228863,-0.22843365,0.09120935,0.2629765,-0.26161686,-0.21560872,-0.60182285
0.39259925,-0.0045990604,0.2004614,-0.3392324,-0.28723925,0.06563987,0.44785076,0.024930269,-0.012704406,-0.49233618
0.13293345,-0.06682207,0.11206992,-0.10534315,-0.30278897,0.05347061,0.29360446,-0.03213502,-0.02191529,-0.20764424
-0.08341178,-0.037025426,-0.04042848,0.06302934,-0.016029095,-0.036906496,0.42747545,-0.05454755,-0.16388544,-0.28826264
-0.0047230236,-0.029854903,0.13144377,-0.020084701,0.12322939,-0.06369637,0.3439682,-0.22065763,0.037489846,-0.35246623
-0.092324466,0.28668237,0.03604001,0.122692645,0.05012416,0.13184659,0.1336421,-0.34431282,-0.18676895,-0.1365348
-0.10174722,0.27102923,-0.023084478,0.15772314,0.010402308,0.14865889,0.021416329,-0.4710801,-0.04226472,-0.18643516
-0.08003325,0.41822994,0.074503645,0.18456744,-0.11227202,0.056287147,0.11996852,-0.61046505,-0.050582416,-0.2734445
-0.19790494,0.32116714,0.2858969,0.09460599,-0.22373345,0.07196968,0.09539407,-0.4434619,0.043898102,-0.061817292
-0.19366172,0.15330958,0.17938942,0.24033435,-0.24492735,-0.007053774,0.104133934,-0.6255139,0.048605636,-0.2372865
-0.026239801,0.005074907,0.2599303,0.003221295,-0.08331539,-0.026858417,0.083738446,-0.6405845,0.0832771,-0.39110315
0.040838145,-0.07638542,0.25057992,-0.11442657,-0.4138211,0.35649166,-0.20404612,-0.66122156,0.1322119,-0.38812712
-0.23386867,-0.18868202,0.16270535,0.13233516,-0.57288533,0.13536046,-0.03984031,-0.70994866,0.21180058,-0.21427484
-0.28069603,0.12950133,0.2602975,-0.21697411,-0.49046737,-0.03708425,-0.33540344,-0.17788215,-0.21684776,0.14738402
-0.734286,0.19455598,0.5198837,-1.7319859,-0.6994418,0.050127618,-0.25888842,-0.5230002,-1.1526122,0.10194255
-0.3257306,0.13418354,0.077883504,0.014466268,-0.5015632,-0.5005719,-0.17200413,-0.28638774,-0.61067814,-0.41160536
-0.08027423,0.26418492,-0.25836226,-0.1779355,-0.2144237,0.18261833,-0.13834453,-0.04581362,-0.4121184,-0.15694924
0.008457334,0.3105792,-0.16208804,-0.2432764,0.007737374,-0.06046809,0.0378945,-0.13641672,-0.21622193,-0.06514189
-0.19936645,0.1041327,0.06353917,0.2089274,-0.096218064,-0.5453383,-0.12394231,-0.4261754,-0.40970087,-0.30095044
-0.22157516,-0.23770104,0.13146742,0.12846726,-0.21095397,-0.59132785,-0.33269984,-0.6038902,-0.787478,-0.6900439
-0.19512716,0.16503994,0.13195914,0.28536355,-0.40641618,-0.041851196,-0.5374986,-1.0758718,-0.7308779,-0.7547662
-0.05855557,0.32866204,-0.0023009798,0.16000313,-0.44648877,0.219881,-0.7456563,-0.6814818,-0.20435229,-0.30258882
0.033896882,0.32294434,0.07353162,-0.03408867,-0.13423096,0.090772234,-0.56185436,-0.44011843,-0.05349173,-0.06887553
0.028088583,0.26983222,0.15286358,0.14371932,-0.6975831,0.107109815,-0.51421976,-0.5327881,0.093920596,-0.028836032
0.0062852856,0.1708558,0.07982048,0.16913013,-0.65648896,0.09360741,-0.19300641,-0.5611005,0.24385224,-0.27629316
-0.11616881,0.047160573,0.018641017,0.09718945,-0.09193266,0.18010028,0.14230074,-0.16773577,-0.054052763,-0.26486042
-0.027451318,0.06939832,0.11142214,-0.17496087,-0.16595978,0.050217107,0.111134894,-0.21419726,0.057169612,-0.14870559
0.16941182,0.2256319,0.16967934,-0.07719563,-0.25106028,0.06197058,0.16094506,-0.25645795,-0.037010692,-0.16907974
0.28850904,-0.08790283,0.14673369,-0.074511945,-0.16994987,0.14600317,0.27262408,-0.1381052,-0.085217886,-0.34538642
0.3134697,-0.11067408,0.018887885,-0.15018609,-0.19030672,0.05653862,0.5406792,-0.02084982,-0.10312402,-0.2770221
0.048482638,-0.15761077,0.09804719,-0.05025743,-0.24630123,0.06762042,0.4627939,-0.080143,0.07979656,-0.23674443
0.06840595,0.12010308,0.043951523,-0.017943382,-0.1678935,0.16355994,0.5084657,-0.13856252,0.023899158,-0.23580961
-0.030028109,0.086519785,-0.14233476,0.037274808,-0.0486988,0.07486523,0.26059902,-0.11846897,-0.015950065,-0.2107448
0.027227294,0.10067899,0.08363592,0.105280854,-0.12228395,0.019482173,0.20233296,-0.10865222,-0.09204133,-0.12269886
-0.24727729,0.107083604,0.14569494,0.054232422,-0.0020132547,0.076428406,0.33244985,-0.28623012,0.050817598,-0.30334473
-0.27130067,0.29848343,0.26552403,0.17347276,-0.18792954,0.008541042,0.22270477,-0.4353746,-0.08723884,-0.32494816
-0.30299383,0.1884558,0.31082577,0.2238929,-0.030156206,-0.008056593,0.055190712,-0.5123214,-0.0025417418,-0.26835743
-0.12771933,0.35193703,0.1128338,-0.045653563,-0.06960577,0.13902657,0.041501254,-0.5471954,0.022967929,-0.25765747
-0.09861937,0.23691063,0.15370055,-0.17358536,-0.070124224,0.29827356,-0.21032436,-0.58527744,0.053330444,-0.17602041
-0.018410353,-0.2912691,0.21983914,-0.11740348,-0.026300585,0.28096962,0.0201819,-0.8218736,0.12168436,-0.366596
-0.2334529,-0.39394853,0.4119964,-0.21282275,-0.09148778,0.12058121,-0.15472221,-1.0161775,-0.08860864,-0.1612644
-0.3765568,0.23565544,0.2058227,-0.7841716,-0.29240322,0.046293255,-0.40871042,-0.33207396,-0.60752743,0.24656256
-0.57569665,0.3104636,0.35619047,-1.4697167,-0.5797062,0.037040137,-0.30339363,-0.1571496,-0.6441824,-0.085384905
0.21741109,-0.04270361,-0.0019597833,-0.15333992,-0.3255181,0.011486758,0.025993327,-0.35894364,-0.74275863,-0.34323296
0.037596714,-0.08512769,0.0084289,0.06337615,-0.009711103,-0.12247478,0.011684167,-0.07409643,-0.027238293,0.025136553
-0.030775817,0.23249508,-0.18048228,-0.21413146,-0.014468223,0.06532163,-0.071506046,-0.0016612053,-0.288654,-0.061053082
-0.042318925,0.23929799,-0.27009055,0.012794293,-0.06915148,-0.17440806,0.0483946,-0.10478588,-0.14448795,-0.049707513
-0.28189218,-0.26395202,0.21360576,0.15578146,-0.19494696,-0.82364297,-0.10110447,-0.6296177,-0.7847969,-0.80877405
-0.35980216,0.060141783,0.15466663,0.3752851,-0.53030187,-0.0559027,-0.38533273,-0.8356755,-0.15864295,-0.069916494
-0.55881494,0.32337728,0.1629176,0.11836789,-0.7167411,0.26765248,-0.7806025,-0.4451148,-0.07266239,-0.13267763
-0.15274099,0.910223,0.04040672,-0.062249586,-0.7926975,-0.21120037,-0.867676,-0.054178163,-0.19571714,-0.39115286
0.0074896547,0.40172744,0.19214077,0.09518888,-0.5216994,-0.2730814,-1.356377,-0.19576834,0.050549213,-0.26724684
-0.05112576,0.021228041,0.18617265,-0.0061568795,-0.4492939,-0.061162163,-0.24949925,0.10771869,0.040014997,-0.2716959
0.10359481,0.1238823,0.30118027,0.005456606,-0.29454252,-0.026408903,-0.026323114,-0.13589244,-0.077395976,-0.018378448
0.14554891,0.054824352,0.25113618,-0.033072226,-0.22852169,0.00842934,0.09782544,-0.18687315,-0.08683657,-0.13764103
0.096794285,-0.096521966,0.13769616,0.025225973,-0.2407507,-0.022982635,0.22151262,-0.03972836,-0.0637099,0.008135461
0.16169295,-0.3188482,0.15035364,0.010477471,-0.1538002,0.03546168,0.06836277,-0.2332704,0.080377616,-0.02040812
0.15889204,-0.49866715,0.033022843,0.015656643,-0.21101902,0.22449274,0.2817359,-0.03866437,0.1416429,0.016944682
0.33615437,-0.40044987,-0.021444982,-0.07222584,-0.17373855,0.18884629,0.24711534,-0.30179504,0.12550516,-0.20458142
0.09138476,-0.10931119,-0.03168608,-0.11372153,-0.22707051,0.11787225,0.05896152,-0.12116664,0.13883096,-0.051726174
0.03904815,0.024914492,-0.17900592,0.046477314,-0.17266364,0.029377155,0.19887054,-0.06954297,0.009082861,-0.31163868
-0.006260975,-0.010951874,0.059041187,0.122774504,-0.10895808,0.17742538,0.1769357,-0.104752086,0.0455705,-0.112607256
0.023232318,0.26935464,0.02401608,0.09168507,-0.04774027,0.09810914,0.039311398,-0.23242643,-0.013440714,-0.1781314
-0.21576281,0.33173653,0.19422977,0.09194674,0.029281408,0.1853315,0.012974771,-0.3902132,0.067897744,-0.17740627
-0.1425659,0.2611915,0.24547629,0.09122875,0.10563918,0.103656605,-0.027951177,-0.32016993,-0.09877454,-0.4713938
-0.21600726,0.36394495,0.11876689,0.06532625,-0.03824997,0.07647305,0.048373014,-0.48198706,-0.13916299,-0.1268475
-0.08369716,0.071008146,0.06699127,-0.12168047,0.18174106,-0.005851631,0.020633442,-0.558966,-0.019402647,-0.22388463
0.07098415,-0.48446125,0.24917677,0.023310402,-0.036746338,0.059056602,-0.34800822,-0.6939902,-0.041691378,-0.07149181
-0.037095845,-0.29257324,0.13403994,-0.19924848,-0.108454704,0.24671322,-0.8367541,-1.1906065,0.061402503,0.17014495
-0.35816488,0.19802594,0.2925142,-0.8241467,-0.15284559,0.15220834,-0.7042509,-0.45174626,-0.33692864,0.27650413
-0.37101153,0.21181707,0.07941196,-0.4794464,-0.3337994,0.025959948,-0.6770606,-0.19588144,-0.4463193,0.011218134
0.18686119,0.46914065,-0.24442033,0.16101025,0.14488098,0.28683153,0.11622285,-0.37752172,-0.4727059,-0.5111441
0.16135338,0.083682194,-0.12092785,-0.043618016,0.014397192,-0.04295011,0.007973629,-0.042722173,-0.16367783,-0.051891524
0.06572061,0.05020144,0.059825517,0.050390698,-0.042083874,-0.06573978,-0.019015275,-0.07299574,0.0039873794,-0.06998706
0.0021416694,0.07513858,-0.05923302,0.025594234,0.058804847,0.012402318,-0.013873331,0.0822159,-0.05406698,-0.044642255
-0.15935032,-0.28275737,-0.17092544,0.53002656,-0.15600282,-0.057194598,0.056407426,-0.5362908,-0.53524387,-0.46063378
-0.7073496,-0.42658132,-0.27267554,0.7378283,-0.35702783,0.29646054,-0.27101058,-0.750654,-0.21373832,-0.15672213
-0.75708294,-0.33072835,0.088565275,0.52389866,-0.8095046,0.38752538,-0.5335982,0.08841333,-0.19019067,-0.53731054
-0.30477598,0.3561871,-0.048878003,0.22160763,-0.60537213,0.13652854,-1.162399,0.1710296,-0.40804377,-0.3494827
-0.01887118,0.19263212,0.06791692,0.25825226,-0.07970033,-0.045094058,-1.4179807,0.22950478,-0.29870847,-0.35981536
0.046517428,0.025221964,0.11139187,0.27786937,0.017558422,-0.16514698,-0.81581146,0.23249531,-0.20488502,-0.18624209
0.08386927,-0.14920768,0.10247819,-0.0053635053,0.02636664,0.08156628,-0.4389003,-0.29514834,0.07820477,0.0531556
0.185469,0.006908376,0.073142536,0.18566963,-0.06312467,0.13382284,-0.29908794,-0.16487105,0.015940256,-0.18956216
0.24434663,-0.19477434,-0.022351371,0.13813765,-0.013785069,0.23800942,-0.450233,-0.24456571,-0.041189384,-0.12659442
0.34554794,-0.15775427,0.09212657,0.18347006,-0.041178945,0.113270566,-0.358199,-0.20900652,0.06241175,-0.14974682
0.24344158,0.057849668,0.10692329,-0.08757634,-0.15934554,0.14882998,-0.09997496,-0.30443436,0.20292331,-0.1536656
0.20252228,-0.18133709,-0.12805091,0.048570342,-0.13220474,-0.05860566,-0.14811853,-0.26570374,0.2842472,-0.22211602
0.20707159,-0.21561334,-0.10135511,-0.041325293,-0.09306634,0.10316398,-0.06887062,-0.1440832,0.14905265,-0.10697072
0.070556454,0.031680256,-0.079253994,0.0050239684,-0.07726785,0.08161718,0.04388053,-0.011607291,0.22923838,-0.16776241
-0.08775495,0.042932145,-0.06248878,-0.18990083,-0.0039837835,0.105833635,-0.15076344,-0.12792772,0.19845754,-0.2139783
0.12168885,0.35828954,-0.061751932,0.06703272,0.058458995,-0.03194027,-0.19577238,-0.20313914,0.11976727,-0.18815812
-0.29454884,0.0039861044,0.23242408,0.22640455,0.098736525,-0.16249812,0.12043319,-0.33116484,0.09418542,-0.20672418
-0.3899167,0.01702419,0.3603331,-0.011647452,0.10082921,-0.05163173,0.046672877,-0.55796725,0.122969456,-0.123633765
-0.49906552,-0.011344716,0.30600256,-0.032398157,0.18342233,0.07070277,0.102916725,-0.7705921,0.08541223,0.043500237
-0.25245917,-0.4059853,0.40550476,-0.20128086,0.21919093,-0.09105409,-0.12555276,-0.8359432,0.10724446,0.070226155
-0.13296324,-0.3505285,0.38780528,-0.3922958,-0.3306705,-0.018215494,-0.37272114,-0.67804223,-0.009150542,0.4068535
-0.43444008,-0.9114099,0.27551684,-0.45288777,-0.34402248,0.2173213,-0.79751855,-1.1595626,0.20493211,0.26751328
-0.53974724,-0.47423106,0.3285819,-0.2813065,-0.42810482,0.13975613,-0.786859,-0.5011024,-0.42521802,0.30914173
-0.33519787,0.10325792,0.21924086,-0.3318648,-0.03236625,-0.0017834926,-0.6095813,-0.5524771,-0.41461635,-0.19911802
-0.32659525,0.43892038,-0.25529772,0.2654179,0.33815295,0.28194398,-0.4083562,-0.3032613,-0.5732417,-0.46932682
0.016723238,-0.028821573,0.004224628,-0.0058759525,0.037843145,-0.011166997,0.050665863,-0.03375172,0.023744069,-0.011202104
0.0044185147,0.010440916,0.044954874,-0.049722016,0.033823825,-0.04107682,0.029063001,0.07287622,-0.075232774,-0.07067678
-0.08421339,0.034973986,-0.02455568,-0.061843008,-0.060196735,-0.008822337,0.04612539,0.0052701086,-0.027690373,0.058381684
-0.14166236,-0.11745066,-0.29726145,0.22329088,-0.0867585,-0.5696529,0.046616532,-0.15450944,-0.10079959,-0.41078213
-0.31450617,-0.43412405,-0.6802987,0.5139997,-0.27523652,0.25176597,0.05705291,-0.018319024,-0.4857125,-0.69808584
-0.26846874,-0.9011338,-0.6602414,0.64407766,-0.79152507,-0.011329237,-0.24183543,0.21637034,-0.83129954,-0.020302307
-0.2026356,-0.068412505,-0.73490286,0.17943513,-0.21317568,0.06681032,-0.5524861,0.4948382,-0.6760685,0.17290746
-0.3943595,-0.050774317,-0.5676486,0.36289027,0.10828963,-0.024927847,-1.1585387,0.36990938,-0.4629015,-0.0068607046
-0.27527434,-0.16855076,-0.30528727,0.4304816,0.01374761,-0.09387709,-1.0782443,0.3104621,-0.23201242,0.1284214
-0.11691182,-0.24030675,-0.10101664,0.21378762,-0.034323037,0.12774758,-1.2851247,0.09149475,0.13516736,0.08874286
0.03663167,-0.13493559,-0.0462342,0.16588385,0.0070913523,0.2709929,-1.7892717,-0.05092321,0.05193419,-0.21004786
0.10193278,-0.2736506,-0.20399679,0.27571505,-0.08451065,0.1637373,-2.195965,-0.06271733,0.027323872,0.0180573
-0.037285145,-0.33001113,-0.075660475,0.30683294,0.088678814,0.10214016,-1.2045999,-0.043820687,0.19097114,-0.16313297
0.15615638,-0.23537885,-0.019189037,0.17291613,-0.1483235,0.22868954,-0.80603224,-0.032258153,0.22105813,-0.19176777
0.189138,-0.42548212,0.0116269495,0.2609785,-0.11225127,0.28758538,-0.7487566,0.048596684,0.17098251,-0.25301972
0.117639184,-0.34224585,0.1829835,0.2141682,-0.08141159,0.27919692,-0.627234,-0.023142597,0.18478169,-0.39270297
-0.01120078,-0.28951934,-0.092963755,0.04337618,-0.19449806,0.2073027,-0.5135379,-0.025678782,0.16888617,-0.103758134
-0.16284224,-0.70579547,-0.13591172,0.1456075,0.040843084,0.08427959,-0.15343302,-0.07510412,0.39891478,-0.0027581647
-0.06252854,0.008440439,0.13197945,0.10209001,-0.17442293,0.15397502,-0.29907992,-0.12562455,-0.101331234,0.08058742
-0.42533562,0.021960234,0.28279084,-0.1012955,0.016711786,0.18371502,-0.372858,-0.30196482,0.17080279,0.0032736945
-0.66055286,0.05088357,-0.04572503,-0.21371634,-0.0069483,-0.03865715,-0.81057614,-0.31419086,0.49973732,-0.004166103
-0.8896297,-0.07022094,0.050076056,-0.2419837,0.04556834,0.13638578,-0.5491478,-0.29780817,0.12377968,0.26776698
-0.8752766,-0.15637895,0.28237528,-0.037732184,0.062123615,-0.042244546,-1.4707597,-0.21117175,-0.1150811,0.25178242
-0.703699,-0.46860245,-0.032975983,-0.07007245,-0.0018076928,0.3101336,-1.1305095,-0.5634915,-0.24283892,0.4093163
-0.9035042,-0.6424014,0.077271596,-0.21930052,-0.05438494,0.11062033,-0.93417734,-1.2380458,-0.11699456,0.33184564
-0.69279414,-0.321331,0.7670824,-0.45550987,-0.6152799,0.16276866,-0.62797934,-0.69788766,-0.78182524,-0.3171629
-0.22854269,0.27725714,0.58098173,-0.23815747,0.1902025,-0.6882744,-0.26217884,-0.38369155,-0.6685015,-0.38616443
-0.016488325,0.2058078,0.28857714,-0.26504478,-0.25838098,-0.25794178,-0.15980422,0.02542898,-0.4835333,-0.25423896
0.028589904,0.022749469,-0.084310964,-0.022083148,-0.053074267,-0.03853612,-0.07190827,-0.013593867,-0.05854226,-0.034508366
-0.08234461,-0.03319016,0.057343386,0.049234726,0.0556029,0.08556751,-0.033792943,-0.01547423,-0.05005611,0.06940218
-0.008871473,0.0038506538,0.071619324,-0.078531094,0.056551255,0.0011985749,0.076309435,0.07148046,0.07003661,-0.056048524
-0.0155622605,-0.028046293,-0.17234108,0.40285414,-0.15557703,-0.15206581,-0.083184525,-0.5072724,-0.17262802,0.202268
-0.2085696,-0.3452951,-0.4189287,-0.25093538,-0.08855316,0.28932837,0.002475647,0.32985616,-0.38108015,-0.711854
-0.32482424,-0.83909875,-0.73771125,-0.22823697,-0.113446206,0.24954851,-0.34181097,0.37105015,-0.97005284,-0.067529134
-0.8663226,-0.9881598,-1.36835,0.12666208,-0.29076245,-0.109301314,-0.33083066,0.19920641,-1.0142733,0.6105047
-0.8162091,-0.8381871,-0.47307673,0.42494878,-0.4231984,-0.02516791,-0.41726342,-0.019052299,-0.28065318,0.29278934
-0.68341553,-1.1140743,-0.5929783,0.57332283,-0.578648,-0.029587066,-0.837389,0.14635232,-0.39346167,0.23259424
-0.7992024,-0.5225564,-1.0112947,0.87667686,-0.6657971,-0.23146568,-0.86940885,0.33221975,-0.3534539,0.28946406
-0.8176875,-0.65285933,-1.2515186,0.57798064,-0.35425332,0.16540626,-1.0776047,0.32009107,-0.4444803,0.07354704
-1.09643,-1.4470291,-0.93180984,0.590553,-0.18424119,0.07420607,-1.3460014,0.17694144,0.04191921,0.23884585
-0.7353965,-1.4729202,-0.8134538,0.39510557,-0.27342492,0.23188967,-0.3603858,0.38780427,-0.0483495,0.03980014
-0.9876932,-0.6683063,-0.51270354,0.61334145,-0.5627697,0.14018321,-0.22129449,0.2729647,-0.18972124,0.120538965
-1.0045066,-0.7294207,-0.37494633,0.47570902,-0.32595465,0.19930317,-1.2582538,0.12876627,-0.21565513,0.030151837
-1.1294205,-0.71855897,-0.13763468,0.2460329,-0.23211326,0.016068334,-1.1926765,0.16135335,0.08487835,0.21112919
-1.1345425,-0.9438876,0.06868601,0.11898873,-0.1996121,0.33176503,-1.1196389,0.0999038,0.20089445,0.075186275
-1.1829312,-1.5956321,-0.11826458,0.25242835,-0.44637835,0.3207716,-1.1134704,0.11960677,0.14327711,0.19488652
-1.015147,-1.7276015,-0.22038074,0.096408516,-0.4465625,0.32805982,-1.900875,0.14668301,0.25568032,0.17714846
-1.1673309,-1.658464,-0.446447,-0.0016582612,-0.33939594,0.23516436,-1.5832164,0.093397684,0.04747603,0.2514539
-1.3962837,-1.278889,-0.60985005,0.34857115,-0.64017034,0.1413121,-1.3651024,-0.004588718,0.038042057,0.22581962
-0.9163486,-1.1010118,-0.4651811,-0.11532944,-0.45745954,-0.07640973,-0.85683614,-0.2624715,-0.042116437,0.48788324
-0.89819586,-0.71201295,-0.466063,-0.25152752,-0.43613786,0.34897566,-0.7069671,-0.054836344,-0.5337842,0.41397128
-0.5868202,-0.53116316,-0.7716421,-0.028809827,-0.2537517,0.5127671,-0.46614736,0.012389761,-0.9892741,-0.030838186
-0.73261917,-0.33673877,-0.5652291,-0.84248614,0.036453452,0.5980218,-0.5080646,-0.40175268,-0.41584525,0.039607037
-0.67912126,-0.31112367,-0.42107472,-0.41249198,-0.44316497,0.5029717,-0.37538925,-0.21767645,-0.6031397,-0.22045855
0.0043895785,-0.13068359,0.22324196,-0.22221917,-0.38440746,-0.201144,-0.077738844,-0.3193203,-0.31446102,-0.11550797
0.05094189,-0.08632885,0.22524291,-0.15736412,-0.30580518,-0.057156008,0.0019447517,-0.023324203,-0.20248292,-0.27413866
-0.0638921,-0.058540974,0.009210959,0.020218655,-0.011542663,0.057526954,0.02944164,-0.07185695,-0.00840418,-0.059431404
-0.027318183,-0.08478156,-0.054339807,-0.059214428,0.00886555,-0.06907292,0.013575032,0.079893254,-0.030904673,0.04750111
-0.04335373,0.020777337,0.01351358,0.01409553,0.06219461,0.04261706,0.0657411,-0.04057968,0.036256835,0.025089137
-0.084830284,-0.01602114,-0.0034215748,-0.016882576,0.020643555,-0.027577233,-0.07370287,0.07103633,0.041347288,0.0070706382
-0.10862205,-0.16926648,-0.14264849,-0.28521168,-0.18864603,-0.07601661,-0.08491159,-0.19894364,-0.205294,0.24210949
-0.25952774,-0.4268943,-0.5986878,-0.23630632,-0.05576037,-0.3900615,-0.17875022,-0.5130476,-0.7490806,0.6100245
-0.3365039,-0.7808674,-0.76099974,0.18308856,-0.13101496,-0.64560145,-0.056760233,-0.34119743,-0.5987367,0.60665834
-0.5192508,-0.53451157,-0.69830865,-0.02237414,-0.3466517,-0.8441826,-0.22011879,-0.23147477,-0.97941417,0.6533824
-0.618965,-0.6129722,-0.9296927,-0.021479676,-0.9714519,-0.7794568,-0.085334584,0.08807229,-0.22028351,0.63050306
-1.0098933,-0.94192165,-1.0027941,-0.14278072,-0.9254166,-0.7036584,-0.31960613,0.20174758,-0.21566148,0.48239744
-1.1888319,-1.0446726,-0.72312653,-0.22494183,-1.2908113,-0.5288701,-0.4808301,0.3069726,-0.52753437,0.5655806
-1.065511,-0.6660969,-1.376641,-0.08229045,-0.9259367,-0.21719162,-0.48029295,0.21478918,-0.5668523,0.4532173
-1.086423,-1.0595775,-0.57801247,-0.09093244,-1.243288,0.14372918,-0.6974367,0.14352567,-0.41684848,0.40833756
-1.2073495,-1.4584273,-1.5155995,-0.21784334,-0.98243964,0.062205244,-0.8937542,0.0009971331,-0.40125448,0.5547506
-0.8401021,-1.1793505,-1.285975,-0.017194657,-1.3473521,-0.04650544,-0.47169316,0.32443973,-0.5124124,0.44370842
-0.87975264,-0.9455222,-1.4651663,-0.09674523,-1.6771848,-0.33336848,-0.5242064,0.24550696,-0.68141425,0.6489786
-0.9936343,-0.52937794,-1.0549043,-0.026575936,-1.2147574,0.07056795,-0.99900407,0.47231835,-1.5703464,0.32173786
-0.82606536,-0.6226481,-1.0172539,0.08502584,-1.308889,-0.10107596,-0.8019053,0.25666794,-1.5608364,0.41079596
-0.8769346,-1.2135322,-0.6674148,0.06727839,-1.2726244,-0.2315925,-0.9388512,0.33443835,-0.6673526,0.3842546
-0.91348416,-0.65875214,-1.0900507,0.051730238,-1.2996038,-0.41528827,-0.8122932,0.4263217,-0.5415275,0.48088557
-0.77849287,-0.70875007,-1.0889562,-0.04937347,-1.1762995,-0.3163021,-0.7928548,0.4977961,-1.1740786,0.22691585
-0.44209692,-0.73834765,-0.9046256,-0.0035696218,-1.2669322,0.08152036,-0.53875434,-0.03627496,-1.0109036,0.35101676
-0.5736278,-0.53367907,-0.89823616,-0.06049244,-1.0278603,0.12741393,-0.51850086,0.03360095,-0.8978468,0.3316363
-0.3028138,-0.33798605,-0.62671214,-0.08500348,-1.0068035,0.21354097,-0.34676602,0.32454178,-0.25558656,-0.049063902
-0.2750574,-0.27323395,-0.29517233,-0.42796084,-0.30061778,0.0017430157,-0.15512626,-0.020520682,0.17836948,0.12194388
-0.04894123,0.0053068907,0.03873439,0.036749985,-0.22278398,-0.23570098,-0.12609965,-0.2480144,-0.10108448,0.25050172
0.018195368,-0.032079108,0.022082087,-0.03933126,0.029073853,-0.035973106,0.0653416,0.17516963,0.03469245,-0.29275548
0.061871074,-0.04806159,0.05921232,-0.01742059,0.00397978,0.056694545,0.08362248,0.015820846,0.06266212,-0.07656364
-0.052281287,0.07056857,-0.034165356,-0.08170479,-0.056230098,-0.046443697,0.060454212,0.042725928,0.00039678812,-0.073853984
0.058223464,-0.0585371,-0.057627164,-0.003278941,0.08657118,0.07663339,-0.039479963,0.0021977574,-0.067312405,0.014384173
0.08136765,0.050812207,-0.047318105,0.06321404,-0.06823194,-0.036207236,-0.035892062,0.059236236,0.061335824,0.009097196
-0.053796697,0.06273366,0.044409223,-0.037348196,-0.031955,0.058258988,-0.006261073,-0.07932482,0.08174843,-0.029993456
0.041383393,-0.056758292,-0.07623126,-0.028304283,-0.01392021,-0.0511436,-0.06714055,-0.0041808337,0.07156282,0.043568484
-0.071586244,-0.031766288,-0.006504711,-0.021062396,-0.09364184,-0.0911313,-0.0019054986,0.270617,-0.0811607,-0.27984726
-0.043721642,-0.03304498,-0.086294316,-0.07913444,-0.072032355,0.048703246,-0.06371909,0.3479761,-0.10378169,-0.5153406
-0.039626066,-0.008032148,-0.05855612,-0.21663101,-0.26099062,-0.1484274,-0.08646438,0.20256305,-0.23386735,0.09000085
-0.18214902,-0.10310587,-0.1383075,-0.41257045,-0.3444503,-0.48779005,-0.010425654,-0.01706137,-0.54949945,0.13336077
-0.30817288,-0.11163396,-0.1102919,-0.5619514,-0.35577428,-0.5005593,-0.016949628,0.26571494,-0.603033,0.04202522
-0.39089155,-0.11559658,-0.26557508,-0.685459,-0.5504448,-0.6750195,0.026951456,0.12308747,-0.49386823,0.13965498
-0.45708272,-0.35134894,-0.36757714,-0.7603885,-0.67386806,0.13705494,-0.028437713,0.40918568,-0.39070174,-0.10699243
-0.4209112,-0.3697019,-0.54121166,-0.9968047,-0.5728279,0.13471192,0.018254234,0.12745175,-0.829832,-0.16097634
-0.60641944,-0.38232365,-0.63805616,-0.9908771,-0.7735082,0.12622407,-0.2000714,0.02821131,-0.4438511,-0.014678857
-0.40789127,-0.4393993,-0.69669664,-1.0682021,-1.0442842,-0.11175722,-0.08427096,0.9672024,-0.47304723,-0.8603455
-0.5930871,-0.5627961,-0.6562065,-1.104153,-0.92532474,-1.099191,-0.3062402,0.50690174,-1.1134988,0.12964764
-0.4743848,-0.25177562,-0.5638803,-1.2467772,-0.60035014,-0.8853791,-0.029718444,0.25211167,-0.60953,-0.076666735
-0.39603835,-0.23449937,-0.45301425,-0.9050905,-0.72364634,-1.1517192,-0.094741665,0.46007517,-0.78477514,-0.121484965
-0.30776927,-0.33429125,-0.36102405,-1.1024582,-0.76756394,-0.92955804,-0.15825155,0.9238452,-0.92220473,-0.57520735
-0.29042983,-0.24043888,-0.29717094,-0.6378748,-0.74456155,-0.5057325,-0.16944978,0.33384687,-0.63224506,-0.12204143
-0.24100326,-0.3229183,-0.28493994,-0.5358124,-0.4941367,-0.55008733,-0.15403502,0.57702386,-0.54217786,-0.26475525
-0.25601676,-0.19624668,-0.39398596,-0.6103398,-0.6183853,-0.4130228,-0.1746867,0.10954599,-0.4285805,-0.08259282
-0.4331913,-0.013705866,-0.44108993,-0.7389892,-0.41498628,-0.59914696,-0.24052297,0.3199991,-0.68789274,-0.23727483
-0.3268419,0.03254565,-0.31894255,-0.46048036,-0.55378896,-0.4987778,-0.2842538,0.39277804,-0.39210305,-0.24945791
-0.22593543,0.042483147,-0.30872327,-0.1987806,-0.41320056,-0.36956304,-0.1378943,0.45478052,-0.33262265,-0.41329393
0.017505705,-0.051548887,-0.021731846,-0.08025825,0.041463293,0.03723955,0.082428075,0.07837079,0.076230995,0.07961608
-0.05633039,-0.016875982,-0.012003601,0.07753419,-0.018330686,-0.06283155,-0.010447882,0.016097017,0.026060537,3.6247075e-05
0.05436965,0.028370008,0.062015913,0.030045107,-0.0691353,0.016173199,0.006043501,0.066198684,0.06645358,-0.017265707
-0.048087332,0.027918272,-0.037579264,0.0029064864,0.029016726,-0.032395855,-0.05947978,0.028664015,0.029260539,-0.026578076
Biases
-0.54938257,0.64212364,0.15212992,-0.42152312,0.16016516,1.403602,-0.16543165,0.75565785,-1.4969004,-0.33561283

