Layer,dense_15
Weights
0.06501926,-0.06998252,0.026306137,0.016580768,-0.053014018,-0.07850398,-0.06816995,0.050144754,0.057290576,-0.03394208
0.050192796,0.004663989,-0.07480949,0.016994037,0.029874302,0.062437706,-0.07015746,-0.06464553,-0.029280186,-0.07459034
-0.015279561,-0.015841052,0.03712944,-0.06840423,-0.08371156,-0.07183863,0.0022481605,-0.012772247,0.013105765,0.022754468
-0.08507126,0.0041040257,0.03972558,0.078278266,-0.059976425,-0.061565388,-0.041283745,-0.07961176,-0.046519157,0.0016085729
0.0376727,-0.07839161,0.07654744,0.006359048,-0.045311626,0.026699983,0.0038477778,-0.032343544,0.033755966,0.021456137
0.025404304,-0.011563577,0.05468566,-0.011694372,-0.043295655,0.029885292,0.014666207,-0.023293726,0.035762444,-0.04669236
0.0070109293,0.0126078725,-0.038394835,-0.073576845,-0.03180928,0.021328032,0.06004163,0.016106278,0.08589303,-0.01981733
0.019285701,-0.022161879,-0.06449225,-0.07659043,-0.060344383,0.07354721,0.03635051,-0.045473285,-0.012732312,-0.014825977
0.026521228,-0.015098646,0.005490832,0.059073724,0.025760517,0.023678869,0.03152878,0.0043012276,-0.008725464,0.05624228
0.079992406,-0.056046285,0.082294784,0.009148307,0.05454,0.06609393,-0.047967624,-0.0037522912,-0.035333633,0.040108852
0.046942748,0.067161344,0.082318865,-0.04750107,0.08172556,-0.05761817,0.06670865,-0.011100069,-0.067055576,-0.07616467
0.08362246,-0.023060933,0.028870858,0.0029379427,-0.07075498,0.0025376976,-0.033323344,-0.028897095,0.043872304,0.0377054
0.03428972,0.057282962,0.0012375799,-0.05138745,0.043770596,-0.0765095,0.04428134,-0.03827646,0.0063099074,0.13719745
0.17151988,0.15826729,-0.15326945,-0.09726036,-0.067558795,-0.14849289,-0.11812315,-0.17515068,0.12595764,0.103149705
-0.002005868,0.095663294,-0.10994121,-0.050959844,0.07103523,0.071127005,0.0014342293,-0.17581563,0.0017729625,0.009856268
0.11225735,0.14572923,-0.2090636,0.06823681,0.07343333,0.0022492558,0.022827253,-0.08289845,0.07831072,-0.07454282
0.053786464,0.04250806,-0.019347772,0.03671909,0.031463332,-0.025592245,0.031135038,0.0061119124,-0.018101461,0.021008655
0.08558337,0.047156923,-0.0636186,-0.0069355667,0.0846898,-0.07196575,0.05170978,0.07980896,0.073419385,0.023397163
-0.024862647,-0.055431463,0.04408727,-0.05833801,0.076034434,0.062377833,0.069070615,-0.050591122,-0.0027221292,-0.049136955
0.020522952,0.06576411,0.080876686,0.053188153,0.06122128,0.03577347,-0.086396866,-0.066702455,-0.08191383,-0.08572042
0.068712495,-0.013111383,0.07693399,0.013493001,0.08018971,0.043810852,0.044064738,-0.020197392,0.03436476,-0.083910175
-0.058357596,-0.021889448,0.074622296,0.029418632,-0.055996895,0.0233998,-0.03682728,-0.061272413,-0.08227004,0.08640986
0.0077462047,-0.007898495,-0.021148242,-0.075794,-0.011698686,-0.08329139,0.026940234,0.018209338,0.08365663,0.0282031
-0.019015975,0.012724996,0.047723897,0.00560876,0.004846871,-0.040055342,-0.015232407,-0.05533252,0.0186425,-0.058530323
-0.08648057,-0.021330476,0.085818045,-0.004367031,-0.02703955,0.06872658,-0.012746669,-0.02727433,-0.029045057,0.017518125
0.07272337,-0.026205886,-0.008986361,0.070780925,-0.0055013597,-0.051174294,0.07499636,0.05405719,-0.0274803,0.08317611
-0.06109772,0.064132385,0.0261954,-0.067840494,-0.040992346,0.028085195,-0.05721108,0.07043391,-0.07649224,-0.042131003
-0.08141598,-0.07147165,-0.07004022,0.07537826,-0.0144978985,0.021137588,-0.085015856,0.0056099445,-0.076211825,-0.07526579
0.057979815,-0.075365186,0.030839868,-0.060704887,-0.031828202,0.018978007,0.022976026,0.017069124,-0.027430724,0.055454277
-0.015028469,0.07131355,0.0077868477,-0.058168724,-0.0039857253,-0.0230131,-0.018923104,0.07466168,0.017321415,0.04082232
-0.012872994,0.026144065,0.0005715862,0.066207774,0.06355048,0.07576645,-0.06348884,-0.06272279,0.004964657,0.07710428
-0.08517824,-0.06754893,-0.032475296,0.012860931,-0.009226501,0.051167645,-0.034131244,-0.07659912,0.03711383,0.084507115
0.07443954,0.09142131,0.09800734,0.00554263,-0.08035417,-0.024114344,-0.06539853,-0.049726777,-0.054691084,0.111484714
0.24149862,0.0062125516,0.00584136,0.019608634,0.072220765,-0.09540811,-0.15956624,0.0037166208,-0.09039983,0.3315995
0.3986221,0.33506334,-0.06204913,0.045237333,0.08315707,-0.35821444,-0.08670073,-0.111387484,-0.11702963,0.4973686
0.46748647,0.41863167,-0.06626833,0.015291833,-0.0055066645,-0.5851507,0.01741859,0.04152329,-0.03564217,0.4829714
0.27221042,0.4351606,-0.010721154,-0.15462023,0.07725736,-0.4437947,0.07473217,0.102351844,0.042796746,0.41884035
0.20909198,0.5557439,-0.10489772,-0.10084593,0.033697277,-0.663888,0.1427503,0.17765048,0.008920611,0.22627752
0.034436736,0.3415067,0.22467898,-0.1461046,0.010992233,-0.68705726,-0.03250724,0.24227977,0.045776352,0.34469405
-0.02970254,0.21720894,0.3243996,-0.32809612,0.09357644,-0.65355915,-0.0674525,0.3124144,-0.015324428,0.41443777
0.20093364,0.15405689,0.27354702,-0.021366397,0.047608763,-0.63544863,-0.20209822,0.13763364,0.10999013,0.71699065
0.06215551,0.35619092,0.22926529,0.108684346,0.0014559833,-0.5067198,-0.36601186,0.39913282,0.43612128,0.52545947
-0.2019478,0.08180779,-0.035079293,-0.28635198,0.10870154,-0.03163559,0.2214861,0.20501097,0.6078625,-0.15685181
0.07423103,0.2424177,0.09767488,-0.045270085,0.13621424,-0.3606572,0.032644928,-0.33577642,0.57890445,0.08170451
0.029467728,0.07262167,0.5030721,0.089700885,0.12499533,-0.36699685,-0.13184755,-0.11754967,0.24805099,0.13501948
0.1586624,0.05717506,0.46936145,0.08159467,0.048977334,-0.5758627,-0.33209598,0.099158466,0.13523448,0.40695485
0.29874972,0.45398533,0.6283864,0.36688593,-0.01084302,-0.6335149,-0.19181107,0.20733207,0.20911726,1.0733066
0.46269545,0.26232874,0.20996574,0.14086628,0.010819229,-0.38632277,-0.22806929,-0.12014146,0.009546799,0.5380847
0.48126048,0.19042271,0.22614238,0.16485937,0.047991067,-0.4259215,-0.10859361,-0.102137245,-0.015858747,0.535183
0.36090901,0.017928565,0.061556164,0.102876835,0.081614755,-0.34453258,-0.075679906,0.15967341,0.029192267,0.5558294
0.45111835,0.21624811,-0.14046948,0.09012429,0.022350589,-0.4635654,-0.16222884,-0.0030260934,-0.026049726,0.5265732
0.26171616,0.30927965,-0.23869447,-0.09701334,-0.024424277,-0.30916673,-0.123164505,0.11250381,-0.035824005,0.26796073
0.052225538,-0.020558,0.00031241775,-0.04902537,0.0793943,-0.06527449,-0.08159598,-0.069983974,0.04817169,0.03716266
-0.014919698,-0.065712355,0.035400786,-0.033720568,0.05396407,0.008603908,0.076233424,-0.07946349,0.014815077,0.034419663
0.0636952,-0.07025147,0.03988152,0.06550958,-0.0694619,0.05260106,0.00290972,-0.054561034,-0.02461027,0.058841117
0.03017275,-0.024064794,0.054315783,-0.045705203,0.063426234,0.076195724,0.003998637,0.053857066,-0.07524933,0.06505013
0.06752967,0.012352638,-0.08206771,0.04429885,-0.035962448,-0.039371796,0.06838315,0.06078749,-0.04607391,-0.068276666
0.04148472,0.078347676,-0.018140092,0.044700496,0.06885152,-0.037437443,-0.049753975,-0.037276343,0.023324892,0.024641462
0.025191465,0.09815773,0.0651241,-0.039818805,-7.4759126e-05,-0.13024664,-0.041992564,-0.0277287,0.10974594,0.09396484
-0.057163935,0.20029335,0.19132708,-0.27886513,0.03959195,-0.25365108,-0.027317971,0.26257917,0.148657,0.3097643
0.0033979367,0.2703309,0.30370393,-0.16896893,-0.0018870959,-0.40123662,-0.06085552,0.31245908,-0.009799258,0.43078688
0.17228647,-0.08826244,0.2925561,-0.080191,-0.04183257,-0.08565704,-0.3611517,0.3012371,0.08108744,0.4054039
-0.0148135405,0.33067846,0.2434855,-0.25969702,-0.14755815,-0.432142,-0.39637473,0.420764,0.039867327,0.5020952
0.36382836,0.7012943,0.17722514,-0.42056167,0.0064738668,-0.66846925,-0.38636735,0.32836387,0.06431351,0.6284076
0.26642296,0.5057128,0.12146556,-0.11769249,-0.23250964,-0.9258758,0.1740614,-0.0061180755,-0.0009156553,0.57086223
0.11970553,0.5197784,0.2834604,-0.17129864,-0.2145376,-1.1534438,0.35249057,0.05867112,-0.24084315,0.56818855
0.1661901,0.7001236,0.3610594,-0.2646689,-0.45385647,-1.1793312,0.32542005,0.11979458,-0.25556096,0.6162793
0.023144351,0.83793813,0.34126773,-0.3375064,-0.21977219,-1.4000219,0.30129382,0.12815243,0.011485814,0.39839
0.38331625,0.9799435,0.46608397,-0.71059054,0.074296586,-1.5830998,0.5134099,-0.17056109,0.07919301,0.40982372
0.16623977,0.6705573,0.6341545,-0.99634016,0.1204157,-1.5285089,0.14458914,-0.22869737,0.45359972,0.2638705
-0.046124034,0.6298124,0.5379546,-1.0723962,0.37514767,-1.3515338,0.31925374,-0.18540917,0.5066797,0.122738115
-0.11674374,0.7152761,0.5389803,-0.63314164,0.2867922,-1.413094,0.5801659,-0.17340592,0.5281568,0.08308647
0.17474997,0.6739554,0.43163428,-0.22530718,0.20506832,-1.1655425,0.38511613,-0.1627233,0.2058931,0.12555924
0.05665561,0.7995968,0.48444495,0.025302177,-0.14719726,-0.77480805,-0.3063793,-0.20308937,0.03992487,0.30924785
0.16533558,0.8856366,0.43665993,-0.26029342,-0.03253539,-0.9019131,-0.6678336,-0.12227173,0.21594165,0.5848621
0.37602466,0.65280426,0.59777945,-0.15490496,0.0056250463,-0.40720183,-0.87218666,-0.010275233,0.23564126,0.4024484
0.23620279,0.6495812,0.5164729,-0.13377003,0.14336933,-0.3782817,-0.7848283,0.09163589,0.1861314,0.52564234
0.08863705,0.35490406,0.82870334,0.11518021,0.057432316,-0.2836848,-0.7391178,0.275379,-0.12087995,0.7136457
0.13116552,0.13730712,0.644284,0.2448683,0.07275541,-0.1452146,-0.57599366,0.18754727,-0.07624252,0.80497205
0.47044772,0.038674854,0.19618115,0.25790772,0.05311452,-0.7552403,-0.5515022,0.13880697,-0.15780647,0.8153062
-0.24035192,0.19134077,0.21463378,-0.3102922,0.0024498077,-0.44406435,-0.42268124,0.3100376,-0.12485432,0.13637027
-0.19631469,0.11903938,0.16466552,-0.1643084,-0.028541386,-0.16329089,-0.27287948,0.22778404,-0.0070535764,0.017265946
0.014128856,-0.053675804,-0.065142654,-0.072579965,0.065783195,-0.0089087635,-0.056111112,-0.057440013,0.054509617,-0.079136856
-0.0019623116,0.04444637,0.01826138,-0.056192398,-0.041536205,0.039111935,-0.07454794,-0.010364339,0.040018685,-0.04184029
0.024911933,-0.024313375,-0.0030173883,0.054854132,0.015223436,0.02460277,-0.060268197,-0.07147811,0.07906372,-0.08011715
0.022116952,0.05100111,-0.0824187,0.03721665,0.058022015,-0.028648183,0.060273193,0.06557306,-0.08489302,-0.054298338
0.14627697,-0.03180159,0.17211892,-0.26280835,0.20416018,-0.018231034,0.32041138,-0.11067008,-0.010267368,-0.19398725
0.29887322,0.28297493,0.19975294,-0.20144993,0.377278,-0.33971986,0.22560519,0.003246343,0.039853297,0.008684598
0.31391838,0.4071496,-0.20909886,0.1991943,0.33135757,-0.3662869,-0.119557664,-0.28278533,0.26726034,0.07002765
0.1177019,0.12416934,0.19078672,-0.073576935,0.44622287,-0.20142324,0.09328478,-0.14216438,0.07108261,-0.15581807
0.07572124,0.3441823,0.057143886,-0.21819559,-0.17923254,-0.6456397,0.081690826,-0.17776969,-0.1173475,0.09806017
0.09962811,0.5061574,0.20297162,-0.058130387,-0.033972055,-1.1605563,0.12562658,-0.070745625,-0.26549155,0.24530669
-0.021118887,0.61504287,0.071501255,0.24113648,-0.13709894,-1.1646411,0.23127045,-0.038815413,-0.15041931,0.034657773
0.096339844,0.79512453,0.28622472,-0.008980161,0.03923239,-1.0406158,0.49956965,0.07798402,-0.22498287,0.013810809
0.24670905,0.6092752,0.13848309,-0.04133719,0.03235406,-0.7852825,0.2170744,0.16749135,-0.1492054,0.005948278
-0.14398333,0.36088133,0.26770175,-0.07615599,-0.18922055,-0.633069,0.08485773,0.16964623,-0.13461694,-0.034305077
0.051232543,0.37387502,0.17727906,-0.50184757,0.13647869,-1.1556189,0.21542543,-0.022161627,0.13425285,-0.044232793
0.062791914,0.34383187,0.17011033,-0.635144,-0.16579522,-1.7541276,0.18606195,0.12124973,0.017479852,-0.05358466
0.009540201,-0.06680157,0.07670557,-0.35486975,-0.041651536,-1.3201402,0.01989783,-0.097505845,-0.117886044,0.18423632
0.12967953,-0.080548055,-0.1531941,-0.3307945,0.11301498,-1.2842712,-0.02979054,0.0077402615,-0.08899349,0.18705451
0.004241902,-0.16930413,-0.08753792,-0.27539697,0.09106195,-0.8904832,0.021110205,0.017443473,-0.27564713,0.25382748
-0.016568616,-0.16880465,-0.016216774,-0.11190557,0.20196612,-0.5096938,0.19227146,-0.09842702,-0.2132303,0.35201833
0.18448909,-0.043160345,-0.23638542,-0.14546095,0.2509065,-0.37517717,0.05909262,-0.08201812,-0.090287775,0.38180044
0.3926382,-0.28563038,-0.15044358,0.065596595,0.05376919,-0.29421464,-0.1811105,-0.016163452,-0.10686795,0.42355207
0.45244518,-0.33300605,-0.15238927,0.07556694,0.15061744,-0.11815427,-0.39496246,-0.27522856,-0.35353398,0.46307588
0.21445623,-0.09032197,0.013994267,0.028938398,0.08072814,0.28158227,-0.5777435,-0.12408954,-0.13833414,0.6124524
0.32250002,0.117850944,0.0591492,0.005538697,-0.07854859,0.19455741,-0.59243065,-0.18051681,-0.23725799,0.6095896
0.24216688,0.527511,0.18389183,0.30690297,-0.10765191,-0.39932233,-0.8023063,-0.11899925,-0.26212713,0.8030321
0.23923746,0.28688666,0.17969446,0.35806444,0.05306628,-0.27866364,-0.70242006,-0.0459565,0.018474594,0.19350539
-0.036385056,-0.036729876,0.40387055,0.15522517,-0.28856486,0.061190803,-0.36748117,-0.060946885,-0.028995713,-0.17546962
0.23524688,-0.24499777,-0.04615311,0.3599277,0.026826072,-0.027336992,-0.3969799,-0.2418066,0.15049599,-0.013830535
0.07858942,-0.034338456,-0.0054595172,-0.028317153,-0.07596654,0.043890677,0.06860637,-0.0704264,-0.0021183565,0.029473782
0.06450286,0.079650246,-0.018966049,0.031688288,-0.043134246,0.012643769,0.002280116,-0.02010724,-0.047145814,-0.035473116
0.011431888,0.06557018,-0.1437643,-0.020113112,0.10399866,0.037362024,-0.07668407,-0.07121978,-0.14679599,-0.04455813
0.32645017,0.017779147,0.0036821375,-0.17949083,0.2414685,-0.28380942,0.22530551,-0.18095663,0.09684752,-0.27326953
0.57857835,-0.1072772,-0.37994376,0.113723114,0.5074792,-0.5227723,0.13835388,-0.6319299,0.45456842,-0.39328265
0.27547634,-0.18805149,-0.059370384,0.329159,0.48108906,0.028729944,0.108493686,-0.089159906,0.10296104,-0.0979013
0.08068253,0.27570835,-0.25370768,-0.112176135,0.23810714,-0.2355427,0.072001755,-0.2188654,-0.2932805,-0.46677303
-0.058395717,0.0044845124,0.05260092,-0.29721212,0.17639117,-0.3092895,0.2081319,-0.041805543,-0.021428464,-0.38939455
0.02306575,0.020655245,0.052696235,-0.045146562,0.06273006,-0.32284915,0.048279583,0.05307029,0.20127533,-0.19998735
-0.005093857,0.1363281,0.03793556,-0.08293966,0.17256832,-0.29315603,0.10606677,0.12994199,-0.18696538,-0.14599605
0.16151811,0.10890743,0.17725313,0.0658546,-0.044676006,-0.19964573,0.08093146,0.18714084,-0.15640016,-0.22950664
0.2441004,0.088723585,-0.14142345,-0.2954681,0.028482756,-0.27007085,-0.019077454,0.014682187,0.0069509824,-0.03601231
0.004314575,0.06782303,-0.11562924,-0.01601131,0.039486762,-0.1255138,-0.024695281,0.13280159,0.117528535,-0.09876825
0.012512479,0.29786113,-0.11466026,-0.14476374,0.22502984,-0.36537886,-0.03342961,0.10569681,0.04021554,-0.15066898
-0.007265038,0.23545872,-0.0088146515,-0.1625112,0.121270284,-0.5398794,0.10523961,0.32670856,0.12764266,-0.27080745
0.0642945,0.30707443,-0.09646401,-0.11144329,0.08878221,-0.58437353,0.020552915,0.18174152,0.12744866,-0.20749736
-0.0030711063,0.172065,-0.08075465,0.06731119,0.22811039,-0.6310776,-0.037001643,0.12326751,0.20582354,-0.22755611
-0.08566834,0.17829058,0.021550424,-0.015960539,0.14396478,-0.31254792,0.18675514,0.124078445,0.16144037,-0.016794736
-0.14758322,0.17784248,0.047598638,0.14775398,0.102320276,-0.23560591,0.17474201,0.21729602,0.049221538,0.08285546
0.02424882,0.19179754,0.063505426,0.04358402,0.25030828,-0.033718593,0.080368176,0.0071422914,0.2114613,0.15450443
0.053131826,0.017301518,0.16967838,-0.0108603705,0.1388819,0.095307335,0.26261076,0.07740858,0.11772681,0.37423366
0.16735655,-0.008632509,0.17235808,-0.09225312,-0.083637096,0.26683608,0.10951518,-0.020258732,-0.09642209,0.50060976
0.44292948,-0.09078275,0.1738644,0.26115158,-0.09033754,0.3588955,0.08834591,-0.12680516,0.15427609,0.34561473
0.30462912,-0.15355265,0.13441463,0.19850238,-0.090524,0.29843035,0.10585536,0.17397219,0.28410286,0.32989305
0.32711008,0.16952506,0.13462964,0.19020794,-0.4724201,0.4718363,0.06269352,0.21476813,0.04308796,0.2482023
0.325465,-0.07144644,-0.115217604,0.26405874,-0.007485568,0.5256693,-0.70218754,-0.24670891,0.30699548,-0.035761602
0.055123772,-0.022588115,-0.118910365,0.3339945,-0.034037493,0.33121213,-0.8256196,-0.20624754,0.44545603,-0.19420977
0.33353773,0.1928789,-0.16653055,0.19819646,0.10010646,-0.16326876,-0.20804098,-0.29833922,0.39115947,0.022690827
0.024075575,-0.0008975228,0.21879502,0.31455612,-0.0942282,-0.34336883,-0.4160803,-0.021149984,-0.02403022,0.015272151
0.03960324,0.0025827512,-0.0060010776,0.08647572,0.0023951456,0.06299589,0.0006162971,0.04232981,0.01127249,-0.08467515
-0.013336025,-0.076386,0.026991367,0.047847204,0.001149252,0.029053494,0.03998386,-0.05715854,-0.032219604,0.007639654
0.2856366,0.6663567,-0.3880035,-0.44603455,0.4245341,-0.35528582,0.15259077,-0.4427869,0.17857082,0.007499596
0.5116856,-0.034503162,-0.23650643,-0.033371422,0.34239945,-0.27309525,0.3315689,-0.13641189,0.03353098,-0.41620803
-0.0810543,0.03699782,0.21115349,-0.21047942,0.39560977,-0.009104167,0.2631729,-0.017892811,-0.0756266,-0.43969917
-0.014876069,-0.18391702,0.07486103,-0.27187204,0.356153,0.065728985,0.17121524,-0.10469564,0.05944204,-0.51835626
0.07217518,0.014486956,0.0043153376,-0.39385903,0.33987594,0.04329828,0.09368724,0.013049164,0.038662907,-0.35093054
0.16352284,0.22344026,-0.24698935,-0.3412083,0.17086624,-0.09877586,-0.041618265,0.13795201,-0.0489901,-0.3124495
0.050518744,0.0036391392,-0.1138248,-0.12414587,0.04971229,0.015482676,-0.01529312,0.11558324,0.036556095,0.0023864503
0.029910296,0.08311118,-0.144779,-0.047908414,-0.023481047,-0.055215057,-0.093757346,0.105841696,-0.043062,-0.14609978
0.102290496,0.11248033,-0.04410367,-0.12354565,0.042047903,-0.1709207,-0.07450573,0.29962227,0.05233492,-0.041607674
0.057696197,-0.026658054,-0.18425776,-0.15993436,0.065271795,0.000940508,-0.12472928,0.20758387,0.05596971,-0.22319517
0.11720897,0.18981275,-0.20830537,-0.07251388,-0.09429106,0.014043699,-0.099393815,0.07225216,0.1309283,-0.14157784
-0.007705504,0.19037592,-0.10162925,0.042400464,0.09947225,0.06899721,-0.16168557,0.24651806,-0.036072765,-0.33462942
0.008823326,0.32648274,-0.07507459,0.11518693,0.044184774,-0.13985474,-0.1950578,0.27783802,-0.0007586138,-0.20945552
-0.0071182568,0.23793367,-0.089376055,0.03578018,0.19061056,-0.14235234,-0.00956652,0.101926,-0.018696032,-0.35543773
0.16325904,0.3793663,-0.08525476,0.293107,0.15177931,-0.32436052,-0.1779745,0.23299196,0.07207081,-0.21926226
0.23344854,0.42198157,0.018064378,0.27070975,0.09502349,-0.24962212,-0.22026686,0.2737615,0.16848639,0.015708031
0.32481286,0.30132246,-0.028324893,0.14396633,0.025267003,-0.12409966,-0.21897754,0.13907038,0.14704938,0.035907812
0.11885608,0.36306468,0.06918031,0.09603691,0.12415389,-0.08176263,0.0071534254,0.21427108,0.116418265,0.2542435
0.11830727,0.38254917,0.096095055,0.2032642,0.012670939,-0.012694086,-0.08222369,0.0021887713,0.25975445,0.48944238
0.2611558,0.38964275,0.042653356,0.020165322,-0.24135152,-0.04962407,0.11141057,0.11056176,0.14347222,0.26940575
0.29020834,0.16326973,0.1153792,0.06780495,-0.14836842,0.16551061,0.21241206,0.064035095,0.42248574,0.11996939
0.3014587,0.069767915,0.15505594,0.09678799,-0.28383517,0.32470587,0.25429147,0.07708097,0.17452152,-0.09575235
0.4704348,0.04439339,-0.053619564,0.113739125,-0.45446885,0.65935546,-0.027285349,-0.19483739,0.09642299,-0.35472757
0.101068236,0.24364531,0.022117086,0.16294572,-0.07882127,0.48992774,-0.5618844,-0.12659284,0.33819714,-0.3932976
0.22806717,0.5321988,0.007919442,0.23468147,0.19692963,-0.34548724,-0.58211637,-0.60042197,0.24581864,0.046065282
-0.042694036,0.11937448,0.23022574,0.20300062,-0.0016177078,-0.23000315,-0.20596741,-0.16429467,-0.12586188,0.044692617
0.048305504,-0.07655885,-0.03145639,0.041965403,-0.06678182,-0.04583596,0.032318152,0.075264,-0.046724774,-0.055491317
0.011837245,0.2188879,-0.079947785,-0.02733175,0.21581282,-0.18141046,-0.08924698,-0.1447245,0.24551411,0.049203284
-0.008422724,-0.11670553,0.07515981,0.24228765,0.04908835,0.04561355,-0.2853793,0.0034066697,0.29035726,0.14683163
0.15142657,-0.3661189,-0.06030468,-0.36042288,0.12435308,0.18575226,0.19457379,0.044720575,0.11434766,-0.5471771
-0.08233597,0.13577595,0.30270207,-0.085584626,0.19768275,0.031996265,-0.10896901,0.06925246,0.18357202,-0.6823782
-0.055558372,-0.10396616,0.1954898,0.09278247,0.14768022,0.040037453,-0.18659103,-0.2604641,0.19955117,-0.41131404
0.19978796,0.035235643,-0.12281671,-0.12652408,0.059795305,-0.22141102,0.04805302,-0.16649222,0.028040582,-0.15513419
0.14439516,0.20094332,-0.12737606,-0.033639845,-0.05002025,-0.16739613,-0.045728467,0.14820606,-0.05662092,-0.058265075
0.14970094,-0.011899459,0.046495076,-0.098760955,0.060574453,-0.036860976,-0.08445343,-0.017690146,-0.08859207,-0.00026094567
0.10076019,-0.02966309,-0.03713032,-0.23596086,0.0830916,-0.051506042,-0.1694218,-0.092846006,0.0050070165,-0.21467713
0.019875111,-0.10099309,-0.11562636,-0.1489195,0.040330052,-0.0013209666,-0.20712152,0.07518552,0.10679347,-0.35506648
-0.061605405,-0.12063224,-0.121682934,-0.31053737,0.07988305,0.011097789,-0.16891024,0.0035525004,0.12905365,-0.1542458
0.07710772,0.095817156,-0.19423555,-0.28008175,0.13767405,-0.008645054,-0.108557,0.10553104,0.105030015,-0.18018074
-0.07623206,0.026830781,-0.31369793,-0.09321677,0.16614811,0.016903594,-0.06177103,0.18398324,0.092915416,-0.0908593
0.03167084,0.074195854,-0.3202279,-0.08887704,-0.010088483,0.16310988,-0.0899011,0.14358196,0.18086827,-0.19844134
0.027060807,0.16410275,-0.2669906,-0.08068062,0.053851794,0.15753812,-0.17433596,0.17125244,0.06101408,-0.26562092
0.12188499,0.0126875555,-0.31090644,-0.03994164,0.12868471,0.15674223,-0.05336216,0.25206003,0.101342686,-0.123541154
0.03741655,0.0429138,-0.19867612,0.05106474,0.055216968,0.14018615,-0.053258594,0.08074187,0.068128884,0.003996091
0.10904117,0.11110401,-0.20173663,-0.09388111,0.1325753,0.111974575,0.00984411,0.12560847,0.05005403,-0.15890837
0.18727863,0.086321406,-0.14106011,0.04775669,-0.046225324,-0.01719751,-0.20713691,0.10224364,0.12528916,-0.11338332
0.010149285,0.08766413,-0.111857705,-0.12799248,-0.07743946,0.07569676,-0.18291555,-0.10272778,0.29523706,-0.16881153
-0.08482314,-0.045584343,0.05830744,0.029737486,-0.063549645,0.061066106,0.1213692,0.052052487,0.21238042,-0.4313128
0.11730893,0.02249567,0.25150493,0.16000512,0.02528149,0.04190524,0.0680523,-0.012501004,0.24093936,-0.24882077
-0.1194617,0.29736623,0.21889034,0.10475728,-0.1997401,0.16740756,-0.18952478,-0.19079287,0.26860717,-0.6839828
0.39876646,0.26380047,-0.08249982,0.3662789,-0.40393984,0.084055945,-0.4158611,-0.71955454,0.58654195,-0.25497788
0.29710713,0.62502295,-0.012231717,0.15457195,-0.22083294,0.1504377,-0.5616993,-0.37873018,0.3207053,-0.042876713
0.17099075,0.42126617,-0.14636613,0.012542608,0.21131891,0.21562982,-0.20970847,-0.5639412,0.04193465,-0.41578087
-0.08784761,0.40412858,0.041180935,0.3149537,0.06476984,-0.39498863,-0.15034765,-0.29210737,-0.14269353,-0.2713957
-0.057063825,-0.069589436,-0.025144741,0.043915577,-0.07076107,0.07613825,-0.06516545,0.059500568,-0.040787555,-0.076101795
-0.0714754,0.27393645,-0.4969554,0.4123175,0.39599934,-0.37811935,-0.29870346,-0.29605207,0.33010423,0.013545208
-0.19636111,0.02996905,0.19272651,0.08495505,-0.07630094,0.15753432,-0.035411876,-0.09671549,0.2361088,-0.09178587
-0.0171989,-0.39909962,-0.11337445,-0.10731402,0.106476694,0.47794622,0.41681147,-0.19617791,-0.023951832,-0.7656023
-0.056980006,0.2488892,0.0734482,-0.31770262,0.12480099,-0.039500102,0.102882095,-0.118655264,0.022729907,-0.5704229
-0.17726035,-0.101562224,0.12104131,0.007570644,0.069293596,-0.21614115,-0.08034654,-0.1595188,0.018511888,-0.4199709
-0.077010185,-0.06303795,-0.19597462,-0.098178245,0.060082372,-0.104686424,-0.1458914,-0.021278927,-0.08592272,-0.18987654
-0.020856386,-0.08886384,-0.037758008,-0.17668732,0.06715693,-0.19167541,-0.091102816,0.07369404,-0.023876017,-0.15689409
0.008454985,-0.11374279,-0.009985645,-0.08000286,0.028209748,-0.1356734,-0.06782892,-0.13266756,0.059045587,-0.10443027
-0.10469689,-0.20457947,-0.023201812,-0.1703721,-0.0033571788,-0.16083072,-0.17376582,-0.097331546,0.10278965,0.00013035127
-0.10850542,-0.18077186,-0.26048273,-0.08206407,-0.074982755,-0.12921207,-0.14747918,-0.06265349,0.035430226,-0.112912215
-0.01705521,-0.2628985,-0.1872017,-0.059828244,-0.067775674,-0.20329401,-0.07215003,0.08330311,0.035044614,0.03720457
-0.05354523,-0.14627132,-0.32792386,-0.04844853,0.12915136,-0.00016112847,-0.03507017,0.06730493,0.08545438,-0.04420798
-0.045275196,-0.08656684,-0.18828644,-0.21955654,0.10778599,0.059428908,0.005346311,0.21147285,0.15029645,-0.16600613
0.013713051,-0.015230988,-0.3744412,-0.123389594,0.043496788,0.068799205,0.05046035,0.13195232,0.13709356,-0.10177947
0.07361265,0.024421223,-0.39434475,-0.2236661,0.10448722,0.14559747,-0.09224196,0.15268998,0.12073481,-0.07091253
-0.041778386,-0.003279098,-0.29394755,-0.17617148,0.06998141,0.16450277,-0.07248874,0.15684938,0.14890562,-0.1985067
-0.1481736,-0.16110395,-0.053692922,-0.13787463,0.20085894,0.031938158,-0.02627321,0.014341814,0.2360414,-0.28716266
-0.27243656,-0.11478248,-0.11699389,0.068721935,0.080733694,-0.03285093,-0.18512398,0.06056275,0.3758684,-0.47677058
-0.3828997,-0.035967257,-0.116771646,-0.028569613,0.02258616,-0.032568987,0.041368213,0.0013537029,0.19696447,-0.91466
-0.42858133,-0.12744446,-0.28485253,0.008449908,-0.06807687,0.029178912,0.05027548,-0.12652354,0.33809444,-1.2222887
-0.4302656,0.051190767,-0.077919886,-0.0027939843,-0.11036143,-0.061098643,-0.17446356,0.028588908,0.20918648,-0.94568986
-0.32248947,0.17115413,0.11396127,-0.033334777,0.0026750604,-0.1069045,-0.11105258,-0.050410554,0.20108013,-0.96492773
-0.63709414,0.10425395,-0.008183806,0.23366694,-0.4549635,0.0522971,-0.35400936,-0.09143504,0.07769263,-0.99342006
-0.52311355,0.6249238,-0.10391194,0.3600624,-0.4611046,0.072207615,-0.777558,-0.3240782,0.20294341,-0.7118675
-0.082404114,0.42103574,-0.05926175,0.41645485,-0.03736626,0.20926405,-0.58667165,-0.8590588,0.5476891,-0.50960934
-0.34434018,-0.07179998,0.057174634,0.26829684,0.16823146,0.27164206,-0.4857574,-0.7105587,0.5589262,-0.29124326
-0.22631282,0.2085393,-0.0522394,0.4379928,0.09951444,-0.5541576,-0.45447245,-0.43511084,0.189249,-0.50963295
-0.014436281,0.17581233,0.25206137,0.2667692,0.041363515,-0.22201526,-0.06694964,0.21405366,0.062375173,0.082390666
0.0145409675,-0.07586796,-0.0048232805,0.39323443,-0.25847304,-0.3704531,-0.5617662,-0.132245,0.06206812,-0.05899795
-0.561915,-0.3533625,0.37492928,0.39081067,-0.49567232,0.43190777,-0.012598844,0.059880264,0.116968215,0.015664412
-0.32274005,-0.22199486,0.059724253,0.12384713,-0.13083996,0.16370514,-0.013790977,-0.02438849,0.035346963,-0.3813461
-0.19648331,0.15380152,-0.14596526,-0.18398266,-0.08220559,-0.21363755,0.05946032,-0.0006757567,-0.08783674,-0.36505792
0.00010410661,-0.05671116,-0.18517512,-0.008505925,-0.06823334,-0.20718761,-0.1555511,0.0022910344,-0.118824854,-0.43467513
-0.0453834,-0.12408708,-0.025241476,-0.022504846,0.06260124,-0.14816183,-0.14884238,0.003493059,-0.08480763,-0.31144702
-0.06837483,-0.23823957,-0.05941321,0.16101174,-0.044682696,-0.33536318,-0.26102602,-0.078081295,-0.115787156,-0.32395604
0.040285744,-0.29036227,-0.13784632,0.15305398,0.012430148,0.01667777,-0.059295367,-0.13408321,-0.20484267,-0.07688751
-0.09810028,-0.17081454,-0.05575326,-0.02288536,0.005779474,-0.17008056,-0.1903194,0.007891865,-0.08558973,0.0041463654
-0.10367342,-0.17553388,-0.03971088,-0.0926672,-0.0038046252,-0.15224557,-0.1786909,-0.068403184,0.051448792,-0.2634658
-0.06287739,-0.21962686,-0.1059561,0.15545654,-0.07867797,-0.090878785,-0.063094504,0.0719682,-0.02562222,-0.20724289
-0.121478155,-0.207429,-0.14390306,-0.008023513,0.14148948,-0.23054755,-0.12251045,0.01291635,0.051197328,-0.1013842
-0.15800914,0.0048096417,-0.30296412,-0.014313474,0.065291844,-0.070010886,-0.01628799,0.050824516,-0.03292918,-0.076206595
-0.26788354,-0.047005277,-0.31449845,-0.11258236,0.06791845,-0.025110878,0.00019435066,0.21681838,0.17970933,-0.07965495
-0.42117962,-0.057617947,-0.27315938,-0.12367675,0.15948124,-0.060248036,-0.109557614,0.16797875,0.106648445,-0.1349877
-0.30746466,-0.13204944,-0.27111977,-0.059316967,0.12516235,-0.13718647,-0.18727589,0.17289774,0.15950832,-0.42394835
-0.45620754,-0.07651601,-0.19165568,0.06825243,0.120731525,-0.13098061,-0.08735038,0.030131843,0.032053426,-0.71360385
-0.47904214,-0.07753789,-0.27992415,0.026474958,0.104103535,-0.13332967,-0.037920028,-0.12639196,0.18539082,-1.0434041
-0.6662317,-0.009060134,-0.29576892,0.035015427,0.034844395,-0.18668313,-0.13572747,-0.17400783,0.07317312,-1.2246871
-0.6221762,-0.026968893,-0.21410728,0.213659,0.0032440894,-0.13451149,-0.13189483,-0.09260354,0.0015502386,-0.86942303
-0.77196854,0.033767812,-0.17085999,0.1816947,0.14645724,0.03604868,-0.12707275,-0.06595725,-0.14080194,-0.74752474
-0.7337415,0.08466985,-0.2592096,0.20089437,0.074417785,-0.22602816,-0.15133199,-0.14321801,0.021259418,-1.0755339
-0.8795529,0.051899154,-0.09341665,0.40929666,-0.65850306,-0.008295578,-0.33955824,0.085811146,0.03131575,-1.3277669
-1.0675786,0.5471809,-0.3715552,0.43590537,-0.4471268,0.07648111,-0.7745965,-0.3813007,-0.12042185,-1.1026576
-0.53112245,0.5965207,-0.29427767,0.2940881,-0.18729421,0.12523401,-0.60481876,-0.9916115,0.03617051,-0.8513567
-0.20020707,0.3299834,-0.20105027,0.15914473,-0.056951106,0.116622925,-0.7222273,-0.68922746,0.6217041,-0.57476205
-0.01332166,0.43549094,-0.3455448,-0.06931493,0.0445491,-0.1453743,-0.37176868,-0.32817626,0.1606735,-0.4828094
0.066971384,-0.097213045,-0.031347312,0.11035508,-0.04560423,-0.050525177,-0.06874458,0.06607785,0.04444062,0.07839256
-0.08409705,-0.24415602,-0.22668533,0.3078931,-0.22897702,0.16419213,-0.29539675,-0.058871202,0.015712157,-0.013201161
-0.61010695,-0.2512473,0.18966207,0.455332,-0.37399605,0.33769032,0.0344877,0.19042067,0.076878324,-0.082365066
-0.49120495,-0.0259831,-0.1896627,0.35826728,0.17504087,0.035965957,-0.08599391,-0.16615368,-0.06262902,0.047785986
-0.14870673,0.07774685,-0.32820654,0.15411372,0.23910062,-0.29509863,-0.21593624,-0.21828625,-0.0018106662,-0.37660256
-0.1883272,-0.23753998,-0.24574533,0.060421005,-0.027838023,-0.10467211,-0.23739064,0.024203753,-0.13964753,-0.53556734
0.108362585,-0.19488855,-0.21868084,-0.113373116,0.06545717,-0.0137971835,-0.087736614,-0.14299142,-0.043798923,-0.43348426
-0.027473034,-0.059076045,-0.18673944,-0.046867706,0.13114047,-0.022864195,-0.037117083,-0.14147228,-0.10102298,-0.30354646
-0.11208845,-0.1643862,-0.028679017,0.09222643,-0.12755176,-0.054860376,-0.30124998,-0.16534464,-0.057795823,-0.11440489
-0.10205702,-0.04029492,-0.10782448,0.07620396,-0.13461037,0.029775346,-0.2123795,-0.014206668,-0.03987505,-0.09476282
-0.08421231,-0.016790505,-0.11171282,-0.008887886,-0.118127376,0.081189446,-0.009169143,-0.07215346,-0.038032956,-0.28353345
-0.14440222,-0.17475273,-0.04445443,0.21281078,-0.2112647,-0.01907381,-0.092234075,-0.17286459,0.016310984,-0.1067303
-0.06790608,-0.220537,-0.101085074,0.31310356,-0.26203,0.028245475,0.072419524,-0.12137088,-0.10289457,-0.13096099
-0.17741168,-0.25127193,-0.11177333,0.1571468,0.03483878,0.041223846,-0.037515037,0.094961464,-0.061676607,-0.31598005
-0.18710811,-0.16938789,-0.38894746,0.12412548,0.13859545,-0.15284716,-0.0525817,0.15086967,-0.22639453,-0.1574372
-0.23585987,-0.19356969,-0.3445299,0.015576998,0.19188212,-0.066412866,-0.062730454,0.04366723,-0.2467645,-0.2711336
-0.39001262,-0.17272048,-0.17951041,0.18778785,0.1896368,-0.17818023,-0.22623783,0.059849467,-0.4518103,-0.5452857
-0.40868396,-0.1563148,-0.15000899,0.20033063,0.22298577,-0.05334249,-0.29298565,0.054371417,-0.4519111,-0.7168773
-0.49193886,-0.052710112,-0.24082784,0.24983314,0.10886737,-0.059617836,-0.19646785,-0.09131434,-0.5662563,-0.7192667
-0.49290434,-0.102529034,-0.12599003,0.23470308,-0.09791096,-0.10431198,-0.07641051,-0.15342024,-0.46369135,-0.4927069
-0.4577799,0.072851524,-0.1558517,0.18037334,0.17306265,-0.12480271,-0.17181095,-0.0678888,-0.43339884,-0.050169945
-0.5206549,0.11612065,-0.26578793,0.19499527,0.20308843,-0.16227894,-0.12819187,-0.13892794,-0.50340766,-0.107497446
-0.54262096,0.22903922,-0.38533118,0.25399786,0.12102153,-0.19767877,-0.09122734,-0.1554512,-0.22619003,-0.34705994
-0.7890445,0.26242253,-0.20489915,0.47170535,-0.5514696,-0.23566596,-0.46578944,0.031150488,-0.48767024,-0.7426315
-0.9752533,0.59581375,-0.48712057,0.63506067,-0.8130472,-0.39424118,-0.9827486,-0.12127696,-0.5346381,-0.6441795
-0.29076847,0.9000439,-0.895591,0.6255743,0.16556412,-0.27201524,-1.0825808,-0.88089734,-0.27352902,-0.6848912
0.110763535,0.57736063,-0.6267898,-0.020586072,0.06404383,-0.06588546,-0.7573237,-0.7332802,0.41715187,-0.3219625
0.028977433,-0.23723446,-0.35307777,0.11905555,0.11555304,0.023097023,-0.2891931,0.065557525,0.18508096,-0.38546103
0.103519775,-0.028001867,0.030692896,0.10960596,0.030451037,-0.051134694,0.032506905,0.041047208,0.058737762,0.081010304
-0.1682325,-0.06679803,-0.34588304,0.22536077,-0.35857913,0.20768201,0.036779895,-0.21176422,-0.06807312,0.017766515
-0.18659748,-0.6038832,-0.09475364,0.56030095,-0.105051674,0.31408578,-0.081597455,0.064481676,0.093086496,-0.30396277
-0.3402843,-0.27763933,-0.20447882,0.48302802,0.57307816,0.065949626,-0.53301215,-0.114064,-0.022361282,-0.24649006
0.10818484,-0.0059027774,-0.066490896,0.25935584,0.38434422,-0.32425505,-0.52060586,-0.24063689,-0.10436893,-0.5381404
-0.14340799,-0.03367535,0.012466179,0.045465574,0.09799889,-0.017738434,-0.57642144,0.017612997,-0.21380277,-0.5369804
-0.02688674,-0.029518872,-0.21177372,0.07650038,0.0051555005,0.057696164,-0.46613297,-0.049077522,-0.17994228,-0.30008674
-0.04173678,0.006814337,-0.11746757,0.20972745,0.06642543,0.07088211,-0.23108417,-0.2448679,-0.10150143,-0.043017976
-0.091816396,0.09782101,-0.027861707,0.14929761,-0.2968513,0.013491343,-0.18110654,-0.092656046,-0.08843816,0.07896857
0.118765034,-0.0374818,0.07240285,0.26200742,-0.32407674,0.2149382,-0.16284841,-0.11452957,-0.04277183,-0.083988264
-0.08197019,-0.0017321415,0.0050207498,0.15683377,-0.21759821,0.20291373,-0.05100158,-0.116760425,-0.11232432,-0.005466269
-0.0966882,0.039193332,0.058318745,0.205631,-0.32073152,0.17290461,0.08078537,-0.13536581,-0.20452978,0.07876404
-0.008758678,-0.0027746877,0.079711825,0.24441206,-0.28382912,0.22651413,0.13909577,0.011455329,-0.16068017,-0.20026474
0.11338889,-0.28072324,-0.07144301,0.42234954,0.23181756,0.116916746,-0.018882586,-0.005761386,-0.52235293,-0.23220626
0.051954407,-0.25159657,-0.38172346,0.13912082,0.33160958,-0.020291934,0.27146548,0.087845474,-0.7384717,-0.23080987
-0.028786924,-0.31193987,0.026160473,0.18040243,0.24581446,-0.14377928,0.25157863,0.08987739,-0.5770063,-0.5271514
0.019299526,-0.23892553,-0.01940222,0.14366207,0.27029237,-0.071043804,0.116471544,0.11200258,-0.5683384,-0.4724327
-0.02775549,-0.17809203,0.044039592,-0.013653044,0.2683904,-0.027962495,-0.24065337,0.15292446,-0.72763073,-0.5035026
0.03335433,-0.07334602,-0.074493386,0.19582772,0.098154224,0.010096901,-0.20641983,0.1791301,-0.78423536,-0.29157063
-0.0327236,-0.05960018,-0.08153972,0.09569159,0.10161856,0.0030864105,-0.22816767,0.045400187,-0.7188593,-0.11225043
-0.1078214,0.038875245,-0.096365705,0.21580802,0.20140941,-0.013390496,-0.45268765,-0.09620393,-0.6301983,0.1410722
-0.23507279,-0.055347398,-0.0010033904,0.18174821,0.17324355,-0.08522252,-0.2045704,-0.020944942,-0.4864918,0.098867916
-0.23782545,0.14433202,-0.0969985,0.099123895,0.08324929,-0.11115456,-0.27389464,0.017278375,-0.56748325,0.25103122
-0.02478037,0.25813583,-0.52937895,0.30135697,-0.31231287,-0.29365626,-0.5843445,-0.009665299,-0.87035877,-0.114076905
-0.08399489,0.38854808,-0.6839038,0.656836,-0.37503853,-0.32118687,-0.7747562,0.061979417,-0.8263837,-0.33967146
-0.1765192,0.40954417,-0.9408033,0.41904867,0.47312698,-0.11544526,-0.3424945,-0.53659576,-0.42502052,-0.45442644
0.21207327,0.55950844,-0.6535135,0.37682942,0.023081377,-0.45588654,-0.3724805,-0.45983595,0.36650008,-0.1109425
0.1779916,0.16750702,-0.4089779,-0.25237554,0.21108791,0.33069468,0.30359438,-0.09393254,0.30249727,-0.5240464
0.038821973,-0.09240181,-0.0013545831,0.00070824276,0.026964419,-0.07469968,-0.090910375,-0.024196945,0.012437426,0.04996904
-0.091965355,-0.281189,0.10259019,0.4670803,-0.14118621,-0.12756386,0.15423587,-0.10045408,-0.093819976,-0.0824479
-0.22845621,-0.7522989,-0.4314434,0.8426702,-0.24536341,0.07203085,0.13672033,0.23238415,-0.00094687945,0.036397543
-0.0005094905,-0.2298328,0.15517575,0.49491504,0.6145923,-0.012759618,-0.4655555,-0.088641964,-0.081928015,-0.23836349
0.22585651,-0.018439466,0.044732142,0.27387187,0.067954786,-0.1359763,-0.63967794,-0.3663859,-0.1548922,-0.43378085
-0.010957379,0.08220179,-0.06453524,-0.092931546,-0.34283325,0.12168629,-0.24471591,-0.21187876,-0.12924314,-0.26876846
-0.041422118,-0.07731728,-0.034946352,0.11290741,-0.383372,0.12365082,-0.36759037,-0.15123883,-0.045480102,0.16396056
-0.005932547,0.0049698385,-0.0030221632,0.113375686,-0.6017593,0.22627321,-0.22834688,-0.21669544,-0.14610042,0.13712731
0.04936131,0.095600836,0.00076964975,0.11203062,-0.38738382,0.2932259,-0.056450948,-0.18087408,-0.21479212,0.08869123
0.051243655,0.037526514,0.1617116,0.1020751,-0.35862347,0.262206,-0.06299843,-0.16138974,-0.09778897,-0.07397037
0.1576774,-0.084907524,0.1413845,0.13804941,-0.2725739,0.23661983,0.15034176,-0.24968633,-0.14501281,-0.12764195
0.24651037,-0.040519785,0.11105203,0.18003112,-0.17041115,0.28923032,0.24735616,0.011416464,-0.0058224415,-0.058598377
0.4948594,0.0050488953,0.16225204,0.27342576,-0.059002396,0.17894866,0.10170735,-0.11909908,-0.22098242,-0.1188422
0.41744062,-0.20801564,-0.1831301,0.35746527,0.19728373,-0.015002687,5.594526e-05,-0.06671286,-0.14875615,-0.18235369
0.33532986,0.05325133,-0.18873097,0.12973896,0.4814141,-0.04760623,0.37770537,-0.1999742,-0.14837362,-0.16660635
0.19045956,-0.18745135,0.11171807,0.0066697802,0.22185987,0.09565803,0.47922555,-0.1484313,-0.09300072,-0.35245594
0.2572974,-0.5897073,0.36660162,-0.07956135,0.119042285,0.107179984,0.16912077,0.032423925,-0.1663179,-0.22544701
0.31212717,-0.3781546,0.12470795,-0.1410423,0.19844376,0.28463596,-0.045774896,0.011735038,-0.13206834,-0.1346469
0.38148302,-0.20627318,0.06944446,-0.052327402,0.2548599,0.20334439,-0.15045956,0.12987554,-0.25880828,-0.13610768
0.15114981,-0.08362914,0.07946146,-0.0810293,0.18877664,0.14027737,-0.25330335,0.1398546,-0.19903292,-0.014920615
0.00590965,-0.31929448,-0.17029388,-0.28915855,0.10043711,0.18740551,-0.5198371,0.070355475,-0.44639644,0.16819696
0.10147603,-0.24968444,-0.049145754,-0.04524018,-0.24156828,0.14565319,-0.6351798,0.13503218,-0.4686815,0.24189556
0.27083758,-0.06506774,-0.024555366,-0.09157852,-0.29378602,0.061871186,-0.5484426,0.09622642,-0.5401502,0.25704908
0.5456361,0.12674788,-0.12207772,0.059958346,-0.45692438,-0.4595549,-0.58821034,0.19355366,-0.545099,0.3832223
0.61978555,0.31020403,-0.49745664,0.1910031,-0.26311013,-0.4400102,-0.553534,0.08878037,-0.8018635,0.036625125
0.15190724,0.2572981,-0.44140947,0.25400308,0.25631246,-0.20676155,-0.10016172,-0.23746116,-0.42335,-0.19865867
0.10317101,0.8358363,-0.38375604,0.075530514,-0.04840916,-0.21997416,0.08317184,-0.69991267,0.2996861,-0.4955154
0.34192395,0.13205466,-0.3429153,-0.14850394,0.3601937,0.20949301,0.19138023,-0.22047459,-0.06293418,-0.42998597
0.04194226,-0.02861809,-0.018397301,0.06294612,0.0032235235,0.059021138,-0.0839876,0.07966868,-0.05970266,0.05530279
-0.15455684,-0.24817228,0.1572442,0.4620898,-0.15452528,-0.027022129,-0.056605272,0.109268844,-0.13184981,0.15559697
0.08334508,-0.7062243,-0.2659896,0.59966767,-0.52560484,0.12967007,-0.0003101108,0.16113518,-0.046170715,-0.30866164
0.29923984,-0.07943537,0.003615539,0.17634402,-0.01639841,-0.048724882,0.015250377,0.23666105,-0.25078064,-0.21976423
0.18730521,-9.5542106e-05,-0.32465523,0.15950112,-0.12728423,0.1405796,-0.41939425,-0.34703067,0.09401239,-0.42984742
-0.1619242,0.006586092,-0.14024629,0.1942944,-0.47048163,0.043289363,-0.6249047,-0.15690239,-0.14742516,-0.18230529
-0.045464598,0.01859867,0.11352044,0.07091093,-0.36921817,0.31591958,-0.20978141,-0.14554517,-0.11430159,0.21789768
0.0149907265,0.07758108,0.16878358,0.16166426,-0.22688808,0.31645447,-0.11751119,-0.3190255,-0.16297494,0.17042048
0.12266386,-0.019384824,0.13443542,0.18229845,-0.12971418,0.26564354,-0.03579585,-0.1041734,-0.08901725,0.16640472
0.14431733,0.009668221,0.20046005,0.11611083,-0.0077504525,0.26416966,0.25760314,-0.14572778,0.042984854,-0.0138365235
0.08618729,0.0116665205,0.21546781,0.196151,0.015104615,0.1660693,0.2826655,-0.12187363,0.091375045,0.028848903
0.28286824,0.0410875,0.3953979,0.1638431,0.0653267,0.19814144,0.18298648,-0.05050656,0.095797524,0.045259114
0.23716767,0.058958605,0.49009326,0.26150241,0.0155797135,0.0067185224,0.0976557,-0.2026115,-0.024946395,0.08510892
0.13169497,0.12524486,0.14916039,0.19648951,0.13399406,-0.2269831,0.21043855,-0.21850915,0.020002842,0.08344677
0.03544946,0.60324293,-0.37876573,-0.18650556,0.38661492,-0.1241491,0.5131162,-0.29916713,0.18270782,0.0069245803
0.23660833,0.071593925,0.021816693,-0.16710547,0.20540142,0.22138482,0.46995932,-0.3507217,0.104618125,0.0090223765
0.2712124,-0.30068508,0.3319741,-0.2326003,0.022567121,0.23653096,0.2558738,-0.26347303,0.0987588,0.26786104
0.16607459,-0.23924056,0.1829066,-0.3479293,0.09833775,0.19172862,0.19015148,-0.0005709872,0.023280237,0.1402374
0.23040056,-0.24360225,0.21938884,-0.2591048,0.16170664,0.2798309,0.17039412,-0.062016577,0.13388094,-0.0353392
0.068784595,-0.19442604,0.19357173,-0.4255694,-0.06288425,0.28476316,-0.116548344,0.060454153,-0.04345004,-0.07064555
0.2905239,-0.22766162,0.12693349,-0.41639763,-0.36725175,0.16543162,-0.6264491,0.026042456,-0.21789308,-0.025307585
0.350355,-0.121224575,0.0949893,-0.47594163,-0.757394,0.20638798,-0.6544239,0.032212224,-0.12438938,0.15828562
0.4836992,-0.26835835,0.045195445,-0.36905047,-0.7600085,0.26957256,-0.6053514,0.19040614,-0.29278558,0.23720984
0.41782016,-0.06169655,-0.045973063,-0.49568978,-0.77386147,0.05660479,-0.28965658,0.3650882,-0.36566082,0.2538077
0.21029195,0.22202712,0.10925797,-0.30076587,-0.5327331,-0.44217822,-0.038122274,0.28696835,-0.48154336,0.06133102
0.068154626,0.15225333,-0.013097405,-0.18779904,0.26001343,-0.1321228,0.10613877,-0.20110077,-0.15394394,-0.38075548
0.5623022,0.36725587,-0.5001954,0.027567953,0.25964892,-0.27373508,-0.3698115,-0.5384695,0.38459244,-0.3882769
0.1819903,0.056597833,-0.26788625,-0.44800058,0.28043994,0.01860711,0.29491758,0.0017912294,-0.08146741,-0.33987325
-0.047548015,0.31635642,-0.09059911,-0.13887823,0.17811082,-0.062013365,-0.22202823,0.011275366,0.12705724,0.00065222225
-0.156375,0.16316956,0.2548341,-0.033863097,0.032939766,-0.18697305,-0.022455664,0.32197237,-0.084270574,0.120948836
0.1340537,-0.45388272,-0.10013117,0.46120253,-0.53663814,-0.19630824,-0.28182146,0.041246712,-0.08246657,-0.23673104
-0.019574275,-0.10012686,-0.039377313,0.25661415,0.13120101,0.10038598,0.075401224,-0.19962946,0.0146713955,-0.17160931
-0.24940182,-0.1431674,-0.13026674,-0.08718491,-0.18219316,0.4592589,-0.124858364,-0.29966336,0.17609945,-0.28239843
-0.33796284,-0.11158491,0.10926692,0.34658694,-0.26187626,0.19880882,-0.5783919,-0.1444631,0.069297105,-0.16326764
-0.24534126,0.04586246,0.2646454,0.12944023,0.042247772,0.3642169,-0.24797435,-0.06960435,0.23662274,0.12407561
-0.038125027,0.024926368,0.30805176,0.07761364,0.045713365,0.27415946,-0.0066379923,-0.18913852,0.28249785,0.0010278833
-0.14051096,0.061167214,0.23364426,0.03241009,-0.105443135,0.24996804,0.022416629,0.014503177,-0.012290842,0.026223676
-0.03841096,-0.015275671,0.21311459,-0.004766254,-0.026877198,0.096381634,0.30297887,-0.07598455,0.00076122954,-0.021397833
-0.020974176,-0.053096596,0.27841854,0.18171862,-0.10841502,0.28807315,0.3096318,-0.06577494,0.02146519,0.20844553
0.027618159,0.04176613,0.37269515,0.1859789,-0.08045008,0.2579377,0.08449984,-0.2641494,0.10987889,0.16384937
-0.12599559,0.16192082,0.38768217,0.19660291,0.12240509,0.060645472,0.13193992,-0.42199466,0.21374881,0.23034385
-0.0988293,0.4929333,-0.05569209,-0.0762532,0.24625193,-0.2381128,0.31763425,-0.33097488,0.2394742,0.15336156
-0.15151781,0.8284612,-0.34808782,-0.22268686,0.25489992,0.1964298,0.54313123,-0.21904707,0.1327316,0.1147746
0.028264862,0.18792003,0.07773857,-0.10977647,0.08608714,0.22918984,0.42101598,-0.3531518,0.005302286,0.31036374
0.16795418,-0.18676935,0.16933723,-0.28327683,0.03711449,0.27603418,0.28260916,-0.39370245,0.028482277,0.44746467
0.012990443,-0.19797115,0.19487761,-0.45726043,-0.08325884,0.2325822,0.1729075,-0.25566798,-0.025532898,0.12337466
0.12543282,0.1619546,0.19049558,-0.3668476,-0.1187607,0.23665294,0.17457505,-0.14961793,-0.04140313,0.026311524
0.15235196,0.0031811856,0.15946501,-0.32425144,-0.25686827,0.1794582,-0.37155735,-0.13305685,-0.036875047,0.1742908
0.3799471,-0.114961594,0.13118929,-0.38305333,-0.52409494,0.23596328,-0.67490137,-0.18093759,-0.12957186,0.031003762
0.41091236,-0.18649092,0.20668836,-0.34122738,-0.42306754,0.33821383,-0.52588534,0.016305985,-0.08761533,0.16187689
0.4547973,-0.26770353,0.30999467,-0.08599223,-0.50049174,0.21846458,-0.124322675,0.2740126,-0.09806175,0.29750168
0.3590678,0.036303684,0.305796,-0.06390179,-0.55341995,-0.3509837,0.21769622,0.47356743,0.11212058,0.43091935
0.18845806,-0.059099484,0.12363589,-0.03624532,-0.5306662,-0.41284087,0.012484686,0.26055712,-0.007447155,0.099272564
-0.064064056,0.052747805,0.0056335665,-0.5377702,0.13106552,-0.030362926,0.017905898,0.14162555,-0.0528298,-0.365098
-0.066064544,0.5064849,-0.046727043,-0.28793427,0.2300541,-0.040870517,-0.06451061,-0.31778476,0.33409995,-0.20000795
0.21830693,0.42923117,-0.026659086,-0.43216646,-0.08037732,-0.20192266,0.06422243,0.2008622,-0.15625316,0.035589844
0.08355067,0.12114929,0.00042700255,-0.10011136,-0.07347485,-0.23947778,-0.1576913,0.043536194,0.11278956,0.018666193
0.047181778,-0.21559137,-0.17113586,0.100171335,0.34797397,-0.014472308,-4.3646814e-05,-0.17375465,0.051600117,-0.08111778
0.048590574,-0.53198856,-0.24181518,0.61200976,-0.15152848,-0.31108144,0.101959564,-0.16259855,0.13666448,0.05968441
-0.067801945,0.04645404,0.23294534,0.03567452,0.09295905,0.12494426,0.016679645,-0.28190833,0.05732941,-0.20377444
-0.4574015,0.02688525,0.17617194,-0.37081167,-0.11001711,0.46874163,-0.19212319,-0.2078107,0.10882022,-0.41113815
-0.4028987,-0.020236574,0.27307916,0.1869917,-0.22681619,0.028716521,-0.41536862,-0.040999286,0.060220204,-0.08713016
-0.13680874,0.051472377,0.26788232,0.012161303,-0.15950778,0.11989821,-0.2016824,-0.14817701,0.2676744,-0.05269274
-0.20011596,-0.14769992,0.3914064,0.101104125,-0.049426015,0.20532306,-0.083234236,0.16436681,0.17434312,0.072704345
-0.20066626,0.05511739,0.27979237,0.047491014,0.08319805,0.23832501,0.0114047155,0.0070742066,0.17829245,-0.07016741
-0.23622862,0.007046956,0.27703118,-0.019775815,0.028973157,0.16184911,0.20076151,-0.055058233,0.15189944,0.08597615
-0.11816765,0.08112067,0.23373562,0.19694921,-0.056171995,0.15126167,0.08274693,-0.108669914,0.1031504,0.24815086
-0.07384506,0.1421502,0.43371314,0.031124977,-0.08742275,0.17237636,-0.176102,-0.120076925,0.08832989,0.49929965
-0.24628586,0.090756245,0.33318725,0.056472212,0.09338563,0.021094924,0.022432454,-0.19432554,0.15373437,0.089718506
-0.3144598,0.6114236,-0.08251167,-0.061084535,0.000991167,-0.15868467,0.38158065,-0.26239407,0.12726289,0.1661508
-0.28667125,0.8074358,-0.31998393,-0.12507966,0.16675566,0.076698475,0.3357247,-0.3280915,0.11169594,0.24722117
-0.20245333,0.18146566,0.081948936,-0.028228495,0.054048944,0.23223618,0.12626582,-0.23118202,-0.013841615,0.3109012
-0.09063608,-0.22830494,0.15240997,-0.2315073,-0.2225238,0.20331143,0.09490309,-0.36814088,-0.028598769,0.16457365
0.015944222,0.024243413,0.25685415,-0.19940111,-0.076547615,0.22253203,0.14653152,-0.30098286,-0.12468256,-0.0061938134
0.16212983,0.025332337,0.24451567,-0.19069171,-0.10833118,0.20184661,-0.13731706,-0.236361,-0.0939068,-0.055128846
0.21845421,-0.12010028,0.3573865,-0.09609523,-0.20626777,0.22719757,-0.7892832,-0.21565668,-0.08854044,-0.05316576
0.3337373,-0.2739375,0.2774346,0.033969205,-0.23269345,0.22935268,-0.7773538,-0.042325888,0.060877126,-0.04558121
0.33612442,-0.22800064,0.24935019,0.10078526,0.16271405,0.10926285,-0.3465633,-0.015522068,-0.008150233,0.2055485
0.28763282,-0.2731909,0.36262283,0.23390102,0.03037208,0.015677307,0.2208925,0.11518085,0.08055608,0.29097754
0.12846607,-0.37050682,0.09811606,0.12840234,-0.07043133,-0.08466705,0.498797,0.378784,0.2781302,0.10927394
0.08122568,-0.18569888,0.0065749283,-0.03490462,-0.06681404,-0.21666497,0.24209316,0.42113626,0.18324445,0.22521795
-0.120222494,0.0972059,-0.20120549,-0.42503852,0.23212917,0.01186286,0.08994314,0.2804222,0.12070155,0.12238186
-0.35550022,0.7048885,0.0142465625,-0.7174999,-0.11038067,-0.04089755,0.43841514,0.29041317,-0.23449033,-0.2654909
0.17428215,0.17942032,-0.085557796,-0.31067497,-0.009279856,-0.025786776,0.30680087,0.2790107,-0.22189614,-0.12984137
-0.0022933856,0.043272704,0.026867315,-0.0683291,-0.13514608,-0.32777727,-0.04424006,0.07576028,0.012213056,-0.03415862
-0.045601036,-0.0076298183,-0.24509905,-0.14769049,0.30052078,0.19815506,0.0046951436,-0.037365172,0.16919257,0.031428553
0.3928366,0.106762104,0.077182665,0.23516952,0.20775457,-0.50353974,0.19783442,-0.36359647,0.08326625,0.077975474
-0.012951994,0.08588188,0.30967322,-0.22303852,0.036600098,0.05076273,0.016593639,-0.26997814,0.014497239,-0.14011124
-0.04612709,-0.17742111,0.12966444,-0.27543435,-0.27267978,0.13815913,0.121594995,-0.24309133,-0.27242082,-0.3273374
-0.007937623,0.007953383,0.17009453,-0.038473323,-0.45004997,0.11226745,-0.087217145,-0.0026359272,-0.00063993764,0.0004843204
0.037393175,-0.029116271,0.12868151,-0.16746947,-0.39947876,0.1536279,-0.1947889,-0.20370312,-0.034564674,-0.028981186
-0.12438068,0.11318986,0.15912168,-0.0022920256,-0.56427914,0.13456698,-0.25973797,0.025548406,0.04784917,0.23702507
-0.04121439,0.20488292,0.20914182,-0.05931463,-0.25871617,0.116388075,-0.06730373,0.104859225,-0.02103924,-0.02070557
-0.17144345,0.09573633,0.20710734,0.08967845,-0.16660279,0.12130049,-0.007660916,0.20766369,0.11453628,-0.09799273
-0.31400844,-0.030985856,0.31334803,0.0009387292,-0.13072936,0.279713,-0.021436017,0.083606474,0.04798572,0.27114123
-0.25724787,0.10279998,0.2370091,-0.031344105,-0.004019844,0.10442936,0.12513094,-0.071482114,0.03639914,0.26924777
-0.32324177,0.28887773,0.05365277,0.1105389,0.2046782,-0.014599161,0.022849133,-0.15937668,0.16154073,0.077822074
-0.29978955,0.80639505,-0.26469836,-0.2899531,0.23887105,-0.19979802,0.28323436,-0.18585496,0.0033906642,0.11845904
-0.38221097,0.7687948,-0.13865109,-0.20518899,0.18916443,-0.0037140357,0.09813509,-0.1405577,-0.029137593,0.021315705
-0.24970174,0.10790757,0.052534476,-0.07632354,-0.047565132,0.16405219,0.15389855,-0.23265289,0.029063934,0.097342096
-0.06762582,-0.10299869,0.30433044,-0.18024936,-0.092434965,0.27641532,0.2261209,-0.39838243,-0.019460883,-0.044343263
0.09520588,-0.07706688,0.2931799,-0.108696565,-0.123390965,0.42638025,0.07666911,-0.36624792,0.012517898,-0.05146651
0.1251275,-0.07867317,0.16048959,0.09110865,-0.04491441,0.22031778,-0.7310351,-0.1800486,-0.043933082,-0.16346833
0.28150007,-0.25653985,0.44085678,-0.038444914,0.053017616,0.24284156,-0.77508944,-0.2905004,0.0858924,-0.053731192
0.2911558,-0.26795283,0.2516918,0.1138122,0.17814487,0.1331417,-0.23307945,-0.036782637,0.12220011,0.16017848
0.4171636,-0.36936343,0.20079544,0.15745409,0.19348338,0.031689543,0.26201838,-0.051057287,0.032316167,-0.06633255
0.071724474,-0.27451813,0.24584042,0.07918632,0.36069822,0.1420036,0.4287899,0.023702964,-0.20504837,0.14656503
0.23322888,-0.16066636,-0.052060567,0.35374758,-0.08968937,-0.106996804,0.41756663,0.06266851,0.04723486,0.17862777
0.14819051,-0.0018070585,-0.12337845,0.12709948,-0.54463714,-0.45449334,0.19414991,0.19835103,0.29148442,0.12939212
0.09104843,0.78090686,-0.029192338,-0.5877239,-0.40451205,-0.58769494,0.3648371,0.0025758862,-0.15819213,0.29624006
-0.08167162,0.6425093,0.08340358,-0.513803,-0.055182803,-0.24734801,0.316519,0.19462778,0.079913065,-0.23782581
0.22383453,0.3639263,-0.22932966,0.007616224,-0.02315859,-0.3788466,-0.14744587,-0.1427111,-0.2598454,0.18258457
-0.08503285,-0.082546495,-0.08431961,0.06926308,-0.0031329766,0.004081063,0.038967006,-0.08649701,0.072135486,0.048675753
-0.093086354,0.078365944,-0.25312063,-0.29743424,0.44689316,-0.022345277,0.02176208,-0.21298291,0.26637456,0.07626715
-0.079217665,0.254572,-0.13130838,-0.00919638,0.07084415,-0.33219197,0.3712733,-0.31458583,-0.032854274,-0.05319021
0.05780363,0.05271809,0.13442777,-0.092373095,0.19261003,-0.096127674,-0.025462128,-0.3294474,0.01235825,-0.29398182
0.072683856,-0.10136749,-0.18964282,-0.11428393,-0.15830451,-0.0100594275,0.2359854,-0.1384017,-0.30634522,-0.5259448
0.06703675,0.050572928,-0.03747009,-0.09139716,-0.19314794,-0.11437404,-0.35027444,0.016053235,-0.31431043,-0.036754556
-0.038761307,0.08344523,0.10482854,-0.067603685,-0.36727268,-0.1044264,-0.36213773,0.011799471,-0.34643415,0.07667807
0.04923408,-0.077140406,0.17679067,-0.0280494,-0.6682197,0.038312238,-0.15263905,0.09042022,-0.06470172,0.13529466
0.08597943,-0.09801365,0.20970775,-0.15642597,-0.6772515,0.35358942,0.003672712,0.086068034,0.062887095,-0.18680483
-0.010391465,0.15296777,0.107431956,-0.08181217,-0.5979484,0.09723607,-0.056508902,0.15597524,0.16876826,-0.007147696
-0.076811515,0.18987994,0.15421933,-0.07510814,-0.43417975,0.15506987,-0.03725403,0.06406307,0.105408184,0.27389362
-0.35232112,0.2237158,0.21885483,-0.10542893,-0.37401408,0.10957683,0.04597704,-0.0066975243,0.07529246,0.410654
-0.35069698,0.36607444,-0.08688744,-0.07102371,-0.2751221,-0.0068752705,0.060924806,-0.17842592,0.08823103,0.015236077
-0.2239605,0.70101655,-0.21945949,-0.28656587,0.019949371,-0.09445708,0.05027129,-0.18115163,0.18709832,0.03726827
-0.1934968,0.5593661,0.07364267,-0.16424718,-0.07913049,-0.04315183,0.20319994,-0.18926364,0.045228556,0.01931757
-0.0998914,0.050228275,0.3469482,0.07390456,-0.15110548,0.12407006,0.060271315,-0.29795465,0.04190988,-0.0071324278
-0.1706646,0.0927805,0.44110835,-0.16928345,-0.1915605,0.321333,-0.01541147,-0.3008353,0.048686195,-0.002264726
-0.19616444,0.04716504,0.32418612,0.11263432,-0.03406209,0.3516339,-0.31316298,-0.14324659,-0.05210803,-0.081239514
0.08691827,-0.031060923,0.29800135,0.1768964,0.27444836,0.25590193,-0.59088737,-0.11384986,0.04914091,0.18273772
0.14293244,-0.2780707,0.3402257,0.20637353,0.26284477,0.11009358,-0.3196075,-0.088901855,0.010477836,-0.014975692
0.15016486,-0.22473434,0.23593841,0.15871876,0.24446027,0.10563255,0.12830852,0.16332032,0.035607994,0.14783573
0.2210702,-0.15196414,0.33610997,0.036901493,0.17941359,-0.0013326913,0.35417572,0.18705554,0.1434538,0.18464941
0.16296162,-0.11599064,-0.009085721,-0.013191823,0.30993748,-0.06753722,0.35816157,-0.037915748,0.0020887777,0.35622454
0.07557058,-0.043386597,-0.08216203,-0.110301845,-0.061571978,-0.4420707,0.5601366,-0.0031631533,0.056970336,0.08726367
-0.05991954,0.13585836,0.05954518,-0.26037255,-0.395322,-0.4437565,0.39617458,0.120206915,0.16958937,0.057251442
-0.046918616,1.3220265,0.50908476,-0.6911586,-0.19758488,-0.8840708,0.40807053,0.2807315,-0.23263244,0.09445458
-0.19686998,0.70976084,-0.00028054902,-0.5759844,0.17646486,-0.5953284,0.23923035,-0.10908059,-0.05938595,-0.054859027
-0.12029455,0.21454796,0.08619112,-0.17528653,-0.32987174,-0.20638703,0.12275561,-0.13006604,-0.28480282,-0.05596195
0.082042165,0.0532336,0.059985317,-0.048912354,-0.027054619,0.005620323,-0.00018938631,0.049239136,0.020513438,-0.02648991
0.07183972,0.20069559,-0.1295274,-0.19108742,0.51347923,-0.08058125,0.13651828,-0.37119395,0.13572289,-0.017321406
-0.011718858,0.35867748,0.24457447,-0.3485044,-0.107624166,-0.29661354,0.15471777,-0.027149763,-0.17412482,0.035850238
0.2697695,0.017929459,0.053745225,0.12175218,0.27547115,-0.2696856,0.24730052,-0.30526125,0.105172105,-0.12137117
0.31213158,0.061498094,-0.08072853,-0.14859347,-0.014788849,-0.44349167,-0.045937676,-0.013967909,-0.2801966,-0.7978214
-0.061639,-0.006548112,-0.06758746,0.053100407,0.023190591,-0.1950449,-0.3905486,0.28573844,-0.5105274,-0.46580154
0.19808698,0.035816513,-0.10814862,0.10585402,-0.101340376,-0.0011629323,-0.5042566,0.11146933,-0.41856557,-0.020520616
0.20182861,0.09650269,0.02256242,-0.15991071,-0.3153578,0.10723531,-0.31202486,0.112194054,-0.17725009,-0.035355467
0.22312331,0.02106254,0.10291534,-0.089830175,-0.49778056,0.08796115,-0.060554534,0.07489294,-0.09529329,0.104963556
0.10927381,-0.027353229,0.11416086,-0.18637478,-0.97601146,-0.032282352,-0.09462105,0.1226919,-0.12702966,0.14709638
0.0069108815,0.27773866,0.11001187,0.055378255,-1.0646658,-0.034486312,-0.03239965,0.15458643,0.040937804,0.32580245
-0.21199374,0.27550334,0.014978573,0.0561411,-1.3533207,-0.046834182,-0.13795538,-0.023412257,-0.01177357,0.52141625
-0.24649893,0.4142576,-0.24944001,-0.18574375,-1.002127,0.07553243,0.058307227,-0.09366756,0.19704187,0.07159429
-0.094550595,0.32301784,-0.009666113,-0.1903362,-0.63431364,-0.06202365,0.1848929,-0.09523324,0.18109998,0.006836229
-0.13471578,0.23885442,0.24991551,-0.14117536,-0.4043289,0.041764442,0.1656601,-0.11491254,0.019700337,-0.14519608
-0.07280304,0.029275319,0.32296258,0.07290802,-0.39848107,0.3238533,0.014443813,-0.24138895,0.13885902,-0.21912684
-0.116600655,0.23955265,0.3223085,-0.0716945,-0.048526864,0.279224,-0.2311138,-0.17286445,-0.074204065,-0.037728194
-0.037487842,-0.008696152,0.30747187,0.12531328,0.17132713,0.28966787,-0.5037544,0.0065371734,-0.013364069,0.041330393
0.031455085,-0.0965032,0.25189015,0.13494584,0.0694231,0.15096766,-0.37094223,0.07797307,0.10582463,0.09910383
0.062133614,-0.036221437,0.06423338,0.026015839,0.05616118,-0.025922082,-0.18836154,-0.04507607,0.035946503,0.20892435
-0.051289424,-0.03923192,0.10277184,-0.011295268,0.019057212,0.005732016,0.13229097,0.099860296,0.07600118,0.2581445
-0.07317918,0.08800328,0.21042182,-0.12889248,0.14836419,-0.027636945,0.32894173,0.086247556,0.25800884,0.22848216
-0.13226947,0.019746361,-0.032234233,-0.25987872,0.36962885,-0.0044467016,0.37303656,0.17888834,0.10697126,0.22874805
0.103888534,0.009047836,-0.22248599,-0.24129833,-0.100711435,-0.30888975,0.33819765,-0.04087731,0.034135602,0.07338226
0.0883039,0.06076884,0.1432529,-0.3063577,-0.7517155,-0.5817092,0.23317932,0.16063339,0.33777857,0.02367284
-0.16916446,0.95214576,0.7480449,-0.694113,-0.58836126,-0.6596147,0.031068997,0.52057016,-0.118644394,0.17767704
-0.07203324,0.5592988,0.2395284,-0.19167787,-0.12167276,-0.5302379,-0.015177529,0.1471181,0.4362773,0.06630701
-0.09411548,0.25058022,0.329625,0.047345966,-0.2765848,-0.23746742,-0.19198638,-0.03966837,-0.26744327,0.26798213
-0.0747285,-0.27831987,-0.10425452,0.22529732,-0.023375709,0.017311988,-0.17604537,-0.19043227,0.03392639,0.02334358
0.07214773,0.34829104,-0.12393895,-0.21624981,0.45793334,-0.06953588,0.21941003,-0.3196762,-0.11881559,-0.05657129
0.10468495,0.23103768,0.100393295,0.01005877,0.174247,-0.26677525,-0.22340073,-0.35689157,-0.1761235,-0.0008001149
0.5861128,0.09323765,-0.03654976,-0.15268306,0.57430434,-0.31624776,0.08655343,-0.0904863,0.069985755,0.09379069
0.17924686,0.09196786,0.21078336,0.016328137,0.11178005,-0.33770993,-0.35772726,0.15038124,0.14892136,-0.37100467
0.24502064,0.11393725,0.012909545,0.0123428665,0.12840925,-0.31443626,-0.44852096,0.108627,-0.21071556,-0.46327615
0.12528993,0.11457775,-0.19214173,0.27558446,0.10890569,-0.1598561,-0.78926116,0.11546892,-0.21199155,-0.24215758
0.16050707,-0.024698071,0.013292665,0.108652666,0.1271654,0.09971812,-0.23766898,0.1485781,-0.3569752,0.1096281
0.25973198,-0.081783265,0.085895956,-0.067832984,-0.019315876,-0.112153746,-0.0722973,0.16237906,-0.4335408,0.16420078
0.20140475,0.2013366,-0.038322307,-0.15430243,-0.18376638,-0.062219348,0.16804583,0.15230279,-0.44299528,0.24004833
0.14842668,0.20823887,-0.18549505,-0.14863303,-0.47773498,0.019926365,-0.10341621,0.13649228,-0.47102994,0.39428014
0.1991789,0.27443668,-0.14050114,-0.14291853,-0.6354625,0.10853958,-0.07951717,-0.033443633,-0.5073005,0.45740578
-0.10579837,0.34011525,-0.13626418,-0.13937703,-0.8522812,-0.24857472,-0.032531425,0.007951007,-0.42445675,0.34734237
0.14879785,0.09595567,-0.03354458,-0.19264998,-0.5840133,-0.10221988,0.018757606,-0.117868096,-0.21892406,0.05916146
0.1498348,0.16360913,0.027404036,-0.09330437,-0.31049833,0.07586345,0.10571296,-0.17086956,-0.116377704,-0.18255822
-0.05926432,0.16141383,0.18805802,0.17852128,-0.19778647,0.17560902,-0.13675746,-0.18104537,-0.12957329,-0.011407585
0.023370435,0.17446502,0.1537849,0.12736556,-0.044783026,0.17181242,-0.31342757,0.02365102,0.023381244,-0.05146336
0.08118226,0.06274688,0.06784942,0.0734856,0.031701166,-0.052299503,-0.2713741,0.14536856,0.13322033,0.06786492
-0.17063911,0.08068955,0.07602284,-0.093544915,0.119579695,0.020740638,-0.06686243,0.23849505,0.14272776,0.106097996
-0.09070102,0.06403241,-0.057182893,-0.04165282,0.12801449,-0.071888246,0.029645078,0.13655424,0.09977348,0.24406084
-0.19925554,0.15523386,-0.06957551,-0.13626572,0.16278023,0.020185366,0.18072034,0.077768356,0.15677987,0.13938394
-0.038953256,0.17806073,-0.09627813,-0.05848348,0.19422515,-0.016955439,0.19520913,0.09480591,0.079855114,0.23263569
0.14431022,0.050122015,-0.15031707,-0.07169516,0.21320635,-0.31498435,0.1786558,0.26518184,0.1664207,0.14638521
0.37145254,0.26148605,-0.022082768,-0.17009947,-0.35145402,-0.71453947,0.18060204,0.23271145,0.009803624,0.12247441
0.2610462,0.24458636,0.49317083,-0.25712255,-0.5638461,-0.95804626,0.23797134,0.22711238,0.084467925,-0.20434926
0.20750505,0.82195514,0.6802602,-0.715335,-0.2584107,-0.4853476,0.07838672,0.2628655,-0.077429794,0.03159514
-0.016763102,0.38827607,0.28288057,-0.05766152,-0.12422773,-0.3224973,-0.022774931,0.05607667,0.23457707,-0.02775835
0.21708977,0.46661526,-0.10449639,-0.42884338,0.23130205,0.12603767,0.15200144,-0.21224706,-0.34972063,-0.044649683
0.03692086,0.24253948,-0.08206661,-0.20238835,0.2566417,-0.01988639,0.04135773,-0.18187323,-0.05812742,-0.09885489
-0.26148567,-0.32633802,0.27438736,0.19521414,0.35234734,-0.38454673,-0.29680386,0.2251725,0.20691411,0.105251744
-0.0031544692,-0.27837345,0.018246494,0.35071558,-0.13108385,-0.0012173702,-0.41110158,0.03263439,0.14511953,0.18218865
0.42172107,-0.108345315,0.08065681,-0.29822612,0.5384548,0.06429027,-0.03564674,0.088151895,0.08297306,0.012651454
0.07989976,0.007541989,0.30165708,0.013841535,0.31332234,-0.1039453,-0.44675076,0.125034,0.21047628,-0.23113701
0.17510581,-0.011236286,0.12102184,0.020043315,0.18357463,-0.06515527,-0.9059686,0.08247737,0.1751484,-0.5408983
0.07553078,0.028866963,0.038440425,0.20359083,0.14827411,-0.17709702,-0.5069495,0.09548782,-0.021799223,-0.40297246
0.027941313,0.09803956,-0.043150984,0.2232104,0.102970235,-0.12098523,-0.06995426,0.23514025,-0.28258857,-0.083802804
0.13658594,0.062113594,-0.046897985,0.4078959,0.04417175,-0.22168522,-0.08344883,0.25207686,-0.21030393,-0.04311524
0.122525156,0.2215929,-0.073377416,0.054239556,0.12987374,-0.33629084,0.012278939,0.3041365,-0.2941443,0.20456016
0.12329359,0.2028533,-0.05945767,0.06668434,0.3237225,-0.23217817,0.00354854,0.42105335,-0.32824287,0.534469
0.23272955,0.13699901,-0.07435253,0.06313009,0.07887446,-0.11506275,0.09253027,0.2595401,-0.39948776,0.5997798
0.18459126,-0.043062,-0.16136335,0.049904756,-0.19182707,-0.13250296,0.016852036,0.17327835,-0.30905735,0.43324637
0.19090305,0.10823905,-0.034544367,-0.124667175,-0.18496077,-0.15861295,0.069380276,0.023065817,-0.2966249,-0.019371172
-0.014499986,0.12067015,-0.0055635367,-0.056134034,-0.15541871,-0.062356908,-0.058147628,-0.013039843,-0.21300945,0.1111276
0.021092469,0.26778144,0.016245972,0.10850247,-0.24951614,-0.13522217,-0.14102377,-0.06506398,-0.13488634,0.16485447
0.046479233,0.2855457,-0.045982223,-0.017503528,-0.097788624,-0.0797419,-0.1274074,0.18295726,0.060332835,0.11736723
-0.057922624,0.33435887,-0.04393293,-0.012132138,0.07324347,-0.10288133,-0.15442091,0.27568343,0.10523743,0.12257177
-0.026646566,0.29808682,-0.08842456,-0.07316122,0.106177844,-0.22189707,-0.21162485,0.14225914,0.11990725,0.04890822
-0.050975252,0.29014072,-0.091092356,-0.01644016,0.10453334,0.015826061,0.1005716,0.12561424,0.020087695,-0.18235461
-0.0901849,0.2324495,0.06184665,-0.038160566,0.19466336,-0.14217165,-0.048225425,0.27665627,0.16025756,0.04509808
0.03581121,0.2908828,-0.094575115,-0.009785097,0.073403075,-0.12274996,0.02770413,0.29233363,0.05301323,-0.15147536
0.08931471,0.286498,-0.19385454,0.067729145,-0.09584863,-0.4593515,-0.10004466,0.39541686,0.03951458,-0.14880478
0.23439164,0.37551424,0.03568401,-0.08102687,-0.15617152,-0.7077196,-0.113501385,0.1512651,0.07531557,-0.08569586
0.27331108,0.41694123,0.30124158,-0.29102406,-0.15280277,-0.56123173,0.09944882,0.29444152,0.17851345,-0.35427955
0.28518718,0.6320786,0.28650662,-0.71108747,0.13905096,-0.1892658,0.13887332,0.37048322,-0.14553742,-0.20029505
-0.03080328,0.5538248,0.29335627,-0.43694034,0.19001633,-0.14703125,0.48862594,0.058728177,-0.43410003,-0.139304
-0.04398617,0.46079051,-0.09510305,-0.40324268,0.3831935,-0.06550527,0.3194641,-0.034869313,-0.19787748,-0.31879756
0.014901876,0.07168468,-0.02391085,0.0037447885,-0.079991326,-0.008836411,-0.042624522,-0.051112387,0.014652014,-0.047154207
-0.09637025,-0.11711464,0.2997033,0.119523145,0.4366005,-0.2972612,-0.095833175,0.16869323,0.33288375,0.08633785
-0.24804352,-0.2556215,0.07797094,0.35502458,-0.08414283,-0.19161615,-0.34834766,0.28103635,0.036459096,0.15688121
0.2668241,0.0087617505,-0.05924007,-0.2482513,0.4260051,0.075975694,-0.35316887,0.24141815,0.15201151,-0.033842936
-0.0026264843,0.07058061,0.35239416,-0.10806445,0.34998864,-0.21683615,-0.45202494,0.2815249,0.35002065,-0.44880402
0.08432358,0.020322045,0.08443427,0.1681563,0.26030272,-0.14560896,-0.726308,0.1687969,0.02496306,-0.6284978
0.05631973,0.09012814,-0.121944256,0.19434415,0.24268906,-0.40482086,-0.33808038,0.26055253,0.047422785,-0.6476948
-0.0044334987,0.33160955,-0.014428654,0.07976591,0.11714592,-0.5258362,-0.10680443,0.17288616,-0.04928408,-0.43184245
0.16068968,0.2580132,-0.08740439,0.23949374,0.15355228,-0.4140331,-0.16169673,0.15177734,0.029550025,-0.22295903
0.17537619,0.29186425,0.010664708,0.31543508,0.07856882,-0.42622483,-0.059140526,0.20720124,0.07891047,-0.065673344
0.12966298,0.2658268,-0.0137268035,0.33248085,0.109397694,-0.46884185,-0.010605051,0.32779288,-0.021574786,0.19111358
0.05704896,0.052350547,-0.08835638,0.31958297,0.15167889,-0.3152281,0.23140015,0.33259508,-0.046856962,0.4121052
0.09409411,0.013752187,-0.14966094,0.22591977,0.015755298,-0.26329538,0.025075158,0.23149462,0.024486009,0.3615624
0.097563386,-0.010971783,-0.21456872,0.07115382,-0.00334054,-0.15426378,-0.06502574,0.08756385,0.05769296,0.2398434
0.08979448,0.043139145,-0.1612135,0.03204647,-0.03140179,-0.06669507,-0.023405042,0.037144262,-0.0015940957,0.34853673
-0.003161943,0.2300033,-0.1686012,-0.1140673,-0.08506717,-0.17575948,-0.13933544,0.19780412,0.05212905,0.2758299
-0.03464617,0.24845824,-0.10349533,-0.1396065,-0.05585038,0.0036084636,0.015423024,0.08542202,-0.046125747,0.08397621
-0.0004386168,0.19066064,-0.16938604,-0.006418553,0.02353718,-0.06558311,-0.02782368,0.08998569,0.014668475,-0.040606823
-0.086313285,0.35352224,-0.030792393,-0.06707809,0.1578623,-0.038849737,-0.14401379,0.17146133,0.002318223,0.16815127
-0.13134092,0.1327319,0.027043542,0.0003857226,-0.0171491,-0.102688804,-0.037315156,0.056576226,-0.033749513,-0.16795321
0.031158613,0.35686877,-0.06500311,-0.042251475,0.018869195,-0.25519913,-0.053521443,0.17502321,0.05007629,-0.09937976
0.09481089,0.3677007,-0.039262537,-0.01353693,0.08100799,-0.30198455,0.023574589,0.32323655,0.10972692,-0.114609145
0.023166167,0.45189282,-0.23086719,0.0019196206,-0.22684844,-0.2971648,-0.0931433,0.21675172,0.0564821,-0.21174303
0.18422829,0.5131172,-0.053426232,-0.25935167,-0.3034685,-0.30801147,-0.15673235,0.38782457,0.0940955,-0.303287
0.14990158,0.2983838,0.07408509,-0.3319383,-0.14570162,-0.070626356,0.025425736,0.31825846,0.09902896,-0.5274227
0.38306323,-0.1220843,-0.024138667,-0.37234554,0.108762786,0.1860289,0.07051825,0.29302803,0.08211875,-0.33166793
-0.14484878,0.56762207,0.5403361,-0.4422835,0.18571223,-0.28583902,0.12824373,0.2445519,-0.296862,0.40114865
0.044991978,0.24327207,0.0028332607,-0.16687815,0.23352593,-0.16128765,0.027013706,-0.23719747,-0.10413676,-0.03950334
0.0823432,0.25438568,-0.045236945,-0.23013952,0.15597142,0.03430287,0.23393676,-0.016718294,-0.11486758,-0.058431778
0.2565864,0.31778115,-0.067225166,-0.20640862,0.4600977,-0.039992757,0.16252847,-0.3088964,0.19659078,-0.0820181
-0.084497824,-0.07201184,-0.4608288,-0.11102951,0.0031443394,-0.31517565,-0.31126273,0.2810576,-0.17390713,0.0036474264
0.09397378,0.37254828,0.1418013,-0.44924477,-0.08934827,-0.1206618,-0.5721737,0.3962347,-0.026405608,-0.030265152
-0.107991844,0.10793261,0.20082171,-0.12479957,0.3054095,-0.286126,-0.29513624,0.12959804,0.36989692,-0.4545448
-0.20998637,-0.23692329,0.107205175,-0.18491524,0.20790114,-0.25209376,-0.30439422,0.40575752,0.1353873,-0.751955
0.04354153,0.07333928,-0.08605288,-0.08807607,0.15967798,-0.72702754,-0.21143153,0.071668565,0.04298566,-0.56708175
0.08362615,0.19395,-0.13637148,0.020151576,0.022278436,-0.45579386,-0.13325937,0.08075033,0.08420742,-0.110114
0.088292256,0.21056925,-0.02141572,-0.107244395,0.051637575,-0.10049234,-0.061718654,-0.0038883274,0.1260346,-0.20664231
0.093372665,0.18955828,0.08227347,0.10022679,-0.015677733,-0.11410698,0.053684697,0.11250797,0.019652387,-0.07017525
0.07568346,0.17099826,0.107533224,0.118289776,0.09354455,-0.3190789,0.10081383,0.12580277,0.024921155,0.011133322
0.103961185,0.17118078,-0.028934984,0.29611346,0.03324539,-0.30018,0.00025039053,0.29512936,0.060543027,0.106842935
0.088145874,0.047724385,0.056681093,0.13560939,0.06343134,-0.2592801,-0.14653692,0.17748421,0.022589417,0.32003558
0.04214878,0.079917066,-0.09251252,0.15147881,0.052349336,-0.19692624,-0.17313203,0.09889456,0.13844913,0.35761842
0.17196,0.13847731,-0.14025265,-0.024974866,0.002290364,-0.2371131,-0.20734815,0.06715195,0.16676493,0.48559698
0.04702054,0.083885685,-0.10438736,-0.0055264733,-0.01166017,-0.21243943,-0.05760441,0.12969017,0.08363128,0.4629376
-0.0701726,0.08275301,-0.21807033,-0.08604686,-0.12464947,-0.104150146,-0.07592377,0.09249848,0.072319485,0.27528033
-0.04414967,0.2558973,-0.065480985,-0.07309746,-0.08813796,-0.26385382,-0.0323363,0.07080695,-0.09734986,0.26429075
0.096364796,0.16083907,-0.17299047,0.029246831,-0.0562515,-0.18891157,-0.024981128,0.05665175,-0.07502739,0.39016682
0.09536736,0.15337725,-0.09720768,0.010013279,0.09398633,-0.25987008,-0.03050322,0.14319715,-0.014418368,-0.053314567
0.031867456,0.20057075,-0.211039,0.059160728,0.07371249,-0.16452126,-0.04460652,0.12901819,0.22062087,-0.010883643
0.005833856,0.26589212,-0.14256907,-0.15834726,-0.09555392,-0.13107087,0.06269175,0.26350957,0.06925241,-0.21341425
0.084917225,0.30982044,-0.288957,-0.1198586,-0.3185917,-0.01677304,-0.28963283,0.3505716,0.040121783,-0.45190874
0.08347058,0.56540287,-0.21517038,-0.30491236,-0.4299206,-0.043434814,-0.19043425,0.30073348,0.2294607,-0.7184118
0.10872449,0.02931981,-0.23452668,-0.15322836,-0.17610855,0.17217633,-0.077802256,0.16126476,-0.0553331,-0.54009795
0.3079839,0.019026808,-0.19641475,-0.1313118,-0.26586577,-0.11628046,0.15661855,0.3425825,0.16466449,-0.13406211
-0.023203142,0.3736224,0.57554877,0.010100843,0.4339511,-0.41178766,-0.18405634,0.42614532,-0.14979985,0.5049352
-0.03802522,0.06574955,0.17481965,-0.07018116,0.057600908,-0.050210193,-0.018253691,0.07687996,-0.029065588,0.08342608
-0.0749035,0.22548378,-0.015147683,-0.1568017,0.18768188,0.045765378,0.24063466,0.10388229,-0.031242672,-0.072963186
0.08441399,0.34282687,-0.057617143,-0.29098162,0.36097506,-0.078125566,0.23903377,-0.15643501,-0.053608634,-0.10433713
-0.27423182,0.065338664,-0.53610194,-0.11222173,0.048957486,-0.6045212,-0.19381088,0.19724387,-0.16360468,-0.039534323
0.111630276,0.6024767,0.19476141,-0.444489,0.07401945,-0.2679973,-0.5579652,0.2818651,-0.12593818,-0.02967856
0.031101152,0.42626825,0.35863054,-0.20988771,0.14774112,-0.068661556,-0.43644026,-0.22512475,0.17761783,-0.58756673
0.064765155,0.26407474,-0.0022305455,-0.39675015,0.17648132,-0.3565348,0.22861941,0.1773457,-0.114211775,-0.83742434
0.065910205,0.11103757,-0.049075417,-0.1959596,-0.008047868,-0.32284105,0.2177369,0.20777489,-0.12341103,-0.6737636
-0.13551722,0.14112124,-0.042278867,-0.18193308,-0.14228083,-0.30626023,0.0247651,0.004912315,-0.014272203,0.044577416
-0.16617294,0.019367633,0.108018756,-0.12344702,-0.10347479,-0.05263751,-0.07076076,0.043027442,0.07489393,-0.1879138
0.018067947,0.033536367,0.049949892,0.126275,0.04694592,-0.13492374,-0.098141864,0.09643018,-0.002020495,-0.08407982
0.0072279656,0.08399978,0.034223367,0.08908228,0.062368378,-0.0020807534,-0.1555813,0.03376408,-0.011517342,0.03289865
-0.0090075135,0.17258595,-0.03482332,0.07409498,0.11491056,-0.09199766,-0.2463547,0.08976663,0.053870503,-0.29806486
-0.057962306,0.02607252,-0.029631836,0.17309684,-0.084946014,-0.12459477,-0.31739515,0.1302619,-0.030156065,-0.15071796
0.08462769,0.15440576,-0.10641321,0.21913753,-0.069100805,-0.15464534,-0.17524607,0.14147282,-0.049142327,0.043654688
0.060017955,0.09264338,-0.1902728,0.17796741,-0.11705847,-0.113855086,0.04157166,-0.042332895,0.00012913643,-0.15388238
0.066206776,0.07614651,-0.07360692,0.18061745,0.10716181,-0.115963385,-0.024099512,-0.027296223,0.03150042,0.072398745
0.13884912,0.009540283,-0.023019861,0.1947485,-0.038880043,-0.115841776,0.029704433,0.04317526,0.040981825,0.07231028
-0.005485719,0.14329581,-0.18775856,0.056240976,-0.06264534,-0.23529166,0.05405314,-0.040338945,-0.018489055,-0.08033117
0.043000493,0.0915732,-0.23049484,-0.12335573,-0.12244566,-0.2596758,0.12749317,0.19983155,-0.059069805,-0.1612852
-0.06193924,0.30527097,0.07236222,-0.03320981,0.078170545,-0.09989696,0.0175497,0.14025901,0.004095024,-0.18138765
0.095312744,0.20315355,-0.12749067,-0.23577861,0.03241019,0.10496836,-0.051322658,0.21670078,0.09801319,-0.24359973
0.1056039,0.17318733,0.01494188,-0.22094758,0.021720141,-0.16251656,-0.096177906,0.36553138,0.033833176,-0.48652497
0.1816568,0.251403,-0.17606765,-0.05248929,0.06045709,0.07041275,-0.24103332,0.30166426,0.21755087,-0.62418014
0.044686273,0.27387097,-0.33647877,-0.1265881,-0.106021374,-0.036890667,0.03273846,0.13109824,0.22576603,-0.71909034
-0.0060735084,-0.23443115,-0.3019077,0.05636983,-0.40521854,0.21213081,-0.0069590635,0.10523164,-0.04535008,-0.51059866
0.20949274,-0.07297462,-0.52039915,-0.09228473,-0.2909397,0.029562498,0.059408944,-0.1158206,0.08598752,-0.08760605
0.23125671,0.061063517,-0.054038938,0.0119281495,0.19544609,-0.5444189,0.118549824,-0.30824348,-0.10736065,0.048906434
-0.18431634,0.08947968,0.23878829,-0.11628403,0.06254759,-0.120478,0.051846005,0.15813157,-0.073318675,0.079541944
0.029568106,0.06779345,-0.07042977,-0.05086198,-0.027847972,-0.059490077,-0.083745115,0.00090108067,-0.031792577,-0.06898601
0.04068611,-0.07268691,0.006583236,-0.053364236,-0.07238525,-0.04246937,-0.0075350776,-0.07713289,-0.025311269,-0.053067014
0.5465932,0.31574047,-0.29440096,-0.11641597,0.38310403,-0.5929842,-0.30927205,0.009371017,-0.10689094,-0.028506063
0.1118309,0.38224953,-0.02948804,0.044121727,0.42139184,0.012015523,-0.5463218,0.16379412,-0.062550284,0.06379218
0.057164922,0.12870757,-0.091607526,0.055847924,0.53738487,-0.060047384,-0.26967627,-0.16108562,0.18527941,-0.071361706
0.06398466,-0.14861396,-0.21907447,-0.020581339,0.25980234,-0.14220943,0.20245183,-0.010985303,0.06396516,-0.1435216
0.21869154,-0.12869243,-0.057074003,-0.05876774,0.12945041,-0.041827478,0.31829342,0.050884794,0.08946427,-0.1195792
0.06380777,-0.019802764,0.11912159,-0.12533432,-0.025248885,-0.054045826,0.09755429,0.056872264,0.14655012,-0.34018278
0.022692818,0.11521067,-0.023700789,-0.07240078,0.003763226,-0.07143511,-0.0060118684,-0.013548015,0.100085154,-0.68051964
-0.0032977941,0.008886132,0.052223474,-0.04582384,0.16098946,-0.2797778,-0.21493225,-0.04542402,0.08249741,-0.51268286
-0.06386622,-0.0065008136,0.009918951,-0.006809453,0.13360032,0.0153871635,-0.14393389,0.11022167,0.18897521,-0.44656867
-0.0836655,0.18288568,0.011646248,0.15450464,0.12329548,-0.21144097,-0.2630949,0.09353789,0.0271778,-0.68453735
-0.13083372,0.258272,-0.08020042,0.11168063,0.10282613,-0.21117832,-0.11221781,0.19875534,0.038625777,-0.5511832
-0.23236509,0.38512087,-0.024222998,0.12284711,0.09901731,-0.112243675,-0.1736452,-0.010385972,0.03939944,-0.35421243
-0.29315436,0.25707334,-0.11402147,0.19506428,-0.041859798,-0.17121553,-0.2102718,0.070550516,0.082681514,-0.45300317
-0.124230996,0.34407514,-0.042105757,0.16822262,0.2215188,-0.2799126,-0.054513525,-0.09132943,0.02644328,-0.51482475
0.0037433158,0.25734955,-0.12912211,0.12471462,-0.0072452356,-0.24775018,0.063647375,-0.04007138,-0.066310644,-0.7631428
-0.118893534,0.26495612,-0.1630528,0.07909808,-0.047451384,-0.19261177,0.12721099,-0.005769012,0.052004497,-0.78001267
-0.07525488,0.24256052,-0.10546094,-0.02835942,0.030531133,-0.15968148,-0.0014391831,0.008147408,-0.06029025,-0.6034639
0.18071592,0.31470695,-0.004775641,-0.06477594,-0.079255596,-0.0039577554,0.06506602,0.15344402,0.030320475,-0.5678096
0.092901684,0.3814709,-0.01551352,-0.083301485,-0.108955905,-0.07869702,-0.16931215,0.031412683,0.07166578,-0.50750023
0.032921497,0.3560197,0.023709685,-0.14154653,-0.13975565,0.043482643,0.021087404,0.13732892,-0.0070929485,-0.49815676
-0.026244737,0.23775288,-0.003545235,0.06097557,-0.5564121,0.22373168,-0.07446464,0.2537862,-0.067933686,-0.35736006
0.027479436,0.2973642,-0.2643602,0.21257664,-0.6173358,-0.024344712,-0.07108808,-0.043185562,-0.056471534,-0.24420173
-0.09789692,-0.40129036,-0.43639404,0.31195265,-0.0062294467,0.30795166,-0.023332603,0.0022202625,-0.09374642,-0.30345115
0.33671197,-0.09149375,-0.40745756,0.04890378,0.116185054,-0.26388022,-0.009151319,-0.06310076,0.17568497,-0.08478742
0.41985703,0.44158614,-0.13195705,-0.24131711,0.31098306,-0.4393718,0.32906997,-0.5501772,0.08651542,-0.19422239
-0.048012346,0.067550935,-0.02424658,0.08108472,0.061548702,0.07977717,0.057805844,0.049904503,0.020272128,-0.024875019
0.035246775,0.03946709,0.023898825,0.014077626,0.075083666,0.06596624,0.023989543,-0.028323557,0.051909022,-0.055459235
0.031770505,0.046929143,0.010058075,-0.065820605,0.024955824,0.007757455,0.03121145,-0.029479567,0.06375522,-0.04915592
0.1731295,0.28966004,-0.14345722,-0.11382459,0.3983632,-0.23247346,-0.20250933,-0.087471485,-0.057074524,-0.054184593
0.3141881,-0.036337674,-0.42615706,0.28126013,0.77610177,-0.3926707,-0.6279322,-0.2073244,0.47617525,-0.05278474
-0.3439148,-0.37218612,-0.42374948,0.28664368,0.6008803,0.11421459,-0.011426506,0.003169095,0.45332065,-0.01828002
0.058354322,-0.66109663,-0.41592726,-0.025867902,0.5231715,0.3939803,0.22417866,-0.02764258,0.05404743,-0.059996046
0.15583009,-0.38142157,-0.12509307,-0.25331825,0.33527204,0.18710701,0.07784199,-0.19905256,0.011128295,-0.12418115
0.22132447,-0.27382553,-0.35520357,-0.10255663,0.24585532,0.115889564,-0.06144613,-0.20251343,0.13763958,-0.41008526
0.01839133,-0.08363283,-0.34831482,-0.0818613,0.030634815,0.02701533,-0.045437552,0.08241707,-0.021039724,-0.46520838
-0.14336358,-0.019262217,-0.19836256,-0.11805478,0.05365951,-0.17003843,-0.13824765,0.26308125,0.17401738,-0.58871543
-0.054433025,-0.003749331,-0.14554906,-0.078533955,0.1231128,-0.033696637,-0.016722163,0.0088336,-0.04849226,-0.33060467
-0.18899655,0.16596736,-0.10309015,-0.15453227,0.042964946,-0.17690615,-0.0851018,-0.06705157,-0.054296233,-0.61834073
-0.07898517,0.130622,-0.21465266,-0.07517739,-0.10589605,-0.2796471,-0.19423227,0.15080205,0.09842308,-0.41755438
0.14335506,0.11237941,-0.1640434,-0.022244506,-0.09948679,-0.24264175,-0.1574888,0.18707171,0.09426807,-0.9102774
0.06645338,0.11738883,-0.1914719,0.13477857,-0.12202427,-0.3736704,-0.09890534,-0.0007743486,0.0648891,-1.1094124
-0.014209909,0.11678967,-0.24630138,-0.002882444,-0.10729663,-0.2000723,-0.23984317,0.0036442315,0.056626987,-1.0891259
-0.02553404,0.14582273,-0.10074454,0.021556545,-0.15382369,-0.29075414,-0.112212755,-0.17989114,-0.238297,-0.69388014
-0.21407604,0.10014629,-0.2112464,0.15750705,-0.023594018,-0.11291576,-0.12159182,-0.27523872,0.0017590316,-0.68363047
-0.11307748,0.39599645,-0.01635385,0.11191183,-0.5213156,-0.17091256,0.078131564,-0.102277875,-0.02054594,-0.6736801
-0.010307645,0.19979297,-0.12877852,-0.069592945,-0.7147814,-0.07091302,0.11740999,-0.313966,-0.03668074,-0.6548293
-0.023404572,0.088140845,0.013556281,-0.07298516,-0.60926384,0.17310558,-0.15440641,-0.2576759,0.02248801,-0.55760753
-0.12365799,0.16842686,-0.052012175,0.02240103,-0.2813692,0.07299123,0.06198359,-0.28859705,-0.061883636,-0.51567566
-0.21461743,0.08885017,-0.17528586,0.051284328,-0.33176824,0.24031876,-0.0034103915,-0.018514875,0.25986877,-0.22881037
-0.058277637,0.1904046,-0.24283732,-0.013277567,-0.3557914,0.26854706,0.29216352,-0.06473653,-0.2570545,-0.18488888
-0.21783537,-0.16156515,-0.10205122,0.35100752,-0.13227576,-0.06715578,0.021516418,0.2683749,-0.16927828,-0.10360069
-0.22632447,0.1627999,0.11768924,-0.3034997,0.140868,-0.2423746,0.23254077,0.4295026,-0.09773252,-0.024949448
-0.07047353,0.11861458,0.07701398,0.060027767,0.13141395,-0.21649046,-0.011506224,0.1695353,-0.09589239,0.09303725
0.054873966,0.024968453,-0.03446314,0.019784294,0.055729873,-0.05839026,0.06568382,-0.06876023,-0.01298628,0.036817938
-0.056758106,0.08489894,0.041780226,0.07012785,0.056841798,-0.04582993,-0.040631574,0.068256624,0.04663808,0.03434237
0.004518017,0.014372364,-0.08120603,0.04004339,0.059355862,-0.010733999,0.021565795,-0.07756085,-0.05949491,-0.017952427
0.11286099,0.093107045,-0.04592102,-0.33042252,0.30531865,0.082850486,-0.055610497,-0.074245885,-0.020665806,-0.022806779
0.2804604,-0.45222014,-0.021240102,0.17943734,-0.0201208,-0.07030537,-0.21116441,-0.08122568,0.17554156,0.051527686
0.20224749,-0.5647543,-0.551792,0.17172292,0.031529564,0.1948801,0.029774837,0.078812465,0.31188655,0.04831932
0.032218263,-0.7091509,-0.64084566,-0.050570868,0.4256765,0.5274696,0.05310638,-0.05103538,0.0790159,0.02297529
0.08811816,-0.32546002,-0.2570113,-0.10162091,0.49387816,0.16509849,-0.3712939,0.16155085,0.059581123,-0.09411147
0.39211714,-0.5182574,-0.44300854,0.13585393,0.6087476,0.105162635,-0.24626765,-0.0027172363,0.13200532,-0.18842372
0.12872067,-0.38937443,-0.3829972,-0.08605139,0.627492,0.21520188,-0.08662055,0.23361272,0.23775887,-0.1848417
-0.033821117,-0.23449275,-0.35470656,-0.04438737,0.31287262,-0.004214475,-0.079558164,-0.0542232,0.28839374,-0.1631454
-0.120098904,-0.10146676,-0.16046616,-0.21270777,0.06743825,-0.028401053,-0.17769408,-0.21900335,0.08749234,-0.11158135
-0.0026146453,-0.2932018,-0.33855763,0.04930825,-0.0793695,-0.009944474,0.006498695,-0.13161363,0.19104877,-0.07523791
0.17354189,-0.19620232,-0.39232048,-0.14393945,0.1090155,-0.028841611,-0.10802364,-0.26086184,0.0700298,-0.11753407
0.15661088,-0.10861382,-0.28400236,-0.20286869,-0.008295144,-0.032995235,-0.20218696,-0.18198408,0.063856035,-0.24179432
0.13399304,-0.11359079,-0.18616691,-0.29157233,-0.13658343,-0.015941352,-0.12994787,-0.351428,-0.042570632,-0.12894905
0.1499199,-0.07740131,-0.24888866,0.14465125,-0.14414997,4.894499e-05,-0.301024,-0.48535436,0.23230495,-0.39177284
0.18623544,0.1153448,-0.391498,0.1557397,0.08337816,-0.04656044,-0.05452046,-0.37900057,0.020572845,-0.19223383
0.0892724,0.22562847,-0.41998202,0.28945652,0.26206455,-0.012033663,-0.0436382,-0.5884677,0.038915034,-0.27885488
0.13244134,0.23973927,-0.35205424,0.31126973,0.09117995,0.064481564,-0.018489735,-0.9680696,0.022246545,-0.29093033
0.19122009,0.2922163,-0.29573256,0.3177794,-0.18877439,0.1700508,-0.23705699,-1.2964147,0.3716074,-0.13347505
-0.20394549,0.26234332,-0.287762,-0.19686784,-0.2968843,0.5623822,-0.0023127703,-1.0868648,0.043609634,-0.20656912
-0.16539541,0.04669338,-0.15153517,0.0009783239,-0.056514982,0.2596935,-0.3409118,-0.6961213,0.15242863,-0.17339417
-0.06693798,-0.05190367,-0.09913793,0.33307126,-0.047083627,0.21415563,-0.13300018,-0.8453398,0.3422488,-0.12819068
-0.16251768,-0.41467547,-0.105050966,0.44959864,-0.24987587,0.2545751,-0.00900278,-0.80154145,0.114175595,-0.14862482
0.041428134,-0.5666388,-0.3518978,0.5958375,0.05467642,0.007743505,-0.01285906,-0.24389003,0.28829876,-0.10077257
0.011794895,-0.05329842,-0.14612927,0.046769254,0.07372602,-0.032702126,-0.14751434,0.23435357,-0.07757135,-0.056836076
0.06967773,0.25399685,0.103318274,0.14462061,0.0265119,-0.31900448,-0.0510179,0.2607635,-0.013202005,-0.05522019
0.0051507503,-0.074214175,0.0032815784,-0.08319332,-0.08522949,-0.03256226,-0.036108356,-0.035304476,-0.0073320493,-0.06956351
-0.030815348,-0.038357552,-0.080846235,-0.045323502,0.045524992,-0.045231707,0.05730679,0.076848365,-0.020524733,0.05765947
-0.0002155006,0.052723236,-0.025516514,-0.052891403,0.04815463,-0.070059165,0.0146122575,-0.08467866,0.027695552,-0.045330383
0.027124874,0.029446512,0.041021056,-0.04659698,-0.07951468,0.063633464,0.050915323,-0.014824964,-0.070034705,-0.008447744
-0.063507535,-0.15456347,-0.089536235,-0.15602294,0.021838896,0.1678855,0.15930124,-0.030438103,-0.02415222,0.026479192
-0.023210408,0.009291168,-0.07946399,-0.16883935,-0.1942237,0.501261,0.3417021,0.040281944,-0.01565944,0.003556338
-0.07962348,-0.26479506,-0.12671185,-0.12346793,-0.45026445,0.5528033,0.011318182,0.04144952,0.101321265,-0.040763978
0.05218227,-0.31423998,-0.022675822,-0.19210227,-0.42022267,0.7710194,-0.05483739,0.09002252,0.32802698,-0.05165856
-0.04680694,-0.16764906,-0.44931704,-0.093674295,-0.281689,0.65249664,-0.18902136,0.10864382,0.31259674,-0.082182646
0.0023115696,-0.024138564,-0.29200867,-0.08020708,-0.087045476,0.51558995,-0.29920208,-0.3554096,-0.055055413,-0.09878303
-0.18828657,-0.020348284,-0.3504557,-0.18663758,0.030417353,0.30600944,0.058241617,-0.40705428,-0.30983546,-0.034813397
-0.13179812,0.07522836,-0.27293015,-0.023290602,-0.05869936,0.19404805,0.047423024,-0.22510318,0.019568812,-0.09791404
-0.27048925,-0.04650585,-0.46649003,0.025336184,-0.43962952,0.26854035,0.06022971,-0.017884899,-0.028795922,-0.15196793
-0.35933584,0.09765711,-0.41665307,-0.07296491,-0.2626748,0.056188762,0.28528723,0.2933864,-0.16513593,-0.14747079
-0.7523694,-0.20231898,-0.42348972,0.25202814,-0.075207,0.08273429,-0.024648272,-0.32555297,0.24340476,-0.14110702
-0.52018094,-0.2591533,-0.5674125,-0.09911946,-0.26235938,0.5882092,0.3195172,-0.40751028,0.12654114,-0.118565604
-0.47984082,-0.12356587,-0.560587,0.2226368,0.05062918,0.16105562,-0.010218478,-0.21760191,0.28708372,-0.2843505
-0.29554918,0.12273359,-0.7653706,0.026807975,-0.017168239,0.1108707,0.22365177,-0.23472928,0.08634033,-0.08260852
-0.2669368,0.17061806,-0.598139,0.0504025,0.09583826,0.07690342,0.32743785,-0.3557495,-0.03425679,-0.0028425816
-0.3566488,0.2434716,-0.76969844,-0.10503782,0.44974777,0.2827765,0.10995357,-0.6227307,-0.03306993,-0.023975955
-0.30448943,0.15178742,-0.6257186,0.20555453,0.23344594,0.2522114,-0.019309498,-0.0866927,0.044928093,-0.16191761
-0.08422971,0.047517363,-0.7920647,-0.051506642,0.12913944,0.49674523,-0.12405148,-0.24968258,0.026778731,-0.18879992
-0.16719264,-0.08885667,-0.6118406,0.016802106,0.48735598,0.54791117,-0.28367132,-0.22904636,0.22273411,-0.024930041
-0.1423924,-0.2369127,-0.19137892,0.16971512,0.3339268,0.39592242,-0.1446674,0.08729885,0.25549045,-0.103255354
-0.12296765,0.2806501,-0.27378616,-0.31294167,0.02164397,0.22705199,0.053950436,0.08477315,0.13208686,-0.08770539
0.08359657,-0.15759374,-0.15925774,-0.117179595,-0.045249533,0.1921755,-0.07305164,-0.016960852,0.021056384,0.035558134
0.04186683,-0.030816488,0.06814147,0.059677042,0.02904711,0.06416667,-0.06021827,0.068733014,-0.04461873,-0.020303465
0.00012890995,0.03629777,0.06852781,0.017503098,0.039417304,-0.024966728,0.028335743,0.024742872,-0.014448337,-0.0019133985
0.062090613,-0.0061538815,0.0074954852,0.081999086,-0.0369387,-0.037762728,0.000247173,0.019417718,-0.030601874,0.08056771
-0.055123646,-0.01613181,-0.016120806,0.009779133,-0.056608982,-0.067875564,-0.021367848,0.08379427,-0.08552571,-0.05991997
0.05790957,-0.047964305,0.080746405,0.041879542,0.07715257,-0.050385647,0.062169977,0.057152815,0.083326004,-0.042020414
-0.031800617,0.015552096,-0.06544792,-0.055022404,0.028979458,0.069340415,0.021054618,-0.079774626,0.07778946,0.07293918
-0.0076485053,0.0061107576,-0.01405099,-0.07821316,-0.052044477,-0.06635186,0.010932423,-0.01254122,0.078557335,0.044891454
-0.078161016,-0.229972,0.07917268,0.27027357,0.039888002,-0.1900312,-0.027826695,0.03665617,-0.0362622,0.07966996
0.08558623,-0.094831884,-0.07942722,0.18064635,-0.009363897,-0.22722079,-0.10598504,0.045169927,0.00054112077,-0.05489691
-0.06959462,-0.020256244,-0.24988885,-0.0640556,-0.0026532651,0.21366638,0.006128142,0.036406,0.05727414,0.07118312
0.05204452,0.20388834,-0.18403853,-0.10183439,0.0066145402,0.29883137,0.04739774,0.057593383,0.027089298,0.08425944
-0.03555662,0.04832418,-0.2220788,0.067943715,0.15908648,0.1852149,-0.30379072,0.008500674,0.014369895,0.0533169
0.11607586,-0.14809674,-0.14030284,0.12774828,0.21534967,-0.004823536,-0.15295486,0.046709448,-0.07903411,0.047208183
0.014101306,-0.21200697,-0.34566492,0.30373445,0.002241742,-0.1689881,-0.15530634,0.03905756,0.023648757,0.07681667
0.11426228,0.1535531,-0.4456799,-0.1696881,-0.09559655,0.10833866,0.14939764,-0.10967319,-0.027766058,0.06280105
0.060527906,0.4017365,-0.4485207,-0.40304515,-0.17937845,0.21471508,0.2049108,0.081573725,0.09509098,-0.03900003
0.038379326,-0.27062264,-0.42331168,0.3281925,-0.35499927,0.1638303,-0.25109604,0.00906242,-0.011939285,0.014654417
-0.19034272,-0.07622912,-0.6491755,-0.1420024,-0.2153634,0.69859535,0.20152566,-0.09895426,-0.10330421,0.006577583
-0.09646463,0.15839665,-0.13194011,-0.21269529,-0.36496884,0.34865394,0.21465413,0.07554119,-0.0059358925,-0.076509774
-0.17141783,-0.008620067,-0.052630514,0.17010097,-0.36286718,0.25917295,0.28503436,-0.048648104,-0.00045079738,-0.032864273
-0.16433027,-0.29972997,-0.26096356,0.20255682,-0.38150644,0.38225338,0.15102635,0.045352343,0.022730725,-0.09817427
-0.055105895,-0.50501454,-0.3766898,0.1516643,-0.2958409,0.36352298,0.19077073,0.006166437,0.08315148,0.0475415
-0.07853735,-0.11275262,-0.30257434,-0.19638492,-0.12265779,0.24749894,0.011978088,-0.059678398,0.11782193,0.04854156
-0.046946134,0.06608896,-0.12511703,-0.2074833,-0.18783166,0.41485003,-0.08120743,0.0663208,-0.0020039305,0.07697319
-0.16660015,-0.086507104,-0.08237366,0.019213155,0.01764685,0.07560282,-0.184595,-0.020969851,-0.08123602,0.08058908
-0.18761316,-0.2302893,0.062274326,0.01799302,0.006125137,0.131038,-0.14387639,0.061049983,-0.0810715,0.029295646
-0.017118849,-0.08258315,0.0059652464,0.06902084,0.013208874,-0.01004949,-0.06151486,0.047393814,-0.056371823,-0.07586007
0.03149102,0.07661601,0.08308867,0.02774436,0.035123765,-0.0056953505,-0.04651238,-0.07148927,-0.031739727,0.035452105
-0.07994221,0.0036879182,-0.01297573,-0.055065118,-0.050823018,0.076168545,-0.07085361,0.045075215,0.04513166,0.010837786
0.053682975,-0.0051540434,-0.0011974573,-0.04135297,0.028674237,0.04732465,-0.06484532,0.00901299,0.011379406,0.009492457
0.010896482,-0.0410191,-0.029106837,0.07076921,0.06238719,-0.03648253,-0.029299214,-0.05460806,-0.013656914,0.01962547
Biases
0.031168938,1.5546683,0.57968646,0.041879855,-0.09012757,-0.37176502,0.51266444,0.23578005,-0.05869821,-0.061322656

Layer,dense_16
Weights
1.1556007,-0.5564263,-0.04878034
1.0022411,0.75870115,0.6196085
-0.30888227,1.099438,0.120071895
-0.053937748,-0.2256951,-0.8593421
1.2883523,-1.0210271,0.7475204
-1.1706495,-0.95459706,0.33242258
-0.43822175,0.21722637,1.21766
-0.90597844,0.6938108,-0.14905511
0.5299463,-1.1615151,-1.0396216
1.2580692,1.5341182,-0.40779927
Biases
0.6421243,0.54907995,0.34684777

Layer,dense_17
Weights
-1.1762565,-0.23823068,-0.69319105,0.7236375,-1.6807977,1.0049319,0.09282724,-0.35779488,0.47379375,-0.77190506
1.3899177,-0.50478464,0.8936269,-0.9006605,0.6357201,-0.49564424,0.8627099,-0.5729292,-0.0623992,-1.2297181
-1.6625009,0.9993764,-0.26971927,-0.30309942,0.5951282,-1.968178,-1.5742658,-0.34040207,-0.5256557,1.1625667
Biases
0.3122442,-3.1904495,-0.9467023,-0.86335427,0.009502049,0.42359674,-3.2119708,5.066832,-1.4885055,1.5548799

