Layer,dense_12
Weights
-0.046103727,0.08363669,-0.020558037,-0.08168676,0.01860267,0.019964375,-0.0327082,0.0025648475,-0.052016176,0.013917141,0.0037353262,-0.005436875,-0.026886322,-0.06941338,0.08414886,-0.03532723,-0.079104245,-0.08244951,0.0098518655,-0.010588169,-0.038781486,-0.042907845,-0.023723722,-0.003192328,0.06290915,-0.07430911,-0.00060389936,-0.038256723,-0.057606936,0.026950024,-0.014689095,-0.03261919
-0.05903922,0.0024065897,0.07355552,0.0145572275,0.05867196,-0.019957714,-0.009589404,-0.025539294,-0.06814389,0.034955166,-0.016178228,0.018201306,0.07001255,0.047861643,-0.07804991,-0.022189997,0.073117875,0.045933165,0.0837462,-0.004921049,-0.037211716,0.05301895,0.05933308,-0.082623735,-0.06648752,0.024937294,-0.04894065,0.013197832,-0.014575161,0.0532301,0.05092997,-0.07028853
-0.053241767,0.06767946,0.040807508,-0.01800932,-0.00028182566,-0.076298274,0.078574754,-0.053833548,0.05522392,-0.016066179,0.03468866,-0.019767605,0.001622349,-0.043356802,-0.045679104,0.022368662,0.050066493,-0.06120463,0.011639245,0.038730457,0.077312,-0.038890556,0.0014613122,-0.039350983,-0.024086341,-0.011573717,0.07310382,0.036558114,0.07081527,-0.072637245,-0.00086192787,-0.037389725
-0.07997261,0.055848636,-0.009474814,-0.018600136,0.08027124,0.0025297478,-0.082674645,0.05125209,0.023701496,-0.070907705,0.010333225,0.06300562,0.0713029,-0.011475667,0.044399,-0.08491641,0.06329448,-0.045857396,0.060711183,-0.046402603,-0.05446883,0.0015226826,-0.05393403,0.06121766,-0.06957914,-0.0027692094,-0.0434533,-0.06415978,0.028077014,0.04819665,-0.036455017,-0.03420233
-0.0040663555,0.034705892,-0.060025427,-0.067570284,0.06725951,0.079894,-0.08423376,0.06596186,-0.021525025,-0.07582403,0.079760216,0.07089128,0.06784702,-0.00011450797,-0.05570258,0.07038664,-0.08352608,-0.048945375,0.017334722,0.007057123,0.07731045,0.021245942,0.055866472,-0.046135437,0.03415414,-0.00011970103,-0.06755293,0.05839365,-0.015262045,-0.014585137,-0.012503788,-0.047769424
-0.06369249,0.05004818,-0.084815666,0.055324115,0.068674274,-0.07417804,0.06139507,-0.04710417,0.07355329,0.083014555,0.031909384,0.05429647,-0.055446558,0.04914912,-0.03438469,0.058394156,-0.03083365,0.04312768,-0.04243172,0.0025824755,0.037056565,0.044243522,0.05270999,0.046183966,-0.019208878,0.035448097,0.013791963,0.046310417,0.044668667,0.041578136,0.027731158,-0.019096583
0.065033145,-0.08480162,0.077143885,0.04190416,0.08546794,-0.076264255,-0.05368463,0.016878486,0.067584254,-0.034789447,-0.054783303,-0.05475644,-0.023314819,0.076215215,-0.061341137,0.018491901,0.031699464,-0.029512074,0.057810135,-0.005840406,-0.028291352,0.073139556,-0.0417275,0.056374826,-0.076190166,-0.011035748,-0.067617126,0.054035254,-0.082612224,0.0032817498,-0.0005411804,0.0022403002
0.061985604,0.034969375,-0.044207547,0.01440537,-0.029019494,0.06880797,-0.04496987,0.07299506,-0.07241146,0.038559422,0.076088645,0.072752975,-0.07898565,-0.022960946,0.019842304,-0.07995544,0.04321929,0.02951882,-0.06256329,0.012037106,-0.022096053,-0.06808775,0.006003469,-0.056868963,0.016588666,0.0065896064,-0.05808889,-0.00961443,-0.05459679,0.01993782,-0.06617098,0.016711168
-0.013373122,-0.04530857,0.07575043,-0.052462555,-0.045551468,-0.058780476,0.0025209785,0.03266079,-0.0014136583,-0.05163048,-0.08288372,0.0191729,0.0047612935,-0.025258452,0.031000003,-0.016610786,0.022204801,-0.020426765,-0.08237295,0.01727122,-0.084320016,0.03177008,0.044382043,-0.08518951,-0.06205231,-0.02028288,0.0039271116,-0.060763486,0.061249726,0.03543201,0.0020832866,0.018432818
0.07443752,-0.014475822,0.03684254,-0.014179237,-0.06645696,-0.07371437,-0.011486769,0.024204284,0.00791122,-0.039522346,-0.072884396,0.0007596463,-0.03336293,0.06868213,-0.024652012,0.010715961,0.05875317,0.08562092,0.037229605,0.07330822,-0.036334764,0.061366387,-0.019827954,0.07550313,0.06393363,0.06339718,-0.08134145,0.041329466,-0.04432365,-0.07491451,0.071174406,-0.04507792
-0.07486103,-0.00708922,-0.012782201,0.012546971,-0.0042649284,0.023993216,-0.04055112,-0.01779224,-0.024153154,-0.069194786,-0.052410323,-0.084345266,0.029095404,0.05628503,0.013942346,0.051218502,0.051977254,-0.07101379,0.080930956,0.020159133,-0.046266995,0.00045968592,-0.0268927,0.0077195317,-0.05030827,0.06250582,-0.08164528,0.008835137,0.017775275,-0.028952006,-0.060625855,0.03400723
0.0591136,-0.030944787,-0.0414615,0.015921265,-0.040897813,0.057504334,0.06654728,0.027369395,-0.04843895,-0.029762946,0.0017084181,-0.04901413,-0.060942147,0.055252127,0.05915413,-0.07640581,0.0659172,-0.045937598,0.059044488,0.046189673,0.06260935,0.069044195,0.04394623,-0.051087786,-0.005175397,0.0144132,-0.03436247,0.0036782026,-0.036057357,-0.045875184,-0.023308665,-0.08167187
-0.029245589,-0.03480807,-0.1466171,-0.04819293,0.0808025,-0.12157279,0.10238818,-0.029341204,0.10487114,0.082988404,0.020211617,0.08988787,0.052215464,0.119931825,0.16636588,-0.036372535,-0.18881622,-0.0015221251,0.08987048,0.21661715,-0.14621262,0.027717315,0.009511062,0.034463808,0.03256303,0.0525576,0.01113821,-0.1350226,-0.07295285,0.16787608,-0.0020561381,0.15057088
0.06846667,-0.066097915,-0.15718032,0.07124654,0.0376837,-0.115334004,0.20264077,0.028635561,0.10134186,0.013713478,0.14769578,0.07760834,0.05144895,0.08284325,0.22440484,0.06200704,-0.09489416,-0.04404456,0.14464867,0.12876137,0.021343565,0.04384709,-0.081936724,0.047026522,0.021292455,0.024266923,0.021917325,-0.035025906,-0.15499526,0.17637497,-0.0019474817,0.056230515
-0.10044382,0.041663833,-0.03728042,0.11175739,0.06207411,0.05457565,0.039306056,-0.015887454,-0.049600955,-0.034888353,0.006879795,0.030996013,0.08284479,0.036886293,0.13505895,-0.038953155,0.07546496,-0.0042689648,0.14146957,-0.06599255,0.13343969,0.030895881,0.008461246,-0.03397998,0.04741674,0.040498458,0.017469672,0.16428903,-0.063131824,0.030968186,0.076015614,-0.012004294
-0.03524424,0.0565883,0.016169617,0.047283143,0.06515744,0.026350861,0.08304785,0.011279099,-0.046028227,0.024205022,0.057292275,-0.058557734,-0.0097666755,-0.019497914,0.055170152,-0.016191415,-0.042070888,-0.018314593,-0.014212567,0.019528385,0.09701729,0.08333615,-0.006792725,-0.06638476,-0.041269425,-0.05389066,-0.00022179748,0.08987668,-0.0026670045,-0.10357213,0.016172253,0.026647022
-0.053577114,0.08368661,-0.004335299,-0.032214515,0.07515945,-0.0826109,0.0010788217,-0.046765774,0.017263263,-0.008448429,-0.031233378,0.052946202,0.028499596,0.06487822,-0.043689165,-0.083284065,0.060095735,-0.030400317,0.007110849,-0.059865676,-0.055286374,0.06354014,0.08275891,-0.06559237,0.03384868,-0.07090215,-0.00051149726,0.045975067,-0.0115365535,0.026892804,0.0002539754,-0.0803807
-0.06800988,0.04935231,0.047415756,0.052214585,0.08558,0.067817666,0.07693713,0.05088138,0.020675205,-0.07765264,-0.073455915,-0.016523555,-0.056533,0.057199337,-0.059128664,0.008565068,-0.017779179,0.011187263,0.066349484,-0.05546929,-0.035719022,-0.042252243,0.016440302,0.06629581,-0.059630957,0.06921726,0.003123492,-0.06388611,-0.044972368,-0.043658417,-0.069411784,-0.014742821
0.03429623,-0.057847198,-0.07774605,0.061003707,-0.008567907,0.027506724,-0.05420424,-0.025042538,0.004228398,-0.056926657,0.077360846,-0.013603769,0.015003137,0.003536731,0.030587465,0.048814572,0.0574153,-0.034001935,0.035963885,-0.073057294,0.017770648,0.022388943,-0.03823894,0.063281395,-0.065143004,0.01869119,0.049292497,0.06539469,-0.035352193,0.01951158,0.060356937,3.6530197e-05
0.0817005,-0.06637659,0.061353244,-0.018562086,0.04741112,-0.004255712,-0.012510702,0.050980456,0.044442855,0.043757446,-0.078216575,0.06677488,-0.023696389,-0.038082764,-0.031238858,0.041062914,0.02674219,0.030100055,-0.05749106,-0.0073408484,0.027781002,0.081730165,0.0468748,0.049473517,0.04929305,0.0063164085,0.0018989444,0.053200744,-0.06301123,-0.06795438,-0.005040705,0.0697987
0.061936386,0.013108507,-0.06777211,-0.04078136,-0.0052045286,-0.04890005,0.061601885,0.016461834,-0.011743329,-0.04873306,-0.022904828,-0.08478154,-0.06695534,-0.018355846,-0.0734818,-0.06010379,0.08096128,0.06041918,0.028729841,-0.07289756,0.0189346,0.038462944,0.054091252,0.054332025,0.06822794,-0.05865681,0.0085329935,0.0848295,-0.034476466,-0.072575115,-0.03152998,0.028838724
0.03724339,-0.06800794,-0.07350148,0.07560802,0.0037775412,-0.042250667,0.057314686,-0.0286167,-0.032680072,-0.06617517,-0.02023185,0.0051669106,0.03143193,0.044978745,-0.0030518696,-0.02016019,0.011768162,0.005764723,-0.024181388,0.075541876,-0.08303205,-0.046076618,-0.018238723,0.0837348,-0.06881344,0.029718868,0.036850654,0.08522158,-0.04583125,-0.059650604,-0.018316306,-0.05286502
-0.07896976,-0.07301025,0.06734238,-0.06915437,-0.03566828,-0.04567019,0.013043374,0.042012937,0.07828637,0.081494294,-0.015562698,0.07930475,-0.029720116,-0.04768961,0.07780107,-0.03691305,-0.08435156,0.06867046,0.052118607,0.039387412,-0.026172206,0.044282652,0.024817795,-0.019142888,-0.005901508,0.041706704,-0.063256636,0.03397294,-0.0014463067,0.036131017,0.015962236,-0.018891953
-0.032996077,0.025387555,0.06100849,-0.026639763,-0.034984995,0.07129205,-0.04732511,-0.05383635,0.06825746,-0.059743688,0.008059524,0.034961358,0.05481503,0.026646756,-0.08206275,-0.01195167,-0.025853787,-0.07129077,0.084477074,-0.06984283,0.039839886,0.045338444,-0.0058284625,-0.040426366,-0.029449906,-0.027877927,-0.039463546,0.008010805,0.07123608,0.005531043,-0.00568296,-0.05333808
0.0694819,0.011412106,-0.009793229,-0.006355636,-0.0394209,-0.019342117,0.074898414,-0.03567333,-0.05839923,-0.074857056,-0.066061914,-0.06389697,-0.058295824,0.005109705,-0.03608839,0.06566449,-0.01108478,-0.044523165,0.051828317,-0.01045569,-0.03585698,0.0025242046,0.07617634,0.05246409,-0.03956714,-0.010166854,-0.025631007,-0.053977944,0.05695205,0.043624274,-0.009403788,0.014601409
0.007567592,0.03430465,-0.060283415,-0.05678514,-0.014209695,0.03588769,0.042181917,0.081998326,0.017579906,-0.08226232,-0.06986771,0.02617734,-0.015178591,-0.018026002,-0.04668328,0.0047734007,-0.036565006,-0.06760414,0.020642184,0.01120282,0.022635907,0.06726054,-0.056284092,-0.063909724,-0.03093984,-0.007163249,0.005747445,0.051440902,0.08026809,-0.07856454,0.016748644,0.03219358
0.084405,-0.007327825,-0.08266555,-0.053445842,0.033963762,0.012297511,0.008989364,0.060877077,0.031648375,0.08191947,-0.0022123903,-0.021952927,0.03350438,-0.05194865,0.046505116,-0.06784457,-0.064458184,-0.005328603,-0.04643981,-0.037035365,-0.06224522,-0.0816337,-0.06679635,-0.027928751,-0.027106732,-0.026160777,-0.07685569,0.07305189,0.018733658,0.06152015,0.06884306,0.020484336
-0.083815515,0.0778883,-0.056608133,0.07306173,0.058953993,0.0072014406,-0.041946907,0.06686146,0.022411652,-0.067776695,0.07336759,-0.073411226,0.044599436,-0.041904446,0.025393441,-0.052399468,0.05167421,0.08444669,-0.062374018,0.07756085,0.0006140247,0.049832843,0.002764061,0.06448039,-0.07564522,0.068829216,-0.07837631,0.038823053,-0.0647756,-0.028804645,-0.04248406,-0.021247067
0.06643831,-0.07886973,0.08194903,-0.06313716,0.06066837,0.05688726,-0.0070831254,0.008905567,0.07445034,-0.06181252,0.02887015,-0.04678867,-0.009917431,0.049226232,0.00572972,-0.0708542,0.07803906,-0.057068743,-0.03441274,-0.05102124,0.028484367,0.06541387,0.0078706965,-0.0658322,0.019550323,-0.032660834,0.07726868,0.03147272,0.05086384,0.0765203,0.075970285,-0.07502482
0.017864756,-0.007682875,-0.07066184,0.054817297,-0.08365339,0.068318315,0.04369528,0.044046484,0.06778213,-0.013342701,0.022170901,-0.063811556,-0.02868658,-0.07627272,-0.08406146,-0.022607572,-0.073660865,0.0077135414,-0.063899465,-0.04428593,-0.04652306,0.051933073,0.050840907,-0.072706774,-0.069285825,0.019792624,0.058038704,0.053348593,0.007597871,0.08066661,-0.03864723,0.04028497
-0.045215122,0.007539585,-0.054426387,-0.013539292,-0.04945276,0.026809879,0.03950838,0.0028448924,-0.040848706,-0.024472676,-0.01952096,-0.03830808,0.0076631084,-0.0056545213,0.06275142,-0.06957586,-0.048070278,0.056743585,-0.005479194,0.029181004,-0.06777845,0.081941105,0.038997337,-0.007451184,-0.08539143,-0.0388595,0.0395424,-0.02933877,-0.024369925,-0.005719967,0.014726646,-0.067768514
-0.060587786,-0.03104208,0.022226058,-0.038395192,-0.016542524,0.026457198,0.08555972,0.06500413,0.052806832,0.018392175,0.048369177,0.038406685,-0.018926442,0.045023225,0.039601244,-0.06291009,0.025688104,0.06769953,0.014879614,0.06324681,-0.044715565,0.07384462,-0.04942477,-0.07636466,0.030614018,0.03494893,-0.08472872,-0.0019542053,-0.021683633,0.053370602,0.0078393,-0.033406883
0.05176236,0.0589645,-0.022081256,0.040047508,0.029934969,-0.034707636,0.011403868,0.05960224,0.020391755,0.041322008,0.04544688,0.0393472,-0.007688056,0.098597124,-0.0859529,-0.049246266,-0.09599136,0.05677822,-0.03529433,0.042855114,0.032714814,-0.022910796,-0.03456985,-0.025025181,0.0015526786,-0.007958918,-0.077470735,-0.059178747,0.048022978,0.0458259,-0.028540056,0.099241965
0.05435454,-0.03035681,0.010569032,-0.16582683,0.022859203,-0.10035722,0.1569107,0.04736876,0.1972327,0.0055871303,0.14121602,0.12623505,0.0100147,0.03350503,-0.035726424,-0.05858996,-0.0035543235,-0.051565237,-0.027767107,-0.013783089,0.013513859,-0.04490882,0.0042469567,-0.012343161,-0.023283068,0.07150511,-0.05709377,0.019272402,0.04902519,0.181775,0.030119084,0.041112192
-0.17804766,-0.11504244,-0.31463292,-0.23712704,-0.09237307,-0.15623225,0.17871551,-0.06715951,0.25418633,-7.910989e-05,0.21259423,0.22433737,-0.0109595135,0.044713613,0.06665584,0.0006494213,-0.13918832,-0.06838191,-0.07521497,0.1184294,-0.13549437,-0.16656072,-0.1143839,0.032746084,0.070648916,0.249218,0.054566983,0.04717683,0.043342408,0.096414536,-0.029202856,-0.07773533
-0.13358124,-0.13223216,-0.23180276,-0.21746661,-0.14148359,-0.23598973,0.2886294,0.17229164,0.31845382,0.011393503,0.13577077,0.23187537,0.009113674,0.12391435,0.025856948,-0.012118843,-0.22956932,0.057535972,-0.04760829,0.21297893,-0.08636576,-0.14015028,-0.13355163,0.08370579,0.034260783,0.20871907,0.039360367,-0.07248101,0.019581461,0.12649766,-0.07479967,0.12533216
-0.0004302296,-0.18665878,-0.29941508,-0.22661896,-0.042989206,-0.20699449,0.38183966,0.07137584,0.37884793,-0.03502732,0.16202351,0.21271825,0.09583218,-0.037215356,0.012073848,-0.103048004,-0.24021226,-0.04878604,-0.08325722,0.09627557,-0.18204321,-0.04305385,-0.11850105,-0.068539426,-0.009320157,-0.08340449,-0.022095019,0.077848636,-0.17084119,0.3265615,-0.019044723,0.17526416
0.1401479,-0.1789281,-0.26891738,-0.23865224,-0.029157354,-0.14667052,0.29865596,-0.0010403442,0.36345568,0.030594429,-0.036241606,0.25920087,-0.009549148,0.09539088,-0.039991084,-0.2771582,-0.3164452,-0.18869555,-0.17175211,0.1796781,-0.22191459,-0.07273093,-0.08454257,0.070088886,0.040983226,-0.05717578,-0.021495149,-0.015734626,-0.1812713,0.33594558,-0.08331115,0.20531246
-0.006358969,-0.073739104,-0.28936994,-0.21169735,-0.1904368,-0.14959851,0.4242893,0.03041299,0.5410044,0.015460158,0.10113384,0.14575912,0.12288866,0.10589246,0.026279299,-0.12113499,-0.28922415,-0.0077581387,-0.038340636,0.42071414,-0.26695272,-0.13964415,-0.07400118,-0.059398033,0.023513278,0.26315755,0.06767808,-0.15942915,-0.18977867,0.28927013,0.11114431,0.4076767
0.09844499,-0.1529392,-0.35642833,-0.3767396,-0.21003467,-0.18288265,0.21330854,0.097455405,0.39565068,0.010768551,0.13532743,0.24416202,0.239735,0.20476635,-0.11923902,-0.07794977,-0.48863396,-0.042818844,-0.2053993,0.47829643,-0.50079054,-0.22347675,-0.016760169,-0.030979767,0.11076185,-0.029360948,-0.17318791,-0.038539853,0.11961396,0.37285596,0.25022253,0.20955426
0.0040860414,-0.1167422,-0.35591444,-0.40003654,-0.13220456,-0.064834476,0.3857778,0.07049762,0.38240463,0.0026578733,0.15774266,0.37185466,0.24243952,0.1131366,-0.09117784,-0.1964488,-0.54880637,-0.2079972,-0.11970661,0.5498994,-0.38641545,-0.24885315,0.0027595628,0.020356722,0.047659364,-0.019668676,-0.224863,0.040139426,0.10147249,0.38744748,0.12854852,0.16179718
0.066163294,-0.27438918,-0.3074332,-0.29859877,-0.11072189,-0.06798099,0.47216043,0.0955505,0.56118655,0.07198078,0.2139768,0.33795577,0.008236605,0.14436719,-0.16839269,-0.31632507,-0.3875843,-0.17966452,-0.043204084,0.47063783,-0.3634498,-0.37223327,-0.17647225,-0.071215615,0.058804054,0.07593659,-0.23961459,-0.08306413,0.17736349,0.81736875,0.18179433,0.33938372
-0.033584155,-0.18919747,0.01105572,-0.022970675,-0.18282674,0.22822092,-0.29361334,0.14997962,-0.035972152,-0.0071319994,-0.34094167,-0.18898252,0.19574837,0.23202282,-0.23228334,-0.22261347,0.034289263,0.17809439,0.047785748,0.23289986,0.07306251,-0.16782638,-0.32882345,0.022346169,0.0067735985,-0.032590654,0.16878644,-0.122571096,0.26362818,0.36106345,0.053326637,0.19300549
-0.42726898,-0.21456133,-0.20858335,-0.37740427,-0.281003,0.19545323,-0.26247242,-0.049500708,0.38508052,-0.05220144,0.04310404,0.15101749,0.35595158,0.29362682,0.047188267,-0.28704262,-0.4198643,-0.07585306,0.0996445,0.4639111,-0.22320499,0.0423979,-0.042755503,-0.03842402,0.11328363,0.011905374,-0.05445086,0.16925551,0.29877013,0.37710965,0.3683559,-0.0063100113
-0.28772572,-0.19033867,-0.18518615,-0.23875183,0.3178757,-0.1701258,-0.058231797,-0.3532891,0.27051398,-0.036340714,0.43660185,0.31630245,-0.20232755,-0.1450549,0.26636016,-0.20279974,-0.112151355,-0.2741214,0.37238008,-0.00830781,-0.10183646,-0.025074398,-0.014705401,-0.019214056,-0.02623097,-0.06323205,-0.31024477,0.37969115,0.16573958,0.4384664,0.2248232,-0.35823998
-0.11898761,-0.29112625,-0.24382116,-0.18784486,0.15586008,-0.24481732,0.1717015,-0.24737003,0.48881516,0.122108266,0.40636232,0.32592928,-0.11626368,-0.07536786,0.22154886,-0.16081853,-0.274235,-0.3620599,0.14901304,0.09573027,-0.10129765,0.056484796,-0.0011218371,0.058228664,-0.038963284,-0.21077892,-0.18965644,0.31606844,0.063854694,0.35714972,0.17122029,-0.13016999
-0.14690946,-0.35108057,-0.5795498,-0.46541297,-0.32594728,0.009957372,0.4900309,0.124201134,0.6413807,0.010771723,0.06700364,0.385009,0.14597064,0.1393167,-0.39355233,0.020368885,-0.6568344,-0.20315018,-0.18878102,0.49596575,-0.45606783,-0.0616134,-0.24643885,0.011269368,0.058093026,0.65991247,-0.14187331,-0.12243123,-0.48371592,0.45642385,-0.18261491,0.40667862
-0.1952644,-0.24922973,-0.5090795,-0.13019332,-0.09900422,0.097962506,0.3240195,0.4012881,0.3313027,-0.037722506,0.23936015,0.26695222,0.3862997,0.16536862,-0.35826576,-0.056852624,-0.55330753,-0.23503363,0.014677895,0.50156265,-0.31530505,-0.16639952,-0.27195325,0.08112425,0.2484936,0.5015489,0.0035237449,-0.33343992,-0.50723785,0.29991394,-0.24531059,0.31980368
-0.1136587,-0.19827662,-0.2651862,-0.10357824,-0.21663305,-0.18747592,0.29956168,0.09952543,0.24866495,0.028067406,0.20971642,0.2651733,0.39584833,0.16594517,0.0027199106,-0.040575963,-0.24245629,-0.2382348,0.032459125,0.29746255,-0.22309358,-0.0181667,-0.2781331,-0.021519832,0.122940876,0.3369616,-0.0066659474,-0.18460572,-0.2740527,0.16272505,0.05908233,0.084672526
-0.20859332,-0.19820425,-0.30031633,-0.18170945,-0.14227499,-0.2411143,0.29548508,0.080409005,0.15634882,-0.015324651,0.1575382,0.11115783,0.2959908,0.23483405,-0.102741085,-0.11423125,-0.26074353,-0.15680954,0.0059479247,0.33798587,-0.1364229,0.017477361,-0.25925377,0.03874287,-0.09526996,0.18295059,-0.04403104,-0.13352399,-0.18676707,0.131967,-0.08675798,0.23119166
-0.20175295,-0.090360925,-0.40626281,-0.24533848,0.2046298,-0.11854629,0.35131165,-0.027059777,0.33259627,0.04853878,0.2825152,0.2535521,0.16947713,0.16566248,0.05601844,-0.26626745,-0.2976741,-0.17907354,-0.022387221,0.31666923,-0.05850145,0.014277914,-0.09230641,-0.03676313,-0.061269414,0.35485196,0.16936897,-0.18881236,-0.18330662,0.16331035,-0.1401916,0.087881416
-0.28676298,0.0642871,-0.18639767,-0.20948017,0.18167733,-0.10572666,0.23291098,-0.047310583,0.26889372,0.01254186,0.33236647,0.1148907,0.08123431,0.0903253,-0.019559376,-0.18999477,-0.18270151,-0.07578241,0.008581102,0.22445273,-0.042203903,-0.048077315,-0.049604483,-0.011705339,-0.051237915,0.24789369,0.09730962,-0.09205445,-0.008663079,0.19817816,-0.03172521,0.011948162
-0.06787198,0.03446906,0.07791745,-0.01645609,0.019479789,-0.014752902,-0.07176583,-0.0802203,0.07644764,0.051260002,0.060176812,-0.067151055,0.08140547,0.030448034,-0.063653745,0.006670788,-0.0703792,0.028880693,0.05689556,0.058927886,-0.033282746,-0.035972245,-0.0543304,0.023271479,-0.011819586,-0.021883562,0.013585515,0.07793341,0.080673896,-0.051746868,0.006831005,0.029712737
0.06480966,0.002833426,0.053126387,-0.0014126524,-0.048521727,0.08152469,0.054154582,-0.07425915,0.055865474,-0.055180576,-0.011809848,0.053414844,-0.029721465,0.05730144,-0.009413563,-0.07398352,-0.077497795,0.06473426,0.021582745,0.07876093,0.03575433,0.046936743,-0.056842037,0.075077556,-0.08024106,0.019175127,-0.04629067,0.07872742,-0.013343558,-0.057659745,-0.066104315,0.0025672019
-0.08007455,0.025883265,-0.07573551,-0.06387704,-0.011344768,-0.044145927,-0.019128703,0.06684523,-0.08478181,-0.023414709,0.0700276,-0.06464133,0.010083683,0.012311228,-0.015299909,-0.012436137,-0.08486305,-0.066391245,0.0206519,0.06301346,-0.0702881,-0.00824628,-0.07880187,-0.06772098,0.044242732,0.031156018,0.0359103,-0.08105706,-0.06789768,0.07980516,-0.005993262,0.07084357
-0.03915259,-0.032133393,-0.06930083,-0.031011987,-0.017687872,-0.037326943,-0.009161957,-0.05499811,-0.03759934,-0.030129697,-0.0729498,-0.041040022,0.064737536,-0.06041301,0.04437364,-0.07959327,0.05843634,0.083054475,-0.051973633,0.014111586,-0.026544005,-0.06085986,0.039234385,0.07643842,-0.052445833,-0.0013215989,0.004733205,-0.008837201,0.027785093,-0.039369013,0.084477745,-0.0155833885
0.07938204,-0.032070078,0.083681025,0.07345886,-0.023579631,0.038714677,0.080791704,0.040466584,0.047965907,0.034586616,-0.051252853,0.017181285,-0.061368328,-0.0040532276,0.0107447505,0.079461955,-0.019673027,0.08301287,0.070518605,-0.052350033,0.05296301,-0.026674908,0.051007576,0.0835791,-0.017368697,-0.05144781,0.06182822,-0.021826193,-0.06808667,0.013184518,-0.076702274,-0.040560402
0.04070001,-0.035194896,-0.048228927,0.024533786,-0.036299005,-0.021932624,-0.036270384,0.041314505,-0.08558911,-0.004901193,0.07232911,-0.04706518,-0.06496455,-0.047499824,0.008570343,0.020149276,-0.032036714,0.02817247,0.045811705,-0.04785081,0.05744671,0.06156013,-0.03451308,0.012672372,0.053419985,-0.00621821,0.052022375,-0.060991377,-0.083932005,-0.02671596,0.04776954,-0.015731014
-0.12443383,-0.120042615,-0.070201084,-0.023472423,-0.084145606,0.0902614,0.19086063,-0.035420388,0.10327214,-0.04372937,0.07741058,0.15728599,0.07686145,-0.00427256,0.027906405,0.052968167,-0.10091667,-0.017611897,0.041194092,0.16860542,-0.08905161,0.07150117,-0.07002971,-0.07228889,0.023341231,0.040966045,-0.05890253,0.042418327,-0.052360095,0.20136148,0.1313498,0.0091598425
-0.23576418,-0.057945546,-0.046710916,-0.43655097,0.0167173,-0.16318227,-0.108118884,0.025282256,0.2929797,0.0052915816,0.28570116,0.26961935,0.19319478,0.07281416,0.050306313,0.09293193,-0.35480064,-0.04944405,-0.0397855,0.30814257,-0.06294898,-0.041039895,0.016431035,0.04978604,0.017780319,-0.036396656,-0.11318665,0.25981048,0.10947474,0.080883585,0.28662226,-0.06649517
-0.23662814,-0.2137857,-0.18936917,-0.38014424,-0.065824315,-0.33770704,-0.028706746,0.10166185,0.4791037,0.13991162,0.35464382,0.44469166,0.22466213,0.03258805,0.039679814,-0.13254088,-0.45383474,-0.17855762,-0.15676203,0.4743876,-0.3983903,-0.044718288,-0.19783431,-0.006939076,0.004504457,-0.1163245,-0.19056754,0.16885082,0.24686715,0.35506228,0.21790513,-0.13350926
-0.093701325,-0.04739499,-0.05842971,-0.28771183,0.07589918,-0.08389821,0.38457385,-0.11937431,0.36122358,0.080157906,0.06287789,0.17298207,-0.03224193,0.07378238,-0.10133061,-0.12734798,-0.34989083,0.015333212,-0.11126676,0.22221075,-0.23832588,-0.040707942,-0.19791134,-0.003908694,-0.054655895,0.33802065,0.071142435,0.09431019,-0.12456589,0.33566427,0.022351569,0.2458206
-0.26673636,-0.27073845,-0.35112205,-0.29946235,-0.062123273,-0.19380379,0.4936553,0.17591894,0.35937396,0.07749428,0.18684188,0.16111495,-0.01073207,0.038646135,-0.029558986,-0.12722588,-0.35341784,0.02153065,-0.22074185,0.28188318,-0.13774392,-0.21075608,-0.12601434,-0.04672515,-0.046660896,0.2910241,0.2453327,-0.020795688,-0.3215007,0.39579877,0.1775087,0.2025695
-0.23083822,-0.3089306,-0.39651772,-0.32243448,-0.23147103,-0.29437855,0.65909207,0.14338346,0.56100655,0.07075081,0.3192155,0.23697042,0.16247557,0.11780306,0.017492158,-0.2989528,-0.41688192,-0.07459106,-0.22038089,0.46318653,-0.3230126,-0.16960114,-0.24402738,-0.008322351,0.07105436,0.3899875,0.033590734,0.037908394,-0.12999685,0.42122826,0.20534654,0.3247108
-0.05323591,0.0681852,-0.54417646,-0.35007387,0.038547948,-0.33387527,0.52722955,-0.028573297,0.44144443,-0.09162991,0.28214955,0.32304007,0.014860123,-0.028253151,-0.02496719,-0.27127656,-0.40190774,-0.1267473,-0.22689171,0.027818233,-0.13856739,-0.17580605,-0.25060752,-0.016614921,-0.022891663,0.5063431,0.36943784,0.10802369,-0.2698272,0.42078507,0.062158175,0.40504372
-0.21376078,0.32515147,-0.51562965,-0.089938015,0.20639016,-0.16050075,0.43517274,-0.30754665,0.25880894,-0.15384988,0.3417659,0.47783324,-0.19771655,-0.33529943,0.1856814,0.008473795,-0.092365034,-0.3357804,-0.14018622,-0.14672112,0.039148062,-0.22033401,0.017123487,0.046915732,-0.12895401,0.60821337,0.103535935,0.08442775,-0.30373666,0.24862167,-0.36352873,0.047473747
-0.1810359,0.4441261,-0.6968218,-0.26349315,0.09103588,-0.27760792,0.14580512,-0.26178804,0.37334752,0.033602443,0.5285334,0.5144137,-0.23660356,-0.14282987,0.19023935,-0.10090833,-0.2287305,-0.23253202,-0.13168752,-0.17501469,0.12842661,-0.37237486,-0.0432535,0.05448652,-0.22429296,0.6045888,0.22034535,-0.12415263,-0.4581714,0.21107768,-0.39919987,0.051926903
-0.04988656,0.17196074,-0.7619934,-0.35059103,-0.044661194,-0.3419968,0.14722818,-0.07526577,0.53248894,0.12623394,0.44828957,0.5569731,-0.19130866,0.17488568,0.21717726,0.06868198,-0.4309747,-0.2841127,0.047242362,-0.0988322,0.0645351,-0.4549175,-0.1881292,0.04717142,-0.029338779,0.6591965,0.27185667,-0.0233745,-0.5121781,0.10358269,-0.33856907,0.17163765
0.16791728,0.041701604,-0.6993301,-0.14347918,-0.02799565,-0.17864472,0.33034265,-0.18245369,0.35168245,-0.08220483,0.2276921,0.54467833,-0.23345818,0.1896612,-0.03263033,-0.16222902,-0.24267483,-0.35557434,0.3435352,-0.10940123,-0.30677542,-0.51657367,-0.14789969,-0.085268065,0.09506734,0.31780586,0.23258881,0.021512752,-0.28266796,0.25550404,-0.22138013,0.14715357
-0.12721963,-0.23155066,-0.87559843,0.06889824,-0.19332477,0.4384395,-0.01704471,-0.2754956,0.03502839,-0.06248458,-0.13823576,-0.16950426,-0.27948418,0.1877403,-0.2096374,0.018600106,-0.0253866,-0.40610448,0.6622736,0.26794842,-0.24827604,-0.21675499,-0.03574304,-0.07504675,0.04403766,0.07021427,0.23899879,-0.35297257,0.104658835,0.034124333,-0.038320914,-0.056220733
-0.26488322,-0.35297593,-0.60264486,0.010357453,0.07517708,0.31007335,0.16124207,-0.1602208,0.32688412,-0.025395267,0.02528451,0.033167638,-0.19198602,0.06482238,0.13237847,-0.33657,0.0895083,-0.39263004,0.6292535,-0.02306502,-0.1809553,-0.3138811,-0.36544162,0.016513105,-0.12997276,0.46015856,0.3055423,-0.15814407,-0.46496454,0.0074848114,-0.32059178,0.035236016
-0.30237016,-0.5333635,-0.24376568,-0.34505206,0.10157583,0.4857188,-0.02527195,0.07016902,0.23529293,-0.1114575,0.023959674,-0.18879215,0.03789709,0.29239246,0.13500023,-0.33500814,-0.07229818,-0.14054698,0.5261107,0.2532835,-0.047330465,-0.33619255,-1.0712798,-0.00830139,-0.061499964,0.70582944,0.10135233,-0.09487604,-0.48798174,-0.0001300034,-0.180733,-0.03394779
-0.27551058,-0.20971225,0.07438339,-0.36933362,0.14260446,0.39965054,0.09459743,0.060423564,0.0091905035,0.016170561,-0.01213692,-0.19606704,-0.010171591,0.29429057,0.17602319,-0.25159556,0.05450654,-0.21597809,0.31731847,0.22182067,0.084873706,-0.40005523,-0.74527824,-0.070231184,-0.26234904,0.4028116,0.116405256,-0.074922845,-0.005440329,0.25612053,-0.058727175,-0.053990822
-0.10821946,-0.15306991,0.15802813,-0.18354975,-0.10646829,0.33555388,0.13875668,0.035276808,0.12187421,0.1916974,0.03750982,-0.23401642,-0.12381668,0.44424963,0.003781205,-0.3989592,-0.007652233,-0.35997188,0.15288304,0.18431158,0.13097887,-0.46410218,-0.35592493,0.01795749,-0.5310987,0.367011,0.18726744,-0.23048563,0.017108727,0.19166331,-0.40384728,0.055704087
-0.284698,-0.33736902,-0.10379151,-0.115998305,-0.29150033,0.35154632,0.24468867,-0.15742911,0.3564253,0.4307063,-0.033368774,-0.17087083,0.21040313,0.5220794,0.08579119,-0.23189217,-0.16349389,-0.45013288,-0.06705867,0.08630282,-0.036221154,-0.34810022,-0.75838065,0.028340833,-0.512923,0.33251876,-0.04356678,-0.042315863,0.09797764,0.32201877,-0.34040844,0.13891324
-0.38344422,-0.31494844,-0.53558797,0.02146067,-0.53707075,0.30583194,0.22108568,0.13569619,-0.020954028,0.38529906,-0.15795408,-0.13186115,0.34649152,0.45376298,0.0050417245,-0.26668057,-0.2198579,-0.36843887,0.06838392,0.20275745,-0.22307126,-0.5820328,-0.46413165,0.061546713,-0.043948643,0.17257148,-0.065729044,-0.3415039,-0.15505995,0.21262217,-0.1796184,0.20895891
-0.4315893,-0.11525795,-0.39179993,0.014480552,-0.37318915,0.367308,0.2160882,0.3440858,0.027639324,0.20034479,0.09254831,0.03563768,0.3125933,0.2745794,0.23652227,-0.1441267,-0.2894539,-0.23002498,0.1709044,0.08846537,-0.27763733,-0.6777868,-0.21851034,0.06844087,0.025931917,0.263165,-0.08537311,-0.4327462,-0.34431815,0.21216133,-0.36449465,0.061440423
0.06339594,-0.078219846,-0.45002213,0.3400535,-0.27581164,0.16925418,0.19499189,0.41781765,-0.108369224,0.21333268,0.36470363,0.068495765,0.2111971,0.13017239,0.10476828,-0.12468246,-0.31343937,-0.39036882,0.20451921,-0.006663955,-0.43293577,-0.3387817,-0.26060626,0.07394887,-0.13070278,0.24026965,-0.09456973,-0.18784212,-0.34847307,0.38904017,-0.3223893,0.21405229
0.011968908,0.19325584,-0.3595987,0.12788236,0.010030786,0.06244667,0.27960318,0.54739517,0.21612923,0.12005809,0.23282738,0.045494426,0.173565,0.22722638,-0.11818171,-0.28070733,-0.3767341,-0.32284302,0.08377891,0.14469437,-0.48773107,-0.30067617,-0.15080671,0.082824744,-0.12750368,0.19151601,-0.17455703,-0.22667907,-0.39788526,0.57328564,-0.33455783,0.31922632
-0.28948054,-0.14194952,-0.39841056,-0.10195083,0.31971693,-0.15202689,0.35787013,0.3205322,0.43272945,-0.057501897,0.5172534,0.35282952,0.19857514,0.2868785,-0.044564452,-0.3301787,-0.5662281,-0.15562269,0.22059728,0.19966926,-0.23661022,-0.059116527,-0.40670666,-0.0040489137,-0.1919161,0.25036398,0.064421184,-0.15220846,-0.29776263,0.50729793,0.08424893,-0.021245094
-0.27149808,0.060164083,0.07720119,0.009471164,0.13127227,-0.1430504,0.11190812,0.21115418,-0.06990222,0.017616821,0.4920061,0.5454616,-0.14590374,-0.06315481,0.17869006,-0.012005657,-0.038077377,-0.08711616,0.113540925,0.013757731,0.032580603,0.07497847,-0.35449865,-0.07155043,-0.04333907,0.2598555,0.17984322,0.06464861,-0.35291094,-0.0008382899,-0.022905624,-0.1382667
-0.1911854,0.17059547,0.04800694,-0.030548444,0.13839464,0.0562883,-0.079784006,-0.06751675,0.01862093,-0.05086429,0.22536643,0.22774996,-0.14515622,-0.023015885,0.14314316,-0.008078896,0.05366347,-0.21225034,0.04579113,-0.18567462,0.21999921,0.07692663,-0.16008721,0.039206542,-0.029750237,-0.054574326,0.024898438,0.11958965,-0.13276711,-0.07495699,0.007940405,-0.15520185
-0.040001884,-0.011419266,0.05253219,-0.010766029,0.009665623,0.06618858,0.08429053,-0.019892901,-0.038619895,-0.050975077,-0.029476136,-0.04348961,-0.05565744,-0.04049003,-0.010198273,0.0561297,-0.01643765,0.042094864,0.08574154,0.051467784,-0.05526123,0.006414376,-0.031825237,0.03852479,-0.058448177,0.06305311,-0.04152729,0.07213832,-0.004545301,0.022617795,0.014639206,-0.001859501
-0.07732257,0.004223369,-0.07928822,-0.079731576,-0.061244823,0.026739284,0.054818936,0.012219943,0.042664208,0.07979483,0.014025003,0.03471777,-0.06448593,-0.03317051,-0.028573912,0.026914023,-0.06262722,0.009504415,-0.034834504,-0.072221614,-0.06465611,0.028603166,-0.005014725,-0.0024435148,0.004357502,-0.039014,0.037072025,-0.00010739267,-0.030158501,-0.016018353,-0.07034792,-0.084612794
-0.005237527,0.041666202,0.0147603825,0.006912172,0.006080359,-0.010984331,-0.041434757,0.06163805,-0.07828236,-0.048748087,0.021026619,0.033196554,-0.025415074,-0.055822685,0.035324574,-0.041550167,0.032372758,-0.063186474,0.058351927,-0.028934833,0.04946641,-0.04261562,0.0604584,0.07894484,0.059617914,0.019315213,-0.003284119,0.0018313751,0.06290948,-0.055954043,-0.012634166,-0.008366451
-0.047359984,0.049063213,-0.071469165,0.003970064,0.0072712526,-0.022346474,0.08265584,0.0113404915,-0.057989717,-0.036308248,0.054571606,0.047477953,-0.016342789,-0.03319956,-0.04537338,-0.008841023,-0.017867513,0.061143197,-0.032671157,-0.014258556,-0.05715559,0.0033094287,-0.07767434,0.05103729,-0.054807365,0.03831961,-0.04642276,-0.062091008,0.021120802,0.0745165,0.07316082,-0.07333639
-0.3590964,0.23563355,-0.181937,-0.05713493,0.3269531,0.02121828,-0.28611806,0.20768921,-0.18843961,-0.035987176,-0.22073434,-0.19899997,-0.2136052,0.24385591,0.31149015,0.31446472,0.09282958,0.08065004,0.32849032,0.25688308,0.14595369,0.038767338,-0.0107598435,0.011764176,0.14051534,-0.19872911,0.016423836,-0.33348686,0.17188601,-0.13221945,0.15692888,-0.25469056
-0.4116542,0.13849649,-0.041000314,-0.47245476,0.2904684,-0.14299779,0.10079721,-0.026519235,0.18805636,0.07462336,0.21411374,0.15141828,0.31293443,0.21326517,0.10739411,0.16139968,-0.3255586,-0.12535216,-0.025649777,0.39133066,-0.021067193,-0.076522514,-0.20766325,-0.079450116,0.25173634,0.07093062,-0.09885369,0.1757522,0.060792215,0.13520128,0.2345452,-0.13271284
-0.35892203,-0.08252782,-0.19385163,-0.37609047,-0.02667636,-0.025515493,0.2978143,-0.05169848,0.45163226,0.08339792,0.05074837,-0.10286821,0.27468327,0.28295758,-0.025811957,-0.016013633,-0.17302065,-0.17753427,-0.36263198,0.42675024,-0.16466077,-0.040406078,-0.15928042,-0.016778678,0.07147906,-0.13783936,-0.16100618,0.019851834,0.22368743,0.33426356,0.21815217,0.20821612
0.16578192,0.11154187,-0.47185573,-0.057595782,-0.07840262,-0.52411824,-0.014750535,-0.029346956,0.3050813,0.028296065,0.3297084,0.34000993,0.24902639,0.06049553,0.22105521,-0.19649115,-0.22604695,-0.22950992,-0.24885643,-0.09415054,-0.104545765,-0.16271977,-0.10252705,-0.038867168,-0.2111425,0.31370506,0.08687614,0.027537692,0.0028931026,0.15552282,-0.15176408,0.37850958
-0.045919616,0.11948306,-0.45719007,-0.14812136,0.049950942,-0.40390098,0.23879912,0.3832761,0.28739196,0.074298695,0.18710548,0.27557695,0.077180125,0.07229159,0.032295235,-0.078921326,-0.3148263,-0.044429187,0.0030456851,0.09436993,-0.076775655,-0.34416842,-0.3865744,0.02041427,-0.14482775,0.38968953,0.5045738,-0.19814655,-0.2811339,0.042890497,-0.34247068,0.2759067
-0.016686188,0.24110167,-0.5506398,-0.22074437,0.18492404,-0.11323703,0.11324231,0.18667689,0.10521129,-0.0780505,0.0037760627,0.25882107,0.0660387,0.0034963936,0.018982893,-0.5284616,-0.18676887,-0.20006819,0.04324233,-0.044432674,-0.18023038,-0.33652908,-0.30260882,-0.025548942,0.07165672,0.40490985,0.6223714,-0.34888077,-0.11695957,0.09951131,-0.3867008,0.18478628
-0.096470594,0.19972956,-0.62576294,-0.24209324,0.09261575,-0.26962018,0.2416922,-0.06684931,0.24105415,-0.13394804,0.0004455033,0.14900133,-0.28557506,0.14378804,0.27619627,-0.6265903,-0.19768725,-0.39909872,0.08806506,-0.20602219,0.13918878,-0.3620541,-0.17998038,0.08090616,-0.12924464,0.18364444,0.3033833,-0.52333033,0.07611224,0.21470062,-0.5143308,0.2336602
-0.23633899,0.0377808,-0.4957525,-0.17356251,0.17901804,-0.17450091,0.30709532,-0.027145356,0.30663693,-0.27317172,0.29382122,0.27504206,-0.44982818,-0.1423329,0.44282132,-0.19360718,-0.17369597,-0.30866227,0.16209628,-0.24084054,-0.0033720413,-0.39916232,-0.2331732,0.024495091,-0.17369631,0.042918608,-0.07572659,-0.2910252,-0.13653131,0.21811509,-0.24813788,0.049045008
-0.0136946505,0.15619908,-0.6238018,0.12452572,-0.15047143,-0.26663294,0.23537976,-0.3294134,0.23361783,-0.22210135,0.25077805,0.0061573964,-0.5021793,-0.2717018,0.4839204,-0.21049087,0.06834225,-0.25405434,-0.040177844,-0.12938388,0.18701474,-0.4478833,-0.20065695,-0.036358118,-0.16323245,0.089828566,-0.03310888,-0.30401266,0.0054152627,0.22761504,-0.16423999,0.050504215
0.07834968,0.17837389,-0.5806989,0.10332421,-0.0039325524,-0.40604612,0.34269923,-0.27612132,0.23660427,-0.105671115,0.13085508,0.15469071,-0.4823873,-0.2696794,0.4405041,-0.40684876,-0.10925685,0.05001191,0.05437853,-0.40767577,0.21575835,-0.53080213,0.02119699,0.01201221,-0.2560603,0.29141864,0.11433912,-0.36546513,-0.15371874,0.35271588,-0.20386542,0.17682663
-0.092019334,0.1840222,-0.6549911,-0.20572732,-0.21194623,4.1812767e-05,0.48299468,-0.42179832,0.28300887,0.024734002,0.03437826,0.15742695,-0.5589073,-0.034011822,0.43923786,-0.5362769,-0.05576128,-0.27900037,0.30108818,-0.30547893,0.14526945,-0.4175695,0.03022005,-0.023964016,-0.30409732,0.19168183,0.019876039,-0.32110238,0.027080761,0.35933313,-0.3700315,-0.07532725
-0.015415417,0.015635388,-0.93524194,-0.13470662,-0.2609962,0.35457796,0.26660687,-0.1028173,0.3009345,-0.17307876,-0.037961554,0.36280057,-0.57685715,-0.09129119,0.31706253,-0.38129634,-0.2619074,-0.7210792,0.553334,0.15303679,-0.16618113,-0.52085865,-0.19679281,-0.08365502,-0.27538693,0.17667179,-0.020875363,0.017010532,-0.1576356,0.3874195,-0.016856829,-0.2746612
0.176134,-0.01805779,-0.51232916,-0.097800076,-0.38180837,-0.017493788,0.18159828,-0.11268211,0.2956713,-0.124392815,-0.09815424,0.3441301,-0.24387468,0.0500489,0.18361555,-0.22539507,-0.13529252,-0.615496,0.43057165,-0.084831506,-0.030112393,-0.14214021,-0.21041435,-0.05403336,-0.6170399,0.154029,0.14490457,-0.26612988,-0.07847876,0.24974303,-0.17413242,0.014462135
0.05842429,0.018460836,-0.1853306,-0.028300576,-0.23588817,0.13351949,0.30099624,-0.023980483,0.15993886,-0.05073054,-0.1562999,0.1377514,-0.02246531,0.14420433,0.23645985,-0.27256233,-0.09767848,-0.60424495,0.4148679,0.10822142,0.0713962,-0.010016818,-0.3871436,0.0032188834,-0.86273456,0.19454016,0.27049324,-0.1801304,0.04221007,0.18422458,-0.19496527,-0.11122063
0.1380624,-0.018211039,-0.24103217,-0.015674988,-0.034812365,0.10239494,0.023319801,-0.057639852,0.069572754,-0.13977765,0.17950365,0.11575267,-0.0005087164,0.19213718,0.29175213,-0.29706854,-0.023373159,-0.5458577,0.43931264,0.016225599,-0.04331898,-0.36348563,-0.42973554,0.039915394,-0.6093726,0.17727776,-0.047090136,-0.013959901,0.005508688,0.069868535,-0.019917496,-0.18618351
0.11648738,-0.028610177,-0.07983907,0.040916327,-0.086336635,-0.013782216,-0.057136033,0.1283454,-0.02614852,-0.16918336,-0.028564164,0.12721765,0.081263795,0.04461677,0.24814774,-0.02167714,0.07209468,-0.21228342,0.3235633,-0.05448349,-0.0006360366,-0.49326444,-0.19344154,0.04055974,-0.17218226,0.07776003,-0.1294016,-0.017014062,0.12770592,0.15450956,0.0936517,0.0007701087
-0.22389951,-0.23845021,0.03486699,-0.27153286,-0.1194329,0.010124799,0.111013316,-0.07644029,-0.13088757,-0.24978796,-0.15565515,0.15548678,0.2071436,0.15455708,0.17053643,-0.12949234,-0.03871771,-0.14555372,0.14091893,0.018007804,0.07210846,-0.37485313,-0.22925714,0.00019865326,0.20876345,0.22017941,-0.39185086,0.043397885,0.086811766,0.37106574,-0.071626686,0.10467802
-0.21676716,-0.09718713,0.016893977,-0.09444531,-0.09049608,0.046907347,0.23862773,0.10987994,-0.31308517,-0.05641749,-0.13462807,0.06069545,0.03763319,-0.04886612,0.06324464,-0.2262874,-0.25383648,-0.23420185,0.069677986,0.1343232,0.039919592,-0.11121398,-0.36766708,-0.0473524,0.24085793,0.2651447,-0.20745255,-0.12359599,-0.015799675,0.3392497,-0.14523236,0.02621423
-0.078745134,-0.07017179,-0.0036826557,0.026068013,-0.1734799,-0.13317959,0.18845847,0.08747228,-0.3303245,0.076290995,-0.01627254,0.008206985,-0.01991522,0.112645574,0.20788023,-0.35877573,0.0044725835,-0.48325965,0.008121908,0.086226866,0.20895435,0.038690228,-0.36876807,0.013695543,0.0009858233,-0.026609195,-0.040195443,-0.20878808,0.16087478,0.21346903,-0.5124482,0.07819512
-0.1737714,-0.09608127,0.14219993,-0.11632058,-0.12986422,0.17171557,0.20270737,0.0048920945,0.064742945,0.11673884,0.18002121,-0.16808316,0.32276785,0.20213622,-0.10424983,-0.61058605,-0.05361126,-0.22018944,-0.11617815,0.22199516,-0.057797052,0.16035484,-0.44267675,-0.028169345,-0.31342807,0.17724928,-0.11405488,0.03337558,-0.053741872,0.32228395,0.03143915,0.18529308
-0.105862014,-0.04114671,0.104796104,-0.034307748,-0.022731014,0.32094342,0.04451806,-0.040316667,0.0007769839,-0.033065382,-0.03483344,-0.18055606,0.23715062,-0.009362796,-0.06530237,-0.4302949,0.06290313,0.055131577,-0.051715687,0.1070345,0.08281155,0.21639727,-0.41935164,-0.06270473,-0.018464778,0.1523454,0.04303204,0.08153735,-0.23187621,0.0037412136,0.12478011,0.24773088
0.015479484,0.25815487,0.040596817,0.14996874,-0.28597403,0.054366928,0.12859924,0.07751273,-0.15740313,-0.09767685,0.09102766,-0.10991986,0.39895725,0.10420572,-0.12666427,-0.07449373,-0.022298746,0.20728265,-0.07386107,0.28973883,-0.026470805,0.06402974,-0.20433357,-0.030387253,0.026291225,0.25340557,-0.05119498,0.27494127,-0.17999482,0.26243448,0.058301445,0.24042386
-0.19502312,0.36829245,-0.11296486,0.16253331,-0.04326236,-0.13444036,0.4212038,0.24647939,-0.06432398,0.059276804,0.40825546,0.24894851,0.11203464,0.014129888,-0.029371439,0.01589474,-0.2665587,0.017346865,-0.13596514,0.13221478,-0.027677653,0.13605174,0.0021661767,-0.056775715,-0.15940762,0.22050188,0.08001299,-0.11296239,-0.3061046,0.57913804,-0.032460704,-0.26347557
0.23554824,-0.1269836,-0.13046615,-0.12955338,0.046892792,-0.002498405,-0.14653659,-0.19145046,0.03079185,-0.09554479,0.0007240948,-0.060996074,0.15820861,0.006641793,0.12158659,0.0749937,0.24001695,-0.16270168,-0.08988043,-0.20048507,0.14510697,-0.14096484,0.2804679,0.006618835,-0.121696204,-0.12921286,-0.023891002,-0.0047271224,0.071615726,0.2761173,0.04356305,-0.06444824
0.15404455,-0.037538342,-0.021018412,-0.15180054,-0.17156425,-0.067194775,-0.0046932977,-0.19047143,-0.0027007898,0.06884454,0.1449474,-0.12040975,0.12791875,-0.032421067,-0.114411116,0.012526748,-0.0039650803,-0.08495459,-0.17592281,-0.19689015,-0.21908078,0.07626511,0.07506605,-0.009215176,0.0242118,-0.10349574,-0.12740204,0.03011925,0.13135207,0.27805027,-0.23952542,0.26418802
0.017711692,-0.00952208,-0.0623373,-0.0064227358,-0.05420424,-0.06704117,0.06720445,-0.07276923,-0.027068213,-0.08114245,0.04379674,0.025311872,0.008334003,-0.022054128,0.010812543,-0.040737405,-0.060428526,0.0008459836,-0.01739078,0.04397992,0.06177231,-0.014033712,-0.012424566,0.01778318,0.004003063,0.02508159,0.021748692,-0.0570034,0.080321915,0.064325385,0.06058296,-0.004253015
-0.017546602,0.0319532,-0.03727567,-0.011406265,-0.0014351234,0.042662196,0.00048542768,0.07153367,0.06343836,-0.06289712,-0.07373465,0.057495542,0.04561127,0.06734971,0.032746352,0.081396885,0.043363772,-0.0015835911,-0.06914566,0.03076715,-0.039383978,-0.026912715,-0.08212633,0.011315942,-0.011186056,0.04492005,-0.039150074,-0.02117204,-0.00040450692,-0.057011783,-0.032596536,0.041651182
0.077989936,-0.032049082,-0.07789476,0.03953224,-0.09817761,-0.040398993,-0.07100889,0.08133028,-0.08114014,-0.034775943,0.009457897,0.023188021,0.053621747,0.048740704,0.10785291,0.01969521,0.004498886,-0.017040916,-0.021996886,-0.09966866,-0.009325833,0.065099426,-0.006149232,0.023437299,0.0076465905,0.0646908,0.038220655,-0.114549175,-0.027339496,-0.04366763,0.00643079,-0.003652265
-0.18062352,0.116718404,0.014582696,-0.101123124,0.17838734,0.05375811,-0.37173232,0.23204038,-0.18469188,-0.049979106,-0.22447261,-0.1602341,-0.30911043,0.30905727,0.3141429,0.1896864,0.111185126,0.22767434,0.22393824,0.10531454,0.21620817,-0.0010364022,0.062446862,-0.053104997,0.2530213,-0.117872305,0.038394228,-0.34882256,0.07638814,-0.33725893,0.12053909,-0.31920964
-0.030046886,0.44123536,0.11604728,-0.5172387,-0.04635171,-0.2355815,0.117769994,-0.13544199,-0.20685627,0.24407531,-0.37873802,-0.1954004,0.021134866,0.5164965,0.5060462,-0.24131952,-0.059840966,-0.12497037,-0.014445861,-0.09042482,0.2790602,0.14508758,-0.051117364,0.037654236,0.28497383,-0.38524273,-0.2049144,-0.34217837,0.14645392,0.035844512,0.18695195,0.082287624
0.12616293,0.43106893,-0.037972994,-0.14159013,-0.05457876,-0.09328477,-0.30522844,-0.2769399,0.15452926,0.12558769,-0.061808165,0.30265102,0.1447611,0.2791133,0.2598861,-0.3381184,-0.20617218,0.06288632,-0.13116816,-0.109573096,-0.010258539,-0.19327274,-0.099707395,0.040353954,0.36238956,0.26908875,0.33623743,-0.16832505,-0.25147805,-0.1340451,-0.18021148,0.36617005
-0.06715401,0.18732806,-0.026696865,-0.117369205,0.2130551,-0.08538371,-0.10136836,0.04488453,0.044701684,-0.15061672,0.16889708,0.34197056,0.2421672,0.059602104,-0.03503416,0.086901985,-0.35544074,-0.07958609,-0.11060153,-0.23315997,0.050171547,-0.15077986,-0.11880777,-0.008901927,-0.08058682,0.3116448,0.47757506,-0.31270725,-0.42543262,-0.11626934,-0.41650295,0.15989718
0.0034526458,0.049378958,-0.0681468,-0.024592115,0.36100554,-0.010792984,-0.016026568,0.14179617,-0.0068699224,-0.013262258,0.105961025,0.35282266,0.047884524,-0.11745021,0.13684776,0.19316262,-0.016173998,-0.081607684,0.19004391,-0.5731982,0.039252922,-0.2843409,-0.20119812,-0.011760568,-0.17300318,0.13879956,0.41158608,0.10880389,-0.6640553,-0.06247952,-0.27289635,-0.13853925
0.047767915,0.10585046,-0.35587215,0.13129018,0.15797359,0.053101476,-0.042457145,-0.0005514064,0.068031095,-0.09983733,0.05976204,0.2522666,-0.30863535,-0.18560807,0.3007972,0.026458194,0.114469446,0.0014387125,0.11514468,-0.6706074,0.001515746,-0.2731487,-0.2091772,-0.04120055,-0.050989326,-0.071861826,0.23367143,0.20050831,-0.33656082,-0.02644126,-0.2578826,-0.10765192
0.05633283,0.19810608,-0.5571047,-0.0047506616,0.057378322,0.04166388,-0.22747222,0.08441458,0.15311842,-0.0558989,0.007628327,0.08127882,-0.38001823,-0.04383443,0.27499172,-0.14263432,-0.012272476,-0.1986745,-0.22575837,-0.14141573,0.04243031,-0.19863112,-0.33291116,0.021980757,-0.23997259,0.10214185,0.11272341,-0.11138719,-0.19869082,0.06923811,-0.111126356,0.04819833
-0.025082817,0.10976726,-0.94709593,0.2620901,0.015931036,-0.022576937,-0.13504891,-0.12822503,0.33199286,0.03154125,0.33152387,0.101794064,-0.3331223,-0.057735316,0.48779365,-0.15170717,0.20409293,0.19181377,0.13488802,0.05604305,0.08120934,-0.2425934,-0.38978997,0.04446047,-0.2454933,-0.079704896,0.0027169506,-0.102669775,-0.09855099,0.196049,-0.01952523,-0.11436352
-0.13007478,0.1259043,-0.6734132,-0.0039727334,-0.002601759,-0.13746119,-0.034456346,0.01154826,0.31702822,0.090911075,0.32258812,0.045183294,-0.47337145,0.13921925,0.4323061,-0.030771201,-0.030858522,0.021775017,0.107954815,0.09769128,0.13780239,-0.4185387,-0.08347169,0.058556903,-0.34237498,0.02613616,0.077987514,-0.15672064,-0.12532245,0.044957567,-0.049364727,-0.0049200985
-0.09374719,0.08417657,-0.48960117,-0.21323536,0.046208274,-0.007333081,0.101970166,0.036828764,0.30904973,0.074450664,0.15358308,0.06102318,-0.37832743,-0.031425916,0.47801462,-0.2075499,0.03090724,0.04517844,0.071846806,-0.12597294,0.24527806,-0.34828085,0.102230795,0.06381165,-0.17896372,0.051412493,-0.120431304,-0.04070256,0.06894921,0.11336789,0.003514406,0.014312073
0.07571612,0.11671805,-0.47809088,-0.02141638,-0.08852864,0.20854503,0.06743445,-0.030938499,0.21899936,-0.00059558195,-0.152612,0.087771535,-0.4099083,-0.16161248,0.47386715,-0.13073239,0.206164,0.011116108,0.13575317,-0.1953299,0.24773936,-0.1541092,0.12597363,-0.031087488,-0.2658331,0.1693046,0.13931015,0.0017975175,-0.084186725,-0.046912957,0.13419488,-0.046576343
0.062055618,0.075627826,-0.46268737,0.19027983,-0.06934856,0.3602689,0.03003216,-0.08630629,-0.10283355,-0.066520974,-0.2442928,0.18867147,-0.3022308,-0.1596556,0.18232764,0.039247017,0.06887433,-0.12574212,0.13956858,0.021626897,0.038561273,-0.08597859,0.028101332,0.020135172,-0.43259606,0.033509273,0.12667905,-0.19746184,-0.07793434,-0.1668113,0.17704654,-0.06781083
-0.12989363,-0.0339143,-0.4332413,0.14458674,-0.06541962,0.30537704,0.22604162,-0.21930645,0.019315466,0.024203874,-0.18767734,0.018814664,-0.14285621,0.08923933,0.19232546,-0.08020699,0.12092693,-0.23107474,0.31376332,0.06364242,0.039342664,-0.14046423,-0.06260393,0.014892305,-0.66834515,0.19236982,0.023228342,0.05896247,-0.07588354,0.04406078,0.247846,-0.108723186
-0.089465275,0.09328178,-0.18428007,-0.11229724,-0.14231169,0.26203516,0.15931793,-0.099573135,-0.0047028866,0.1850717,-0.1921897,-0.11675667,-0.26683888,0.21544886,0.20955941,-0.21785977,0.11075469,-0.23100689,0.37365612,0.14748697,0.1338281,-0.09104737,0.0802348,-0.07037695,-0.62762696,-0.082215525,0.07699277,0.17896914,0.11255132,0.20026794,-0.05903881,-0.1464367
-0.022535214,-0.04338784,-0.10834072,-0.076330885,-0.11037133,0.097900234,0.04261298,-0.16568023,0.12983005,-0.009732398,-0.123287275,0.0066168522,-0.1761991,0.22561379,0.13806118,-0.20313528,0.1695289,0.006782338,0.3949267,0.15881199,0.08881769,-0.098890156,-0.19109996,-0.09178639,-0.25373578,0.21407844,0.13302514,0.08820794,-0.0015822204,-0.06914916,0.03603182,-0.07461001
0.017580938,-0.046380036,-0.119490124,0.06519647,-0.08564656,-0.03331367,0.18716493,-0.098164946,0.10937436,-0.059061144,-0.03192754,0.016771348,-0.038032733,0.049866736,0.052374333,-0.3142025,0.12865725,0.017105855,0.30063787,0.02746494,-0.0011730336,-0.0553638,-0.11967501,-0.02131771,-0.264272,0.1896579,-0.02113056,0.24272953,-0.08992887,0.21975249,0.10744437,0.04666596
-0.029636648,-0.09895335,-0.09836684,-0.0070152706,-0.00814364,-0.038518727,0.20654525,-0.22005501,-0.13736573,-0.10178817,-0.028004657,0.083040215,-0.15380946,-0.0136333965,0.22424977,-0.16357549,0.10745474,-0.03446329,0.14425544,-0.06433525,0.08988379,-0.08486101,-0.062505744,0.04465357,-0.06997695,0.120557725,0.033790782,0.17172997,-0.093420096,0.23269607,-0.11809536,-0.005086676
0.049673527,-0.2514255,-0.09839749,0.12538733,0.044658665,0.07789814,0.17998391,-0.13218346,-0.10233418,-0.10200368,-0.08157123,0.058907468,-0.02056553,0.03385309,0.1505658,0.015496691,0.041197073,-0.024919484,0.12790956,0.15922762,0.08133646,-0.14045143,-0.09653072,-0.017621081,0.13822763,0.01716366,0.067286424,-0.18915962,-0.15029438,0.264623,-0.1821842,0.15813203
0.14299987,-0.17859322,-0.23578398,0.26248023,0.037405692,0.09310404,0.16517986,-0.014157158,-0.2492389,-0.19129059,-0.07640597,0.048016284,-0.20338482,-0.0747344,-0.012103505,-0.5338439,0.16379225,0.03583872,0.032245528,0.15673259,0.19276915,0.044482797,-0.05321707,-0.0604551,0.006667926,0.049046736,-0.08826497,-0.03242372,-0.031161398,0.18802382,-0.17344433,0.025261285
0.09762901,-0.03068432,0.010723611,0.11136833,-0.18195042,0.3721622,0.35519335,0.12357154,-0.31554085,0.116191894,-0.46677396,-0.31525984,0.03379709,-0.09544972,-0.23187417,-0.1837211,0.2344046,-0.0005003824,-0.19693227,0.32553577,-0.016814621,0.099404335,-0.08037834,-0.045823205,-0.04218582,-0.092340976,-0.17183645,-0.06388416,-0.06374183,0.12289205,-0.3833246,0.16483097
0.20007607,0.038371198,0.13744533,0.23848185,-0.18688877,0.2157618,0.13140081,0.1561955,-0.49052376,0.15892498,-0.35158595,-0.0638573,-0.03745329,-0.13730179,-0.022216413,-0.1617722,0.23553695,0.33568677,-0.04139861,0.11208496,0.13021664,-0.0009106247,0.21576227,-0.015099208,0.09569617,-0.124716714,-0.3147756,-0.086703524,-0.21304104,0.017966893,-0.007265565,0.023061406
0.06563221,-0.0819586,0.1899963,0.21087451,-0.16745082,0.04343775,0.28557485,0.071147054,-0.37040868,0.096462056,-0.09009559,-0.21377893,0.4587123,0.016128607,-0.35609457,-0.306139,0.2139302,-0.022382215,-0.45124158,0.28237092,-0.31334075,-0.2599387,0.33221522,0.006645646,0.11789691,-0.05414871,-0.29062042,0.021028582,-0.3067755,-0.02191533,-0.054082986,0.28859025
0.20705083,-0.07139105,0.06808122,0.04679031,-0.10121188,0.032775085,0.19617815,-0.22410475,0.009236501,0.12760766,0.024804622,-0.2925617,0.2099031,0.020109994,-0.07748309,-0.27614358,0.45751914,-0.10401874,-0.69490427,-0.5039603,0.09843348,-0.21476093,0.40756592,0.06609192,-0.2740826,-0.1892429,-0.30581996,0.089210756,-0.08420855,0.09726667,-0.32514077,0.27793193
0.35147426,-0.25497946,0.027875736,0.0379245,0.20784922,0.15086165,-0.019908397,-0.35619262,0.2469724,0.20961788,0.09862969,-0.24060363,0.027835825,0.16589807,0.09356058,-0.24062009,0.3250381,-0.33354393,-0.55155486,-0.5035464,0.15688948,-0.1922977,0.17825322,0.022353098,0.012908313,-0.03906298,-0.2988616,0.036593635,0.053480383,-0.14035621,-0.07033444,0.26520494
0.18306507,-0.21425281,-0.030741753,0.033985276,-0.02874313,0.02891698,0.02628925,-0.3078404,0.19110969,0.31607747,0.018719554,-0.041446775,-0.055066492,-0.12962165,0.21788518,-0.05628212,0.007422022,0.11354814,-0.16375516,-0.46968964,0.20659734,-0.13428743,-0.06112209,0.05526895,0.06522911,0.20097488,-0.17897879,0.21920109,0.0030593658,0.018228516,-0.019108223,0.16823475
0.091925465,0.117335945,-0.21459982,0.27331105,-0.083870724,0.08368268,0.11417505,0.10500492,0.32148343,0.02488594,0.15407504,0.21642536,-0.15080756,-0.1833026,-0.06662418,0.23125283,-0.20040013,0.008059899,0.015465668,0.019823195,-0.08495282,-0.15437016,-0.014481121,0.05757221,-0.101958156,0.3080744,-0.032768074,0.07256429,-0.15443642,0.24261694,-0.0088827675,0.10754769
0.06234985,-0.069419205,-0.010390691,-0.05863318,-0.076441385,-0.010387935,0.0071671307,-0.047693595,-0.032169826,0.04793661,-0.023284458,0.022118159,-0.021786451,-0.04009229,0.06652153,0.047510125,0.07010656,-0.072975226,0.07279501,-0.0750255,0.08530166,-0.030925017,-0.070520855,-0.027014099,-0.05482407,0.007244393,0.05475732,-0.0290916,0.06693635,0.064581655,0.027125373,-0.01812628
0.009951636,-0.029788073,0.043654345,-0.07983658,0.060226,0.032345235,-0.053226292,-0.043130178,0.0064433664,-0.009055093,-0.032786258,-0.052888084,-0.03373246,0.044079565,-0.054266535,-0.076895185,0.0436546,0.0050458983,-0.03281208,0.065903895,-0.06256762,-0.055059996,0.03852023,0.028272443,-0.047311634,-0.029451132,-0.06504269,-0.019020796,-0.079744086,-0.004881613,0.0037517995,0.047081716
-0.36940446,0.22190014,-0.14222144,-0.31283703,0.37118953,-0.046475884,-0.1631691,0.22277279,-0.30202833,0.16997373,-0.05651967,-0.10738215,-0.023726244,0.30688164,0.37674776,0.2984672,-0.16589114,0.07891814,0.35653532,0.11385425,0.265665,-0.030418502,-0.16568439,0.01388263,0.11799779,0.14838494,0.1775673,-0.36586267,-0.23842098,-0.19947119,0.21467437,-0.18389566
-0.058875192,0.2811957,-0.21354468,-0.32535705,0.105860054,-0.04761951,0.052101485,0.08561045,-0.41050678,0.050730757,-0.15982239,-0.26344672,0.21424839,0.27503696,0.39682066,-0.040916383,0.2307577,-0.0067783254,0.013676495,-0.1537462,0.21544868,0.22195682,-0.16799033,0.054830484,-0.18327534,-0.0978786,0.13548383,-0.34899166,-0.065895006,0.09733717,-0.056837916,0.083962634
-0.036797427,0.40580022,-0.21961696,-0.25283965,0.30656913,0.023937775,-0.31244415,0.16971931,0.17635515,0.03638928,0.09916847,0.23013079,0.10216328,-0.016032705,0.28733844,-0.31902802,-0.29093093,0.22721547,0.11246309,-0.020848332,0.041575573,0.08576075,-0.25274423,-0.016059449,-0.015299395,0.4987454,0.6290978,-0.22872932,-0.25517726,-0.12458827,-0.21930623,-0.07007627
0.032971516,-0.022671662,-0.09620472,-0.009218262,0.16665334,0.072613046,-0.31907266,0.23688984,-0.22287495,-0.051397897,-0.1105689,-0.12122046,0.256307,0.06587971,-0.16702789,0.19909528,-0.433343,-0.10581262,0.04133912,-0.06885685,0.05098509,0.06658151,-0.10962773,-0.083044216,-0.17649344,-0.09308185,0.53975195,-0.44284514,-0.11532785,-0.13514039,-0.48206666,0.15949422
0.13333358,0.16240922,-0.17000903,0.028631905,0.182976,-0.16849285,-0.3296431,-0.27045736,-0.1436055,-0.15326321,0.15792024,0.01996138,0.17414638,-0.0029219866,0.2037968,0.1638698,-0.26341128,0.060051076,0.22281702,-0.49558643,0.20345949,-0.006021441,-0.27409658,-0.0075826785,-0.061926365,-0.1374374,0.43323204,-0.15553276,-0.14536193,-0.07170398,-0.16372749,0.04442861
0.042191826,0.18423194,-0.30612463,0.11471586,0.0880098,-0.12944695,-0.06991632,-0.11998456,0.028624546,0.016142137,-0.07013042,-0.15615283,-0.017781245,0.062684014,0.36051992,-0.026074417,0.03871722,-0.18385829,-0.08767976,-0.5506159,0.1472009,-0.1166026,-0.26420325,0.07169955,0.027981354,0.10303111,0.04604673,-0.15635015,-0.10745278,0.037177682,-0.04387171,-0.011185247
0.18402547,0.073066145,-0.33522838,0.1150784,-0.03082852,-0.17643332,-0.05366825,-0.080483876,0.0852307,-0.026801052,-0.0748066,-0.15522829,-0.39361262,-0.14477412,0.18862146,0.23452932,-0.017733045,-0.22728692,0.05793499,-0.29833558,0.0677392,0.05772888,0.0016443477,-0.07496745,0.18313849,-0.12024896,0.020116013,-0.14479883,-0.1608013,0.25797847,-0.20353,-0.04878169
0.19624808,-0.05612142,-0.22939833,0.14997637,0.03818362,-0.13787149,0.064008765,-0.1345868,-0.0067414325,-0.00075131806,-0.00946522,-0.08150848,-0.4021386,-0.103349954,0.2101314,0.027782535,0.041591574,-0.1010947,-0.045794956,0.05594292,0.22130764,-0.08833458,0.058887597,0.038108643,0.33217463,-0.23926955,0.29487687,-0.019637838,0.022675654,0.032261856,-0.17900512,0.081940144
-0.07586578,0.00044601766,-0.061282985,0.25188074,0.048780367,-0.04013145,0.15327668,-0.13136971,0.14934692,0.13639297,-0.04841381,0.08738026,-0.31426406,0.072983086,0.12090949,-0.01757323,-0.0029019155,-0.006935984,-0.13691372,0.1658056,-0.014305466,-0.2912041,-0.057049144,-0.01697898,0.12510052,-0.15160045,0.29146048,0.009651542,-0.14603633,0.01970268,-0.15802248,-0.06972046
0.0063070166,-0.092450246,-0.004973967,0.14329913,0.08313552,0.17026645,0.21926573,-0.090009764,-0.0007553536,0.11113423,-0.00086009403,0.029133327,-0.35951295,-0.10215316,0.32931733,-0.057772618,0.23409851,0.03219429,-0.08380377,-0.12851623,0.1269838,-0.17370005,-0.0026067558,0.04093236,0.0672311,0.009611637,0.10725375,0.21916993,0.013184157,-0.049867965,-0.018904038,0.068112195
0.068919055,-0.035664186,-0.10571459,0.043239884,0.0070999158,0.25246525,0.17130202,0.022343373,0.001462055,0.14853106,-0.22387902,-0.017606959,-0.042467628,-0.03265992,0.21361919,0.102041304,0.111272305,-0.02578974,-0.21534775,-0.07439037,0.15484457,0.02469692,-0.04254093,0.025913669,-0.05832587,-3.868858e-05,-0.09980701,0.2123264,-0.09784435,-0.1361494,0.0038742365,0.03173321
0.14927325,0.042353727,-0.17918353,-0.012039034,0.10610576,0.14539424,0.10362492,-0.047490455,-0.147241,0.11697788,-0.18622023,0.17127566,0.024953987,-0.09652486,0.2222889,-0.12420635,-0.012213561,-0.2839053,0.047729928,0.008459087,0.064446405,0.0457329,-0.033307433,-0.06919084,-0.2602657,-0.053769637,-0.5110814,0.18094511,-0.048156768,0.013026058,0.08557936,0.024342446
0.06389909,0.105707794,-0.09904726,0.057932794,-0.018458955,0.21003777,0.010112346,-0.12094903,0.07947274,0.009155452,0.0041748877,-0.015039308,-0.028642746,-0.17225987,0.16842711,0.060247336,0.1431007,-0.32909927,0.053230267,0.13104318,0.01502026,-0.03006003,-0.049906395,0.031928107,-0.18932283,0.0063540954,-0.39251208,0.10934325,-0.102646634,0.039008383,0.028719764,0.026376609
0.10741875,0.12798373,-0.2974296,-0.20400727,-0.02684339,0.21897164,0.09448334,0.07758334,-0.08226227,0.022480428,-0.057959482,0.07176073,-0.2024443,0.0041019693,0.15146284,0.057339817,-0.011014641,-0.10492726,0.16209173,0.08196346,0.016891591,-0.11702052,0.05036426,-0.056750953,-0.1645814,0.0637155,-0.20596598,0.061044365,-0.072956875,0.108934715,0.0421434,-0.0563393
0.05618367,0.090052724,-0.050901867,-0.22011437,0.090043604,0.019218,0.22110222,-0.038813338,-0.06263687,0.053299792,-0.0688925,0.14210352,-0.078397885,-0.031600818,0.11668826,-0.105555184,0.28769475,-0.15259743,0.26340872,-0.11791157,0.01966299,0.080706246,-0.050698902,0.036968812,-0.20734109,0.12011277,0.067262866,0.06748093,-0.20550452,0.044712383,0.08900069,-0.036108863
-0.0645755,-0.01782486,-0.028302701,-0.05214354,-0.22398338,0.2178787,0.3479708,-0.15928268,-0.0316126,0.06905745,-0.033236075,-0.017785436,0.06703475,0.048714973,0.11499699,-0.17511685,0.15316519,0.00635242,0.13854948,-0.020148247,0.028376177,0.020263106,-0.15047851,-0.011461992,-0.2373373,0.12788421,-0.036713056,0.19618566,-0.0785572,0.269473,0.03689832,0.11179657
0.09135797,-0.15258352,-0.13724847,0.15646838,-0.114038326,0.044590108,0.20107664,-0.079980046,-0.2956859,-0.083190046,0.034375038,0.16616675,-0.15428336,0.0040767775,0.09782458,-0.17506659,0.08616113,0.037180863,0.14569888,0.02372411,0.044697963,-0.01000467,0.12170768,0.026135743,-0.1596157,0.09639188,0.13989241,0.06356346,0.009900418,0.09394244,-0.08095609,-0.04118926
-0.09212508,-0.19961615,-0.19081038,0.10271872,-0.101648465,-0.04743284,0.022576785,-0.07942796,-0.3518482,-0.1942675,-0.05160517,0.11982827,-0.098414004,0.28604203,0.06812422,-0.34801984,-0.19655935,0.09181267,0.18707733,0.14145423,0.12183435,-0.25047213,-0.12882647,-0.073254645,-0.3928924,0.24696489,0.105949886,0.102107435,-0.0454493,0.05524904,0.0153053515,-0.055214733
-0.15168394,-0.44881773,-0.16160513,0.153235,-0.0534576,0.13173681,0.16479522,-0.29037118,-0.13852663,0.08237017,-0.09689066,-0.04854473,0.04225963,0.16655628,0.2205734,-0.4089532,0.031509183,0.12899186,0.057961382,-0.043817952,0.09152942,-0.17953399,-0.27083173,0.0066462425,-0.2981366,0.29961708,0.06041665,-0.035367258,-0.15451817,0.13572258,0.0711031,-0.116015136
-0.117740706,-0.12593253,-0.110774636,0.10838606,0.013405465,0.09531492,0.14434801,0.009705444,-0.07212879,-0.12587605,-0.32132715,-0.061940484,-0.07572879,-0.0040145074,0.07185428,-0.20059562,0.053654104,0.15333885,-0.0029929178,0.09094824,0.0928472,0.023422075,-0.14084966,-0.0011695301,-0.17601064,0.22419149,-0.00020822993,0.05877814,-0.12812415,0.20985603,0.15652484,-0.03031775
-0.174781,-0.20322128,-0.07665279,0.053763747,-0.034344587,-0.03598734,0.1921826,0.04624075,-0.1491725,0.1242466,-0.24763845,-0.05279253,-0.11301432,-0.066579245,0.103163145,-0.15387185,0.23301099,0.17456554,-0.04200819,0.03740068,0.03560734,-0.14806077,0.08777835,-0.014262185,-0.3196744,0.113160424,0.14251389,-0.13603565,-0.105273366,0.21360709,0.097651914,-0.104557194
-0.048258424,-0.25438315,-0.11612119,0.20475328,0.13045067,-0.16287862,0.052547544,0.27130514,-0.13796853,0.14480364,-0.19738139,-0.06568305,0.03317214,-0.065449506,-0.08465825,-0.086995915,0.018593505,-0.011844898,-0.15756266,0.2512779,-0.14719824,-0.11720129,0.108300194,-0.071752556,-0.41533667,0.18155831,0.087918006,-0.21021241,-0.35316017,0.18026073,-0.17238072,0.0040820027
0.072094865,-0.13286918,-0.049072403,0.17861688,0.07907413,-0.018650198,0.16462885,0.19526808,-0.069517486,0.18971704,0.06279877,-0.02363079,0.121894,0.0005080401,-0.1412123,-0.36783817,0.09814577,-0.012438733,-0.4124619,-0.0077937935,-0.051071014,-0.095417395,0.26011574,-0.042078793,-0.14842963,0.1346094,-0.12553346,0.0220338,-0.34162217,0.10045704,-0.23010314,0.16412492
0.41292468,-0.4252992,-0.00053726,0.2947024,-0.036266148,-0.10328641,0.031057088,-0.29057848,0.12372448,0.24480788,0.09798725,-0.11922295,-0.22557867,0.09215186,0.35210013,-0.1086658,0.28021917,0.19370002,-0.37063926,-0.61293674,0.10121795,0.15723775,-0.078270786,0.0038329884,0.15261586,-0.049820095,-0.5115773,0.4374191,-0.17776774,0.17585532,-0.35395834,0.25356728
0.029873706,-0.41558117,0.096930034,-0.08535599,-0.14492863,-0.11269402,0.21809003,-0.0055631744,0.319079,-0.013519246,0.05486135,-0.042609196,0.02109674,0.2851082,0.33692604,-0.23102504,0.12901738,-0.33385274,-0.122816056,-0.3406276,0.08270914,0.21784939,-0.36455795,-0.048954736,-0.11126555,0.24024618,-0.24241553,0.18742636,-0.14614819,0.3964973,-0.2498436,0.06742708
0.11127492,-0.21898201,-0.23731856,0.15536712,-0.21204282,-0.092821226,0.21689796,0.111118175,0.32465437,-0.17447208,0.22335541,0.15862648,-0.059405733,-0.116315246,-0.15687881,-0.19343969,-0.25197932,-0.08642625,-0.13136189,0.07584249,-0.17010216,0.17348653,-0.39017743,-0.0051359385,0.09585465,0.3293617,-0.093157455,-0.0163034,-0.24873582,0.15065107,-0.15148419,0.22841969
-0.02953434,-0.03229372,0.0786343,0.036620148,0.021212474,-0.044242956,0.07904085,0.011336282,-0.026758667,0.060784318,-0.00947921,0.021860331,-0.057697177,0.08091723,-0.049770564,-0.07580714,0.047216155,-0.01318755,-0.077774614,-0.06496612,0.04760278,-0.0056483746,-0.0781836,0.07865887,0.03285657,-0.06989637,0.031275697,-0.080401406,0.044536002,-0.023882616,0.01340542,0.08165119
0.17558406,0.0152438115,-0.0013885275,-0.00436688,0.02240606,-0.22171092,-0.27093807,0.015239119,-0.0645083,-0.051632717,-0.035584595,0.15284969,-0.18233334,0.084528364,0.0983932,-0.0882435,0.116213955,-0.2127386,0.2589898,-0.20973466,0.1626763,-0.08004787,-0.21803726,-0.024906952,-0.18399338,0.25192586,-0.01646897,-0.2262765,-0.15775292,-0.09012524,-0.06933836,0.04927625
0.10904822,0.124989524,0.24890612,0.0890986,0.18526219,-0.09394575,0.07195187,-0.07880847,0.115419775,0.12121484,0.08686187,-0.05275788,0.12825502,-0.0647078,-0.057708494,-0.16080444,0.114637494,-0.38704377,-0.21047789,-0.1024674,-0.010112379,0.38039815,0.2169642,0.06744415,-0.16605303,-0.12967634,-0.023525892,0.06912846,0.09786747,0.255275,0.083107464,0.031038212
0.15158825,0.5259462,-0.12880774,-0.15289147,0.32742512,0.0374521,-0.31873158,0.10802213,-0.5711562,-0.10848432,-0.23787266,-0.16010694,0.05489121,-0.1261733,0.012718726,0.051681962,-0.41629407,-0.07609362,0.049173508,0.014924936,0.23407282,0.44729593,0.25254396,-0.07711234,0.049420156,0.004915033,0.3714449,-0.6190709,0.07201066,-0.15030831,0.0734069,-0.05761708
0.11709231,0.18150038,-0.2349285,-0.13837296,0.3864823,0.054767355,-0.13689677,-0.15847823,0.049119785,0.22269726,-0.012699617,-0.104660906,0.46120983,-0.11711396,0.06886241,-0.18845463,0.009340261,-0.09928828,-0.35798103,0.17494045,0.04305005,0.18747532,0.089023836,-0.07822238,0.113245875,0.004413797,0.40413314,-0.14952159,-0.16786546,0.085397206,-0.2220453,0.09334955
0.012055196,-0.022242352,0.10173965,-0.04979858,0.07440441,-0.35068175,-0.085374266,-0.14326483,-0.044208232,-0.03335542,-0.003917887,-0.15733269,0.22285023,0.19228087,-0.029202905,0.09192539,0.048751064,-0.29024068,-0.034529876,-0.27581808,0.25138384,0.07248037,0.025686996,0.06407975,0.17854433,-0.38201517,0.46059632,-0.48264733,-0.010470232,0.25976825,-0.50231564,0.060207874
-0.039033383,0.09761278,-0.071359314,0.011052516,0.13184197,-0.34705797,-0.17885914,-0.23116122,-0.08777518,-0.013868969,-0.018586285,-0.15152551,0.18698683,0.050895825,0.35043862,0.104048476,0.08418915,-0.22951858,-0.032244895,-0.28713298,0.2415747,-0.019598061,-0.0127559975,-0.01269986,0.16963884,-0.056457207,0.32220668,-0.3110476,0.083592385,0.047451373,-0.14009006,0.016085183
-0.009262043,-0.11524384,-0.13536209,-0.07203054,0.086826764,-0.22896458,0.025885025,-0.038310725,0.11633743,-0.05649702,-0.07563164,-0.22714753,0.03917491,0.087444745,0.13019595,0.14707519,0.096703,-0.26820415,-0.085674,-0.12138517,0.1451175,-0.22733194,0.049640305,-0.050911903,0.112620614,-0.036706086,0.13282344,-0.108095974,0.007769225,0.12932658,-0.1807256,0.11266266
0.08019449,-0.070255816,0.005968142,0.029331826,0.0012963803,-0.2658932,0.06814515,-0.2579186,0.16741301,-0.040963013,-0.051456656,-0.21703199,-0.08476914,0.04472179,0.040976427,0.242636,0.067540966,0.014613429,-0.11441292,-0.12215151,0.07779555,-0.0055085984,0.24306718,-0.022992752,0.20434797,-0.068679646,0.044961836,0.04205509,-0.09181844,0.18116592,-0.20459995,0.07234196
0.08739322,-0.06752153,0.3186651,-0.06477312,0.16555497,-0.184976,0.0254883,-0.2357828,0.0337658,0.013499434,-0.13660705,-0.23512776,-0.45104727,0.110864624,0.30659845,0.17741993,0.08863815,-0.10504403,-0.15692395,-0.3186832,0.26547968,-0.080958635,0.058359608,-0.050184753,0.22539452,0.06522517,0.28906333,0.124012336,-0.14538424,-0.07308505,-0.13533874,0.013575806
-0.12877445,-0.07430369,0.2663037,-0.10462522,0.2572265,0.01772525,0.110996686,-0.15243116,-0.15891676,-0.037494503,-0.138147,-0.09258542,-0.34808493,0.008788532,0.26046127,-0.00949504,0.00062693626,-0.12766741,0.047478788,-0.0829682,0.15297,-0.08135481,0.055990387,0.04800461,-0.16947012,0.014614428,-0.13160214,0.1657528,-0.024660615,0.026089452,-0.01751607,-0.020836355
0.09230706,-0.035385687,0.14396517,0.04889843,0.13804786,0.2443252,0.06232344,-0.00076896546,0.028132232,-0.046507176,-0.16568068,-0.03818155,-0.24225669,-0.030516652,0.22661601,-0.057310365,-0.06945508,-0.014613767,-0.001903239,-0.13011622,0.12043997,-0.104343936,-0.03469707,-0.010150437,-0.16364235,-0.1311883,-0.24940003,0.28470832,-0.04244904,0.09175833,-0.15007961,0.011537486
0.10482716,0.019145614,0.02868302,0.12259079,-0.016186478,0.23683242,0.20949464,-0.024120351,0.0346284,0.06325138,-0.08402786,-0.18921174,-0.16397262,-0.030399492,0.28129846,0.18193866,-0.0880395,-0.09185106,0.022362066,0.01610471,0.09644124,-0.111784406,-0.041218005,0.005033538,-0.08688432,0.07384492,-0.36962563,0.1811767,-0.12603684,0.12044323,-0.08336049,-0.09683136
0.03771298,0.059270654,0.089880385,0.124827765,-0.13020921,0.04715615,0.14777686,-0.043468203,-0.04718472,0.10897451,0.016523464,0.097680874,-0.13316731,3.9176346e-05,0.2457785,0.027997192,-0.07313936,-0.2501816,0.15701464,-0.017417526,0.07519665,-0.21070462,0.1040113,-0.09254278,-0.060180396,-0.04932849,-0.38593483,0.25336912,0.033696983,0.06475106,-0.08433001,-0.12500007
0.002693281,0.06426803,0.015112852,-0.026188169,-0.029543139,0.052813396,0.26102424,0.111381,-0.21086721,0.034826323,0.0052040755,0.085699484,-0.028411834,-0.013312852,0.20772833,-0.021621943,-0.03487811,-0.24877153,0.17510542,-0.032633316,0.07623306,-0.21229593,0.02929461,0.0004644379,0.14642821,0.009998513,-0.54584235,0.22626072,0.052563544,0.13313597,-0.1604464,-0.19701491
0.025011834,0.07945233,-0.050253805,-0.28936553,0.048957348,0.061479628,0.17823948,0.0544014,-0.32962757,-0.097680315,0.11250978,-0.008865726,0.01917785,0.1006956,0.23943695,-0.04312192,-0.07169582,-0.13938285,0.21672414,-0.066339664,0.060253184,-0.21281286,-0.12414484,-0.035478435,0.12699799,0.11863364,-0.33410665,0.19974488,-0.07202798,0.13932356,-0.012055088,0.0031759813
0.049737424,0.14782795,-0.19841309,-0.4799841,0.12357686,0.08217514,0.16417333,-0.05357349,-0.28266424,0.06786707,0.13472384,0.057250794,-0.01557341,0.076685406,0.144191,-0.1292526,-0.09008373,-0.04306957,0.14933188,-0.17787342,0.079366945,-0.18973497,-0.07617105,-0.08755781,0.17980203,0.04121611,-0.121436305,0.19392888,-0.0124795595,0.12507062,-0.028952388,-0.07934486
0.14405455,0.007684064,-0.10028831,-0.32588607,-0.11205022,0.07501058,-0.011888772,-0.114457235,-0.2150837,0.10740748,-0.11017926,-0.022357339,0.08417384,0.10826395,0.1337022,-0.013809042,0.10670852,0.106522754,0.2775155,-0.10277336,0.0175826,-0.04974796,-0.036344625,-0.00922096,0.13411993,0.032517064,-0.0757274,0.23881452,-0.030009001,0.05796639,0.111730896,-0.043430068
-0.02497212,-0.091027,-0.03518727,-0.1673023,-0.012052128,0.18734749,0.07829075,0.060461316,-0.36085674,0.11905119,-0.01873804,0.08031451,-0.008929153,-0.048862103,0.11190689,-0.13346002,-0.05787941,0.008041911,0.1868845,-0.14779024,0.07259532,-0.06808292,-0.01032303,0.036857683,0.21136594,0.12580162,0.11674674,0.10959688,0.09342763,0.09526233,-0.016662491,-0.2529093
-0.047190208,-0.23965354,-0.015210394,0.026939407,-0.108464494,0.061264765,-0.0052391817,-0.04598653,-0.3441403,0.14333545,-0.16912737,-0.04200182,0.13846667,-0.029376728,0.15216084,-0.2652708,0.12804535,-0.075950235,0.06698041,-0.19815153,-0.0036266518,-0.18329786,-0.2124281,-0.0048187543,-0.1183143,0.0053877616,0.05646842,0.10392172,0.053442188,0.15044968,0.035877813,-0.024290556
-0.05484884,-0.36583516,0.12543823,0.14263694,-0.08539305,-0.028433215,-0.033750564,-0.12276998,-0.22827293,0.13125336,-0.22611979,-0.03642733,0.16628064,0.04537937,0.17610502,-0.1188839,0.016971163,-0.016426478,-0.013336111,-0.15702595,0.04472858,-0.14032647,-0.15118538,0.020409018,-0.09864762,0.11471276,0.085483246,-0.032424126,0.043738425,0.15529123,-0.041198198,-0.04348517
0.040797047,-0.18675858,0.08222382,0.11591505,-0.102804646,-0.24670294,-0.03479845,0.05352293,-0.17371063,0.047197267,-0.2541605,0.11779481,-0.07665768,-0.0492672,0.052059192,0.16925031,-0.061446138,0.11697422,0.19073954,-0.29039115,0.063205376,0.20382442,0.114227936,-0.052875433,0.06796664,0.046575073,-0.20300293,-0.13747245,-0.00959701,0.14087915,0.03661138,-0.04675069
-0.05896957,-0.3475303,-0.023151943,0.06836071,-0.118774116,-0.26351157,0.08085965,0.18077263,-0.1434607,0.05339072,-4.900914e-05,-0.038703006,0.015974158,-0.18648005,0.13761672,0.15665558,0.20077312,-0.12090729,-0.15920381,-0.08419512,0.0073459186,-0.15471046,0.15637474,-0.04628072,-0.111022964,0.0026336904,-0.17268813,-0.15192376,0.0057516983,0.2567162,0.13463134,-0.027598055
-0.16157605,-0.226375,0.016941601,0.22982496,-0.09077687,-0.27441362,0.06233876,0.008088564,0.08986231,0.109244876,-0.14418077,-0.12971237,0.061561476,0.00957767,-0.09399482,0.05033915,0.45446235,-0.22835967,-0.35064662,0.13818131,0.039143622,-0.22869404,-0.22087067,-0.0005506233,-0.06739264,0.038000662,0.10453756,-0.17643182,-0.039184906,0.13794343,0.040295098,0.079932466
-0.17920774,-0.24365877,0.10756628,-0.027007135,0.27689788,-0.27930734,0.15205996,0.030620346,0.057627458,0.26574987,-0.25644696,0.023916202,0.13911359,0.020366833,-0.073436856,-0.13802232,0.13222575,-0.28227177,-0.448268,0.21711276,0.15923256,-0.058289845,-0.38448197,0.071033105,-0.031014929,0.08666131,0.2245808,-0.22080897,-0.028815974,0.18999296,-0.21911815,0.15590909
-0.1385756,-0.46563205,0.06843591,-0.088568255,-0.26715854,0.20765254,0.2101299,-0.19680683,0.10515995,0.31081173,0.14672016,-0.14392596,0.06561819,0.04628018,0.083569035,-0.11814152,0.16586572,-0.065166965,-0.41950908,-0.10661949,0.0036890882,0.17802234,-0.19130242,0.075735085,-0.18091679,0.15486771,-0.31658,0.30041587,-0.12788741,0.2392552,-0.1938547,0.16461271
-0.09739782,-0.47679204,-0.08129476,-0.042091213,-0.036670774,0.1158568,0.27222523,-0.08082338,0.09996103,0.28995362,0.12820576,-0.25637984,-0.014400072,0.12797678,0.08616063,-0.16268954,0.35461777,-0.062926345,-0.034120277,0.055782594,0.103204675,0.18499878,-0.21764478,0.076443344,-0.14251556,-0.084739186,-0.005511652,-0.013105751,-0.030172164,0.3339636,-0.2939747,0.06799525
0.12889741,-0.28870595,-0.0369318,0.15764973,-0.033308007,-0.07706111,-0.00723705,0.09461805,0.24749418,0.4514832,0.12996332,0.0535488,-0.1679775,-0.17829263,0.037410956,0.04631617,0.013429094,0.26627213,0.15145409,0.014233635,0.013148682,0.10765156,-0.3471628,0.06547757,-0.080832005,0.2579343,-0.11163679,0.029822854,-0.25619182,-0.054511096,0.10451284,0.091901615
-0.020106887,-0.036466014,-0.07901782,0.06882831,0.05095763,-0.029600672,0.06863894,-0.017435633,-0.10413591,0.017413873,0.080488496,-0.00517393,-0.01692827,-0.06731878,0.07997215,0.10228462,0.029662037,-0.015885532,0.04393051,0.032419674,-0.019217659,7.395199e-05,-0.03151805,0.031040974,-0.02326538,-0.030613486,-0.050743494,0.02788891,0.014974507,0.08687996,0.030832242,-0.08233347
0.10079149,0.17313974,0.1336616,0.03576716,0.20439892,-0.50866675,-0.37125129,0.30760163,-0.10176054,0.10148127,0.020536503,-0.027615529,-0.15748797,0.001242602,0.27751562,0.2040519,0.10432476,-0.28778943,0.45046416,-0.08320964,0.53739136,0.34728524,-0.24590568,-0.037822347,-0.1982296,0.15175457,0.3772911,-0.42040774,-0.27763742,-0.015018869,-0.24484852,0.24032405
0.32445672,-0.044403754,0.10402387,-0.052409247,0.19327374,-0.26491576,0.08033312,-0.05650885,0.16677523,0.2724116,-0.09522932,0.11687316,0.27471364,-0.31484944,0.05646283,-0.03449219,-0.0017675133,-0.4418844,-0.08707336,-0.23376034,0.10500139,0.34047443,0.33680126,-0.076969765,-0.19848096,-0.21354339,-0.020717043,0.042248305,0.023079364,0.27373704,-0.027627917,0.058724787
0.23804629,0.6047805,-0.16148205,-0.08469217,0.12859786,-0.11506262,-0.0984769,-0.123871006,-0.37558916,-0.08502132,-0.25133824,0.03450101,0.17670289,-0.15768763,0.13943563,0.07216781,-0.14895456,-0.099500224,0.20158964,-0.09699267,0.33638808,0.22087146,0.501806,-0.08429301,0.28782225,0.06915154,0.17548218,-0.15766068,0.14719212,0.02709266,-0.286683,0.22475941
-0.030834517,0.44573116,-0.19458292,0.048132535,0.20433177,-0.2742322,-0.3581101,-0.23297767,0.2478546,-0.061548296,-0.012497291,0.04770699,0.15456013,-0.09839562,0.31550258,-0.19698524,0.16846798,-0.042926684,0.026943758,-0.03972996,0.3006418,-0.03511719,0.2147651,-0.07017241,-0.09693514,0.23173127,0.30431542,-0.23012392,-0.49927288,-0.24798279,-0.06852683,0.18523352
-0.04624022,-0.06823429,-0.2599011,0.069817774,0.16989414,-0.27149448,-0.03001669,-0.054225314,-0.039022587,0.0658407,-0.24036583,-0.07101462,0.0040255873,0.0976091,0.05086697,-0.06377675,0.33896363,0.07129658,-0.22217627,-0.5096575,0.119117156,-0.15494743,0.17380348,-0.07307737,-0.011214294,-0.10758511,0.5231026,-0.25122112,-0.20999448,-0.00017310059,-0.17199185,-0.12865998
0.07992495,0.088444784,-0.0004999371,0.2271349,0.24069916,-0.14088526,-0.18197003,-0.25083387,-0.20289944,-0.13451798,-0.041685253,-0.08742356,-0.045747183,-0.07353906,0.20619392,0.098488,0.13586383,-0.18317732,-0.17765386,-0.55001944,0.2532437,0.016967945,0.2529935,0.0032042044,-0.0008204464,-0.09078446,0.023715092,-0.049302667,-0.014778362,0.03582852,-0.169031,-0.26334935
-0.15898494,0.01992742,-0.051159807,0.24298805,0.19573975,-0.100826666,-0.122417666,-0.09266952,0.08356646,0.10212924,-0.09395685,-0.14387903,0.038181886,0.046730436,0.061185956,0.27566817,0.20205374,-0.27988485,0.025745384,-0.116991885,0.14040658,0.11075328,0.13295378,-0.09468486,-0.015164195,-0.0656206,0.1440507,-0.16134152,-0.10512878,0.1739512,-0.114295885,-0.03120338
-0.109345846,-0.0745269,0.17186852,-0.03738255,0.08187354,-0.13716432,0.035731547,-0.2865004,0.2004894,0.103205875,0.07618471,-0.16709146,-0.40703413,0.21560742,0.119781405,0.23071063,0.2071589,-0.037500337,0.073732734,-0.33182842,0.0056744507,0.03638899,0.1325495,-0.06008786,0.0075470093,0.018208202,-0.006200654,0.032343812,-0.1306202,0.11372274,-0.24168146,-0.064774156
0.087096244,-0.12945516,0.12015114,0.031075105,0.058773726,-0.04366194,-0.12163887,-0.05701497,0.13659623,-0.05725377,-0.03674874,-0.18682736,-0.33148572,-0.034352433,-0.030013004,0.29741147,0.031860624,0.015841816,-0.0070171603,-0.16884592,0.07354001,-0.0872288,-0.004887081,0.033519663,-0.06891694,-0.17063579,0.0029775575,0.15164512,-0.14307192,0.22701721,-0.1628138,0.043169297
-0.05256524,-0.031594977,0.13033517,-0.0092802355,0.13269056,0.21498162,0.09176647,-0.0853891,-0.104486294,0.031302854,-0.2242297,-0.15806621,0.016399238,0.04534735,0.09214864,0.028077697,-0.027944349,-0.17199282,0.1280858,0.057295218,0.15476382,-0.12508048,-0.0033671148,-0.05501434,-0.258778,-0.22339465,-0.06958808,0.24032553,-0.070827164,0.38530055,-0.028925216,0.0880874
-0.009332211,-0.024636604,-0.016976368,0.08728689,-0.05308078,0.20793635,0.16803728,0.050453216,-0.15616745,0.15119301,0.004957327,-0.109217584,-0.030022515,0.02121664,0.14051084,0.026656343,-0.07347907,-0.16439414,0.05188754,-0.08294001,0.06162068,-0.06772224,-0.060898334,-0.04182556,-0.16624403,-0.07393334,0.06895237,0.15771122,-0.03624336,0.15518789,-0.039855633,-0.10213139
0.027997147,-0.16981366,0.16875933,0.18755665,0.10060036,0.14064093,0.1165224,-0.14406765,-0.16451775,0.01049294,-0.15948096,-0.095056154,0.022322383,0.08968707,0.23837785,0.11204172,-0.2899569,-0.1942007,0.13283043,0.025792643,0.07766726,-0.021898493,0.06399172,0.006746233,0.011429789,0.18500572,-0.25561213,0.10189567,0.082685836,0.038005766,-0.030561335,-0.15910675
0.0014720351,0.015770517,0.045758586,0.40984052,0.09491962,0.10417356,0.060514964,0.06890302,-0.14535685,-0.015282023,-0.06956888,-0.05478573,0.10050566,-0.039120577,0.284774,0.07147396,-0.11596522,-0.21557172,0.10915654,-0.10437758,0.080133215,-0.21392463,-0.06818708,-0.081748515,0.09017405,0.020238211,-0.4004787,0.08131884,0.1924118,0.04397751,-0.002365122,-0.2320208
-0.23516133,0.03496243,-0.032963883,0.09682692,0.0075845676,0.05819796,0.2247142,0.09711579,-0.321815,0.104917645,0.08840316,-0.0143780215,0.017375479,0.18126498,0.18855731,-0.036721878,-0.18273279,-0.08636337,0.18447404,0.027613852,0.13685967,-0.2597921,0.03926147,-0.07840712,0.16623122,0.16228724,-0.36678174,0.075958826,0.090851866,0.085251234,-0.16451386,-0.260854
-0.06308148,0.1715993,0.02452507,-0.21227919,-0.07920971,0.082197756,0.08267164,-0.07765973,-0.15794931,-0.026405578,-0.09483362,0.04297777,0.113954,0.16559754,0.31387353,-0.07439923,-0.13209586,-0.113857545,0.23956166,0.015659638,-0.047295,-0.38095295,0.038945008,-0.01656921,0.11577397,0.1845304,-0.33739695,0.26459685,0.0375163,0.1671111,-0.0634927,0.044210233
0.02370977,0.14806171,-0.1649631,-0.3293385,0.04591871,0.2058795,0.14232107,0.008494386,-0.34789965,0.121652365,-0.007726102,0.056484185,-0.060134113,0.11945132,0.24721251,-0.03225542,0.040355846,0.10935732,0.31096783,-0.100602224,0.011878099,-0.08568567,-0.08069075,0.020199934,0.29437777,-0.039358284,-0.0965144,0.19693874,0.07967965,0.12599222,0.0582371,-0.1336432
0.16093506,0.12322403,-0.015559724,-0.23502947,0.03281306,0.044854112,0.18220182,-0.051196117,-0.1835991,0.07871487,-0.0017146843,-0.006634807,0.10191564,-0.08334384,0.07041564,0.06115898,0.079372406,0.09550702,0.18154252,-0.098020926,-0.072684616,-0.093635,0.018829925,0.005287902,0.16926251,-0.20650113,0.011105199,0.08135021,-0.049169898,0.17446709,0.040880337,-0.032863416
0.056650758,0.061979245,-0.03265863,0.0015230075,0.05327297,-0.037929364,-0.011441138,-0.07843389,-0.14438736,0.15427107,-0.13404626,0.062890954,0.05917277,-0.061378054,0.16627045,-0.062053375,0.18115085,-0.028329,0.27222732,-0.16635099,-0.15926434,0.0033586365,-0.083756946,-0.06829726,0.16206066,-0.16758436,-0.015978957,0.089252524,-0.090362616,0.2611669,0.1300667,-0.05300591
-0.01026643,-0.1879619,-0.10452568,0.23245576,0.103262626,-0.09178388,-0.05820472,0.0032287163,-0.21488266,0.17672777,-0.29760405,0.034521908,0.006160467,0.021112982,0.13605128,-0.117023125,0.15532792,0.13288026,0.20055051,-0.2551072,0.023286305,-0.10982476,-0.14626193,-0.058128614,0.15551835,-0.1445012,0.026859304,0.005076777,0.059856694,0.1831493,0.048236594,-0.061068714
-0.014214265,-0.28956398,0.04579873,0.07897871,0.20832294,-0.04715501,-0.038385596,0.09680284,-0.010734408,0.09148933,-0.17667857,-0.03329426,0.071731016,0.058080606,0.059872646,0.012085407,0.05827314,0.104470775,0.21783333,-0.29638812,0.0747588,-0.1055766,-0.014302524,-0.0004625776,0.050833028,-0.03137421,-0.08300761,-0.005661635,0.05943984,0.22909671,-0.006095767,-0.12842512
-0.028603109,-0.4120776,-0.01805876,0.119770646,0.07632175,0.064814955,0.056584653,0.0932122,0.1660104,0.040006436,-0.17716886,-0.046582367,0.03978438,-0.11630296,-0.00805264,0.06070424,0.12720399,0.13627025,0.09451955,-0.2562162,-0.017990084,-0.020055665,0.12961167,-0.08526312,0.15713769,-0.00834467,-0.16280249,0.088323765,-0.0021712747,0.17146575,0.16822843,0.108631484
-0.050367814,-0.4471753,-0.20020987,0.2225705,-0.023288788,0.004717961,0.016825382,0.07373685,-0.033879228,-0.08005014,-0.005492697,-0.023210445,0.14930716,-0.07217134,-0.088331416,-0.18713357,0.3874189,0.10294092,-0.11698426,-0.059641164,-0.03798144,0.025588557,0.060924068,0.08316709,-0.004141179,0.010394277,0.023971684,0.0077657728,-0.11332968,0.11596467,0.15839073,0.016954338
0.13191324,-0.16452974,-0.19361852,0.23822844,-0.01439154,-0.38367346,-0.23221451,0.06771787,-0.09108126,-0.07352191,-0.42758963,-0.1455561,0.20223993,0.08883269,0.04114606,-0.055104937,0.3552224,-0.12787157,-0.40117082,0.174378,0.018965697,-0.1017653,-0.059999242,-0.04529605,0.05580283,-0.14631641,0.10589146,-0.17581566,0.024569849,0.14291444,0.028193314,0.15308367
0.10351381,-0.2405998,0.04942297,0.31889868,-0.1585514,-0.23846225,-0.012266156,-0.12031661,-0.09761094,0.22070162,-0.16631621,0.09668601,-0.08123265,-0.19924042,-0.29232618,0.10621897,0.22789702,-0.21066672,-0.5664732,0.115507714,-0.015909007,-0.08967384,-0.17303915,0.065450765,-0.20645364,0.062489547,0.18195361,-0.1397738,-0.06940453,0.0140236225,-0.124348715,0.1467951
-0.055682734,-0.2871401,-0.05913894,0.103194326,-0.359505,0.09743662,0.21873052,-0.30906445,0.051147103,0.3563582,0.15881945,-0.16927202,0.008454338,0.010852809,-0.17653649,-0.019363396,0.3113281,-0.14107196,-0.532343,-0.26584345,-0.06133671,0.09541943,0.11078955,0.053301483,-0.21673037,0.146902,0.06088264,-0.11800852,-0.22236925,0.03887431,-0.22182526,0.021229401
0.016964376,-0.42503393,-0.073243774,0.0036088421,-0.19962151,0.4306702,0.3339365,-0.0747865,-0.2253802,0.42789418,-0.020649776,-0.41032302,0.005351586,-0.01226457,-0.0060495725,0.13900815,0.34295607,-0.0520226,-0.019151757,0.04235476,0.2513075,0.1519351,0.0586893,0.056016233,-0.372268,-0.026645493,0.22850305,-0.11520166,-0.2799339,0.036969513,-0.43080056,0.450782
0.117364235,-0.2476022,0.036868483,0.11606197,-0.036531214,-0.028534459,0.06823057,0.061114144,0.23094468,0.41297457,-0.01652041,0.03961703,-0.21174228,-0.014427581,0.18024817,-0.16257711,-0.08462761,0.15077183,0.14100486,0.061840713,-0.036888566,0.09828184,-0.33778682,0.044728942,-0.2739953,0.2427134,-0.101055525,0.20805219,-0.11289272,0.16933355,0.05511777,-0.11809217
-0.08968124,0.062219538,-0.07199771,0.2573366,-0.10197282,-0.33048055,-0.038977694,0.05580858,0.21867909,0.06440267,0.30439627,0.22338232,0.3270789,-0.028695904,0.26027727,-0.11329478,-0.07848429,-0.1766026,0.33041117,0.22537771,-0.23210229,-0.17152728,0.0015830263,-0.06751631,-0.25078875,-0.03356674,0.10001659,-0.16003981,-0.22492072,0.068512626,0.28625536,-0.03555849
0.33857742,-0.15461048,-0.2089005,0.11783015,0.045611516,-0.09384181,-0.18702711,0.3682208,-0.29421377,0.026062436,0.018129116,0.08493411,-0.0871259,-0.30786872,-0.17314336,0.3985596,-0.28683943,-0.43630785,0.5272222,-0.3523772,-0.0023582175,0.39537165,0.21030249,0.026425593,0.22382337,-0.35708064,0.29935116,-0.33135426,0.101609536,0.10867827,0.054779004,-0.025310975
0.5534029,-0.16209626,0.1628385,0.23399168,0.035206713,-0.3211823,0.09346613,0.012608599,0.19569358,0.24966602,0.07934088,0.19563068,0.04468032,-0.31792858,-0.19832847,0.04629551,0.21093917,-0.07190742,-0.1285692,-0.23710221,0.031679988,-0.011909285,0.38630295,-0.0050073345,-0.0314091,-0.22434153,-0.023188887,-0.19972004,-0.06113012,0.49353352,0.13463823,0.032528166
0.23654847,0.4699913,-0.1289954,0.029310538,-0.25588349,-0.1959418,-0.092364855,-0.085352205,-0.05790059,0.085321635,0.040939983,0.0762855,-0.1528021,-0.09795657,0.14911906,-0.044065848,0.10559775,0.06699375,0.049021933,0.1139757,0.22777084,-0.02896234,0.1993918,0.040997554,0.29370186,-0.03624934,-0.20902741,-0.038194593,0.07713498,0.46096134,0.21835895,0.5035418
-0.030285949,0.457814,0.0113115115,0.13223004,0.012607469,-0.14940853,-0.21738982,-0.22115035,0.259646,-0.01926004,-0.35437286,0.06682771,0.054110646,-0.06896401,0.15527882,-0.023389775,0.23596127,0.049110565,-0.14795972,-0.10596197,0.09893056,-0.008554925,0.18267839,0.016384652,-0.03084825,0.39646837,0.2654583,-0.09823551,-0.38393041,0.08305138,-0.18641378,0.32858968
-0.07505159,0.12567104,-0.15334088,-0.0697073,0.043277826,-0.13287681,-0.081817664,0.055897247,0.036813986,0.1570044,-0.20955157,-0.0026080706,0.030921439,-0.05287218,0.06544889,0.06764136,0.21866414,0.14861175,-0.19207107,-0.57670176,0.17789742,0.08178212,0.14679018,0.012122384,-0.033754952,-0.04106127,0.18590869,-0.20139994,-0.22674286,0.17105006,-0.13058077,-0.12232214
0.10785843,-0.06345688,0.019873783,-0.10148719,0.0468556,0.14384502,-0.111410916,0.116368674,0.064989425,-0.021496553,0.05584894,-0.017232893,0.14446963,-0.077223614,0.028776718,0.2079055,0.15611066,-0.11259113,-0.083960176,-0.24815516,0.1456413,-0.021754721,0.023277145,0.008235898,0.13349451,-0.13634093,-0.06937159,0.25854525,0.0034765087,0.095543765,-0.031657245,-0.07979092
0.13217457,0.061539706,-0.070956156,0.07542323,0.103660434,-0.13660166,-0.20375958,0.044305563,0.11474973,-0.054110374,-0.13916653,-0.18871197,0.020089407,0.08515025,0.023818633,0.200894,0.1086254,-0.17647977,0.10973144,0.05017292,0.011027103,0.25524202,-0.15057257,0.0133758085,0.20896718,-0.028727008,-0.13560885,0.12207008,-0.045897976,0.1580019,0.011897996,-0.0032522778
0.060169842,-0.0847256,0.047748737,-0.06397748,0.04948333,-0.038369827,-0.09164615,-0.17868161,0.15586697,-0.0035692193,-0.112354875,0.022400076,-0.3698433,0.1236834,-0.06813235,0.16964027,-0.006360645,0.051000353,0.12428704,-0.16227487,0.04303728,0.123473175,0.0877634,0.058633015,0.23572849,-0.1548274,-0.19073556,0.1408924,0.039730676,0.19404691,-0.16370392,0.030766236
0.05875398,-0.031648904,0.1057143,0.077675104,0.04814328,-0.16519308,-0.0770337,-0.0484468,0.19521946,0.09482448,-0.027491242,-0.06190852,-0.30791983,0.053514607,-0.05706132,0.08460336,0.20038643,-0.08246086,0.06415163,0.108003385,0.13176958,0.1013142,0.15587735,0.017390896,0.028000746,-0.22229278,-0.12307342,0.10936671,0.010524026,0.2762808,-0.014095761,0.034548216
0.10219408,0.059924405,0.0024628513,0.080319494,0.16693528,-0.048859686,-0.07245212,0.034387324,0.08549777,0.057801846,0.014363369,-0.13257813,-0.28205004,0.0101992525,0.067607544,0.09544552,0.02406586,-0.16749121,-0.0061775087,0.0069600074,0.0943933,0.055345543,0.049157154,-0.028398192,-0.049078014,-0.044470403,0.026409766,0.09155915,0.0030104886,0.20746124,0.051435128,-0.065143526
0.102616,-0.25706267,0.13153088,0.022781562,0.10307748,0.16023816,0.20216969,-0.11175403,-0.042706925,-0.045290682,-0.11072383,-0.13311453,0.004608851,0.102188975,-0.016528497,0.13871744,-0.19159706,-0.016420515,-0.05203492,-0.0017100085,0.0069528604,-0.009103623,0.08639209,-0.09880313,-0.09732965,-0.034292012,0.0070334584,0.18918717,0.0072869756,0.12989418,-0.052886996,-0.12827751
-0.007853641,-0.22500223,0.05233413,0.26279888,0.084971346,-0.067337275,-0.007240252,0.028912872,-0.18289039,-0.007553426,-0.19611885,-0.15570056,0.26737812,-0.07555211,0.15949714,0.17281367,-0.119670086,-0.26306903,-0.052994527,0.24330068,0.14462581,0.0055017956,-0.08715694,0.050773703,-0.017277546,0.06372078,-0.17165458,0.10275688,0.05524749,0.11550564,-0.024437528,-0.18308197
-0.050936133,0.10579876,0.025005711,0.20719203,0.089741185,0.03464283,-0.012472529,-0.024246057,-0.14333193,0.076862745,0.0029844053,-0.104761496,0.15937711,-0.06786363,0.17062034,0.058763243,-0.1220669,-0.14515904,-0.17717579,0.20536786,0.15014747,-0.038310096,-0.15811688,0.024248565,0.051162984,0.21585408,-0.37066263,0.039854463,0.019639967,0.19328213,0.036630668,-0.22886276
0.032012913,0.022015924,0.046399675,0.1307821,0.1759311,0.021413386,-0.02422049,0.17897286,-0.22669275,0.05923815,0.078115076,0.05312481,0.11487348,-0.088559605,0.36762103,0.02698176,-0.14199924,-0.2555183,0.14207616,0.08248201,0.167665,0.0123495385,-0.01085518,-0.015462338,-0.06404211,-0.08583236,-0.6094264,0.013646118,0.092217535,0.23185967,-0.057860546,-0.19221511
0.109277405,0.2279601,0.13058808,-0.15899737,0.09566151,-0.055166457,0.021475907,0.08945027,-0.08067441,0.013541089,0.0131391985,0.20687625,-0.00014083524,-0.091354415,0.19661903,0.110766955,-0.049202316,-0.19990796,0.25825515,0.0075819944,0.19475463,-0.15855713,0.2145604,-0.07244014,0.031836137,-0.09550638,-0.3850314,0.1096006,0.2773471,0.12177011,0.024610817,-0.2533405
0.1753143,0.21375135,0.16228642,-0.19952247,-0.04485947,-0.06031235,-0.00066443835,-0.23551571,-0.018251557,0.107162714,-0.046135966,0.20894055,0.09777095,0.02054603,0.2233341,-0.0742605,0.06907506,-0.041542012,0.2765853,-0.067626275,-0.051504117,-0.019739391,0.11620481,0.035389446,0.095841914,-0.14615025,-0.03915096,0.06502083,0.25101358,0.23409691,0.10039524,-0.054263752
0.122670144,0.14051938,0.1641307,0.020879408,-0.03799653,-0.08860029,0.07731961,-0.108219475,-0.033057544,0.055462047,-0.044519812,0.05916754,0.0978379,-0.11694119,0.18128714,-0.13170086,0.14213131,-0.009477105,0.36813647,-0.08919243,-0.04509189,0.0072094775,0.010020897,0.053014737,0.1260306,-0.10293779,0.112544775,0.088549174,0.08125772,0.21470475,0.30690357,-0.18869138
0.22972119,0.0933549,0.059449904,0.12312649,-0.004703726,-0.15133813,-0.1397837,-0.15606678,-0.037513748,-0.07085013,-0.13706796,0.03998891,0.17217481,-0.039325964,0.033539657,-0.14509915,0.1970694,0.011652726,0.2506942,-0.12487765,0.2574434,-0.061507206,-0.03323499,-0.025275769,0.08595034,-0.18759461,-0.015721947,0.1701648,0.21009128,0.110874176,0.0898358,0.080834866
0.026391549,-0.05551805,0.0021396172,0.1349635,0.021041706,-0.04368525,-0.089273885,-0.13629547,0.04140175,-0.08173095,-0.16430867,-0.0395827,0.09215555,0.06736061,0.04737288,-0.14532004,0.05191694,-0.010557334,0.3303963,-0.21486795,0.11684816,0.039499797,-0.23747182,0.05646509,0.11772231,0.08048118,-0.047770217,-0.03810579,0.11567726,0.014073422,0.0065890145,-0.118108004
0.076138206,-0.4365846,0.13546911,0.11202998,0.07601695,-0.03914565,-0.0364883,-0.023686623,0.11772629,0.013863751,0.023559965,0.102962136,0.12664117,-0.093950175,0.15508552,0.12833788,0.29493928,-0.06610552,0.21254605,-0.13478252,0.094156906,0.12472254,-0.09492156,0.017016724,-0.14993049,-0.106547624,0.05104511,-0.08352522,0.081102975,0.17093548,0.12838948,-0.07897567
0.12883471,-0.79613715,0.092094354,0.19531731,-0.06464289,-0.017708564,-0.019432694,-0.14494582,0.15157884,0.061605845,-0.13056529,0.070147194,0.22007607,0.026248563,0.029564355,0.06688048,0.15045288,0.04223244,-0.104629345,-0.1621948,-0.011479089,0.13190067,0.0162167,-0.06541625,-0.04252474,-0.023207907,-0.14424367,-0.08439222,0.21783048,-0.009060128,-0.0048865015,0.12741928
-0.053567998,-0.47116905,0.08459394,0.10185054,0.08953018,-0.27630585,0.022594893,-0.076098695,-0.04292624,-0.03441206,-0.089895405,-0.10163305,0.12318805,0.118516885,0.26933,-0.15265772,0.19618073,-0.077456586,0.025651984,-0.08608714,0.18561146,0.26345015,-0.12347121,-0.020536916,-0.017010247,0.025112305,0.052579463,-0.22771785,-0.016654383,0.2891991,0.14525403,0.007206748
-0.17290348,-0.17286007,-0.105998255,0.1441678,0.23993318,-0.3876106,0.07302413,-0.109636255,-0.11476046,0.024525486,-0.3067702,-0.25775313,0.16328676,0.010381716,0.078784175,-0.13487186,0.35781392,-0.12643848,-0.42632222,0.030218102,0.05069528,0.33334774,-0.0005792639,0.059591793,-0.0915435,-0.13319212,0.114366755,-0.09583489,-0.07914613,0.2572058,0.11432809,-0.14403225
-0.028994322,-0.44095457,0.1472541,0.2108281,-0.22057284,-0.18677875,0.17142762,-0.29099447,-0.20214362,0.16203706,-0.38492945,-0.6043061,0.29536003,-0.023927165,-0.21192095,-0.039166007,0.6460698,-0.14793044,-0.734037,0.09385797,-0.1799467,0.11531489,0.02187248,-0.00017939406,-0.17293943,-0.3378535,0.086865135,-0.120177686,0.20224419,0.20201644,-0.05400163,0.2058652
0.123118594,-0.3977186,-0.024789637,0.25175485,-0.27322623,0.18462391,0.37360904,-0.17924729,-0.20598084,0.13866803,-0.12014891,-0.9805286,0.10673325,0.19175412,-0.082738385,-0.032549765,0.78119934,-0.085471064,-0.613253,0.023763582,0.015794402,-0.04762426,-0.116699174,-0.02015237,-0.27268007,-0.11616974,0.20770052,0.015968982,-0.28027895,-0.093860455,-0.3410396,0.48919883
0.07689901,-0.28829592,-0.22373754,-0.041463915,-0.15325469,0.24680135,-0.03944533,0.006361025,0.00036065307,0.2715691,-0.19880806,-0.41554368,0.026036054,0.3392427,0.26566926,-0.18198277,0.37351936,-0.3642185,-0.067995384,-0.14578156,-0.09414458,0.05818657,-0.03602104,-0.07684534,-0.5646928,0.124517374,-0.02302405,0.25266042,-0.06903363,-0.12762731,-0.14782497,0.3403497
-0.11362241,-0.29439935,0.14025803,-0.14612772,0.154205,-0.010404337,-0.21409829,-0.30128232,0.19888015,0.1683786,0.07633439,-0.28410244,0.11923206,0.20349208,0.37316215,-0.21316583,0.10939633,-0.005680703,0.10936856,-0.1515184,0.3171667,0.08730159,0.022041902,0.046483763,-0.26022652,0.19087444,-0.29344463,0.15659586,0.14708439,0.12944224,0.04152069,-0.11222835
0.2887935,0.0057303035,-0.10705382,-0.05582946,0.023287492,0.0052095493,-0.14084724,0.076468065,-0.09113097,-0.089769356,0.06808205,0.15012819,0.10330576,-0.14561594,-0.0061853533,0.19118562,0.002877743,-0.28640965,0.050485257,-0.1984935,-0.1167673,0.19223471,0.18081377,-0.080898,0.264561,-0.18697688,0.05005684,0.026007304,0.24052177,0.16696395,0.042953048,0.018001437
0.32305053,-0.06672941,-0.00788025,-0.07808752,0.3355013,-0.2830248,-0.22914678,0.39589632,-0.47080427,0.11821181,-0.17181523,-0.043016385,0.15343472,-0.3588798,-0.14084157,0.30517155,-0.35129926,-0.36174262,0.2128104,-0.23268576,0.30677137,0.45719692,0.33983186,-0.065806605,0.3405406,-0.3173032,0.32709813,-0.45712304,0.3157887,0.26397383,-0.25671324,0.19730537
0.12675044,0.012992458,0.16047494,-0.09504806,0.054767556,-0.45371985,-0.22833335,0.28474107,0.067527615,-0.00025779294,-0.21480677,0.3062944,-0.13074136,-0.1423863,0.034407776,0.1603588,0.24690793,-0.11310606,0.024792457,-0.31107566,0.28169924,0.018294718,0.0703798,-0.0838898,-0.082092755,0.042714264,0.07870155,-0.3348897,-0.09038308,0.4533604,0.15667285,0.16189556
0.19097266,0.09385558,-0.17137103,-0.10676198,-0.09487933,-0.24940316,-0.18513131,-0.06309055,0.080338575,-0.09843764,0.28592038,0.1632419,-0.36354533,-0.002767246,0.16634643,-0.010967781,-0.11784126,0.118468285,0.034212273,-0.1491889,0.3107373,-0.039987624,0.21542105,0.07213466,0.04681461,-0.14182669,-0.15399568,0.10943468,0.046772916,0.34148705,0.42636895,0.23635891
0.11345675,0.19543108,0.0016510003,-0.014221754,0.14897738,-0.15323515,-0.14579633,-0.42171633,0.007889898,0.17656498,-0.06544938,0.23135695,0.07455134,-0.22722557,0.05142437,-0.11251824,-0.18992193,-0.15899828,0.054113217,-0.1413698,0.06762035,0.29160228,0.3795677,-0.055050813,-0.13508745,-0.004793359,-0.0010020933,-0.18071593,-0.14532134,0.117108405,-0.27988726,0.012187472
0.20171724,0.11477207,-0.07740424,0.085630976,0.3126326,-0.19871853,-0.09775326,0.03300571,-0.04008884,-0.14181232,0.08193616,0.40173885,-0.039205484,-0.077235185,0.062304772,0.22179705,-0.007315741,-0.15750417,0.0046622655,-0.37439293,0.10763755,0.439753,0.15194087,-0.0010072902,-0.00011164737,-0.055567708,0.09381918,-0.0062919045,-0.03612455,-0.1568114,-0.2294186,-0.19979616
0.1515631,0.06600616,-0.003260602,-0.07928682,0.05596524,0.08653881,-0.12979166,0.11558217,0.09657057,-0.017451195,-0.18162341,0.10418115,0.0076489826,0.14828503,-0.071147196,0.07207169,-0.03676121,-0.17995536,-0.07054236,-0.019902825,0.26158723,0.17219801,-0.12525387,-0.042553104,0.03100853,-0.17383406,-0.2738079,0.28672257,0.19668879,0.046544846,0.085296094,0.030241748
0.07860465,-0.0056864964,0.01096067,-0.19536588,0.03775607,0.10877492,-0.12557477,0.2552211,0.18251231,-0.0051556216,-0.03276504,0.060073268,-0.08694825,0.13968045,-0.012892358,0.18141599,-0.13642548,-0.13641131,0.04037973,0.3060823,0.08987983,0.3633062,0.027014505,-0.10056072,0.09939627,0.013170664,-0.25198087,0.1017566,0.006873033,0.13511525,-0.057056665,0.02196661
-0.01884868,-0.19818999,0.05978319,-0.17399476,0.13120581,0.027754275,-0.16995656,-0.13061193,0.22166184,-0.038467456,-0.05467217,-0.13371289,-0.33067647,0.25197312,0.02893627,0.07823303,0.06336885,-0.0023672627,0.050330695,0.011861527,0.08354279,0.27803713,0.077634394,-0.08329194,0.012089045,-0.09156711,-0.17241782,0.04839942,0.08003354,0.20818114,-0.14755858,0.09288766
0.12955214,-0.25464404,0.17045042,-0.027368557,0.11091248,-0.0054337624,-0.16132636,0.04718547,0.059846796,-0.026877725,-0.19628853,-0.17349245,-0.31068286,0.16987899,-0.081813544,-0.03834601,-0.045049667,0.002914442,-0.07972145,-0.0023868477,0.09903752,0.2008252,-0.010232874,-0.07327786,-0.051149823,-0.1654762,-0.23269245,0.022263374,0.030659216,0.1384171,-0.025485065,0.0780265
0.03365436,-0.28228167,0.07340835,0.018547883,0.13341689,-0.021771656,-0.0546104,-0.2423049,-0.07796357,-0.10028101,-0.11718327,0.08359347,-0.16470136,0.12076595,0.030123517,-0.020467479,-0.13120924,0.0503133,-0.08424395,-0.00977183,-0.060903914,0.23173593,0.07552993,0.045120586,0.006286574,0.035111904,-0.25103512,0.1832913,0.08760256,0.17249547,0.15494765,-0.03655721
-0.034244023,-0.28020042,0.058501113,0.09866549,0.0013078043,0.08227868,0.22180827,-0.12334196,-0.08751856,-0.24428529,-0.16948389,-0.19327155,-0.018968778,0.03931504,-0.19120893,0.18053508,-0.14688419,0.024873184,-0.35386625,0.049387243,-0.053475484,0.22345328,-0.02611249,-0.0004556306,0.05366025,0.012449852,-0.17035712,0.03769582,0.20515391,0.12548555,-0.08549109,-0.107181534
0.026821656,-0.06291015,0.16411424,0.07035544,0.20990752,-0.11759092,0.06335858,-0.14774978,-0.18501778,-0.10837973,0.012412372,-0.10249807,0.12666938,-0.004527753,-0.13354027,0.20413633,-0.08291618,-0.17994268,-0.3316109,0.082722425,0.13742417,0.23370965,0.052947287,0.060935874,0.061706685,0.012448479,-0.12879914,-0.03379135,0.18834363,0.109893866,0.06330126,-0.17253466
