Layer,dense_20
Weights
0.05705502,0.030879095,-0.07759391,0.037065007,0.017186888,0.06256243,0.06904138,-0.011875063,-0.08531485,-0.072357535
0.011310972,0.07600235,-0.07160288,-0.07396093,-0.03168246,0.060474537,-0.004223801,0.05902701,-0.06255182,-0.04431875
0.042564772,0.02525635,0.010033824,-0.058623318,-0.061972953,-0.050669175,-0.053549293,-0.026531193,0.07763653,0.031795643
0.04382386,0.021591201,-0.0044867024,-0.01165019,0.011499494,0.0699146,-0.005309254,-0.021992885,-0.069358535,0.009889081
0.08453252,0.08476297,0.0071289763,-0.08357535,-0.008381709,-0.07162377,-0.065136164,0.074945204,0.058236726,0.05656085
-0.011706397,-0.0012067258,-0.07606967,0.016381472,-0.03377296,-0.006419748,-0.06903194,-0.078193285,0.01204209,-0.06259963
0.005873196,0.0006066188,-0.04662121,-0.053124692,-0.08053697,0.043182634,-0.05201347,-0.072056234,-0.03622191,0.03357605
-0.06461554,-0.05109966,0.049070485,-0.018969737,0.06471173,-0.058328494,-0.041529674,0.035309285,-0.061256908,-0.08233143
0.060024075,0.07924374,-0.05376706,-0.067659624,-0.059310492,0.013364561,-0.043246057,-0.071587734,-0.06183034,-0.067564145
-0.02252864,-0.0753132,-0.06310934,-0.07204487,0.08482162,0.07653526,0.048606865,-0.04174914,0.018321298,0.038580306
0.06681029,-0.041188966,-0.039073616,-0.073716246,0.06469903,-0.006521784,0.06417539,-0.071607694,-0.031119991,0.059402533
-0.06454064,-0.0781782,-0.010198243,0.020611614,-0.02813305,-0.031943146,0.085505195,0.025501572,-0.056781564,0.042539008
-0.0075758444,-0.11789567,-0.21868446,-0.14654048,-0.24369352,-0.20963188,0.28332213,-0.07549496,-0.17804234,-0.23546459
-0.09667907,-0.0053828126,-0.27540547,-0.31382874,-0.24840699,-0.273367,0.20519297,-0.08608156,-0.11305705,-0.22420943
-0.11983768,6.970811e-05,0.28294408,-0.09248711,-0.16575457,0.068358585,-0.15917264,0.04390124,-0.10418936,0.024959777
-0.024593715,-0.045206204,0.14192049,0.059250653,-0.036108315,0.040834595,-0.0802957,-0.0014297151,0.013990467,0.06348799
0.0088773,0.0134927705,0.048945032,0.04103408,-0.08578768,-0.07154396,0.014966793,0.078891926,0.028108038,0.056470476
-0.06978923,0.05500672,-0.0032939687,-0.046467137,-0.035312474,0.009550676,0.05629485,0.004536651,-0.0052587315,0.019460805
0.03191807,0.086730815,-0.078494094,-0.0004697442,-0.0069262385,-0.014322951,0.050675683,-0.086474314,-0.04973437,0.07552115
0.03861376,0.078151725,0.021148756,0.047490977,0.04980042,-0.0063707978,-0.03427168,-0.075416334,-0.03892638,-0.019452266
-0.043007363,0.018904246,0.07469588,0.0051278844,-0.068240106,-0.0091076195,-0.03934831,-0.08550017,0.0017142072,-0.0108226985
0.081222884,-0.021419346,-0.048284493,0.05781228,0.07965151,0.040119328,0.08591663,0.07947423,0.06359137,0.0026027337
0.03597053,0.049084105,0.01944846,-0.0800471,-0.02432011,-0.0021459386,0.03467504,-0.0015118867,0.0155297965,0.0786353
-0.07384532,-0.0610024,0.07541806,-0.038830858,-0.03853042,0.009961642,0.058242284,-0.006499648,0.050452925,-0.023158528
0.00054584444,-0.036018696,-0.034722086,-0.061919503,0.009681635,-0.011736304,0.028061628,0.06894887,0.06188806,0.045082875
0.012977965,0.0045312196,-0.05792609,0.030074261,-0.012721017,-0.0034340322,0.020103157,0.086533256,-0.046731077,-0.08028571
-0.066425316,0.040662102,0.06388109,0.08406041,0.034494914,0.024551846,0.024085209,-0.08655448,-0.035956707,-0.060908474
0.0193149,-0.015823707,0.0183831,0.054374643,0.055931695,0.022855006,-0.00604029,-0.04962011,0.038042046,0.036117807
-0.079073705,0.06218303,-0.029924605,0.02797842,-0.03235687,-0.035750154,-0.010819651,0.06482067,-0.03983576,0.054070808
-0.052394718,-0.0062431917,0.05821278,0.021061733,-0.08302038,-0.026506532,0.052149035,-0.06252204,-0.012125671,0.06300556
0.0070469677,-0.015682481,0.07323638,0.053117223,0.063411884,-0.056913048,-0.038491894,-0.08639916,0.018170543,0.07789872
-0.07298235,-0.08048686,-0.057791416,0.022174336,-0.057431847,-0.07237319,-0.035220306,0.058172934,0.05239775,0.0024834797
-0.033768356,-0.055559494,-0.20930852,-0.026548544,-0.1847296,-0.0374374,0.20527668,0.0049908673,0.018179035,0.034607578
0.025162075,0.058228094,-0.16999376,-0.032554865,-0.36824626,-0.064974144,0.34833694,-0.013033319,-0.10479766,0.037274234
0.0049963775,-0.02841402,-0.3049695,-0.061674155,-0.44464326,-0.020920036,0.36069486,-0.08830181,-0.06045367,-0.1638531
-0.10497433,-0.21169761,-0.39124453,0.0070229056,-0.40360376,-0.12774338,0.47279775,-0.1987823,-0.03187329,-0.21200861
-0.0022162984,-0.23990268,-0.06267286,-0.18213534,-0.4484616,-0.08363788,0.3623597,-0.1496011,-0.19465718,-0.22118475
-0.05195406,-0.36073345,-0.26204038,-0.2277714,-0.5730537,-0.24353811,0.59221387,-0.36397663,-0.346431,-0.14606884
-0.22843511,-0.35364822,-0.26037318,-0.29441237,-0.63477373,-0.22899084,0.5302973,-0.338358,-0.3829573,-0.23224477
0.19504163,-0.27174369,-0.4674872,-0.5022578,-0.93104494,-0.33559778,0.31546038,-0.31962192,-0.45297167,-0.59904426
0.29313844,-0.30827466,-0.6500917,-0.52362907,-1.0409163,-0.3949857,0.49880692,-0.47737384,-0.46677434,-0.61256355
0.26085043,-0.47664124,-0.5712409,-0.6465391,-0.7973534,-0.50682336,0.43093672,-0.3904213,-0.8250636,-0.653861
-0.52261204,0.33434096,-0.006610831,-0.42412904,-0.14425515,-0.6396274,-0.15503469,-0.351837,-0.5383262,-0.48709822
0.18256263,0.23693699,0.08668088,-0.39696914,-0.7476897,-0.8369053,0.3030301,-0.3771897,-0.66365874,-0.31981447
0.17837599,-0.57157916,0.49206153,-0.7765927,-0.847401,-0.8366523,-0.1323955,-0.276555,-0.8516414,-0.2801192
0.23980133,-0.6934334,0.1305262,-0.6391164,-0.66326123,-0.94302344,0.3807774,-0.3333561,-0.5232308,-0.35324824
-0.44882444,-0.30719796,-0.6554037,-0.43509778,-0.9380047,-0.3135939,0.81414,-0.10499183,-0.5286029,-0.57987374
-0.32934684,0.04961193,-0.5665546,-0.37502566,-0.40004143,-0.4502286,0.47438294,-0.15786889,-0.5236995,-0.35662997
-0.38505462,-0.078477286,-0.5375714,-0.33642328,-0.65115774,-0.6364116,0.5867948,-0.19570445,-0.59200996,-0.42377228
-0.15083301,-0.07193342,-0.3382463,-0.26561058,-0.35603794,-0.47948217,0.39617825,0.023386398,-0.24676993,-0.26479724
0.020747943,-0.095804244,-0.28332967,0.014694417,-0.37145415,-0.03928168,0.42254555,-0.23863769,-0.33708405,-0.45860028
-0.07848885,0.02713218,-0.21138139,0.059012845,-0.34292442,-0.14853247,0.26958215,-0.18416452,-0.23337783,-0.29256687
-0.082579695,0.035695106,0.014774188,0.03872276,0.020299718,-0.017517336,0.060382463,-0.067155994,0.06976243,-0.07668699
-0.079760574,0.0056023374,-0.051928062,-0.05007462,-0.041326772,0.058511622,0.07234154,0.041912206,-0.016485825,-0.056405168
-0.007970825,0.07766234,-0.014977902,-0.050317522,-0.055445638,-0.035936642,-0.0007716119,-0.085337,-0.06595524,0.054916583
-0.05365945,0.017129391,-0.0654274,-0.07229178,0.035099372,-0.056047197,-0.008980721,-0.06860237,0.077487506,0.062021993
0.06909626,-0.021109335,0.07374888,0.07860964,-0.059435654,-0.07948668,-0.044645403,-0.007749498,-0.03791819,-0.07894803
0.010369517,0.060801648,-0.05226311,-0.05984722,-0.06979458,-0.07760097,-0.07166877,0.052572764,0.029688187,-0.025455788
0.0021438368,-0.027433252,-0.08350514,0.06968334,-0.055683643,-0.11139128,0.1806514,-0.03758867,-0.05812261,0.013040952
0.21449661,0.07406975,-0.3368274,-0.024968404,-0.29343137,-0.338658,0.07726442,-0.19633307,-0.20114756,-0.27109417
0.19507292,-0.032336727,-0.28467837,-0.12656513,-0.32944307,-0.2883715,0.29245713,-0.22203928,-0.14297764,-0.13628735
-0.33022305,-0.11548925,-0.025175143,-0.2804214,-0.29810268,-0.22303072,0.4625149,-0.077105895,-0.18865038,0.002767182
-0.37819192,-0.116407424,-0.07733593,-0.3032832,-0.554184,-0.18096729,0.7508293,-0.19475558,-0.25145948,-0.11820645
-0.22638617,-0.47304735,-0.25636908,-0.4337227,-0.6362378,-0.33660942,0.74893314,-0.37118185,-0.4957567,-0.39954394
-0.5057712,-0.44526747,0.18871826,-0.6301991,-0.9725893,-0.5396797,0.6690346,-0.4436065,-0.5535216,-0.33303547
-0.7574322,-0.41292977,0.21936356,-1.0227355,-1.1377101,-0.6226389,0.3599154,-0.59594697,-1.1328646,-0.5317995
-1.2592053,-0.72329986,0.056155246,-0.28277016,-1.123293,-0.47326148,0.6783146,-0.6519564,-1.4663941,-0.7692064
-0.46110877,-0.5907164,0.18732077,0.015513977,-1.8711789,-0.42111823,0.6008478,-0.792854,-1.1267711,-1.0292175
-0.3522521,-0.11447535,0.17989878,-0.043261208,-1.1975431,-0.9450682,0.43128568,-0.7202097,-1.718401,-0.91980296
-0.68173087,0.410616,0.0066476767,-0.2074169,-0.6291925,-1.3085351,0.25372568,-0.72065693,-1.9445505,-1.216679
-0.99078935,0.20697418,-0.0019367508,-0.1585267,-0.4029006,-1.37284,0.35963514,-0.5833126,-2.089028,-1.2191045
-1.3752558,0.45614743,0.042154785,-0.47406825,-0.7588706,-0.5404205,0.26310474,-0.522719,-2.219922,-1.3230137
-0.5744532,0.4605391,0.199526,-0.28582275,-0.70295316,0.0075393273,0.19325493,-0.7018191,-2.1992142,-0.7340533
-1.4620775,-0.0021079348,-0.09611107,-0.26007354,-0.56027645,0.073334195,0.277496,-0.6219276,-0.78087795,-1.3569316
-1.4677302,-0.18569015,-0.06861585,-0.31987786,-1.4246972,0.10080787,0.27314004,-0.35028204,-0.18547559,-1.0636367
-0.9176844,0.04725839,-0.35881773,-0.56878555,-1.1042333,-0.06690347,0.31651804,-0.31302428,-1.2145776,-0.9505902
-1.1214283,-0.10276079,-0.16605952,-0.58753073,-1.0504098,-0.29194793,0.42768142,-0.2106093,-1.2733237,-0.7435878
-0.9396944,-0.62349087,-0.2872648,-0.5962785,-0.59505296,-0.40609398,0.58692956,-0.1346181,-0.85185975,-0.43422958
-0.7391757,-0.39887396,-0.65308887,-0.58166176,-0.46649894,-0.30121082,0.7159591,-0.3773545,-0.610703,-0.5430266
-0.5376373,-0.34211764,0.13065879,-0.5319705,-0.73704964,-0.2795783,0.6054752,-0.17709307,-0.6119231,-0.40890393
-0.32563597,-0.2788931,0.15685622,-0.23130141,-0.44535255,-0.48973152,-0.08346454,-0.086101696,-0.51466936,-0.08267298
-0.08634991,-0.13627855,0.19080585,0.04917234,-0.42757535,-0.327969,-0.25401044,0.023489207,-0.3634512,-0.04961323
0.014834993,0.058599956,0.06732594,0.08595624,0.0038062185,-0.0014328212,-0.06368196,0.0055877045,0.028891295,0.014138475
-0.025971439,-0.014182374,0.0017467886,0.060115702,-0.023993395,-0.031737115,-0.08289161,0.078470774,0.06849637,-0.06273113
0.07562483,0.06820292,0.025966048,0.02796229,0.042236067,-0.05789032,0.004454389,0.006902471,0.032673165,-0.079167075
0.066263504,0.08572159,0.07904475,-0.017847553,-0.03437085,0.052063562,0.024696425,0.07345558,0.022226356,0.017600238
-0.06099074,0.33337227,-0.25837964,-0.3089663,-0.20651026,-0.19689657,-0.21337125,0.038854085,-0.1852714,0.0077133332
0.12247321,0.16042706,-0.4810617,-0.304757,-0.50312406,0.102166794,0.2233449,-0.24498062,-0.41205192,-0.31369773
-0.2692121,-0.28990418,-0.4176579,-0.39954114,-0.50707674,0.18182003,0.04020162,-0.28809702,-0.35013908,-0.3425335
-0.3928526,-0.40038863,-0.19136696,0.40062484,-0.50325465,-0.37968352,0.23224215,-0.25706476,-0.61505204,-0.25157616
-0.3696118,-0.60111445,-0.0785866,0.16296053,-0.52982914,-0.44882193,0.51026,-0.6071094,-0.76889545,-0.33018485
-0.56853944,-0.74261206,0.12371014,0.26821205,-0.43699196,-0.78565013,0.3219207,-0.84483516,-0.7623969,-0.63719934
-0.12518895,-0.67421836,0.057293836,0.30811626,-0.85410345,-0.34282058,0.37007582,-0.6192577,-0.3495698,-0.63056517
-0.3055163,-0.46040964,0.5277913,0.07929002,-1.0564617,-0.3313171,0.32021612,-1.0724043,-0.36763272,-0.74762243
-0.08487298,-0.6468523,0.32354107,0.14512715,-0.8388321,-0.15564625,0.23801282,-0.9991785,-0.27495885,-1.535152
-0.084595345,-0.8154963,0.36909452,0.3679021,-0.9709525,-0.39273986,0.25341907,-0.99281657,-0.35769224,-1.5916301
-0.19549297,-0.25842455,0.2244168,0.4502935,-1.3268712,-0.035426624,0.04186872,-1.0294791,-0.33022916,-1.7394143
0.052344374,-0.18844958,0.44950297,0.11093985,-1.4706519,-0.13626276,0.25096554,-1.139071,-0.2446264,-1.6546314
0.043548793,-0.33165985,0.14069296,0.4184882,-0.91281635,-0.078610204,0.1614857,-0.8359558,-0.31124914,-2.0808353
0.013540984,-0.011647524,0.11388156,0.2440535,-0.83321714,-0.030321045,0.1049962,-0.9395255,-0.20744185,-2.4620137
-0.004083759,-0.007716001,0.17624396,0.19392288,-0.6634027,-0.03964289,0.025966775,-0.7973642,-0.22327863,-1.9810133
0.024156393,-0.21952721,0.028729768,0.2565171,-0.49982768,0.0017825094,-0.05520842,-0.9976401,-0.13343725,-1.4728817
-0.29641268,-0.369829,-0.12264529,0.31411675,-0.6280307,0.19107501,0.1393484,-0.7558146,0.07097755,-0.27830228
-0.3599901,-0.3406799,-0.19825296,0.20899417,-0.21999966,0.104547895,0.2614626,-0.63241345,-0.384151,-0.84934205
-0.30445507,-0.3059939,-0.2490112,0.34341648,-0.15087613,0.25648245,-0.053894904,-0.51677316,-0.258656,-0.80802447
-0.5263562,-0.45051098,-0.2297759,-0.15549102,-0.008560745,0.23797438,0.16737258,-0.5637801,-0.023588298,-0.92214465
-0.5487313,-0.56083965,-0.34006253,-0.82604176,-0.093219265,0.21172605,0.3697548,-0.41325653,0.09148971,-0.8522195
-0.31821227,-0.77991706,-1.0337291,-0.63444436,-0.008819167,-0.15025344,0.4122294,-0.23544645,0.2588157,-0.3898833
-0.21176988,-0.72484744,-0.09477724,-0.45777088,-0.33752048,0.015440765,0.24711667,-0.118726835,-0.07263557,-0.20693214
-0.060716685,-0.3696588,0.22551759,-0.28858632,-0.569262,0.06857358,-0.2618122,-0.068881914,-0.0511077,-0.08218018
-0.27917472,-0.23702987,-0.24162138,-0.084579445,-0.18168044,0.19689257,0.19546358,0.06822612,-0.2968805,0.041645426
-0.018993571,-0.00019390881,0.0857408,-0.0009997338,0.08349224,0.012278587,-0.05057707,0.054059513,-0.0072376654,-0.07641261
0.02300819,0.07777365,0.030709773,0.051249854,0.048992105,0.08525439,-0.07742594,-0.014215738,-0.076341026,0.05854071
-0.018793862,-0.051171858,-0.23430745,0.18352306,0.03522295,-0.21734326,0.010744273,-0.0662028,-0.06808531,0.053032126
-0.12904803,0.2896522,-0.40901938,0.22269928,-0.17187884,-0.44808578,-0.19632314,0.043262113,0.075342044,-0.040477905
-0.11298217,-0.11292043,-0.3734251,0.3586435,-0.46169996,-0.22610371,-0.20829305,0.23744074,-0.47915182,-0.290694
-0.42005682,0.08298337,-0.49666885,0.29707378,0.21182057,-0.82835305,0.3108112,-0.20870869,-0.78129655,-0.38478118
-0.56572556,0.049743164,0.011667762,0.49801177,0.047042567,-0.7669209,0.21493098,-0.57230306,-0.8860818,-0.48201534
-0.40787372,-0.03914413,0.4632048,0.27415156,-0.43012986,-0.42084196,0.08488081,-0.7495494,-0.6861587,-0.69043016
-0.15752898,-0.12598917,0.13279052,0.228,-0.14647758,-0.20793132,-0.05380137,-1.0863563,-0.26720387,-0.97632915
0.008835061,0.012193028,0.08890742,0.29554698,-0.29478195,-0.5087543,-0.005586136,-1.2388035,0.08288898,-1.1161206
0.11363346,-0.23322429,0.35470062,0.19986635,-0.47027344,-0.31499767,-0.14645913,-1.0537319,0.13078544,-1.6177721
-0.016146168,-0.12370659,0.17323184,0.28773883,-0.5680497,-0.020661639,0.061639592,-1.5325923,0.09811739,-0.7144592
0.09333133,-0.35357082,0.26651278,0.307611,-0.42151368,0.022099333,-0.17070967,-0.9635072,0.028099695,-0.48279563
-0.06455148,-0.2317819,0.14825884,0.23919655,-0.36528394,-0.03662239,-0.29281706,-0.7239254,0.20059069,-0.48369205
0.00946566,0.07444385,0.19241041,0.31229302,-0.18886796,-0.31479362,-0.09233745,-0.6267913,0.042568285,-0.40414792
-0.03601093,0.07066815,0.22357273,0.17384095,-0.45271742,-0.03088279,-0.17572488,-0.7720693,0.24663505,-0.44487375
0.110705785,-0.033946916,0.075315125,0.1757683,-0.50130266,0.108392015,-0.19754292,-0.8372169,0.1948907,-0.460184
-0.13343571,-0.046944067,0.08334723,0.22877014,-0.250134,0.082089536,-0.06693381,-1.3242877,0.16155355,-0.72852397
0.12621872,-0.1550982,0.070277445,0.057946295,-0.17770149,0.07897428,0.07815228,-2.000274,0.09953531,-0.5774724
0.032050002,-0.20019744,-0.06539231,0.2216725,-0.24117485,0.24231985,-0.069253355,-1.846017,0.045792777,-0.66359967
-0.051930025,0.102939054,-0.16914564,0.035692994,0.11268101,0.08854554,0.03698161,-1.8131106,-0.0025997772,-0.93776023
-0.03874255,0.056051537,-0.19305384,-0.07270057,0.34629276,-0.19530979,0.11339142,-1.2594391,0.1363523,-0.6790047
-0.21068577,-0.019589173,-0.37822604,-0.23263513,0.46509722,0.15192431,0.17133266,-0.28845504,-0.005778738,-2.0897748
0.021319259,-0.30202,-0.5922707,-0.17652917,0.43201903,0.04588126,0.20554726,-0.4576013,-0.028306704,-1.6426514
-0.11530143,-0.26534596,-0.8298983,-1.1091936,0.3534388,0.20725659,0.3328846,-0.7621259,-0.15042649,-1.2360696
-0.44714215,-0.7832815,-0.6909808,-1.3796713,0.37597436,0.49734634,-0.3452067,-0.49210694,0.27310908,-0.8441012
-0.32438692,-0.76379496,0.045401037,-0.75035655,0.0006826207,0.5495787,-0.24207811,-0.36072016,0.29471534,-0.4152529
-0.39535636,-0.5507823,-0.3779314,-0.32360092,-0.39122033,0.10553632,-0.11542251,-0.40361476,0.31934947,-0.5402307
-0.2896017,-0.3614035,-0.29341772,-0.1000865,-0.3107979,-0.35154775,0.26570135,-0.12226727,0.011516714,-0.23077925
0.052712537,-0.014019035,-0.07160123,-0.053765006,0.053243496,0.084343694,-0.037164964,-0.06572571,-0.016777702,0.07095114
-0.045516435,-0.021343969,-0.022768311,-0.048120182,0.070143096,0.003023833,0.08158701,-0.005922854,0.04957903,-0.0459153
-0.34120667,0.2554684,0.12159991,0.055637315,-0.36368304,-0.47512993,0.22741632,-0.25450557,-0.39339647,-0.06448739
-0.33004463,0.21632724,-0.26235676,0.40373096,0.0019446835,-0.33147943,-0.5619778,-0.04576604,-0.574961,-0.30290058
-0.55433714,0.41559103,0.08512113,0.46349093,0.14407861,-0.94105965,0.12515654,-0.4384554,-0.90085465,-0.54430765
-0.6798521,0.21396635,0.11506475,0.4874741,0.07757372,-0.46940902,-0.3754318,0.15388337,-0.7991139,-1.1691271
-0.19466752,0.26287383,0.014056677,0.23960732,-0.13753231,-0.3308971,-0.15001377,0.13928755,-0.24288459,-1.6961979
-0.043450084,-0.18002199,0.06766586,0.20802888,-0.14455184,-0.23904431,-0.16114892,0.26404113,-0.013530566,-0.6445313
-0.0033742134,-0.3868426,0.06238885,0.01251544,-0.0067697503,-0.135117,0.104499914,0.20610672,-0.058256574,-0.42773005
0.040198233,-0.35936776,0.04165797,0.18485866,0.0118544055,-0.013343619,-0.05212606,0.22123782,0.041789014,-0.41983125
0.20633359,-0.29626054,0.16479735,0.17531763,-0.10386742,0.07600306,0.048084795,-0.09391602,-0.11673482,-0.086305186
-0.036589503,-0.47123626,0.10725819,0.06197853,-0.1261608,-0.0574904,-0.46051288,-0.13494064,0.12271222,0.15003349
-0.09069528,-0.34211975,0.14770211,0.11914507,-0.097865224,-0.057305053,-0.23084903,-0.06891886,0.16682792,0.105780065
0.0868493,-0.08853024,0.17370059,0.11701244,-0.27664784,-0.028726848,-0.25151026,-0.15883687,0.14441389,0.08165194
0.1924524,-0.18661883,0.075948514,-0.026265131,-0.018481342,-0.1545199,-0.08698524,-0.30122396,0.15322864,-0.15569884
0.093159355,0.0483791,0.15206103,0.18045889,-0.027832417,-0.15710557,-0.13409115,-0.26254442,0.083668016,-0.10938099
0.030231025,-0.23766285,0.19372088,0.15290336,0.010379475,-0.043963626,-0.23834924,-0.31868246,0.11709375,-0.45112625
0.17607397,-0.39930186,0.14160734,-0.0855088,-0.052098915,0.104311325,-0.10889664,-0.46426997,0.18509522,-0.42770535
0.19931035,-0.12923464,0.056983717,0.039866947,0.0748924,0.11628178,0.08098034,-0.4643494,-0.026555428,-0.28163582
-0.016806072,-0.19630957,0.0014552352,0.050254196,0.13098383,-0.009055858,0.19334458,-0.79425615,0.02924545,-0.36435157
-0.114916734,-0.081838496,0.017250331,-0.13890168,-0.045075182,0.12179918,0.026829053,-1.2102997,0.0802931,-0.23856151
-0.045743287,0.2635123,0.019199127,-0.15129495,-0.045246556,0.06784679,0.10478646,-0.86000454,0.005591236,-0.4552362
-0.0079747485,0.13341166,-0.035413824,-0.16158044,0.08830423,0.11124488,0.06699263,-0.727558,-0.07177288,-0.80374545
-0.29677206,0.07683448,-0.2950211,-0.44387633,0.4287642,0.15892032,0.3053946,-1.4236385,-0.3432938,-2.1543894
-0.40324938,-0.097890764,-0.68441933,-0.5664206,0.10810073,0.31675583,0.12007711,-1.0298978,-0.11758717,-2.061659
-1.0117856,-1.0928985,-0.20951231,-1.616972,-0.22010459,0.6304571,-0.07536426,-0.91355175,0.3912152,-1.1530733
-0.8242211,-0.39578608,-0.39702043,-0.5438946,-0.5431295,0.38460508,0.08531335,-0.48051223,0.061134413,-0.6296148
-0.36503473,-0.34323323,-0.30856815,-0.23533778,-0.567703,-0.060915843,0.15032445,-0.19425388,-0.28033605,-0.16217783
0.046702452,-0.009377219,-0.04857144,0.08314895,0.05854302,-0.015197381,-0.04598133,-0.042420644,-0.0154084265,-0.00417269
-0.17643419,-0.12052499,-0.16080068,0.19021833,0.02225592,-0.18713497,0.05382137,-0.20836295,-0.23986028,-0.26253483
-0.39725897,-0.46862316,-0.03424785,0.06999483,-0.48692587,0.090350494,-0.20641877,0.405689,-0.6356815,-0.3789066
-0.6293514,0.1263081,-0.086691976,0.3156502,-0.34006006,-0.8679095,-0.7708793,0.3857586,-0.81251496,-0.6001534
-0.5887582,0.38159764,0.21976036,0.13217923,0.038546372,-0.4357315,-0.065161124,0.057736676,-0.47244984,-0.7510142
-0.08461675,-0.026615571,0.08917659,0.10640538,0.17981842,-0.16201872,-0.23461398,0.2280858,-0.25521076,-1.1351442
-0.044716448,-0.08331195,0.0912692,0.25768536,-0.14905669,-0.12393011,-0.33562964,0.20752618,-0.20058265,-0.55313224
0.032814573,-0.35520744,0.10648665,0.086552076,-0.06857596,-0.02590502,-0.1104956,0.2563244,-0.13884252,-0.43420652
-0.1544943,-0.45152903,0.057977166,0.09316186,-0.0966353,-0.0141620105,-0.1465771,0.23762116,-0.028082132,-0.1855116
-0.31663296,-0.50109965,0.06796338,0.21238448,-0.003036041,-0.14243765,-0.116048045,0.18139526,-0.06678813,0.009064444
-0.035254274,-0.27734116,0.0993503,0.25552922,-0.24978241,-0.05874729,-0.35227078,0.19018707,-0.11711386,-0.023198357
-0.043473225,-0.15032135,-0.023812747,0.11811285,-0.2704744,0.02537585,-0.21507902,0.28429872,0.0060544685,0.13625754
-0.0569039,-0.29926208,-0.013325941,0.023927225,-0.34830114,-0.052392107,-0.22771844,0.16236475,0.09070749,0.1442015
0.1867674,-0.24049686,0.00080051366,0.2273124,-0.4438432,-0.059399854,-0.27125615,0.006656004,0.020941451,0.2970371
0.15010549,-0.22148223,0.05643754,0.126776,-0.46993545,0.085165165,-0.1896134,-0.12594426,0.050269384,0.32863316
0.009439937,-0.35319626,0.1495928,0.11283541,-0.48809543,-0.019794594,-0.065877944,0.015811346,0.19321853,0.24715099
0.13497014,-0.31859833,0.07724984,0.14468232,-0.47922364,-0.095220305,-0.22542699,-0.011303268,0.10044896,0.32394913
0.075469546,-0.35812336,-0.049239792,0.019790968,-0.3129992,-0.007515839,-0.11074822,-0.0009506531,0.04596471,0.27177426
0.25900128,-0.11307777,-0.031556807,0.12106517,-0.42630342,0.087523706,-0.2769168,-0.002276696,-0.10453398,0.28953874
0.09329824,-0.16520582,-0.13243133,-0.08124404,-0.1692247,0.13536905,-0.14760925,-0.053262826,0.18130732,0.091161825
0.04849635,0.05526409,-0.17381258,-0.022679495,-0.19054145,0.19958411,-0.14159042,-0.10932533,0.11006563,0.08674327
0.23155919,-0.037330955,-0.11754967,-0.07042036,-0.18682069,-0.00050337764,-0.0013842552,0.077973254,-0.06748053,-0.083886474
0.2549817,0.005489628,-0.19270483,-0.13404517,0.072179146,0.110335246,-0.05566791,-0.03611184,-0.060306054,-0.32049012
-0.048310913,0.00101772,-0.6375055,-0.21610817,0.3251506,0.15138133,0.12741682,-0.7190556,0.07009676,-0.5026932
-0.7249937,-0.17581926,-0.8505126,-0.3466236,-0.002753166,0.5768703,0.233512,-0.7324569,0.031185623,-0.6838463
-1.4239924,-1.4603825,-0.5098297,-1.7279143,-0.24734272,0.47125992,-0.064374514,-0.9590555,0.3670714,-0.5229199
-1.1822437,-0.49081144,-0.74474853,-0.6745491,0.08236398,0.40659422,-0.13498652,-0.93402123,-0.010167384,-0.8011218
-0.3825853,-0.2399325,-0.4264862,-0.26782507,-0.67102206,0.2158274,0.119019225,-0.49649468,-0.06930465,-0.28368628
-0.078463376,-0.05723707,-0.034341432,-0.15151364,-0.07442826,-0.06108434,-0.062059145,0.056105543,-0.006897258,-0.04975975
-0.48044926,-0.34260094,-0.52445924,0.40320155,-0.24651146,-0.46075037,-0.17539424,0.08970143,-0.5355911,-0.47828677
-0.22985944,-0.32604024,0.14219199,-0.2722633,-0.4743784,-0.21080884,-0.2239501,0.5571274,-0.8620224,-0.67373663
-0.32184115,-0.32751495,-0.013242894,0.11020563,-0.2602593,-1.164882,-0.70729876,0.6565016,-0.522993,-0.8604966
-0.7058414,0.051032744,0.3748426,0.31567073,0.09048787,-1.0532047,0.022106247,0.10559947,-0.049768075,-1.0805148
-0.0071587926,-0.45246777,0.19018672,0.31304246,0.28272834,-0.24561802,-0.06314455,-0.017299883,-0.18357487,-0.8137549
0.11539732,-0.53458405,0.07530624,0.14317477,0.044982888,-0.1262629,-0.33867538,0.21237946,-0.1905381,-0.30665055
-0.05718259,-0.18564929,0.00032199977,0.06271965,-0.0014689167,-0.012572123,-0.044515073,0.35866922,0.018750006,-0.35810822
-0.2921253,-0.47992757,0.09610871,0.07276338,-0.09395763,0.15772074,-0.07879523,0.08722342,0.1165097,-0.07453268
0.047957253,-0.29171672,-0.051765162,0.04805381,0.031019479,0.08564455,-0.16817975,0.26945078,0.0039493097,-0.04900902
0.039935216,-0.16043508,-0.050203763,-0.013231595,-0.20838447,0.07439724,-0.18435271,0.26085708,0.016907584,-0.04825219
0.03152794,-0.17301781,0.09134977,0.017754238,-0.20096548,0.17196375,-0.042086538,0.19984294,-0.07895448,0.0731673
0.014411211,-0.12747458,-0.02461415,0.15715502,-0.41119772,0.07041982,-0.06524914,0.25524065,-0.045471076,0.20070098
0.10068108,-0.19004314,0.15330723,0.07433065,-0.3824432,-0.09087493,-0.24497852,0.065513685,-0.09474148,0.38599664
0.09233508,-0.13714074,0.05253137,0.19524443,-0.43301314,0.061988406,-0.14011282,-0.02745562,-0.15527934,0.42094722
0.056975797,-0.38334376,-0.112026714,0.19030449,-0.47743598,-0.19580401,-0.20019934,0.04384906,0.09179892,0.43791848
0.09035505,-0.2868301,-0.036128394,0.0011380858,-0.43896666,0.097656235,-0.3632242,0.109802715,0.02848071,0.45248377
0.20876172,-0.22978039,-0.24797553,0.053503357,-0.18482961,0.0077607576,-0.2809648,0.29000506,-0.10460823,0.18905917
0.23238726,-0.21063413,-0.08831682,-0.028864436,-0.22065838,-0.00032646456,-0.38275716,0.28123602,0.087802276,0.09044509
0.09179761,-0.056703396,-0.02847591,0.034869693,-0.06494951,0.052476563,-0.3329713,0.11710226,0.007807227,0.019584076
0.056402843,0.025249764,-0.08658974,0.03235624,-0.09989671,0.08167905,-0.2519304,0.23463942,0.01773176,0.046697598
0.060175207,-0.052580997,-0.0667027,-0.26797602,-0.025656696,0.13349688,-0.18977162,0.1140876,0.13690583,0.034933593
0.04054264,-0.1488152,0.096905254,-0.16893284,0.13418025,0.16141602,-0.16193762,0.052058212,0.092311576,-0.18492426
0.15838218,-0.26296988,-0.60197,-0.30384347,0.18849228,0.262313,-0.26496938,-0.22200766,0.20187555,-0.35732558
-0.14770766,-0.87763363,-0.95718,-0.6591533,-0.028504048,0.5521307,0.17977127,-0.28674477,0.1215294,-0.47611168
-1.1498225,-1.4450767,-0.28122944,-1.7490208,-0.07748411,0.8276627,-0.2082901,-0.6106974,0.037406124,-0.54043853
-1.025228,-0.58270395,-0.5332616,-0.8062572,0.26426548,0.03140545,-0.1373267,-1.0053921,0.015673226,-1.0518347
-0.5134161,-0.31775698,-0.47907868,-0.37155476,-0.7985368,0.18004626,0.00053631497,-0.4375921,-0.060885612,-0.48628014
0.24471079,-0.12708545,-0.3331771,-0.17680588,-0.2863905,-0.099886544,-0.05902211,-0.31150132,-0.2458442,-0.20882
-0.3863713,-0.33116952,0.06718116,-0.16396207,-0.43088186,-0.47285378,-0.13431953,0.5373445,-0.61050636,-0.7284998
0.2259654,-0.20205402,0.017700104,-0.2538805,0.09616251,-0.6435476,-0.32983485,0.342459,-0.92985785,-0.77730286
0.20141074,-0.39046028,0.025456212,0.15356848,-0.1258319,-1.2189114,-0.96882796,0.47245207,-0.022475384,-0.8420765
-0.63093734,-0.17461696,0.36608368,0.3168725,-0.019910656,-1.1269586,0.016941246,0.16515987,-0.057719037,-0.5827335
-0.17471647,-0.5465925,0.049182013,0.068703376,0.20263097,-0.24667445,-0.22864585,0.13878277,-0.0038104358,-0.33731118
-0.12013305,-0.5750681,0.0074591343,0.031955704,-0.031105025,-0.17806464,-0.24549243,0.23401582,0.21942532,-0.09555623
-0.13178402,-0.23287706,0.010623032,0.0005385191,0.0062064976,-0.19459493,-0.27893743,0.4166161,0.11521597,-0.38015825
-0.08704308,-0.34167808,-0.038786005,-0.05542735,-0.1804053,0.0920711,-0.15846975,0.19475837,0.0603821,0.08910578
0.15530126,-0.49079496,0.046254747,0.0046686814,-0.00069129467,0.057225924,-0.09525806,0.20997153,0.16384327,-0.061609343
0.04643142,-0.24273846,0.1590692,0.03486944,-0.21260273,0.045609888,-0.19742602,0.11820326,-0.0023305472,-0.13682792
-0.0057388926,-0.23778617,0.112929486,0.0264301,-0.06722716,0.12330762,-0.14175005,0.23770961,-0.0071793664,-0.065833084
0.15709478,0.0021198802,-0.038990635,0.046537485,-0.29523098,-0.014826542,-0.24351725,0.28420448,0.13669154,-0.11995001
0.013060404,-0.03430074,-0.031049877,0.12280762,-0.17561659,-0.06630358,-0.12423655,0.12433148,0.15342568,0.13322231
0.16020942,0.05271805,0.09499085,0.1241501,-0.42299116,-0.13341573,-0.3148852,0.1928791,-0.10850563,0.31624657
0.24467288,-0.022202354,0.03874669,0.15351227,-0.3030074,-0.17516276,-0.3838971,0.25879082,-0.062030025,0.19679904
0.36865693,-0.2020587,-0.06510864,0.09341732,-0.4040975,-0.13727973,-0.40121412,0.18208064,0.085839935,0.11263461
0.28585145,0.037843324,-0.077655494,0.038679574,-0.26204267,-0.033282325,-0.3917485,0.19300991,-0.08823656,-0.024057278
0.15400344,-0.14281906,-0.18108934,0.15142286,-0.06059155,-0.05581934,-0.5653732,0.23978002,0.050800536,0.01767301
0.09569237,-0.049862325,0.056058787,0.10056292,-0.18231513,0.080308564,-0.5077538,0.07584346,0.086223796,-0.020796183
0.08405142,-0.30435663,0.054567322,0.08379635,-0.10655683,0.1642937,-0.40484038,0.067171745,-0.02575151,-0.14219978
0.05476938,-0.24274376,-0.047538854,0.007778191,-0.018173354,0.25785965,-0.1745157,-0.06719113,0.12717842,0.04390819
0.0778349,-0.24671242,0.03889176,0.19829927,-0.1938843,0.13329132,-0.3852699,0.1089212,0.107766196,-0.05078581
0.3141377,-0.56227,-0.07236682,-0.59916437,-0.1480106,0.52543426,-0.57567436,-0.02808205,0.16536869,-0.4338367
0.04623625,-1.0782732,-1.3338119,-1.3573331,-0.17195961,0.78874135,-0.7012813,-0.46590668,0.2929291,-0.36712238
-1.5609016,-1.3358978,-1.3827053,-1.8544414,-0.0077505396,0.8342406,-0.9516044,-0.7969114,0.21472615,-0.48215622
-1.2344903,-0.61058927,-0.79585683,-0.8051146,-0.24119593,0.24502607,-0.48226187,-0.9604905,0.4132093,-1.3473685
-0.652108,-0.2505158,-0.44037476,-0.2795643,-0.508155,0.00679219,-0.47507837,-0.30786857,0.49922,-0.3910338
-0.072136514,-0.26590437,-0.12177604,-0.22842282,-0.32265022,-0.12810574,-0.124269836,0.33609995,-0.18675432,-0.22558394
-0.33076122,-0.25813678,-0.650974,-0.3434603,-0.5804334,-0.38552666,-0.1967649,0.6518596,-0.41017383,-0.5217564
0.24217573,-0.21586037,-0.20002186,0.06606675,-0.05444183,-0.6008814,-0.47174734,0.23009892,-0.6155665,-0.94438803
0.023682622,-0.45335996,0.13988195,0.29649368,-0.47174934,-1.0491303,-0.9283985,0.38912088,-0.05953829,-0.47984767
-0.1621083,-0.23958579,0.17220315,0.4572302,-0.40075615,-0.70255834,0.099164255,0.24301034,-0.15916193,-0.42718503
-0.0961472,-0.7043933,0.31703368,0.062415905,-0.12419801,-0.33909076,-0.29265314,0.18027253,-0.0011072241,-0.036377683
-0.13652943,-0.5108239,-0.12559639,0.17351007,-0.18212475,-0.12097294,-0.2721459,0.21101645,0.14846803,0.0988149
-0.18322629,-0.15683647,-0.066951245,0.118427895,-0.11978359,-0.07223267,-0.04820987,0.1537291,0.03168693,-0.048231274
-0.10704291,-0.13238047,-0.07105055,0.039541163,-0.05900951,0.061069697,-0.11448782,0.11622988,0.16190988,-0.036337983
-0.014476392,-0.3170115,0.10059729,-0.0797481,-0.09791612,0.015759928,-0.28483558,0.065880194,0.19760305,-0.012021518
0.09415346,-0.19979082,0.13064916,-0.11478579,-0.12468348,0.06491937,-0.24376279,-0.10639887,0.08742401,0.11733343
-0.036713082,0.005383093,-0.043836277,-0.35048681,-0.035351545,0.23918138,-0.19797352,0.11498234,0.036725525,-0.045715876
0.007168457,-0.09077113,0.07692324,-0.2297166,-0.068591885,0.20504981,-0.2022039,0.3078011,0.05378562,0.0010992242
0.23243071,0.091206245,0.0480937,-0.07489753,-0.17669588,-0.028702162,-0.36306834,0.11555586,0.029061072,0.07965343
-0.0047450042,0.20391464,0.08198829,0.21306497,-0.606997,-0.24969137,-0.1961924,0.38563284,-0.22350532,0.067789726
-0.08267252,0.44021228,0.2519853,0.32498738,-0.38444173,-0.39081305,-0.45361704,0.31109345,-0.41146374,0.16135694
0.20009941,0.17090426,0.052404203,0.20126183,-0.1569837,-0.4006451,-0.5711198,0.24548396,-0.19050483,-0.13455704
0.22635828,0.056624338,0.07476979,0.0958444,-0.13240948,-0.23372126,-0.75116354,0.37406167,0.0031985037,-0.06817423
0.2493253,-0.122993775,0.05532634,0.13784084,-0.043919753,-0.1664663,-0.6021,0.20748821,-0.057999633,0.04881934
0.2747346,-0.3264734,-0.033094633,0.13767655,-0.049351722,-0.10335224,-0.51147556,0.23442453,0.061589863,-0.115875326
0.18348718,-0.39823225,0.00092914095,0.24047622,0.017784223,-0.030060224,-0.24319084,0.03887731,0.08879848,-0.035022113
-0.123800054,-0.22956057,-0.1985131,0.18679368,-0.06635192,0.19759372,-0.14477341,0.13186146,0.14827462,-0.19160059
-0.07536859,-0.45846063,-0.014252545,0.24917774,-0.10732969,0.19336584,-0.42406237,0.029400837,0.120548815,-0.21310602
0.18789743,-0.84178793,-0.1744485,-0.19399558,-0.101368345,0.4248143,-0.4523687,-0.1395834,0.14024617,-0.371161
0.24047466,-0.8358592,-1.290311,-2.3578138,-0.5476936,1.112643,-0.5756825,-0.3720941,0.059236303,-0.46481007
-1.1766859,-1.3365067,-1.2561392,-0.7616171,-0.51070577,1.0137787,-1.2644298,-0.39272866,0.20680955,-0.8640259
-1.3411205,-0.46056527,-0.37347114,-0.87614936,-0.51091224,0.43940297,-1.0315094,-0.07649957,0.4332241,-1.1980308
-0.5100641,-0.28631553,-0.5867906,-0.49587727,-0.4179357,0.18903235,-0.5862189,0.24560162,-0.25740957,-0.53989327
-0.075655974,-0.29408544,-0.15762265,-0.36231467,-0.2770615,-0.17613806,-0.090271994,0.28120342,-0.20362443,-0.21526557
-0.17782553,0.009422652,-0.3357794,-0.2584425,-0.4465326,-0.30877873,-0.07236257,0.5478459,-0.48881075,-0.5113577
0.26807812,-0.34040284,-0.24439341,0.07980963,-0.3610514,-0.5038315,-0.29475227,0.6092902,-0.68773866,-0.8861457
0.11377858,-0.4626772,0.17047337,0.57750076,-0.5653137,-1.0411525,-0.68781143,0.41168314,-0.5076885,-0.41652152
-0.08645122,-0.28660783,-0.11192108,0.21498562,-0.351878,-0.17325495,-0.1858546,0.25850633,0.22357996,-0.3791433
0.12496567,-0.90039396,0.2994482,-0.13244501,-0.40158695,-0.22376847,-0.35524657,0.19697806,-0.043231007,0.010943924
-0.12623625,-0.63558644,0.22059885,-0.0029173517,-0.3234932,-0.14723931,-0.27794155,-0.024735168,0.12195748,0.19635543
-0.12774079,-0.30533955,-0.113068484,-0.13524179,-0.1748198,0.06960982,-0.04623616,0.04063046,0.1131106,0.031328782
-0.07933226,-0.141578,-0.031375248,-0.23466076,-0.011813012,0.29291737,0.018219242,-0.13958536,0.16884086,0.16951692
-0.020666862,-0.34635043,-0.22611575,-0.46869925,0.10509656,0.2902116,-0.21453881,0.050896082,0.1864911,0.11428165
-0.22710767,-0.0780899,-0.08083104,-0.55089575,-0.035921443,0.2553693,-0.12225579,-0.036039967,0.27298883,0.076859884
0.040966984,-0.025698582,-0.079479165,-0.43290943,0.036488723,0.2762765,-0.16848797,-0.093270436,0.19596279,0.20667338
0.046677146,-0.029162735,-0.12430702,-0.47202003,0.1859694,0.29626197,-0.26199082,-0.07955546,0.17215304,0.09368181
0.13706942,0.22759947,-0.2434414,0.049824458,-0.29704064,0.21979013,-0.0957405,0.19120467,0.043300394,-0.22036397
0.025022598,0.52348596,-0.09198598,0.12264913,-0.78775847,0.03872008,-0.3022516,0.30598179,-0.052871786,-0.08584791
-0.23466605,0.6953953,-0.16207159,0.13869977,-0.1919308,-0.20340975,-0.46699974,0.43246707,-0.34135285,-0.12907575
0.023873853,0.25724176,-0.014393209,0.12268754,-0.09366845,-0.29908484,-0.5552708,0.5653295,-0.33177087,0.0026556344
0.28375316,0.027264986,0.025247239,0.14942132,-0.017822381,-0.40009102,-0.46159536,0.27047718,-0.19633846,-0.027744345
0.22152655,-0.21297963,0.031856675,0.15836944,-0.061392263,-0.31383,-0.53417695,0.27294698,0.018513989,0.00976121
0.046831448,-0.21131396,-0.054460842,0.1581752,0.029653065,-0.40980098,-0.3622962,0.28674555,0.21658713,0.012995415
0.10202373,-0.48254752,-0.07959561,0.20397604,-0.18317883,-0.23362158,-0.24104205,0.326843,0.029538376,0.004729947
0.08863985,-0.17323516,-0.048746306,0.06363448,-0.023542333,-0.04652234,-0.26812994,0.31372318,0.16844466,-0.09791264
0.24204919,-0.4504762,-0.1567909,0.21341668,-0.10299398,-0.09332325,-0.3586126,0.19641304,0.103589036,-0.12463617
0.25982916,-0.80874145,-0.1731836,0.040858943,-0.5543992,0.44556665,-0.1983662,-0.18842825,0.123944946,-0.2693823
0.15886933,-1.61995,-0.9475938,-1.8921092,-0.6887047,1.2770288,-0.30357897,-0.59500825,-0.30366865,-0.77603066
-0.8612986,-0.48692855,-0.5249224,-0.3572848,-0.70040774,1.423279,-1.1246508,-0.33209196,-0.48440248,-0.46713385
-1.1477131,-0.41653916,-0.11289479,-0.87648255,-0.8434481,1.1275643,-1.2062517,-0.06207199,0.05057318,-1.1921571
-0.29405794,0.16151512,-0.52944154,-0.32136026,-0.4520959,-0.12522298,-0.2813014,0.29265162,0.08265158,-0.5128595
0.013285807,-0.16683936,-0.13396472,-0.33782965,-0.20746394,-0.08522549,-0.1024568,0.4672386,-0.18531874,-0.31176215
0.31596082,0.29082698,-0.48386928,-0.27743724,-0.5953183,-0.41532657,-0.23569545,0.3871251,-0.55368996,-0.6217124
-0.3200965,0.07800092,-0.4935044,-0.02860852,-0.6077842,-0.41070095,-0.42663914,0.66436195,-1.0343695,-0.7342047
-0.15396753,-0.4250574,-0.33399972,0.63053644,-0.2440256,-0.8987277,-0.63311666,0.40448767,-0.25390935,-0.3850746
-0.44975594,-0.16514301,-0.22396788,0.19295849,-0.30938548,-0.03450804,-0.025878157,0.40852454,0.057162825,-0.12595782
-0.33960003,-0.53212476,0.119136035,-0.19748081,-0.11300335,-0.08730501,-0.08776481,0.10412338,0.08118177,0.19093896
0.04292912,-0.7440629,-0.04623987,-0.3014884,0.07727348,0.11536365,-0.12011585,0.027597442,0.108181015,0.21617903
0.012750495,-0.41011155,-0.45488864,-0.50414664,-0.019248398,0.12326308,0.010775667,0.08645677,0.35576344,0.15191256
-0.05184734,-0.31247702,-0.4961982,-0.5822581,0.061133154,0.0979038,-0.010620662,-0.05672521,0.21076778,0.31853658
-0.1653702,-0.39641804,-0.53179675,-0.5049453,0.23662513,0.03705516,0.16689305,0.08464072,0.19039081,0.10820753
-0.13199663,-0.2040386,-0.7341573,-0.37824944,0.3030134,0.052578438,-0.011805272,0.16835402,0.115285486,0.25629503
-0.02403757,-0.122492544,-0.55691713,-0.23742422,0.15077677,0.12044692,-0.11054578,0.066624574,0.11215089,0.2593773
-0.17020366,-0.19207197,-0.6687044,-0.14304437,0.3425093,0.19392999,0.069122724,-0.090010114,0.12716466,0.005415122
-0.14884324,0.34695938,-0.8472406,0.017259492,-0.5361573,0.37714943,0.093625255,0.069298595,0.255411,-0.021232413
-0.41688544,0.63633406,-0.5766959,0.16369037,-0.8401337,0.031047005,-0.29482767,0.31665272,0.35537952,0.0014430842
-0.6016283,0.68519336,-0.4518483,0.12155155,0.09559786,-0.20739989,-0.60087556,0.49516806,-0.08361442,0.09661285
-0.59645426,0.20861223,-0.1643043,0.006899778,0.31413656,-0.17924899,-0.2769649,0.4154506,-0.16450532,0.20265341
0.0058535705,-0.08230467,-0.30046684,0.16558677,0.17099583,-0.27105713,-0.31858808,0.34819397,-0.21268794,0.29982287
-0.12170471,0.004385875,-0.13116178,0.033572078,-0.052278567,-0.2577043,-0.3657128,0.4098309,-0.15204372,0.27011126
0.059866536,-0.13191862,0.11422416,0.10754438,-0.05005197,-0.35579252,-0.21236084,0.115723826,-0.0067782714,0.12707889
0.1450789,-0.14325415,-0.085257985,0.21811588,-0.2004267,-0.65257293,-0.15006106,0.20165609,0.0024732056,0.4107235
0.2835567,-0.17799218,-0.051648982,-0.11397807,-0.20687316,-0.58758175,-0.060263693,0.1696363,0.07154303,0.28456435
0.21061619,-0.37814876,-0.14625512,-0.005267761,-0.22100538,-0.63459593,-0.0131138135,0.19793524,0.28143737,0.15604495
0.15760164,-0.35763094,-0.21589726,-0.16579679,-0.67408097,0.025569262,0.33761868,-0.24253309,0.26045024,-0.12084084
0.17322597,-1.1508977,-0.36425018,-1.4522389,-1.0281358,0.7660409,-0.06648838,-1.0158157,0.20734529,-0.6020602
-0.5241063,-0.35161906,0.13668932,-0.06482621,-0.8352891,1.4478742,-0.8903808,-1.1383001,-0.32243714,-0.7241472
-1.0584613,-0.23923145,-0.029966533,-0.49609888,-0.66522557,0.89025384,-1.1053879,-0.5183616,0.47410685,-0.53353894
-0.23576261,0.2577691,-0.3085395,-0.27782792,-0.54402757,0.014277216,-0.08750933,0.068090715,0.039602697,-0.39598164
-0.06941268,-0.070769094,-0.05858395,-0.23118453,0.048017807,-0.017374048,0.059254292,0.26464802,-0.09009549,-0.18981114
0.08108099,-0.15474737,-0.17280725,-0.32345822,-0.3584799,-0.3145851,-0.14796834,0.7168479,-0.34838694,-0.8485819
-0.19761981,-0.24138576,-0.3188715,-0.6192104,-0.50295657,-0.5365892,-0.46999705,0.7810117,-0.6535814,-0.7439143
-0.15778916,-0.12423878,-0.5558925,0.15945387,-0.3935856,-0.28746524,-0.5394636,0.5853257,0.13565558,-0.35016727
-0.23699231,0.078775235,-0.2752928,-0.010494615,-0.40405405,-0.048298273,-0.19885735,0.44926047,0.07077949,0.2796728
-0.116695575,-0.44164446,-0.5337643,-0.3045079,-0.10067191,-0.0040064827,-0.035980485,0.0348779,0.3033043,0.30904397
0.14320236,-0.16088322,-0.801061,-0.50689745,0.020785075,0.314002,0.10274105,-0.08210664,-0.009363628,0.24403149
-0.01694445,-0.119581886,-1.0701141,-0.39215347,0.25801635,0.02447314,0.14259934,0.18448243,0.037789818,0.119456716
-0.09594668,-0.22819269,-0.5607649,-0.47070274,0.29910272,-0.026996525,0.17520793,0.25910407,-0.06278307,0.16261236
-0.12717591,-0.0804428,-0.62365395,-0.16059771,0.26432183,-0.08478737,0.078798264,-0.020351527,0.12941897,0.27522838
-0.016137805,-0.4320588,-0.6520087,-0.09102987,0.39631143,0.102340795,-0.025798673,-0.16736919,-0.14179404,0.15680128
-0.07716034,-0.41571745,-0.60435396,-0.1495885,0.4560292,0.15666993,0.20111097,-0.060688622,-0.14306727,0.06475577
0.089751996,-0.097987056,-0.5871701,-0.0057052015,0.640062,0.2041349,0.107131355,-0.6738467,0.06693329,-0.22960432
-0.16586986,0.23803475,-0.49628848,0.11573016,-0.12656185,0.24050581,0.083672605,-0.7646289,0.30241165,-0.09299676
-0.56507504,0.73273104,-0.5034605,0.22587542,-0.5178498,-0.05685972,-0.30153665,-0.23539832,0.18609622,0.19692118
-0.8129115,0.42968762,-0.53468585,0.020203032,0.20390497,-0.2413764,-0.39433435,0.29907084,-0.05761996,0.2724333
-0.7113199,0.1611475,-0.35007465,0.051892646,0.32191887,-0.30342403,-0.1241595,0.39485735,-0.009721164,0.31080243
-0.16239148,-0.03805892,-0.2634219,0.0634727,0.007951813,-0.3627938,-0.113733664,0.34473026,-0.013771982,0.3983082
-0.08489674,-0.0144905355,-0.24876298,0.14494236,-0.017661007,-0.2517004,-0.20948148,0.28462893,-0.026614252,0.28243855
0.016631868,-0.3058072,0.07720177,-0.09362162,0.06702252,-0.33177882,-0.33623314,-0.028984036,0.09381376,0.3336225
-0.012757647,-0.32667935,-0.0996342,-0.13938665,0.016759478,-0.47451055,-0.2545145,-0.013277827,0.19633493,0.26907635
0.15875697,-0.025628794,-0.06575129,-0.63569915,0.14468782,-0.83794487,0.1366298,0.0669656,0.25691578,0.33102936
0.22867826,-0.13575645,-0.11214816,-0.6684427,0.024754273,-1.1866599,0.3288315,0.07336653,0.280492,0.26810285
0.26001987,-0.011860763,-0.43363634,-0.61532,-0.3249382,-1.3161997,0.62386376,-0.27981037,0.57518995,0.3976287
0.5788223,-1.0086299,0.1365579,-1.1423258,-0.19331929,-1.4248936,0.32302466,-0.6250394,0.70847726,-0.8908908
-0.15663688,-0.35800704,0.51349556,0.2052997,-0.35515,-0.013848826,-0.3327911,0.00565402,0.059264105,-1.7144017
-0.8063511,-0.5950911,0.57906145,-0.42135632,-0.40307504,0.7356398,-1.0036598,0.09925791,-0.07080438,-0.9866446
-0.3218461,0.07463149,0.2186133,-0.31092584,-0.40701336,-0.31964552,-0.23348495,0.2424968,-0.47015998,-0.36083183
0.034128495,0.21901633,-0.17595488,-0.12565511,-0.028364409,-0.006145808,-0.07232725,-0.21540506,-0.14371364,-0.23651205
0.16610043,-0.16778651,-0.1968503,-0.2528332,-0.0619575,-0.39094478,-0.2527413,0.33234277,-0.24713132,-0.42872015
0.0012049004,-0.33124363,-0.23812203,-0.67428213,-0.45778823,-0.6881163,-0.37340805,0.65405643,-0.493855,-0.6610769
-0.116557226,0.22856338,-0.47998795,0.074825004,-0.48221654,-0.02439003,-0.4963973,0.52133375,-0.004479851,-0.052392993
0.07616203,0.21861045,-0.98016685,-0.36719823,-0.085555844,0.07500416,-0.17277585,0.2822391,-0.25856844,0.43532544
-0.040764894,-0.1827865,-0.9845657,-0.2822804,0.15150738,0.22174303,0.13034222,0.07671433,0.08373122,0.31390092
0.26898572,-0.046503782,-1.1037569,-0.33929235,0.30418554,-0.16561253,0.36723715,0.15283777,-0.08220285,0.063204445
0.16543317,-0.20622087,-0.8065543,-0.35501185,0.2557341,0.1256305,0.009840286,0.10554877,-0.022763757,0.22376376
0.08309205,0.07664844,-0.4476332,-0.24376877,0.313407,-0.061830614,-0.024522368,-0.055427186,-0.0927065,0.23154177
0.043610796,-0.16115195,-0.3155699,-0.15907298,0.3535142,0.042241227,0.042307056,-0.19474347,-0.06649492,0.047099736
0.056944635,-0.7579965,-0.18124284,-0.22903374,0.42334458,0.17545138,0.17727111,-0.019917393,-0.23401555,0.12864846
0.010592317,-0.6273308,-0.08722033,-0.17284563,0.6085841,0.23970486,-0.019664273,-0.3967268,0.043510552,-0.07600863
0.023600843,-0.14950682,-0.09012221,-0.03500328,0.39028612,0.38682783,0.16402207,-1.0433072,0.1784208,-0.26413402
-0.5122124,0.31807762,-0.036740378,0.21871813,-0.2111502,0.09821998,-0.04920392,-1.0170597,0.2984836,0.067598276
-0.7905481,0.55702543,-0.08723099,0.17962512,-0.18717474,-0.014942426,-0.23842528,-0.22696498,0.011550975,0.15497415
-0.8489878,0.42542216,-0.28166318,-0.047163486,0.23582722,-0.3374162,-0.02654724,0.037178,0.25184074,0.227507
-0.5826196,0.1513381,-0.25401667,-0.026650807,0.25023264,-0.4685723,0.0051087597,0.17520104,0.10240287,0.3770731
-0.1756399,0.2852131,-0.17244461,0.053909235,0.30168676,-0.2539486,-0.16274783,0.18120883,-0.15049306,0.32447836
-0.015567184,-0.18077324,-0.16269228,0.08619967,0.2542381,-0.17971146,-0.19101864,0.03276124,-0.07514684,0.30851686
-0.070039906,-0.5224182,-0.12047236,-0.085040666,0.18580905,-0.07090822,-0.01686428,-0.07489656,0.05879453,0.3811519
-0.24347594,-0.23693451,-0.16880219,-0.43391818,0.3668116,-0.11633134,-0.06273358,0.12333104,0.12735896,0.26777273
-0.11295754,-0.24732599,-0.035327643,-0.57034594,0.4014079,-0.25432014,0.12039481,0.09598075,-0.07406249,0.32937413
0.1604719,-0.50601053,-0.1840706,-0.76014477,0.16924337,-0.3406832,0.3177685,-0.14072171,0.01831651,0.11430155
0.3208981,-0.7357978,-0.17047536,-0.4370807,-0.18429652,-0.9135519,0.7069563,-0.22777233,0.21407564,-0.22561465
0.45887968,-1.0967213,0.461164,-0.43735403,-0.49632072,-1.149684,0.46091688,-0.10898951,0.16559035,-0.97733915
0.10563449,-0.4197611,0.8648544,-0.046606705,-0.18502542,-0.62531406,-0.36507383,-0.029846534,0.03803864,-1.2116439
-0.5626412,-0.5923959,1.0784689,-0.6910353,-0.30547538,0.14997466,-1.1893036,-0.2836273,-0.26778772,-0.5512955
-0.4109818,-0.2353902,0.4564288,-0.33226526,-0.2882259,-0.33426642,-0.36377466,-0.36679178,-0.3202849,-0.3459984
-0.19148734,-0.14552148,-0.21858202,-0.23623145,-0.2916104,0.31624523,-0.30077454,-0.31179246,-0.3166057,-0.27803522
-0.18147168,-0.1219231,-0.31771106,0.11436978,-0.11146279,-0.3861938,-0.08789828,0.2378887,-0.36479813,-0.31056505
-0.3025543,0.19240151,-0.2618203,-0.008378549,-0.4107595,-0.44524017,-0.045048803,0.6996441,-0.51623833,-0.7041162
-0.44346225,0.375261,-0.31176862,0.008786475,-0.09584991,-0.120690234,-0.645308,0.32098195,-0.29866773,0.026152233
-0.061839584,0.39937297,-0.61609197,-0.32411766,0.39334914,-0.0039921557,-0.8220302,0.19706413,-0.55611944,0.35284683
0.25284243,-0.06760757,-0.7306186,-0.5645731,0.3625989,-0.08907448,0.2348889,0.2379867,-0.0717108,0.07532481
0.10271798,-0.42777246,-0.33087248,-0.48290342,0.28489256,-0.17377648,0.17993946,-0.11964752,-0.1615088,0.17076851
0.4176571,-0.48333052,-0.11597669,-0.5274201,0.31054118,-0.08900191,0.06585456,-0.14749423,-0.4859817,0.11477933
0.14536135,0.16088553,-0.16041853,-0.1949728,0.31407154,-0.04641997,0.16331165,-0.12061351,-0.3650566,-0.03136803
0.1779964,-0.22217195,-0.076957814,-0.10589228,0.1866507,0.114831425,0.15859474,-0.2898426,-0.24438293,-0.051418997
0.0041179364,-0.8352957,-0.11059541,-0.20873767,0.19331908,0.20554833,0.22415322,-0.21385998,-0.12733687,-0.038050525
0.17081422,-0.5899738,0.033437707,-0.17552473,0.35408705,0.019645434,0.3071414,-0.5161931,0.15283775,-0.060723245
0.061538994,-0.013650973,-0.034480724,0.08580032,0.23506875,0.095072344,0.1721456,-0.95786846,0.26989156,-0.09725265
-0.2407298,0.31170702,0.14097993,0.029810688,-0.24478239,-0.0744253,-0.13968623,-0.62440157,0.21899694,-0.016606761
-0.8726319,0.503501,-0.0046666227,-0.0022683064,-0.062061876,-0.13628674,-0.16980557,-0.20902131,0.12950373,-0.0013548806
-0.83066213,0.376475,-0.16469,-0.028385535,0.13434148,-0.22446635,0.02315992,-0.11039669,0.05768108,0.22985436
-0.7378882,0.08208686,-0.21521504,-0.103928946,0.2924706,-0.3516376,0.028211683,0.029384345,-0.09205721,0.28596213
-0.1499855,-0.05877131,-0.19454756,0.002989556,0.46539348,-0.3010862,-0.31302574,0.16734608,-0.018603895,0.2937688
-0.06377879,-0.55842066,-0.09191529,-0.0345641,0.23462984,-0.23294571,-0.164151,0.3969589,-0.09765422,0.13722046
-0.16658546,-0.6263843,-0.10195389,-0.15316096,0.30996418,-0.22194745,-0.042443223,0.39365363,-0.007876618,0.056797456
0.0150741935,-0.24925889,-0.020880908,-0.19110931,0.20678547,-0.05925783,-0.046686113,0.3254795,-0.27718592,0.24737567
0.0934467,-0.26279742,-0.21520703,-0.087749064,0.024470722,-0.20358573,0.069228426,0.05275507,-0.2636857,0.13050379
0.04532367,-0.18168898,-0.1933143,-0.4132135,0.07364703,0.0024910886,0.24340512,0.19387002,-0.4665617,-0.016596666
0.24621914,-0.28247932,-0.06337033,-0.2572149,-0.18663664,-0.023136804,0.30915952,0.25735357,-0.5409549,-0.5717201
0.40161303,-0.10749056,0.3279123,-0.18870835,-0.40825558,-0.16224825,0.20725918,-0.15459196,-0.47583014,-1.3577956
0.1455181,-0.17533106,0.5137391,-0.4380948,-0.26913208,-0.81866163,-0.005152232,-0.56416315,0.19983317,-0.8383124
-0.82030654,0.08371794,1.0463521,-0.4009004,-0.73222554,-0.7804982,-0.80544794,-0.70922256,-0.576281,-0.42831555
-0.29030976,-0.1347837,0.35366863,-0.20641463,-0.37249646,-0.3126514,-0.3806388,-0.23935956,-0.37825388,-0.1859874
-0.18494217,0.0070507564,-0.1794471,-0.31229836,-0.38914603,0.20725882,-0.23242268,0.075528905,-0.30302837,-0.23770739
-0.15535653,-0.07335391,-0.21622154,0.24189527,0.12360241,-0.21976097,-0.076518536,-0.098295614,-0.22532703,-0.07394968
-0.5659097,0.23831661,-0.382571,0.38801926,0.45284033,-0.63282937,-0.2651031,0.2636037,-0.68752795,-0.8946586
-0.55841374,0.3660982,0.122111075,-0.0010976028,0.19330288,-0.1114654,-0.98890454,0.212455,-0.36403373,-0.018099973
0.07079247,0.26684114,0.10931727,-0.14205754,0.24845429,-0.2402133,-1.1706613,-0.0136881005,-0.72165436,0.11572655
0.2583308,-0.76105726,0.2977292,-0.13162991,0.15608314,-0.34280434,-0.047847766,-0.050272763,-0.503546,0.039239746
-0.0089274775,-0.8446459,0.22100507,-0.18641375,0.14770342,-0.13725851,0.10631485,-0.07316399,-0.3279827,0.015600757
0.28204802,-0.14643587,-0.08761589,-0.373085,0.19874004,-0.34844533,0.13810273,-0.1197625,-0.30060938,-0.045204658
0.28377452,0.089956865,-0.09887644,-0.35785723,0.31226325,-0.026804643,0.115977414,-0.3361737,-0.29304072,0.05793943
0.23452316,-0.30833066,-0.0068996157,-0.3415995,0.24722242,0.086078465,0.15669622,-0.38051647,-0.11730333,-0.12918817
0.17615657,-0.50343925,-0.07592972,-0.190445,0.23565684,0.08012942,0.20241621,-0.25810692,-0.12808873,0.013310686
0.046621013,-0.14575906,0.007292887,-0.07039001,0.3136571,0.060564455,0.3258675,-0.63265914,0.006704451,0.07201586
-0.005546469,0.06507356,-0.077993825,0.0727166,0.12566073,0.116070166,0.17253488,-0.6579201,0.14486818,-0.124996945
-0.64391065,0.4129169,0.13343985,0.035570692,-0.20210755,-0.07895261,0.02879931,-0.3801225,0.3132336,-0.14589517
-1.0632101,0.5443371,-0.0015547475,0.10314095,0.03395194,-0.30608842,0.19304857,-0.36710164,0.27188513,-0.20055446
-0.72571933,0.1958388,-0.045100763,0.08596343,0.2568042,-0.30341318,0.04082161,-0.10227114,0.08163918,0.07099331
-0.5657721,0.12904257,-0.05431274,-0.1346184,0.51505506,-0.23036802,-0.11511357,-0.11537714,-0.1274349,0.31717354
-0.29959965,-0.37987605,-0.13611226,-0.08726027,0.27360934,-0.22839566,-0.04892475,0.42994624,-0.17228697,0.20249161
-0.10641682,-0.64660645,-0.17115499,-0.14368455,0.12994638,0.10146074,-0.10513577,0.40107557,-0.120234355,0.03521681
-0.17003101,-0.91554123,-0.043247454,0.057482067,0.11974972,-0.08429615,-0.03429766,0.2501961,-0.19692905,-0.025186736
0.1335529,-0.7627396,-0.21501125,0.16444112,-0.070185974,-0.113002986,0.064593725,0.36386552,-0.36213693,0.041961282
0.10518816,-0.36546725,-0.048293352,0.1222528,-0.13664316,0.0015590532,0.16210805,0.37070742,-0.2956933,-0.051396266
0.044704452,-0.52816975,-0.2931387,0.17714767,0.15601987,-0.13594747,-0.054590683,0.28335366,-0.3117769,-0.21757683
0.21968555,-0.6710219,-0.16095142,0.3392445,-0.15332071,0.098701425,0.041207105,0.16915314,-0.3416636,-0.47923625
0.347392,-0.39570138,0.37099248,0.3044594,-0.79342675,0.20026068,0.08352487,-0.35018674,-0.51058656,-1.2928569
-0.096287236,-0.46812895,0.600127,-1.2797108,-0.5847076,-0.38032752,0.23269616,-0.90734726,-0.07627946,-0.9594837
-0.7300193,-0.37527582,0.9608482,0.12823676,-0.030758593,-0.8488125,-0.802303,-0.54145503,-0.9110223,-0.28361607
-0.43910962,-0.33281663,0.57747644,-0.38343582,-0.23886167,-0.4807375,-0.572307,-0.2826332,-0.49514458,-0.33389592
-0.1358287,-0.052268155,-0.07710078,-0.15746588,-0.13206013,-0.22393696,-0.057709016,0.24193098,-0.29488474,-0.14657803
-0.1281696,0.31002244,-0.3018611,0.35909683,-0.14431117,-0.4312142,-0.10324608,-0.1866098,-0.29311123,-0.24786812
-0.45393512,0.38870937,-0.10224322,0.41052285,-0.19357744,-0.6569723,-0.3914361,-0.25128895,-0.52047735,-0.88669664
-0.37371823,-0.2715825,0.56134355,0.12330124,-0.41441733,-0.011128102,-0.74785084,-0.27117956,-0.121686116,-0.23437662
0.1541779,-0.020929707,0.33384874,0.24026501,-0.38059914,-0.24350381,-0.6662275,0.036865655,-0.58293325,0.13297774
0.29876283,-0.48179665,0.33433652,0.06147,-0.1923155,-0.22984718,-0.004404382,-0.15045704,-0.38863966,-0.059958104
0.1251565,-0.54401934,0.26658767,-0.26070148,-0.017102672,-0.14262733,0.25798813,0.0424868,-0.15422124,-0.20394626
0.1634597,-0.40227225,0.016872222,-0.31360337,0.32751662,-0.5564854,0.20695497,0.07078906,-0.10520883,-0.06879806
0.31395584,-0.20980094,-0.24475402,-0.5070677,0.27984247,-0.33248463,0.2781821,-0.1311517,-0.018367734,0.0910881
0.22145227,-0.06246024,0.13382393,-0.1768076,0.21161723,-0.33478072,0.2903662,-0.20005512,0.05802213,-0.12684287
0.20800722,-0.20384794,0.17034093,-0.14570004,-0.023288969,-0.17137341,0.30180967,-0.42683175,0.023767551,0.059812587
0.09703568,-0.18577985,0.15105417,-0.06648897,-0.07789126,-0.12482609,0.62373173,-0.75334793,0.010563632,0.04008687
-0.32851347,-0.12280844,0.21114476,-0.033872116,-0.021557784,-0.11663067,-0.013114263,-0.28590673,0.23181927,-0.13167597
-0.9339259,0.3361571,0.33194846,0.20344631,-0.025724666,-0.18509245,0.010556648,-0.15488297,0.19803196,-0.23816033
-0.7555089,0.59000766,0.14458743,-0.015288805,0.26311877,-0.28724587,0.05044983,-0.26214716,0.074562065,-0.12458023
-0.36074528,-0.06460999,-0.037559487,-0.28392318,0.43857974,-0.20383336,0.03793512,0.017809339,-0.007397255,0.030552292
-0.2466436,-0.15657806,0.07274703,-0.22129048,0.378031,-0.26870668,-0.14319986,0.0060636387,0.058452405,0.16494411
-0.08761727,-0.8646467,0.13127893,-0.13857107,0.27377483,-0.15464745,-0.19788635,0.2945318,-0.0578967,0.18990932
0.011905036,-0.7352188,0.015897349,0.2015909,0.10692513,-0.10679513,0.003798219,0.19105932,-0.23415855,0.105243295
0.075008586,-0.74682665,-0.025790209,0.18431962,0.13818122,0.0063495734,0.11035815,0.262929,-0.37717688,-0.1529907
0.15060021,-0.4512612,-0.085536316,0.14246525,0.23675334,0.0797393,-0.004184622,0.2145766,-0.31858957,-0.07584657
0.15118992,-0.2883762,0.16356522,0.08456721,0.14073718,0.02767814,0.0076145544,0.15822636,-0.37067032,-0.3136049
0.07054302,-0.44921273,0.17662413,0.25527236,-0.029341785,0.090351574,-0.079180524,-0.043702353,-0.36665073,-0.01748646
0.1472091,-0.66983587,0.09708244,0.37732604,-0.26602772,0.12978747,-0.10501542,-0.27381748,-0.08927672,-0.5677413
0.04386754,-0.0940052,0.39075014,0.59656864,-0.5759348,0.006474704,0.008928071,-0.4267109,-0.23891903,-1.1226033
-0.4660246,-0.6306428,0.971724,-1.122858,-0.5290061,-0.47596413,0.06935539,-1.1308023,-0.5627337,-1.1268725
-0.81878513,-0.3257331,1.0702395,-0.88999903,-0.44197565,-0.943345,-0.9970563,-0.7539532,-1.0350387,-0.6680258
-0.051805016,-0.5217912,0.6226934,-0.3999426,-0.4063986,-0.31788963,-0.66708,-0.2753393,-0.25444332,-0.4770106
0.07351079,0.020641975,0.050728492,-0.024790522,-0.052338675,0.043686427,0.070321895,0.022295684,-0.049589396,0.063111074
-0.17216122,0.19406882,-0.38202694,0.4785008,0.017457275,-0.22611381,-0.03291336,-0.14005104,-0.4777776,-0.22211954
-0.43900913,0.14742444,0.21760839,0.17479746,-0.04763146,-0.89787483,-0.3715388,-0.27492365,-0.48866966,-0.59312564
-0.27168986,-0.48588616,0.39125374,0.41915363,-0.7114477,0.17945328,-0.60184264,-0.38953057,-0.36784548,-0.36313206
0.100323975,-0.09196714,0.26885834,0.43150884,-0.35476246,-0.04226284,-0.7539026,0.079360805,-0.33895662,-0.39381337
0.059741937,-0.6570794,0.21490045,0.11631244,-0.21302557,0.22075628,-0.054509398,-0.03880744,-0.4016023,-0.2386826
0.14386557,-0.6709811,0.2468157,-0.07692647,-0.17960164,0.18202023,-0.02968644,-0.25134644,-0.18635698,-0.23905845
0.06638431,-0.4239343,0.05045503,-0.16950275,0.14451101,-0.20968907,0.14632757,-0.15537992,0.1111949,0.036844242
0.051507305,-0.15377605,0.039762355,-0.30254784,0.12485568,-0.40562704,0.24040067,-0.17443176,0.06478477,-0.024691707
0.32224977,-0.23204091,0.055047736,-0.5213621,0.13559347,-0.4244076,0.26684856,-0.24878536,0.12338968,-0.07313161
0.3526727,-0.066133186,0.2237082,-0.63724154,-0.15290822,-0.37093195,0.46998596,-0.52088547,0.08110972,0.0009979123
0.108410925,-0.2856687,0.3120062,-0.4430391,-0.10150294,-0.3073399,0.53893787,-0.28953332,0.24144626,-0.030429045
-0.25655723,-0.061876517,0.275707,-0.30910864,-0.0027149285,-0.53565514,0.11627548,-0.13350451,0.25234792,0.008674261
-0.8071537,0.3482555,0.19253516,-0.30613637,0.21704796,-0.5146818,-0.024368156,0.04634245,0.05842774,-0.14404441
-0.67028,0.4943709,0.062742814,-0.3802706,0.40162602,-0.33010837,0.13169506,0.043449923,-0.016161947,-0.024648339
-0.36374423,-0.045189343,0.008684437,-0.28226912,0.37540898,-0.046950545,-0.04196364,0.11594792,-0.083126955,0.14153035
-0.14086898,-0.42492658,-0.0018809128,-0.038937546,0.32608226,-0.0064241365,-0.10570916,-0.10207106,0.0204742,0.08786801
0.0139182275,-0.6659189,-0.06150366,0.15375593,0.15498097,0.13041224,-0.017020168,0.014658064,-0.13631444,0.009426429
-0.08263043,-0.3600086,0.045127008,0.07422586,0.13818939,0.102175966,0.095270164,0.025091521,-0.34502423,-0.05352186
-0.0011732478,-0.28730726,-0.021140356,0.25175986,-0.14881597,0.013534832,0.051180605,-0.07189357,-0.24127282,-0.15355726
0.08566176,-0.13179617,-0.026463479,0.0467396,0.04526762,0.06656955,-0.018869027,0.09243129,-0.14444584,-0.17546976
-0.063355245,-0.0826624,0.1073735,0.091101445,0.09517881,0.043853186,0.05566212,-0.03831925,-0.1592083,-0.1935038
0.1654636,-0.008717515,0.11883934,0.18020022,-0.13666853,0.011600651,0.121683,-0.05506767,-0.15755148,-0.28187856
-0.07732611,-0.22460957,-0.02055687,0.26977608,-0.1756681,0.121455215,-0.052234635,-0.18257569,0.0064280457,-0.6436304
-0.0565396,-0.11002712,0.30073103,-0.19211556,-0.547457,0.025610562,-0.009827199,-0.016341766,0.16049871,-1.0576092
-0.24068539,-0.5385487,1.0352843,-1.1676061,-0.82762444,-0.70648366,0.13413668,0.17561795,-1.2161369,-1.0370013
-0.67439103,-0.122802444,0.6793311,-0.9573764,-0.58388144,-0.98603296,-0.80375624,0.19617155,-0.9826214,-0.684875
0.13796741,-0.45022717,0.82320404,-0.42904824,-0.2596641,-0.52622205,-0.7931066,-0.386977,-0.58210933,-0.53425145
-0.24202828,-0.24388821,-0.29523942,-0.4902515,-0.4020593,-0.41451868,-0.11899122,0.23530348,-0.27069294,0.0885912
-0.16055447,0.3063239,-0.24254097,0.24115755,-0.08978008,-0.34800804,0.032084312,0.018782659,-0.40364447,-0.3358949
-0.57740235,-0.33095676,-0.17906927,0.21528995,-0.008691091,-0.51685244,-0.36835676,0.36900124,-0.83170426,-0.5567533
-0.67001456,-0.66224843,0.045561742,0.7070871,-0.42442966,0.08804841,-0.33157972,-0.17445742,-1.1419657,-0.6727031
-0.1599712,-1.1143188,0.29963887,0.17102946,-0.24412555,0.23134567,-0.65367323,0.07518365,-0.3565872,-0.6300215
-0.059436813,-1.1379201,0.2990518,0.14428245,-0.2181909,0.22451971,-0.3655004,0.0033834295,-0.15988243,-0.50234294
-0.022637343,-1.1272311,0.15481977,0.07229351,-0.2279495,0.43407124,-0.12474798,-0.4587849,-0.18833996,-0.13790917
0.12926398,-0.42831776,0.28528044,-0.14900543,-0.016276151,0.112743996,0.08679913,-0.47886482,-0.095039085,-0.16292153
0.20904589,-0.12225961,0.0148144085,-0.18796188,0.027432416,-0.120253555,0.09565479,-0.3601012,0.05297354,-0.22027735
0.2461869,-0.052520085,0.0015009874,-0.45974118,-0.044954155,-0.24229611,0.22469054,-0.35247567,0.21179533,-0.11743369
0.29493627,-0.3002761,0.13835132,-0.44983765,-0.30175963,-0.22831377,0.18805705,-0.42999285,0.18647072,0.17200656
0.13065346,-0.22873943,0.14091794,-0.4458381,-0.14384209,-0.14812486,0.22622216,-0.18352363,0.22196652,0.052557427
-0.3124161,-0.072902955,0.3319172,-0.4752131,0.16089939,-0.19588849,0.46614847,-0.16357051,0.1390618,-0.30978534
-0.5686433,0.21800861,0.17297083,-0.41560236,0.23848745,-0.041812606,0.25571567,0.015507732,0.06790586,-0.21531248
-0.55180454,0.118022814,0.08889594,-0.3360896,0.30386803,-0.049008597,-3.013869e-05,0.030048471,-0.16692756,0.06819046
-0.18811227,-0.17931846,0.00044594804,0.11676933,0.24841352,0.04691543,-0.035559762,-0.061242074,-0.044902913,0.15998769
-0.046113964,-0.50015914,0.1073978,0.24989876,0.17883013,0.105227165,0.17710556,-0.101082236,-0.08714,-0.053460527
-0.07446908,-0.2965357,0.18973361,0.17493218,-0.1327615,0.07499375,0.19347674,-0.10416978,-0.23415093,-0.023677316
-0.06934698,-0.046753988,0.09431618,0.12247613,-0.041705474,0.01854373,0.15968855,-0.06854683,-0.04908261,-0.13813436
-0.05736656,-0.046929657,0.048393536,0.13992548,-0.14175133,-0.009326043,0.031036323,-0.06601302,-0.07250777,-0.102340594
-0.0840287,0.10668052,-0.049392793,0.033817053,0.04697128,0.05137947,-0.028477607,-0.12696066,-0.025705798,0.008847677
-0.10690837,0.036349583,0.111766055,0.26788166,-0.019219033,0.052310146,0.023875535,-0.052660402,-0.26591676,-0.19222434
0.16881897,-0.14618902,0.12494043,0.27067325,-0.49270836,-0.011691576,-0.09586367,-0.2670178,-0.15549856,-0.46837333
0.0047920397,-0.3321959,0.27365324,0.118454546,-0.2552556,0.060311317,-0.01204624,-0.5861245,0.07188236,-0.6836373
-0.15687083,-0.13993032,0.5170291,-0.5423876,-0.500699,0.17503768,-0.05690803,-0.5457343,-0.16509673,-0.984214
-0.33504093,-0.17030644,0.8861492,-1.3789619,-0.992225,-0.56187546,0.24837324,-0.21222249,-1.1763589,-0.6926527
-0.3475527,0.13685757,0.17550771,-0.6802753,-0.43963826,-0.7900607,-0.43844676,0.3493112,-0.98985237,-0.59062487
-0.30719116,0.19907047,0.5383288,-0.39093137,-0.24931723,-0.35856274,-0.52212524,-0.4893018,-0.2900449,-0.48252648
-0.058687087,0.30266586,-0.22052957,-0.18734871,0.054232087,-0.03105746,-0.08549536,0.020276887,-0.1638769,0.025291694
0.32242504,0.2935966,-0.28193676,-0.008120317,-0.37853843,-0.4173108,-0.2066976,0.38294563,-0.49106115,-0.44129014
-0.1599968,-0.059397858,-0.18369108,-0.31557384,-0.1682866,0.17166503,-0.44657364,0.4821896,-0.92234546,-0.9317156
-0.34132922,-0.48108006,-0.27737954,0.50374854,0.0039124023,0.064841606,-0.40304413,-0.26728278,-0.8362825,-0.5953727
-0.1211952,-0.957318,0.15511435,0.18664159,-0.14445174,0.2808812,-0.25963786,-0.009543616,-0.3727151,-0.6451381
-0.041540556,-1.3744687,0.088021174,0.3699313,0.015709044,0.14363128,-0.32798588,-0.2160485,0.07202674,-0.36276937
-0.0032641424,-0.4745139,-0.0044106743,0.034818213,-0.13129218,0.14555755,-0.09859531,-0.47697872,-0.014175908,-0.20892288
0.13061874,-0.001386662,0.24975845,-0.08542536,-0.21506552,0.11688396,-0.072024055,-0.597789,-0.0936331,0.011794923
0.18768969,-0.11036679,0.18715774,-0.06391661,-0.34291306,0.22273424,-0.06187322,-0.22812203,-0.0484882,-0.20816778
0.030715587,0.043794118,0.18079507,-0.106430575,-0.4785448,0.038895484,0.15222389,-0.33362854,0.13903318,-0.36213607
0.2026836,-0.1064607,0.18562925,-0.16045806,-0.4881645,-0.0659319,0.31964272,-0.49801847,0.075463355,-0.25673953
0.24530007,-0.09172405,0.17683111,-0.25652352,-0.21143505,0.027602963,0.5113722,-0.19341047,-0.0629398,-0.29149526
0.15545805,-0.10807413,0.24341346,-0.2988972,-0.37547764,-4.9381575e-05,0.49075183,-0.12930205,-0.0059579033,-0.28679183
-0.1303274,0.10748188,0.2917345,-0.069716886,-0.13842578,0.047165412,0.24835907,-0.073961325,-0.1755568,-0.22895718
-0.2061348,-0.06479561,0.11539857,-0.04635283,0.13978817,-0.055340197,0.25606072,0.016054064,-0.19607988,-0.15360448
-0.18862182,-0.021691686,0.17214164,0.06572524,0.061810803,0.057071712,0.24338216,-0.10904562,-0.07521477,-0.18722427
-0.13280818,0.08161332,0.17440772,0.21649864,-0.024932927,-0.11356001,0.1759664,-0.35323212,-0.07059082,-0.14671563
0.008861113,-0.10393989,0.21366103,0.21521825,-0.11585634,-0.020029554,0.13737476,-0.27425668,0.013114508,-0.19220814
0.015957355,0.08729037,0.084172696,0.23219274,-0.16043502,0.0008470233,0.091975644,-0.4176709,0.008869108,-0.1691976
-0.18211706,0.22597574,-0.06620277,0.14104773,-0.16622366,0.036994353,-0.009413111,-0.13929553,0.06040212,-0.0010974302
0.020370102,0.12274914,0.09554878,0.030648937,-0.23889484,0.12945256,0.063285515,-0.24247418,-0.029227711,0.009446988
0.035590075,-0.04283276,0.1931513,0.20110632,-0.08241772,0.07847848,0.039374247,-0.4654992,-0.01800371,-0.31252235
0.16868852,-0.17139721,0.23938443,0.05054806,-0.67382777,0.05092564,0.0803442,-0.5363572,0.17522885,-0.5380807
-0.08586397,-0.029013375,0.26647434,0.020526767,-0.6985396,0.14992334,0.045741357,-0.95692945,0.2242722,-0.3837797
-0.049133394,0.05327873,0.110765226,-0.24194472,-0.6707361,0.3056849,-0.24509805,-0.22325766,-0.23589563,-0.40219006
-0.58171844,0.27707952,0.9007989,-1.7974935,-0.75431865,-0.19654396,-0.40514058,-0.5156413,-1.1257375,-0.3885759
-0.56872773,0.13536468,0.59399384,-0.9332864,-0.26710185,-0.61078566,-0.6621393,-0.18032204,-0.8189073,-0.29830968
-0.31545207,0.29361612,0.38036528,-0.37204543,-0.12623377,-0.23166484,-0.42063788,-0.30517486,-0.38174388,-0.2997965
-0.015812121,-0.0578138,0.038916104,-0.016873576,0.028194688,-0.042936254,0.01592207,0.021970212,-0.0053929016,-0.0738596
0.18024842,-0.24519001,-0.37099236,-0.10690311,-0.27269223,-0.39637664,-0.277262,0.08183576,-0.26683298,-0.24493983
-0.25960416,-0.4963595,0.064688995,-0.3758197,0.037681088,0.24045421,-0.3282311,-0.3034888,-0.9826197,-0.62033165
-0.20717011,-0.20512758,-0.09048399,0.43570158,-0.13231507,0.075614475,-0.85819095,-0.84582376,-0.7315955,-0.8731937
0.015097216,-0.4746617,0.19925691,0.19979689,-0.18006903,-0.028672824,-0.4222205,-0.9162383,-0.3015559,-0.24379268
-0.0017377564,-0.74974334,0.060321487,0.21749239,-0.49010494,0.18059215,-0.4174805,-0.587871,-0.13520287,-0.0336575
0.04980381,-0.15953621,0.14773746,0.2803012,-0.28478414,0.09666753,-0.34328252,-0.7769145,-0.06995494,-0.23003985
0.024487484,0.0071858247,0.32046965,0.14808619,-0.47981313,-0.075867705,-0.0004931517,-0.5419888,0.14313303,-0.3848575
0.039279394,0.121656634,0.19764012,0.15392445,-0.6164567,0.1572821,-0.077992916,-0.2265073,0.0077213403,-0.28834552
0.13910852,0.027527373,0.20888494,0.18291618,-0.487393,0.16990608,0.1734298,-0.36388302,-0.10403751,-0.50779885
0.28266206,0.15255556,0.1352349,-0.15549886,-0.5654949,-0.049930543,0.26317868,-0.3277801,-0.019945519,-0.57743454
0.39294463,0.14034177,0.27610168,-0.23423624,-0.23872195,0.096923195,0.3549665,-0.2686879,-0.21688622,-0.60442317
0.3619165,0.022177115,0.11987051,-0.33854046,-0.22737958,0.08495615,0.43148336,-0.008455184,-0.03441367,-0.5045872
0.15480916,-0.07121024,0.10857967,-0.097535715,-0.25364146,0.047060065,0.28018525,0.00740179,0.021835005,-0.23571429
-0.06411585,-0.10266234,-0.029983,0.0050700726,-0.044592325,-0.09656734,0.47133443,0.01318472,-0.20192198,-0.295523
-0.06420654,-0.025465373,0.093823396,0.022104241,0.05423248,-0.01903952,0.31477624,-0.21457835,0.02097783,-0.23188414
-0.05537384,0.28258333,0.06728696,0.0792651,0.07024793,0.10154963,0.086505495,-0.27883995,-0.16805567,-0.12221995
-0.03421678,0.29125106,-0.07081798,0.23540258,0.061066814,0.1850181,0.11401013,-0.46404135,-0.0113995755,-0.1780936
-0.19630942,0.41312733,0.14471747,0.20000677,-0.09584457,0.102186,0.20667681,-0.5689362,-0.07152535,-0.24698755
-0.14608936,0.33388385,0.17550999,0.05377685,-0.26696983,0.09871739,-0.033653103,-0.53727233,-0.042815346,-0.08316163
-0.113764554,0.055977277,0.19563158,0.224205,-0.2978044,0.0021127656,0.120777965,-0.68307835,0.03597692,-0.2813906
-0.05650529,-0.011274079,0.16311009,0.016240016,-0.11758822,0.032699768,-0.022740643,-0.5778767,0.07688723,-0.44940948
0.047772355,-0.067918226,0.18013974,-0.07299923,-0.3706497,0.36518613,-0.09747617,-0.7186488,0.18030258,-0.3735818
-0.25659022,-0.19351836,0.07649532,0.13054611,-0.52989936,0.13168067,-0.088100806,-0.7549017,0.15844859,-0.2399331
-0.24393798,0.10702527,0.31158644,-0.16714881,-0.43165666,-0.083815075,-0.30474582,-0.20719196,-0.16773804,0.20922443
-0.8310547,0.22159809,0.4356296,-1.642791,-0.62368214,0.121352494,-0.26999718,-0.4005368,-1.0199574,0.1275516
-0.35800058,0.29323903,0.16106442,0.061746217,-0.49841753,-0.62385464,-0.28938165,-0.30567712,-0.67437094,-0.39618292
-0.05976521,0.17761958,-0.28691503,-0.09987216,-0.24838862,0.1760007,0.0016009323,-0.053105574,-0.3541525,-0.017373309
0.036178578,0.31266305,-0.16268925,-0.2033449,-0.09869094,-0.074958906,-0.049559265,-0.055048246,-0.30732587,0.005764313
-0.07001602,0.0763309,0.153382,0.16327678,-0.00034326906,-0.41730323,-0.013610829,-0.39132258,-0.39740032,-0.31860077
-0.30099446,-0.29376423,0.14262176,0.17240624,-0.09545234,-0.6868211,-0.27528718,-0.46132287,-0.7658583,-0.6613585
-0.1982806,0.19207436,0.08368423,0.30230877,-0.40551284,-0.01715686,-0.5236035,-1.144367,-0.76825213,-0.78285676
-0.130339,0.32876655,-0.0017342938,0.19200735,-0.4384591,0.14087659,-0.74078864,-0.70247334,-0.2190829,-0.36083144
0.028815102,0.3622376,0.010186046,-0.07189863,-0.29532892,0.056166705,-0.6438377,-0.48710382,-0.12115413,-0.05090753
-0.036931403,0.24036495,0.11000504,0.22093059,-0.70300275,0.004861785,-0.50249195,-0.49734193,0.1814558,-0.13222529
-0.033943478,0.11050203,0.06944708,0.09903656,-0.7034148,0.07047215,-0.116490595,-0.47944602,0.19094422,-0.2186352
-0.064851336,0.09613394,-0.07308003,0.045920253,-0.1041299,0.12619379,0.06712002,-0.22858961,0.008175962,-0.21610561
-0.057953753,0.07212379,0.14559239,-0.22182639,-0.206537,0.06709233,0.068982095,-0.22137067,0.05092788,-0.18636063
0.15370797,0.15402578,0.12542509,-0.06399696,-0.1980211,0.05055971,0.18494728,-0.11931956,-0.080353804,-0.27300498
0.24343863,-0.015170928,0.15297776,-0.12461909,-0.13689975,0.11166737,0.2759088,-0.10956693,-0.08379979,-0.3025226
0.29853246,-0.17538275,0.04686607,-0.10730335,-0.26356772,0.06822068,0.53025913,-0.1161139,-0.0831095,-0.27481124
0.115678035,-0.16864537,0.035422824,-0.06930868,-0.26909852,0.15559486,0.50932044,-0.12793307,0.050455313,-0.23747636
-0.06892444,0.0717313,0.001493928,-0.117767975,-0.26933488,0.106447786,0.41570756,-0.24390142,0.012331787,-0.29465663
0.053142678,0.09705235,-0.13525997,0.048410513,0.018139431,0.013595031,0.28406793,-0.13824415,-0.066068366,-0.2546881
-0.090423346,0.113172226,0.109869726,0.09002951,-0.1288718,0.02950746,0.24521744,-0.13440144,-0.14823346,-0.1495912
-0.1856435,0.106473796,0.25225234,0.04030145,0.047943436,0.041379746,0.26085302,-0.25957614,0.033397947,-0.27976984
-0.25356686,0.29467824,0.2529412,0.15391372,-0.1578572,-0.007471314,0.2521232,-0.46421295,-0.03760552,-0.27715626
-0.3077185,0.13182418,0.378985,0.18797095,-0.13508715,-0.04210417,0.15146382,-0.49400872,-0.071193404,-0.24570718
-0.21356422,0.2765814,0.09106278,0.009385694,-0.012164371,0.09906589,0.029206593,-0.58393735,0.13431092,-0.21709107
0.035811514,0.35096014,0.120082736,-0.20099713,-0.04814655,0.23126435,-0.13719223,-0.45503685,-0.03898774,-0.24973142
-0.004239502,-0.34866446,0.20433621,-0.07474082,-0.11075128,0.2784101,0.029415961,-0.7381858,0.05288834,-0.31477556
-0.19267063,-0.4112235,0.4631221,-0.26463708,-0.10243665,0.17114784,-0.21283798,-1.0379516,-0.008696577,-0.1801075
-0.42859986,0.1807432,0.22093758,-0.7996631,-0.24999048,0.09937501,-0.32449755,-0.21759185,-0.5609933,0.23912224
-0.58101773,0.19703338,0.40552583,-1.4088554,-0.53575534,0.050198313,-0.25023642,-0.24679321,-0.6689491,-0.10287443
0.342621,-0.0011471655,0.03759564,-0.11822485,-0.36178496,-0.031130532,0.0020780188,-0.23266493,-0.6620818,-0.3001541
0.04108383,0.085073896,-0.114512086,-0.017362624,-0.06625598,-0.031842973,0.008646992,0.07857114,-0.038652394,-0.0347726
0.05420371,0.17120063,-0.19918893,-0.17515022,0.062107846,0.036077708,0.012470124,-0.08797127,-0.15201446,-0.06042327
-0.0018395464,0.14892668,-0.24568923,0.08796207,-0.033703215,-0.13849735,-0.07922211,-0.13684696,-0.22232865,-0.071322195
-0.29236928,-0.18841419,0.14990576,0.2680673,-0.16759184,-0.8970903,0.0090464,-0.6603424,-0.7052058,-0.80704504
-0.43993983,0.053903367,0.1910009,0.34507078,-0.5285041,0.04417996,-0.34198162,-0.87036085,-0.25455946,-0.21873227
-0.6741654,0.24130194,0.15513982,0.10526703,-0.671657,0.1971744,-0.8970682,-0.43175867,-0.06890311,-0.14589208
-0.013618339,0.919344,0.0745384,-0.047871187,-0.7821552,-0.20536295,-0.90637183,-0.04482686,-0.18050414,-0.39475834
-0.008593118,0.33705157,0.17898108,0.051756326,-0.44947082,-0.16386873,-1.3421658,-0.14546452,0.053264424,-0.21967836
-0.03642329,0.043124463,0.25899646,0.07957881,-0.42872426,-0.07340998,-0.21776365,0.13403556,0.030330556,-0.26342487
0.04295833,0.10269316,0.23384778,-0.054534584,-0.28502378,-0.011040525,-0.03842598,-0.05612093,-0.14709722,-0.0064386986
0.12508923,0.08438464,0.3203,-0.02188807,-0.2519354,-0.055687252,0.05615639,-0.1561582,-0.1320992,-0.03092526
0.15071207,-0.09887261,0.114542365,0.04631121,-0.2003895,-0.036780544,0.27350274,-0.10896128,-0.02403426,0.06544563
0.13380526,-0.40648744,0.101419866,0.023954054,-0.1586286,0.06491606,0.048405062,-0.28425598,0.05681096,-0.076261476
0.1288652,-0.48202136,0.040115606,-0.11470063,-0.2376192,0.09361471,0.18653692,-0.05972738,0.006478831,-0.023841517
0.39191088,-0.3602182,0.04642627,-0.04451913,-0.1642918,0.15305252,0.27690336,-0.32697004,0.16664729,-0.11452559
0.05723703,-0.10116561,-0.006032463,-0.10432261,-0.2440184,0.17783989,0.06680559,-0.06785922,0.09424293,-0.040670015
0.1557152,-0.037729062,-0.07279639,0.034758583,-0.18102026,0.067265764,0.27254725,-0.079658724,0.097720854,-0.18475007
-0.018887118,-0.06859765,0.00088477356,0.045755774,-0.17485826,0.114846,0.15749864,-0.050865076,-0.0934637,-0.18026029
-0.006530842,0.24449727,0.008278041,0.1521415,-0.010187469,0.10310342,0.056710932,-0.23677458,-0.011045367,-0.19808632
-0.124819316,0.29864067,0.22900502,0.06256166,-0.010556896,0.1754093,-0.06220713,-0.36218023,0.0029630747,-0.2529606
-0.09956262,0.2821745,0.13685125,0.09179722,0.17579456,0.076984994,-0.049111117,-0.23068827,-0.1041295,-0.4443052
-0.14894406,0.35382956,0.18800904,0.04691813,-0.0672685,0.07603635,0.0012365634,-0.48420683,-0.19688833,-0.17815953
-0.11370497,0.008282588,0.107412025,-0.081052616,0.28949636,-0.010523563,0.11137737,-0.6533001,0.08416968,-0.11641987
0.12745698,-0.4047494,0.23506266,0.05176101,-0.0042946534,0.0948386,-0.4234177,-0.8018863,-0.05843156,-0.1351217
-0.060759112,-0.16362587,0.031595413,-0.113985054,-0.008320174,0.30434424,-0.7174957,-1.2011809,-0.06287365,0.096937634
-0.33834106,0.21978076,0.28394216,-0.95155317,-0.17696579,0.27019548,-0.683976,-0.45267525,-0.34216145,0.3521429
-0.2950895,0.16812968,0.16432393,-0.4119296,-0.41795224,0.043143727,-0.7291961,-0.2399543,-0.4855972,0.05305068
0.23888402,0.35981637,-0.28158593,0.10022938,0.16923514,0.26006106,0.208856,-0.47628465,-0.5151924,-0.62371063
0.14253047,-0.038731642,-0.05814458,-0.04050102,0.015906647,-0.07420254,-0.08308091,0.052537322,-0.16398026,-0.08543513
-0.07483521,0.07145511,-0.075794995,-0.052912667,-0.08486537,-0.020588465,-0.0275295,0.0828756,0.06576375,-0.03360987
-0.06528294,-0.076608054,0.018162772,-0.04472275,0.040954538,0.056648858,-0.013770305,0.08231319,0.056690224,0.07082852
-0.29113406,-0.39624888,-0.10739393,0.5422735,-0.29175332,-0.108812094,-0.06394396,-0.53292584,-0.48161128,-0.5718617
-0.64947957,-0.47114316,-0.27694827,0.8314476,-0.30743036,0.25476536,-0.29761216,-0.69454366,-0.18404655,-0.067650884
-0.743978,-0.43740502,0.08117517,0.3968053,-0.7842116,0.3373367,-0.5566492,0.043687314,-0.18236817,-0.5950548
-0.31944954,0.39721695,-0.013210765,0.187235,-0.6491128,0.1803068,-1.0918393,0.10024777,-0.31121573,-0.37891504
-0.087699614,0.30582196,0.052058104,0.26973066,0.03848484,-0.11633069,-1.1527823,0.27520016,-0.2968089,-0.34375384
0.046685863,-0.008466359,0.12920988,0.17655426,-0.056713577,-0.20164695,-0.88533676,0.28004736,-0.20483644,-0.19200872
0.069187984,-0.10931836,0.090934165,0.017744951,-0.051017314,0.09071111,-0.465805,-0.32653153,0.17736687,-0.022684084
0.1794869,-0.010092347,0.16995852,0.16285166,0.027476251,0.15432562,-0.27622768,-0.16171533,-0.0083518885,-0.20675582
0.32235348,-0.22834565,-0.07455105,0.14670324,-0.080043875,0.16998234,-0.48698762,-0.21543372,-0.03636313,-0.10270791
0.24854445,-0.1815495,0.10295028,0.10255541,0.0041514924,0.0842695,-0.3411508,-0.2655063,-0.015840054,-0.07029766
0.30720186,0.05574856,0.10458635,-0.011609475,-0.20640273,0.16310851,-0.16883352,-0.30165988,0.19438894,-0.16367488
0.18102428,-0.15210383,-0.08452738,0.013590424,-0.09173317,-0.041253712,-0.016520655,-0.216155,0.3334201,-0.07535498
0.24097072,-0.189594,-0.0228281,0.015729126,-0.09900554,0.1296045,-0.034848545,-0.051288083,0.12920429,-0.027313784
0.10075418,0.09227141,-0.08432012,0.025153216,-0.057994165,0.08962282,-0.021234972,0.0075874943,0.21368408,-0.18112536
0.022763142,0.087469906,0.0144415805,-0.18379644,0.05512574,0.07330438,-0.14349748,-0.17166987,0.20207095,-0.15895836
0.014522977,0.24188408,-0.07646468,0.032034945,-0.0060581695,0.010911411,-0.16759624,-0.20211773,0.039835252,-0.21173558
-0.30478698,0.03263082,0.2605793,0.2673924,0.10207806,-0.20472421,0.022635572,-0.37603098,0.07846016,-0.18972918
-0.36031795,0.022081878,0.40124056,0.09943543,0.11355331,-0.11672672,0.15369423,-0.53565574,0.12539868,-0.105775975
-0.50254065,-0.13186526,0.23634115,-0.029708233,0.028919056,0.09035383,0.15927789,-0.6923266,0.08379271,-0.051748864
-0.22062579,-0.38678908,0.31797266,-0.18763019,0.18657488,-0.04742369,-0.19906189,-0.82231253,0.031569395,0.119554825
-0.1103492,-0.4590285,0.39166343,-0.3527665,-0.30661452,-0.08815531,-0.30099732,-0.65455467,0.07008127,0.24011362
-0.43205145,-0.8511831,0.3313876,-0.53016806,-0.3751811,0.26898316,-0.85105944,-1.0363883,0.30716226,0.31577432
-0.53609806,-0.4670042,0.37974194,-0.2986386,-0.42280543,0.14632796,-0.8115725,-0.54504657,-0.40086937,0.2588512
-0.37761173,0.04695366,0.17332004,-0.28329337,-0.023796951,0.080009945,-0.59937936,-0.3858799,-0.43936315,-0.16259395
-0.24729034,0.36145413,-0.28582072,0.3219353,0.27874961,0.2359629,-0.3487111,-0.36514744,-0.40425152,-0.4297288
-0.03156667,-0.038822133,-0.038602278,-0.084809,-0.08070572,0.010014802,0.039007716,-0.06449616,0.052009292,0.03156136
-0.064721555,-0.0020055696,-0.044710338,-0.0059575513,-0.04636061,0.055832334,-0.05953236,0.01499632,-0.0035821572,0.07084859
-0.07064793,-0.06759623,-0.02521332,0.06746551,-0.08680153,0.053885646,-0.023772791,-0.06882705,0.082816385,0.08561573
-0.3102962,-0.07443296,-0.4401213,0.28061503,-0.14314955,-0.4857978,0.0019255595,-0.23372772,-0.24129806,-0.4615698
-0.34317994,-0.49287277,-0.80493045,0.59397876,-0.37930834,0.25008315,-0.03836728,0.06853988,-0.42642388,-0.9138892
-0.22030203,-0.91289085,-0.5546375,0.67506766,-0.82262224,0.0037122415,-0.27054656,0.17770453,-0.9052621,0.021726191
-0.24412891,-0.20304887,-0.7418976,0.105562694,-0.12322995,0.10679536,-0.5366816,0.5837955,-0.7329431,0.08680848
-0.3609994,-0.06656079,-0.47399715,0.39838874,0.09019079,-0.09397643,-1.1321127,0.45624724,-0.49537402,-0.037044216
-0.4053089,-0.26910394,-0.39303765,0.33772606,-0.05029096,-0.0041114027,-1.0347162,0.20727487,-0.2514445,0.11318692
-0.09014342,-0.2993609,-0.09222323,0.19484717,-0.03276747,0.027015664,-1.2680118,0.08731077,0.07014248,0.018057875
-0.047374677,-0.21853878,-0.16366002,0.12164021,0.018662209,0.2724973,-1.6496058,-0.04088738,0.01908545,-0.15814029
0.05649171,-0.23079579,-0.16414174,0.3146814,-0.07299408,0.13271159,-2.2855387,-0.033940054,-0.007835051,-0.048592474
-0.06707664,-0.31125996,-0.13381608,0.26768285,0.07817715,0.13777688,-1.1814759,-0.085445434,0.22348972,-0.15630922
0.19684054,-0.32977718,0.04691804,0.14622675,-0.13240175,0.17365839,-0.7921879,-0.06914046,0.16858774,-0.21251024
0.18800692,-0.3715294,0.028515253,0.3060714,-0.16813481,0.26327685,-0.74416107,0.052362993,0.13305962,-0.25955975
0.15294744,-0.3840297,0.13593668,0.23950592,-0.066389665,0.24260601,-0.6181541,-0.039413374,0.17869158,-0.3107779
0.050472595,-0.32097393,-0.014321611,0.086696446,-0.17942919,0.2460685,-0.48294035,0.037850246,0.20470248,-0.121977605
-0.14387827,-0.72282827,-0.08598413,0.14955026,0.036596686,0.052146535,-0.19963129,-0.027691972,0.37392253,-0.050982878
-0.09459217,-0.14618874,0.09427093,0.1347963,-0.143878,0.14060293,-0.25314772,-0.11428574,-0.1337389,0.034751434
-0.34053394,0.025701767,0.20510681,-0.16522245,-0.06461241,0.12771022,-0.37510857,-0.2672071,0.23611364,-0.022191754
-0.76260066,0.105300255,0.12815407,-0.25217623,0.055465877,0.003586342,-0.8307068,-0.29466754,0.36622226,0.050957736
-0.81292355,-0.08785283,-0.022970315,-0.13585228,0.041294225,0.06307589,-0.5844756,-0.275916,0.18168366,0.27486843
-0.79400754,-0.16115318,0.35182387,-0.025915893,0.0051788464,-0.03263379,-1.4722426,-0.26193118,-0.13144559,0.23847657
-0.82002085,-0.33139154,-0.034724493,-0.15285043,-0.086065225,0.26200944,-1.1002549,-0.5499759,-0.34962305,0.29334208
-0.91620517,-0.59066737,0.058481928,-0.2997963,0.017685955,0.104178675,-0.8107539,-1.2630242,-0.17771259,0.33457863
-0.5083844,-0.37921444,0.7102578,-0.5011989,-0.58553356,0.16308315,-0.4070844,-0.6103159,-0.6985339,-0.21912639
-0.11295885,0.25811747,0.7041748,-0.33450255,0.15587094,-0.5724288,-0.17742565,-0.429637,-0.8186628,-0.4195465
0.068674505,0.23389076,0.33913592,-0.17458118,-0.26533237,-0.34672666,-0.026441762,0.017609375,-0.36470228,-0.26201546
-0.06776296,-0.046435427,-0.026000954,0.021119468,-0.081654616,0.00018625706,-0.06778528,-0.009227827,-0.05826118,0.034550607
0.057550944,0.060603924,0.011315905,0.020666309,0.02241896,-0.033030387,-0.07740992,-0.06325545,-0.086395435,0.06641211
0.05111123,0.057622917,0.04038308,-0.003966905,0.014846705,0.069551475,0.04190404,-0.0033549815,-0.077017814,0.063745715
-0.17474543,-0.067484535,-0.18829829,0.44113111,-0.18362382,-0.030049562,0.045402095,-0.52528566,-0.34020314,0.19262524
-0.2935676,-0.35830304,-0.46602756,-0.2751179,-0.17767061,0.22433867,-0.124162436,0.26594114,-0.37425694,-0.69933176
-0.5040025,-0.8945172,-0.71370816,-0.21186723,-0.06759229,0.2967192,-0.24411522,0.42392242,-0.9256693,-0.022017024
-0.92260224,-1.1526923,-1.4412786,0.20340922,-0.2485954,-0.08207683,-0.51664704,0.16359307,-1.0363388,0.5698663
-0.85035354,-0.83130246,-0.40103522,0.4366717,-0.44562286,0.037722092,-0.58670235,-0.016871851,-0.29886523,0.31800705
-0.75804734,-1.0805292,-0.6052959,0.629949,-0.511728,-0.09361284,-0.68339556,0.20800607,-0.30614448,0.2547248
-0.7553745,-0.5410373,-1.0513611,0.7286413,-0.6563631,-0.15967439,-0.95147824,0.3132551,-0.46232992,0.22618176
-0.9211372,-0.5896184,-1.177977,0.6623877,-0.3253814,0.15748711,-1.0692418,0.26273513,-0.3178592,0.11866183
-0.96278113,-1.4497811,-0.92612094,0.55698013,-0.17427206,0.083090335,-1.3634741,0.22098784,-0.014960883,0.26006204
-0.84064114,-1.5180954,-0.73810685,0.3814596,-0.27670163,0.21688916,-0.32648084,0.3289939,-0.0600418,0.094590165
-1.0183159,-0.6852428,-0.56305504,0.611878,-0.5776033,0.1468468,-0.18187024,0.27923578,-0.24256395,0.12094764
-0.95080477,-0.7286386,-0.32443675,0.46896583,-0.27556553,0.3028534,-1.2666458,0.15608262,-0.15993792,0.114836626
-1.1234711,-0.6508754,-0.068836085,0.2518298,-0.2494381,-0.03869521,-1.1504838,0.1925875,0.07495879,0.21685618
-1.2343729,-0.96760535,0.022023132,0.08852052,-0.25708455,0.28428558,-1.1123695,0.08917999,0.16451232,0.06311617
-1.1815792,-1.5480396,-0.1745832,0.23259485,-0.48934358,0.26335523,-1.1436843,0.06819638,0.0910706,0.11039569
-1.0763983,-1.6646001,-0.20578311,0.032957565,-0.44476175,0.30529597,-1.7581111,0.12546182,0.12898862,0.15228985
-1.1005484,-1.6081235,-0.43519333,0.053219296,-0.34948567,0.22596648,-1.5419542,0.04586236,0.10749019,0.20044987
-1.363845,-1.3060426,-0.592836,0.35471,-0.60845363,0.13535136,-1.2916632,0.027992023,0.113249965,0.30559823
-0.79762423,-1.0039045,-0.3961713,0.031465527,-0.3372776,0.11994406,-0.80491537,-0.23788323,0.012969252,0.5175207
-0.9294604,-0.701986,-0.43909717,-0.30024323,-0.48099947,0.35754508,-0.71667165,0.047687743,-0.48992187,0.37920427
-0.6398829,-0.52774626,-0.8072769,-0.053705912,-0.22038879,0.6159828,-0.3621303,-0.045559224,-1.0611278,0.056650214
-0.6743323,-0.31618497,-0.6290504,-0.7708164,-0.062372137,0.5896781,-0.50587374,-0.36388728,-0.39163554,-0.01570168
-0.4479364,-0.31212592,-0.30024162,-0.2168082,-0.48223227,0.56316423,-0.25457576,-0.1266034,-0.60224557,-0.28967106
-0.09506631,-0.13910219,0.3367526,-0.047736302,-0.32497224,-0.15056351,-0.08758898,-0.3017117,-0.31655273,-0.15263787
0.06810619,-0.15021731,0.28024483,0.060952127,-0.22404847,-0.10765071,0.013805334,0.032649923,-0.22358865,-0.33142
0.043700658,-0.07985819,-0.035130918,-0.072110385,0.015584409,-0.070239976,0.063881196,-0.029456437,0.0015738308,0.012401946
-0.057552285,-0.018269695,-0.03407541,0.056164317,-0.04286129,0.05055303,-0.019803382,0.060998462,0.022166915,0.031280637
0.014408216,-0.051396783,0.049939655,0.07904915,-0.03020301,0.079468645,-0.033355467,-0.06762731,-0.0820684,-0.007600732
-0.015859768,0.04920215,0.016230091,-0.026727278,0.08214294,-0.0092077255,0.007518843,0.013410158,0.03720264,-0.012749635
0.009745603,-0.2406683,-0.13462056,-0.17991893,-0.21075104,-0.10950489,-0.13372068,-0.2680182,-0.24508202,0.24505663
-0.24429935,-0.51080227,-0.5703818,-0.3833044,-0.058949597,-0.40132964,-0.14858207,-0.6137941,-0.7669935,0.60298944
-0.35323808,-0.84225905,-0.71602637,0.258816,-0.0022739386,-0.5476707,-0.16335537,-0.32604685,-0.69412583,0.5737913
-0.66722697,-0.6195339,-0.74662536,0.07044239,-0.2448756,-0.903358,-0.10508718,-0.22646828,-0.9663823,0.6937818
-0.6774157,-0.5718357,-0.864829,0.04062725,-1.0443765,-0.7744084,-0.16414489,0.033102944,-0.3602533,0.6245996
-1.011155,-1.0222371,-0.8607557,-0.17563273,-0.96550167,-0.79744035,-0.27029404,0.26886973,-0.13473046,0.48231018
-1.036163,-1.1209553,-0.6506617,-0.286432,-1.2890553,-0.51222825,-0.5043837,0.28742152,-0.50625026,0.5716696
-1.2682151,-0.6881958,-1.2561171,-0.094291486,-0.9190114,-0.29900828,-0.61159426,0.21954086,-0.66838664,0.4714239
-1.1966478,-1.0708791,-0.4550613,-0.083620064,-1.2105929,0.20642209,-0.6856204,0.16023554,-0.43337262,0.44619235
-1.2534412,-1.392179,-1.3410668,-0.179525,-1.0525438,0.025057122,-0.8493501,-0.059904482,-0.47599673,0.49409726
-0.7979437,-1.1137537,-1.2822233,0.007437754,-1.3146183,-0.034925994,-0.5628978,0.37696332,-0.4580588,0.49525532
-0.87655,-0.9424894,-1.3699653,-0.09541258,-1.7276374,-0.2559395,-0.6149124,0.24279644,-0.6931836,0.6948518
-1.0310056,-0.59005105,-0.9383291,-0.10221912,-1.2477248,0.079930656,-0.8935788,0.37111583,-1.6433413,0.23446421
-0.9033258,-0.57526124,-0.92678326,0.11925352,-1.3994349,-0.05982125,-0.8871683,0.2601519,-1.4239836,0.32911298
-0.7256308,-1.1756022,-0.7906689,0.07702925,-1.1303009,-0.17656934,-1.000089,0.38021043,-0.65792024,0.42911258
-0.835368,-0.7005877,-0.9938219,-0.007988588,-1.3374127,-0.47960493,-0.97039425,0.40566078,-0.6567678,0.45408738
-0.7680735,-0.7747494,-1.2753092,0.050339572,-1.2889916,-0.24827188,-0.77167577,0.45778462,-1.2340372,0.16487955
-0.49810115,-0.81589085,-1.0025278,0.1057257,-1.154796,-0.0029095577,-0.5886502,-0.0053770267,-1.0452058,0.46175888
-0.63022685,-0.3926262,-0.80410045,-0.14321582,-1.0798672,0.14214993,-0.59957075,0.1027403,-0.66220284,0.28856158
-0.34885302,-0.33982512,-0.66725355,-0.13343385,-0.8826581,0.07862084,-0.47000515,0.33122596,-0.26894724,-0.04779051
-0.32715324,-0.29522783,-0.33856133,-0.47189352,-0.25588608,-0.19732182,-0.37851176,-0.04161668,0.15535574,0.13334592
-0.10986482,-0.06615341,0.050767124,0.012410407,-0.17188793,-0.14817275,-0.068945095,-0.24107932,-0.11748568,0.12998173
0.034968678,-0.0617263,-0.11880064,0.031926908,-0.01143887,-0.08175645,-0.02306463,0.29699603,-0.055520307,-0.24865934
-0.013230465,0.038730092,-0.035043187,-0.029593494,0.04740315,0.070458405,-0.07325137,0.03472221,0.024215862,-0.025466941
0.024736844,-0.0048553497,-0.06874548,-0.009415105,0.03804677,0.060412966,-0.012605093,-0.030784983,0.044809215,0.03383682
0.04359313,0.018978193,-0.0023711026,-0.029379483,0.028863624,0.028857946,0.067211635,-0.012807794,-0.030193333,-0.08272728
0.0630992,0.023680605,-0.049373433,0.060178123,0.051670395,0.048743807,-0.036176894,-0.039075878,0.013948999,0.08463692
0.050937794,-0.04040635,0.039631046,0.066650845,-0.08381322,0.054568388,-0.034539226,-0.03835589,-0.040668987,0.08379645
-0.059732772,-0.065962166,0.03347636,-0.018598624,0.06507193,-0.077036016,0.08158923,-0.006254941,0.019167379,-0.027110785
-0.051280294,-0.11223175,-0.017469557,-0.051991764,-0.09335392,0.017970832,0.021388022,0.264126,-0.14244452,-0.3783875
-0.17291681,-0.12200199,-0.13570203,-0.048339304,-0.11225024,-0.09669868,-0.011458437,0.43648064,-0.090572074,-0.5649926
-0.15977868,-0.04233153,-0.08502397,-0.33303344,-0.384751,-0.3412216,-0.02444971,0.24716608,-0.35194916,0.030024517
-0.2875725,-0.083127886,-0.110832475,-0.49696866,-0.32402334,-0.40857986,-0.12136202,0.06631899,-0.5621396,-0.00420772
-0.39112958,0.01173108,-0.24120802,-0.6066999,-0.44862273,-0.5933698,-0.0007460336,0.16135377,-0.63090897,-0.009136264
-0.29541922,-0.1046039,-0.24846353,-0.6898874,-0.52253395,-0.6399631,-0.06320547,0.13278109,-0.41773927,0.114362314
-0.46526504,-0.27089137,-0.30555874,-0.843887,-0.663079,0.14338645,-0.17614579,0.36628577,-0.42081177,-0.09600155
-0.52949053,-0.3872062,-0.5243565,-0.98241997,-0.548697,0.2374993,-0.050452985,0.23801935,-0.6406898,-0.0869475
-0.5644047,-0.38286078,-0.40259764,-0.94906735,-0.6141268,0.02918154,-0.0969179,0.02592925,-0.5906408,0.018507287
-0.4596753,-0.5025717,-0.5399293,-1.1710079,-1.071258,-0.040749587,-0.093294695,1.0663037,-0.56733084,-0.8400045
-0.5255762,-0.6056223,-0.5199622,-0.8434702,-1.0064793,-1.0003146,-0.24461976,0.4251288,-1.0851177,0.037627045
-0.52941245,-0.30533874,-0.44604972,-1.3082914,-0.56339043,-1.0747337,-0.026324468,0.30712628,-0.6199317,-0.045384668
-0.5254525,-0.3032345,-0.31465447,-0.9496062,-0.65869975,-1.1407099,-0.050427817,0.3063243,-0.79409933,-0.35772833
-0.47551602,-0.26691777,-0.41143417,-1.0751734,-0.78001827,-0.9528839,-0.17480396,0.8952383,-1.0370636,-0.5867413
-0.40015775,-0.29939193,-0.47741008,-0.69786674,-0.7353705,-0.45998326,-0.3029089,0.35941783,-0.49047905,-0.019852625
-0.29295373,-0.38952777,-0.26688266,-0.59487885,-0.4193301,-0.4268994,-0.19875713,0.5879364,-0.6137895,-0.26543957
-0.24447209,-0.08277123,-0.43051404,-0.49571803,-0.58931273,-0.54614353,-0.17330693,0.12232596,-0.42640468,-0.04632467
-0.2844433,-0.0388217,-0.45389232,-0.5968532,-0.44131258,-0.74304473,-0.25838163,0.32624683,-0.62554044,-0.26775107
-0.33919767,-0.030505128,-0.43129784,-0.4567688,-0.5290603,-0.56205934,-0.30356306,0.42924932,-0.31974024,-0.24978276
-0.27411965,-0.06835147,-0.32840952,-0.24076527,-0.45384693,-0.39901766,-0.109823346,0.39665186,-0.2880335,-0.52290213
0.065997,0.08078391,-0.041840557,-0.08637334,-0.077795506,-0.009924687,-0.07511579,-0.07018996,0.028970882,-0.045502074
-0.059554722,0.02836147,-0.013957582,0.030607156,0.055099808,0.084310405,-0.04491442,0.07843553,0.038458116,-0.028187227
0.069772296,-0.056792796,-0.08180021,0.00055772066,-0.036339153,-0.07280979,0.025419496,0.086227946,-0.022730775,-0.020074017
-0.023932502,0.03141562,0.03515082,-0.0557336,-0.046234097,0.07406943,-0.05842025,-0.018302292,-0.045696914,-0.052880898
Biases
-0.5265887,0.64205676,0.13683593,-0.4411739,0.15517932,1.3972511,-0.17612822,0.7692319,-1.5148724,-0.3236683

