Layer,dense_12
Weights
-0.029713206,-0.07177566,-0.06556064,0.08179464,-0.022018999,-0.025977105,-0.0750577,-0.04360479,0.0075259283,0.032762438,-0.02353713,-0.03389642,-0.06400567,-0.032183707,-0.06933258,-0.049744826,-0.066904455,-0.009527907,0.03498344,-0.033926453,-0.03079861,0.018850923,-0.016179845,0.037453532,-0.016322874,-0.0024616718,0.06090068,0.033544496,0.02893968,-0.08182713,0.071739085,-0.04374009
-0.029572979,-0.0214509,-0.067844056,-0.008609697,-0.0693531,0.012142152,-0.082017235,-0.06365763,-0.042742025,0.03159131,-0.07639833,-0.008162886,0.013743915,0.038630463,0.0024227872,0.05856695,-0.032416444,-0.07443669,0.06519156,-0.07018543,0.066245355,-0.034934416,0.003965467,-0.058086988,0.015062384,0.03603127,-0.011678189,-0.038724937,-0.011629142,0.0063645095,-0.013245955,-0.056352336
-0.020317733,-0.08114307,-0.0055739954,-0.049513336,0.028050251,0.035330035,0.051667713,-0.013717607,0.02514349,0.083537616,-0.027082462,-0.070002906,-0.038432565,-0.06258731,-0.048993275,-0.0004402846,0.04490871,-0.07613302,-0.05563873,-0.057259284,0.04468756,-0.05071509,0.063800775,0.042531587,-0.04152357,-0.0786624,0.03740745,0.046618856,0.02713693,-0.0752044,0.0020442382,0.012560256
0.033436976,-0.043430626,0.043149434,-0.06022656,-0.05159701,-0.055388186,0.030526228,-0.06453179,0.0005803332,0.016120538,-0.02408718,0.03150978,-0.00449536,-0.044169154,-0.06596036,-0.07548249,-0.0011171773,-0.005309202,0.03893449,0.05875153,0.0743215,0.049626432,0.0015164912,-0.08293083,-0.06973729,0.052884676,-0.06536358,-0.08096968,-0.023024984,-0.028996307,-0.012174085,-0.08005878
0.067823,-0.01121521,-0.022069521,0.03696978,-0.01875972,-0.083820745,-0.045471758,-0.0828661,-0.011868402,0.05160377,-0.08496194,-0.021836028,-0.06860861,0.028660126,0.02794198,0.06436614,-0.05643888,-0.080897614,0.0617188,0.043908082,-0.083730854,-0.027253889,-0.049882393,0.019845985,-0.024104457,-0.00793796,-0.0036631376,0.0014312565,0.009714238,-0.018371448,0.074005105,-0.082328826
-0.005608812,-0.019100793,-0.0017791167,-0.015442073,0.0572929,0.038768075,-0.0007592365,-0.025380462,-0.05645556,0.061529897,-0.032226883,0.06735184,0.0703442,-0.041128118,-0.008244522,0.01206471,-0.027152773,0.027360998,0.01337602,0.029207297,0.061451368,-0.0762822,0.04703114,-0.024356186,-0.055900745,0.07602743,0.037615083,0.01664389,-0.08454351,0.020786114,-0.033099853,0.07111622
-0.06913507,-0.08029128,0.020645276,-0.029750638,0.010088876,0.042523555,-0.061334144,0.07624567,0.035363458,-0.07259151,0.07364472,0.011456311,-0.075078815,0.014788389,-0.04195167,-0.030511409,0.07341578,0.072829045,0.03406938,-0.061865553,-0.07876683,0.004973486,0.049755685,0.019534945,-0.01423613,-0.0018383041,-0.057444997,0.07317016,0.08509532,-0.055789303,0.012327373,0.022716336
0.07924744,0.08064126,0.0323167,0.018497936,-0.008039549,-0.08051964,0.029197954,-0.020367436,0.07765881,0.049341835,0.018069364,-0.06991998,0.009779759,-0.017398179,0.02863735,-0.034493495,0.027694628,0.019764885,0.07153583,0.06960023,-0.08109946,-0.008717112,0.07331493,0.049424194,-0.030855589,-0.06765568,0.03761424,-0.0444806,0.07830384,0.0430528,0.009656504,-0.06424571
0.07098811,-0.053985078,0.07827663,-0.04749551,-0.04438991,0.046483643,0.0040899664,-0.069986954,0.017703898,0.04896643,-0.025666784,0.048176564,-0.022107773,0.001087144,0.040648125,0.0422697,0.007814802,-0.032805722,0.029439174,0.040408216,-0.0664122,-0.037784196,0.043106236,-0.021883354,0.055974014,-0.05452624,0.005773671,-0.07767174,-0.08263563,-0.042749446,-0.066072315,0.052568667
0.013849713,-0.041545425,0.013661608,0.08381719,-0.073156014,-0.01054693,0.03447683,-0.07010721,0.0122796,-0.016223349,0.044997342,0.031402595,-0.069293715,-0.061425183,-0.03546157,-0.036594324,0.054549895,-0.027288765,0.023855627,0.07534846,-0.038674194,-0.023631457,0.053640403,0.079478286,-0.036477443,-0.013764158,0.060997225,-0.036876924,-0.05866599,0.062458836,-0.056360066,0.07058898
0.03298594,-0.018913321,0.02446331,-0.021201171,0.005948782,-0.08453971,-0.024511378,0.055965506,0.046891667,-0.05063746,-0.031564265,0.037876606,-0.029959578,-0.046824083,-0.03958793,-0.025993217,0.015452787,-0.003510639,-0.030174326,0.016215399,-0.082010284,0.0028914288,0.020475015,0.07892572,0.053701974,0.06421674,-0.03165688,0.08341975,-0.017846234,0.02623789,-0.03308088,0.06771996
0.0069983825,0.06618857,-0.038758997,0.052975558,0.03325899,-0.05851356,0.017579399,0.025043257,0.038857706,-0.043109078,0.023629904,-0.012448959,-0.061054386,0.031587675,0.05029451,0.06833499,0.054469936,0.050767817,-0.023070835,0.0041728467,0.041642614,0.023227543,-0.0677689,0.01763308,-0.08428246,0.061339177,0.05851648,0.038429298,-0.057469532,0.06691595,-0.067489,0.07527823
-0.12587038,-0.16973823,0.06720816,0.09405924,-0.024181424,0.0026019104,0.049428523,-0.075553,0.0052210027,-0.103201546,-0.05926356,-0.004504894,0.0064413664,-0.06498738,0.037453733,0.008396419,2.1523902e-05,0.019522572,0.09076062,0.08121534,0.11959536,0.00052097114,0.012967445,0.022567365,0.004399441,-0.00067210174,-0.068287246,0.06235306,0.07461793,0.053936187,0.05415959,0.16027854
0.012627442,-0.16690777,0.036568463,0.058802854,0.00694374,0.14269567,0.14464802,-0.01846052,-0.009552126,0.027244065,0.052104015,-0.038339548,-0.05549322,-0.02434128,-0.03323906,0.20101804,0.10550167,0.13231677,0.13704793,0.12384836,0.0062549985,0.0897913,-0.06763457,0.024753107,-0.10856403,-0.18852271,0.067550205,0.12883973,0.07352432,0.04355945,-0.07579675,0.10779922
0.20036013,0.04231245,-0.0035761222,0.02068191,0.23882806,0.22160971,0.060819898,0.08037651,-0.08728469,0.11631095,0.0005533446,0.15781581,-0.025409052,-0.009419604,-0.076364905,0.095726565,0.1073783,0.15738995,0.1252237,-0.03508517,0.022682963,0.0064434423,-0.060248535,-0.07082452,-0.001472205,-0.16282752,-0.062915385,-0.007486708,0.08518986,-0.19651031,0.08434906,0.02463166
-0.026714914,0.09457331,-0.068784535,-0.07701476,-0.008179121,0.106270805,0.035963334,-0.066268235,-0.08062535,0.06660177,0.08254094,0.090737045,-0.010508374,0.04543116,-0.008100495,0.03503927,0.12397746,0.07899397,0.010919852,0.06645403,0.059854504,0.0441354,-0.021082267,-0.01559896,0.06213893,-0.013347633,-0.013028204,0.0030334939,0.13763458,-0.020116618,-0.059323743,0.015899364
0.059344374,0.084908195,0.014858983,0.0039929375,-0.06109783,-0.00800845,-0.02796083,0.076775916,-0.039167024,0.024133958,-0.040569436,-0.07817399,0.0042333007,0.06024357,0.040863775,-0.024177052,0.028297931,0.010509498,-0.06288541,0.056039564,-0.004319802,0.07337352,0.042131208,-0.0700929,-0.0015987009,0.064932145,-0.050837506,0.038755625,0.0032156333,-0.007676333,-0.02131296,0.07127785
-0.063855164,-0.05653482,-0.084535025,-0.06908055,-0.008955613,-0.07053439,-0.005136445,-0.010441624,0.07339432,0.05555647,0.069460414,-0.08281166,0.040205754,0.0038669407,-0.0017352849,-0.01809688,-0.029189896,0.029667653,0.012132093,0.0011169091,-0.0411448,-0.07248698,-0.06710788,0.03817331,0.005575694,0.0296558,-0.042759728,0.056526057,-0.022791363,0.03234814,-0.013493516,0.063741855
0.016598873,-0.08255921,0.07070226,-0.02890613,0.060522877,-0.08405007,-0.0062180683,0.027740464,-0.010436632,0.040508576,-0.06333214,0.08421428,0.048820667,0.08320924,-0.08016139,0.010454074,0.020748414,-0.060981847,0.01847209,-0.080938354,0.079550706,0.06848385,0.024129458,-0.0681527,-0.018479064,-0.027846936,-0.0646465,0.0630301,-0.00060367584,-0.04760125,-0.06782042,-0.06854597
0.04326027,-0.02261579,0.03250961,-0.042848885,0.04545843,0.07843513,0.0323861,0.0074813813,-0.0628875,-0.0036731511,0.076856785,-0.085275926,-0.0853529,0.047278084,-0.0019511357,-0.021144703,-0.03407457,0.05940049,-0.016187958,0.077477686,0.0349409,0.030361287,0.062447183,-0.052331448,-0.051082224,0.079448886,0.002711311,0.06642089,0.076304175,0.083113395,0.018679067,0.057274558
0.07715552,0.019297794,-0.07436791,0.0028821006,0.039535977,0.022778586,-0.036022007,-0.020601928,-0.06446871,-0.07811992,0.004699819,0.06994762,0.064718746,-0.07252194,0.077370934,0.014472999,0.0601592,0.082720585,0.04565855,-0.057347417,0.06101135,0.019641846,-0.05559357,-0.08298836,-0.002873212,0.04392671,0.0011431202,-0.024753682,-0.064909674,0.0021071658,0.037063092,-0.0023128316
0.072488286,0.045391805,0.023175284,0.08443179,0.062265016,0.0032498166,-0.06976612,0.027049303,0.06650003,-0.06128025,-0.057157084,0.037616044,0.013522096,-0.015988894,-0.06221801,0.08215142,-0.074885435,-0.07568447,-0.033476334,-0.07232985,-0.019000493,0.06286473,-0.018396817,-0.005617723,-0.07369268,0.0042614937,-0.011615671,0.045767374,-0.040075585,0.057322286,-0.08401041,0.057730667
0.07553742,0.06517825,-0.009852074,-0.07332313,0.055812202,0.0676251,0.019836359,-0.032075495,0.0038589463,-0.019465111,-0.06572798,-0.054571133,0.060970806,-0.024635639,0.029062077,0.061852746,-0.024580847,-0.044260416,0.024491362,-0.080424346,-0.07041956,-0.0140401125,-0.054485716,0.014515765,0.059579454,0.072021656,-0.004523918,-0.07151265,-0.066353366,-0.05709473,0.025768816,0.04438723
0.01848583,-0.06528568,-0.010621943,-0.039985776,0.06023758,-0.06114336,0.06250895,0.044856884,0.05727517,0.060872637,-0.068159856,-0.05893567,-0.018899664,0.07036064,-0.024598472,0.036653325,0.068538375,-0.0068376735,-0.03802225,-0.01669743,0.06740808,-0.05438225,-0.04563437,-0.062259145,0.049716465,0.02821391,0.07182524,-0.024595302,0.04088583,0.020436786,0.057580747,0.073497705
0.07002848,-0.076410554,-0.016952798,0.06855381,-0.007259682,0.07126217,-0.0046296567,0.06727094,-0.060126893,0.039061263,0.0368905,-0.05182576,0.0192594,-0.0646832,0.057635374,0.0005540177,0.073873095,0.06519536,0.033005647,0.07823769,0.033178464,-0.056144297,0.0038773268,0.07172301,0.025644027,0.074768744,-0.05527311,0.022716925,-0.025766961,-0.05847467,-0.069312274,0.05828575
-0.04744724,0.08379408,0.029519416,0.051795475,0.048358195,0.05704906,-0.013525017,-0.0066738725,-0.02444056,-0.037686493,-0.061480626,-0.07758105,-0.03638624,-0.033213504,0.041160665,-0.042630665,0.06841452,0.053094126,0.08482327,-0.08366197,0.07883311,-0.07825016,0.04289127,0.031849056,-0.021841057,-0.05286161,0.06381243,0.015539102,-0.050942037,-0.081766166,0.047553487,-0.028807793
0.027352065,-0.05693862,0.080404334,0.07575143,-0.015309148,0.00031066686,0.013811998,0.03234256,-0.041803554,-0.041277483,0.05712361,-0.08488564,0.020509668,0.043068625,0.06752289,-0.08086608,-0.07756813,0.015365183,-0.07286802,-0.06880898,0.063342355,0.07906855,0.0049399137,0.054895394,0.01574751,-0.034703292,0.059085242,-0.03483287,0.02142156,0.07148021,-0.0570952,-0.03649124
0.02017299,0.02590099,-0.07173396,0.06419087,0.068735205,0.0388752,0.010334149,-0.026214667,-0.017691247,0.02290769,0.046876915,0.047827028,0.059708692,0.08268257,0.014940739,-0.007856488,0.06436963,-0.0074975938,-0.020460352,0.015716739,-0.024439495,-0.0363299,0.07672218,0.05601182,-0.00043955445,0.011802919,0.051871173,-0.05311068,0.038535357,-0.06548308,0.08117633,-0.00889121
0.0505768,0.067000054,-0.076407894,0.054045536,0.009941414,0.077776305,-0.059522584,-0.055086777,-0.006211996,0.071239986,0.009996675,-0.083795965,0.081170104,-0.003275372,-0.05259618,-0.084573746,0.038764887,-0.085431136,-0.01735463,0.056841157,-0.0721427,0.043167002,-0.020404667,0.071535684,0.059133463,-0.048133697,0.075816624,-0.047925085,-0.065558024,0.011889257,-0.042254552,0.051431842
0.03653319,0.0083397105,0.03671693,-0.030025613,-0.02306068,0.0043729767,-0.009762794,-0.07770655,-0.010789007,-0.066671334,0.0040912777,-0.05626635,-0.011913076,-0.062246855,0.047034718,-0.0090364665,0.07426282,-0.07779663,-0.006542459,-0.018336408,-0.064531416,-0.009864703,0.08191309,-0.061792668,-0.05288553,-0.037609562,0.058560945,-0.07567078,0.08436947,0.06428117,-0.08391485,0.034370214
0.07351411,-0.012096375,0.0484891,0.05686698,-0.06437209,0.072525285,-0.06601299,0.02389519,-0.011471972,0.029728726,-0.078888394,-0.0622525,0.021903776,-0.022860669,-0.014759056,-0.07549699,0.030676194,-0.02303277,-0.049363274,-0.031109504,-0.06253518,0.0029565617,0.07521201,-0.010837138,0.024864815,0.05844689,-0.043269016,0.030721657,0.017961808,-0.0120238215,-0.017990343,-0.07614044
0.08543695,0.07478426,-0.07167497,0.06481259,-0.025016494,-0.030722681,0.081968166,0.08336987,0.005705595,-0.061851546,0.03452637,-0.07776261,-0.06701255,-0.0745166,-0.07459989,0.038511865,0.050702043,0.010637373,-0.053035464,0.009855241,0.037370123,-0.07388905,-0.049918212,0.02122742,-0.084817566,0.0844992,0.031890146,-0.0011832938,-0.055319555,0.015946597,0.08397647,0.06540134
-0.08189807,-0.038767226,0.051541157,0.08157312,0.075820565,-0.017956307,0.100482605,-0.044984657,0.02041755,-0.058426306,0.013034336,-0.0684523,-0.07611092,0.07325744,-0.05043173,-0.048411895,0.06717134,0.07190974,-0.012789577,0.04093744,0.006928227,0.0081115,-0.0037182942,0.07009315,-0.0218264,0.09389455,0.083558716,-0.011841945,-0.038862534,0.07209037,0.012971148,0.036059014
-0.023008078,-0.011765885,-0.013378516,0.08894315,0.06378708,0.1202141,0.0642335,0.024954468,0.04333385,0.040911414,-0.05023154,-0.07041235,-0.07373036,-0.106990345,-0.07956283,0.15782897,0.029799417,0.013315579,0.07418349,0.062105794,0.05019997,0.049953528,-0.0015808493,0.014190501,-0.080131866,0.0728379,-0.030198224,-0.049003743,0.0804353,0.13667446,0.014501274,0.09006471
-0.22998452,-0.32821086,-0.048707854,0.012757278,0.055257794,0.31842926,0.1685453,0.067644976,0.0016430025,-0.0032188564,0.037111357,-0.3395329,0.10697449,-0.014723222,0.025541607,0.2588721,0.2570177,0.0045175464,0.04650449,0.11909298,0.2114546,0.24090268,0.0666899,-0.23165224,-0.2292661,0.16070564,0.0042744353,0.07797221,0.03942168,0.24782002,0.05229075,0.26069573
-0.24193335,-0.29831597,-0.064557925,-0.11740122,0.081200056,0.30750805,0.14510942,-0.0803238,0.000645102,-0.08004523,-0.0948786,-0.30580717,-0.0044934913,-0.11256544,-0.10212693,0.22364421,0.13828741,-0.0023082627,-0.044239793,0.097584836,0.23022772,0.29395828,0.061794173,-0.22404665,-0.27521315,0.25989646,-0.065559275,-0.06900915,0.070498936,0.24934696,-0.054891914,0.18289554
-0.27000052,-0.31917658,-0.04139387,0.16406514,-0.038872857,0.1951299,0.14983352,-0.105341144,0.054539,-0.048191972,-0.008924119,-0.20767868,0.06510579,-0.0150945755,-0.021099886,0.13575839,0.10958345,-0.089783125,0.066208,0.16753797,0.25372,0.16906528,-0.1030866,-0.16475512,-0.20956661,0.1078385,-0.076649286,-0.04518875,-0.07557464,0.19451676,-0.09340167,0.18306085
-0.2974355,-0.41588497,-0.051783253,0.18020533,-0.06968185,0.17290707,0.2826424,-0.04178402,0.03538545,-0.08683542,-0.044080917,-0.24132764,-0.030248806,-0.013366422,-0.06643098,0.2899605,0.22556576,-0.049507864,0.056252737,0.35688618,0.36162934,0.14243692,-0.017788557,-0.024920495,-0.300591,0.24065536,0.043288413,-0.101602584,-0.16576077,0.32049942,-0.19402589,0.44958335
-0.3546654,-0.1679364,-0.014757643,0.28256825,-0.018020157,0.21797973,0.17024094,-0.24317572,-0.09551266,-0.32485688,-0.06817587,-0.06272944,0.012808568,0.01076324,-0.10643314,0.34777534,0.24746087,0.03920564,0.048278775,0.13099404,0.4422157,0.0058718054,-0.14388688,0.072083004,-0.31766346,0.37648994,0.01283503,-0.015777849,-0.026167607,0.37389287,-0.10267645,0.28052437
-0.42896625,-0.3029759,-0.15578067,0.40272424,0.04036508,0.1699081,0.051728368,-0.030340536,-0.005304413,-0.13176036,-0.09826738,-0.14208436,0.060034916,-0.065959714,-0.0120629165,0.17943735,0.30796382,-0.047745686,0.09281828,0.23746133,0.1523945,0.07178185,-0.1392942,-0.12305206,-0.23637694,0.3407243,-0.011628846,-0.1080069,-0.010225038,0.1974039,0.041194964,0.18625593
-0.38266736,-0.34119523,0.05740076,0.309799,0.14541279,0.20343292,0.25772148,0.02545577,-0.026196102,-0.40290582,-0.011354938,-0.15262781,0.13835199,-0.10765713,0.044970494,0.27230147,0.29791954,-0.2436987,0.18331084,0.029147726,0.18875307,0.07042489,0.06300945,-0.19556637,-0.17475957,0.25412035,-0.0025292386,0.056662906,-0.010885059,0.2997918,-0.034103833,0.40359184
-0.19350058,-0.24719876,0.10975974,0.19974439,-0.17839614,-0.08315637,0.5787317,0.17551464,0.15017988,-0.39735112,0.01368657,0.15896232,0.15367442,-0.21471342,0.022393772,0.3683001,0.06319457,0.052611604,-0.14780363,0.3121951,0.070366375,0.16972958,-0.10675879,-0.29979387,-0.09674968,0.23496027,-0.00942042,-0.027166892,-0.035629395,0.36460006,-0.11748597,0.22332203
0.055802118,-0.06770957,0.27593675,0.17490542,-0.33809313,-0.24029742,0.17349713,0.17670059,-0.017968317,0.23531325,0.3056791,0.14912878,0.014518507,-0.065457515,-0.08752108,0.34936374,-0.27832124,0.20578898,-0.3390751,0.21225633,0.08205757,0.3110709,0.20310679,-0.030299572,0.10145356,0.11598751,-0.068537764,0.0040063434,-0.24010186,-0.115594864,-0.11433852,0.008283071
-0.46618515,-0.2319665,0.050630543,0.104808,-0.26495332,0.25454384,0.26742917,0.28434688,0.16441718,0.31083697,0.18335165,-0.25283918,-0.044526022,-0.15802504,-0.11060331,0.48046762,-0.018475225,-0.37219933,0.25647375,0.2344261,-0.09307694,0.26592708,0.28360188,-0.19630295,-0.12937415,0.2458343,0.047739375,-0.09802974,-0.23512962,-0.010222961,-0.029231133,0.2547153
-0.2794308,0.016256543,-0.2284933,-0.08015125,0.0066236695,0.35488707,0.33434126,0.03332384,0.056982648,0.25581685,0.33895934,0.036594678,-0.0015467893,-0.14526488,-0.13656329,0.17747447,0.33377603,-0.29414034,0.18475421,0.18106331,-0.21134652,-0.033192776,-0.14831212,-0.16288224,-0.13487379,-0.057265006,0.09549695,-0.024425352,0.2028026,-0.1269868,-0.028556531,0.08786993
-0.27529088,-0.20708883,-0.15035889,-0.013973622,0.06409915,0.35657856,0.35398853,0.021700528,0.10114411,0.18996903,0.1866717,-0.17737539,0.16852628,-0.16249436,-0.0978181,0.19817284,0.26601508,-0.12418981,0.25131476,0.29193544,-0.14351457,0.007834169,-0.21854304,0.07836035,-0.26713863,0.000424825,-0.032163,-0.03778928,0.09489303,-0.058495782,-0.09095849,0.21331695
-0.36388853,-0.4288825,0.32259393,0.19362536,0.4339862,0.1593977,0.38458145,-0.052701697,-0.3119048,-0.2638021,0.22147065,-0.12887004,0.027460055,-0.16806903,-0.033523217,0.50905555,0.35024676,-0.14940546,0.23611191,0.2830451,0.35724616,0.06620975,-0.11573644,0.031759813,-0.26408818,0.39574313,0.09469959,-0.020055437,-0.019480772,0.38888538,0.012935049,0.31571
-0.44581288,-0.47433838,0.3429425,0.20000497,0.33072817,0.14754342,0.44872648,0.22330566,-0.27158368,-0.1151162,-0.0693609,-0.16665967,0.23853335,-0.124990195,0.035359457,0.42953625,0.2664277,-0.17485835,0.34972042,0.086369075,0.5128687,0.19197485,0.18675457,-0.26731092,-0.44839677,0.4246776,-0.021718489,-0.085267834,0.04884149,0.4641376,0.07721203,0.37574738
-0.3468006,-0.32939968,0.28155982,0.09405447,0.19140756,0.058891963,0.28585282,0.2801249,0.016735641,-0.19778886,-0.039658014,-0.3655276,0.21031849,-0.04297017,0.023984961,0.5118585,0.15025601,-0.09703091,0.28851452,0.151595,0.35777405,0.24261853,0.16460383,-0.13649914,-0.44686165,0.3598751,-0.015355931,0.03461,-0.13314989,0.31201947,-0.07794453,0.14356142
-0.38865364,-0.33020556,0.3054379,0.25623786,0.07217134,0.10502398,0.2422047,0.22138555,0.07097122,-0.1523795,-0.0635933,-0.29122144,-0.023246352,-0.07224158,0.085364945,0.26491418,0.1371971,0.11399419,0.15149677,0.081051715,0.27265987,0.10549237,0.10419502,0.033794116,-0.23054431,0.2600837,-0.026048496,-0.04834518,-0.10684445,0.33714148,0.029443825,0.19430977
-0.28508157,-0.26160097,0.15902781,0.21246171,0.18891355,0.23592016,0.24537121,0.17159316,-0.083132684,-0.056352176,0.008274034,-0.30937266,-0.04475624,-0.15318091,0.020059526,0.29282635,0.22003222,0.021027401,0.1966584,0.16286476,0.1333653,0.10445139,0.07162871,-0.13712732,-0.28924567,0.033414565,0.026199605,0.05994327,0.07095308,0.29801512,0.07287084,0.14441894
-0.2430098,-0.10385422,0.14613962,0.16020288,0.13884187,0.30469146,0.22388768,0.13095953,-0.11212119,0.024790991,-0.009363472,-0.139398,0.01908037,-0.12576404,-0.014804319,0.15253617,0.16800682,-0.045041554,0.12245845,0.11964655,0.09761483,0.1145583,-0.066837564,-0.19408189,-0.110229895,0.20457165,0.032927163,0.10106596,0.1958205,0.1208317,0.117533654,0.062078092
-0.046121456,0.07067373,0.07036667,0.0736072,0.06341957,0.033221312,-0.08170755,0.08507932,-0.048886698,-0.05350969,0.008683093,0.08412837,-0.008107446,0.081194006,0.046012767,-0.056508366,-0.051522367,-0.07625397,-0.083122715,0.06217023,-0.019520633,0.069296174,-0.046994198,0.026065506,-0.02345486,-0.07538922,-0.026097234,-0.08055212,-0.011402972,-0.073536605,-0.03796049,0.00035697967
0.008425802,-0.026957937,0.010638006,0.0448863,-0.00096458197,0.061720215,-0.020315878,0.026476026,-0.037908804,-0.08149096,-0.029720053,0.078108214,0.0028866008,0.075307675,0.0009835139,0.018698469,-0.013838753,-0.0142849535,-0.029611904,0.060565792,-0.03312684,0.045233868,-0.07523914,-0.058796465,0.0030724183,0.023312077,-0.0009687096,0.047276698,0.0781971,-0.08477371,-0.016273953,-0.06038042
-0.005760245,0.041514717,-0.008683048,0.07274824,0.045567296,0.058482848,0.06425855,-0.031814687,0.03877057,0.015974298,0.082001545,0.060935937,-0.08119731,0.07070651,-0.04867827,-0.051486917,-0.07893198,-0.06808376,0.056229778,-0.07131974,-0.04351226,-0.0053774416,-0.07703976,0.04848277,-0.06004348,-0.07822187,-0.01681345,0.07794238,-0.068142116,0.08347573,-0.009187594,-0.037393507
-0.055737823,0.0016025379,0.0035624877,-0.0029606894,0.05419255,-0.023645341,-0.012583524,-0.077462085,0.022690639,-0.06781539,0.0006201789,0.00024352968,0.03908275,0.0018541515,0.0035639182,-0.034531806,0.049820013,0.0017416626,-0.0057367086,-0.004290059,-0.07152573,-0.048390005,0.015819356,-0.03675847,-0.029736347,0.07572732,-0.008960478,0.068845905,0.023459502,0.07462724,0.020652898,-0.031352792
0.081353,0.025097884,0.03515689,0.07138216,-0.06944586,-0.08422781,-0.015199073,-0.046146292,0.07084697,-0.024380248,-0.04800905,-0.07357128,0.046382286,-0.045491118,0.046334766,0.033587426,0.03830851,0.06232976,0.012584403,0.07602998,-0.029523812,0.020824589,-0.051075067,0.007858865,0.083671905,-0.04281125,0.07079285,-0.010649011,-0.0716614,-0.07731772,0.068044566,0.055993892
-0.041808173,-0.004630409,0.08402049,0.03755179,-0.076303735,-0.054508023,0.056092836,-0.07858549,0.03430236,0.05765965,-0.050223872,-0.0262971,0.029544681,-0.01487726,0.0016753003,-0.054960616,0.07569877,0.027187176,-0.03343475,-0.011949018,0.07208695,0.052328624,0.058718674,0.02381163,-0.008084074,-0.045318935,0.065375514,-0.04589391,0.032495484,0.011815555,-0.06078906,-0.040530264
-0.043943238,-0.0842608,0.021635365,0.0708989,0.01871877,0.09242335,0.033546973,0.012485109,-0.059905864,-0.007114382,0.061605237,-0.04455806,0.08058957,-0.007318949,-0.05335771,0.10144871,0.034709763,0.00634137,0.11365234,-0.062317237,0.030587897,0.03533879,0.064452864,0.025278537,-0.08650461,0.06850638,-0.0507562,-0.0019658953,-0.0037597215,0.013684238,0.04373729,0.11082727
-0.16767561,-0.13521867,-0.12766011,-0.020496624,-0.18538958,-0.0019112839,0.108478785,0.13180318,0.18670984,0.0059851417,0.028439939,-0.17563866,0.11542073,0.025579635,-0.03837181,0.093656674,0.19190064,-0.22599398,0.24948755,-0.029467236,0.03857855,-0.0063037216,0.10317499,-0.12813714,-0.24543668,0.16202554,-0.051542956,0.10292047,0.10722283,-0.15931298,0.021890095,0.09754189
-0.21732289,-0.28609532,-0.19629999,0.056068048,-0.2585731,0.11294159,0.23186207,0.27776316,0.13716337,0.033736356,0.03156445,-0.22324023,0.06314487,-0.18312639,0.0012740282,0.039685547,0.26274207,-0.1194166,0.22599012,0.11199374,0.14596711,0.14272995,0.21129714,-0.0086438535,-0.3195719,0.24492784,0.08013888,-0.06945502,0.03651252,-0.093204245,0.105026364,0.21421696
0.09382572,-0.032057915,0.124127224,0.12290299,0.22601536,0.11047027,-0.061344225,0.05523895,-0.10452802,-0.107043505,0.044451863,0.036323726,-0.008784347,0.04907835,-0.04620656,0.18307187,0.2863561,-0.018194169,-0.007452946,0.13216804,0.1264025,0.057241138,-0.021315105,0.09827644,-0.111354545,-0.09801022,0.07768583,-0.10624643,0.05442709,0.14005655,-0.05942412,0.059219345
0.07663472,-0.21812473,0.008634624,0.09293937,0.22055706,0.39339116,0.08468295,0.0740176,-0.24325679,-0.11079271,0.09246069,-0.090379655,0.15419967,-0.110799015,-0.23956923,0.3828933,0.41495034,-0.14463097,0.11693788,0.12511507,0.25585157,0.26171297,0.0038573323,-0.06709939,-0.24793966,0.10985191,-0.08306574,-0.078406975,0.11317754,0.3192328,-0.0859487,0.086647555
-0.28803104,-0.1725179,-0.0850825,0.060543995,0.012770649,0.44190815,0.2405981,0.29717296,-0.10095591,-0.019032791,0.059004623,-0.23841137,0.16776621,-0.23517632,-0.27473366,0.39634407,0.48988968,-0.1880425,0.22725023,0.41713417,0.36205387,0.27591607,0.0123078665,-0.30602172,-0.397569,0.24125062,0.096914686,-0.13040532,0.21068244,0.22564746,-0.21089359,0.14660875
-0.14081609,-0.4820651,-0.1390514,-0.0061624986,0.49854165,0.42727363,0.037279133,0.102401696,-0.4481541,-0.11302528,0.009901486,-0.07133232,0.35019422,-0.1040287,-0.19147328,0.54164755,0.6730951,0.25614595,0.1795963,0.42585075,0.10620495,-0.02948506,-0.075506516,-0.30411315,-0.3788313,-0.029196389,0.17972787,0.21852334,0.44552812,0.13970149,-0.02061711,-0.29643056
0.32065165,-0.3425174,-0.21958467,-0.040983845,0.68455505,0.59478927,-0.04813747,0.03445571,-0.52605116,-0.23163217,-0.013273156,0.4836618,0.36827606,-0.49453464,-0.34279317,0.747398,0.7532352,0.46758065,0.15535915,0.06363631,0.055882394,-0.17391185,0.05494973,-0.18969049,-0.4445795,-0.05305155,0.24298301,0.19425334,0.2635129,-0.072861604,0.016409343,-0.4660382
-0.0058928467,-0.5353474,-0.13278006,0.26766092,0.35687476,0.37291637,0.09035709,0.14950503,-0.60501754,-0.11512331,0.2156166,0.15561953,0.21884137,-0.32592243,-0.34633207,0.7648296,0.4308484,0.37256125,0.11200716,0.24222445,0.24408868,-0.0531601,0.20086847,0.043784432,-0.60102093,-0.04488043,0.24996917,-0.011936002,0.11577113,-0.030024303,-0.026712146,-0.25749043
-0.013108352,-0.45797,-0.048497275,0.25101182,0.11492306,0.39500725,0.2575399,0.07663009,-0.32684022,0.082059614,0.21372111,-0.16708891,0.07638422,0.014276001,-0.24512793,0.94250333,0.4043756,-0.06703329,0.22003864,0.67750645,0.31822804,-0.005672278,0.010103106,-0.2719846,-0.5575648,0.061569765,0.2163721,-0.10495461,-0.017544942,0.08297228,-0.26706222,0.13620766
-0.000867212,-0.47479936,-0.072511934,0.19006217,0.38014904,0.33822885,0.074793495,-0.12838118,-0.26007742,0.13552536,0.15645145,0.21536417,-0.12979342,-0.17258522,-0.4590341,0.5915569,0.4363852,-0.005539704,0.22972716,0.4575482,0.41187036,-0.065774314,-0.03268155,-0.6325573,-0.64674807,-0.28135562,0.12021249,-0.00064460956,0.061709143,-0.02693879,-0.27311757,-0.027205497
-0.08453894,-0.15181619,-0.10869586,0.1762612,0.22960533,0.31555614,-0.09843393,0.022048218,-0.3221013,0.15520495,0.22528793,0.32705247,-0.10481186,-0.5285734,-0.4196413,0.4467806,-0.06917323,-0.12771387,0.077026024,0.57048887,0.41889146,0.04964743,-0.37578073,-0.5602418,-0.41727394,-0.029119536,-0.08396508,-0.40367767,-0.2890766,-0.12656471,-0.28982678,0.3710085
0.09948258,-0.30880374,-0.09714384,0.23533699,0.36309057,0.2667343,-0.0613724,0.08371216,-0.3164065,0.032415323,0.52534837,0.307376,-0.2966564,-0.49464676,-0.4891282,0.690681,0.15341672,-0.2606768,-0.07894823,0.4983879,0.30846092,0.038197078,-0.17094152,-0.1503996,-0.26926652,-0.252296,-0.018736998,-0.46283814,-0.17630683,-0.04620696,-0.48415262,0.21081215
-0.023871277,-0.32130617,-0.00970325,-0.09416892,0.15818919,0.3901134,-0.054556154,-0.2533814,-0.14522395,0.07212133,0.55478233,0.14954655,-0.25409195,-0.22337098,-0.4998274,0.7489404,0.10574222,-0.5338401,-0.033782102,0.43190497,0.37848306,0.37766275,0.11250297,-0.27386495,-0.3557098,-0.36828896,0.36933678,-0.51997155,-0.11325569,-0.13131098,-0.5922307,0.43497276
0.10447119,-0.039630435,0.18468568,-0.17633419,0.12860522,0.2654211,-0.09006564,-0.30351695,0.011304157,-0.060803335,0.6412152,-0.06212972,-0.05368726,-0.27569348,-0.35626975,0.7542524,0.032285504,-0.4871515,0.22795567,0.21823013,0.2954453,0.5350088,0.15672034,-0.23036039,-0.16492467,-0.26764262,0.03682016,-0.6390962,-0.122123055,0.04078761,-0.2385093,0.3981075
0.00965301,-0.06236769,-0.025100382,-0.36151123,0.3499928,0.19227539,-0.17953886,-0.054749493,-0.15049215,-0.3250363,0.4036376,-0.07552014,-0.05221425,-0.044833075,-0.5546659,0.39199966,0.15577365,0.032892264,0.1355315,0.3821051,0.35402688,0.36696962,-0.037161667,0.057934728,0.10095536,-0.05078754,-0.055928025,-0.35981897,-0.04105455,0.15324955,0.044271104,0.3122883
-0.22125864,-0.22572766,0.028738452,-0.34489664,0.14507937,0.3214982,-0.06760037,0.008104638,-0.18393607,-0.17509787,0.11219976,0.04478459,-0.022869581,0.050871626,-0.35039356,0.61162466,0.23287989,-0.28029436,-0.11874213,0.6359261,0.10866519,0.29574376,0.037364434,-0.12336376,-0.0882374,0.23921332,-0.029694894,-0.46692452,-0.114486404,0.44257617,-0.026533673,-0.015795752
-0.31440744,-0.34980175,0.30182037,-0.090474956,-0.011563947,-0.038695976,0.103885904,0.112460375,0.034970142,0.10802394,-0.032622427,-0.11806177,-0.03568077,0.035866853,-0.4393361,0.38150024,-0.07076687,-0.24372347,0.21710202,0.58484983,0.40811604,0.38131583,0.096080385,-0.13589506,-0.112792745,0.40014973,0.23502514,-0.32603848,-0.17704222,0.38377857,0.06870901,0.16579837
-0.107902735,-0.23771565,0.34968284,-0.0033581022,-0.0016872936,0.071040764,0.17937715,0.031762794,-0.07879163,0.2129334,0.24041924,0.086320065,-0.19618136,0.044653066,-0.3842268,0.4129864,0.025676126,-0.24432716,0.21769007,0.6214943,0.37942544,0.26702753,0.08665773,-0.21269703,0.017000766,0.224647,0.278445,-0.374074,-0.24663709,0.14501825,-0.0023764013,-0.023656337
-0.1237465,-0.1261822,0.1776499,0.088030815,0.2025174,0.18768162,0.33698472,-0.27264646,-0.36367315,-0.090647325,-0.2199828,0.3338661,0.2394418,-0.31212077,-0.22269073,0.22279538,0.6571178,0.22635964,0.42100728,0.21363638,0.4152986,-0.14851744,0.106943406,-0.0016384515,-0.56669873,0.124483004,0.01171405,-0.08006762,-0.36452037,0.454348,0.0737778,-0.091985166
-0.45944548,-0.27185518,0.53481835,0.4597757,0.19393401,0.08822856,0.42948994,-0.0045865406,-0.35928842,-0.09491494,-0.12942119,0.15475017,-0.00031373932,-0.24128208,-0.036652345,0.3302457,0.48690748,-0.038412686,0.5631914,0.26698664,0.43122348,-0.057978146,0.292555,0.006484706,-0.39757726,0.39001,0.057154562,-0.07482738,-0.30162427,0.79753214,-0.0861146,0.076297544
-0.28756618,-0.4107862,0.27824327,0.2625579,0.07731652,0.3098562,0.2702459,-0.052065413,-0.2219634,-0.049092375,0.23212843,-0.07761029,0.104205176,-0.29246145,-0.1469014,0.31853783,0.4886124,-0.12072263,0.3582539,0.37097564,0.040597524,0.15261461,0.120911494,-0.2691895,-0.47987568,0.17846201,0.11405469,0.10160499,0.026117245,0.49779797,0.013498607,-0.12924148
-0.17054948,-0.26241574,-0.10487426,0.10624665,0.4680401,0.45731762,0.3318223,-0.18899755,-0.2770312,0.020519082,0.25898486,0.20324335,0.06465529,-0.07494735,0.011800324,0.34118587,0.33141354,0.045187313,0.25060382,0.016909903,0.22181779,0.002117859,-0.15865,-0.083924405,-0.26934442,0.18097213,0.111125715,0.114996806,0.047450203,0.27861458,0.044815976,-0.20539692
0.026869185,-0.027639428,-0.12506631,0.029372426,0.1266326,0.12081109,0.011908656,-0.061495062,-0.14863138,0.18004467,0.03939593,0.09795365,0.05005578,-0.027605578,-0.028802864,0.17650378,0.17027996,0.24572068,-0.03229764,0.00075748353,0.14532332,-0.051671356,0.0805589,-0.044415604,-0.13666886,-0.0237274,0.048643585,0.042307477,0.2412678,-0.016904283,0.056412164,-0.12871072
0.054245435,-0.042395025,0.05632118,0.008135326,0.03709431,-0.0023030415,0.045333676,0.039409168,0.06855918,0.049330406,-0.0466868,-0.041806865,0.06758746,-0.0045599416,-0.05603085,-0.045661192,-0.0006111786,-0.030513555,0.065686576,-0.0816831,-0.045811255,0.003042467,-0.05408969,-0.03724723,0.004362978,-0.048964918,0.044009544,0.009449221,0.019220188,0.06591069,0.06015653,-0.028357346
-0.07964266,-0.06721901,-0.0073524415,-0.08181932,-0.08396056,-0.070090055,-0.0067718253,0.065796725,-0.039395817,0.04982952,0.02290129,0.03890092,0.08131572,-0.071612395,-0.08094338,-0.03879784,-0.026466869,0.06769585,0.078209005,-0.049154088,-0.015269175,-0.08018024,0.007722318,0.06384655,-0.004128568,0.009370327,-0.009054892,0.066840984,-0.009081408,-0.036124904,0.0026971847,0.0430078
0.00648503,-0.02750482,0.04672069,0.08027058,-0.07504218,0.048473544,-0.017073669,0.01931499,-0.025816415,-0.011906467,0.06551517,0.07175923,-0.029055659,0.051891945,0.034074835,-0.080662705,-0.044302676,-0.0023804829,-0.07400302,-0.055533282,-0.04911737,0.059980907,-0.042905804,0.07915489,0.041429438,0.017149784,-0.0038282648,-0.03806651,0.009212516,0.067820854,-0.06585203,0.0817072
0.064934246,0.0840457,0.01093404,0.08085018,-0.03650165,-0.03273198,-0.058136035,-0.016314924,0.011709452,-0.008179732,-0.04549711,0.020736948,0.020163462,0.014980175,-0.022294812,0.021320522,0.03750564,-0.030185468,0.039621003,-0.07186611,-0.03468747,0.07062983,0.029200017,0.05997599,0.029365264,0.04633186,0.0022638738,-0.016193561,0.0027910024,-0.06447291,-0.07547899,0.016019069
-0.058455043,-0.09478501,-0.055695105,0.016237438,-0.12621646,-0.06835893,0.1100032,-0.19113438,0.054292373,0.30563092,0.106070526,-0.2301017,-0.12039442,-0.056153238,0.003454417,0.2771284,-0.2353171,-0.040397577,0.17196347,-0.053729754,0.19322695,0.05104475,0.2897646,0.047959697,-0.090674125,0.10024612,0.16212855,-0.09779159,-0.15937535,-0.15870169,0.054724846,0.044330943
-0.2596672,-0.26258215,-0.14177443,-0.0580041,-0.15793931,-0.03072472,0.15172635,0.30085263,0.15484463,0.15606607,0.031207437,-0.3119074,0.03433759,-0.06566978,0.02486771,0.27667752,0.13186385,-0.22758606,0.2298651,0.10145521,0.11953773,0.25720438,0.30021322,-0.23339204,-0.31488636,0.18112838,0.07051373,0.031845525,0.17162886,-0.21042252,-0.037898295,0.26612043
0.13385704,-0.21765801,-0.21184972,0.16283056,0.14854397,0.17301698,-0.021770308,0.2635179,0.22424394,-0.11908299,-0.1606161,-0.31836113,0.18213739,0.00012957792,-0.21434763,0.2238067,0.08623307,-0.23477891,-0.22365433,0.14466384,0.05546293,0.2908636,0.2708814,-0.28591445,-0.22846182,-0.2638964,0.14118543,0.018994633,0.21343048,0.035515588,0.121853225,0.19574039
0.25047633,0.01880382,0.22043034,0.33551794,0.33253178,-0.12675303,0.020243388,-0.24891531,-0.2345723,-0.1730184,-0.26403627,-0.11569938,0.03777882,-0.3392523,-0.34626573,0.33789986,0.40180016,0.0865174,0.08142349,0.22828093,0.17219646,-0.076150775,-0.19997495,-0.08466361,-0.40773776,-0.3024821,0.075380325,0.16159822,0.2510678,0.46272436,0.110931955,-0.17332835
0.078407355,-0.25407562,0.14494592,0.26873693,0.29274556,0.10040233,0.018311245,-0.23237227,-0.21381994,0.07927077,-0.110001884,-0.18508439,-0.031593565,-0.13542943,-0.21278799,0.25473025,0.29894564,0.26439002,0.008915512,0.41704878,0.24143635,-0.06014489,-0.30086455,-0.09918572,-0.3770887,-0.33229017,0.21808162,-0.063408755,0.07548616,0.31715563,-0.021073194,-0.21775648
0.37888062,-0.70379454,0.08689758,0.15909426,0.10158706,-0.109478734,0.41693196,0.25701576,0.20480528,0.24180508,0.013266421,-0.080835804,-0.09894612,-0.21626157,-0.34055936,0.13749066,0.13398749,-0.022240857,0.0044201496,0.43020055,-0.009113637,-0.040162817,0.003620268,0.0476478,-0.6817574,-0.11476078,0.042250052,-0.15777428,-0.15645638,0.49752694,-0.23042606,0.115916945
0.38321543,-0.76124656,-0.30471346,0.077923074,0.13323559,-0.046934903,0.4619584,-0.28459492,0.24820767,0.3218593,0.04888784,-0.20590732,-0.102159664,-0.42956328,-0.4354757,0.2616168,0.18193127,0.025903324,-0.19550662,0.29648337,-0.116640955,-0.056501888,-0.10970015,-0.1798695,-0.7656229,-0.13153024,0.047694363,0.08007595,0.15197086,0.4182097,-0.07632869,-0.21066843
0.008191793,-0.63325256,-0.19599648,0.016632479,0.28392497,0.26405647,0.23125553,-0.2920133,0.022012832,-0.08269371,0.11973742,-0.112375535,0.24552831,-0.4519888,-0.41521722,0.48321334,0.41368908,0.20212093,-0.15749985,-0.01137508,-0.07644067,0.030307962,-0.05169959,-0.17117505,-0.59373593,-0.016711699,0.071277834,0.30551258,0.27561158,0.06066474,0.083650395,-0.29997617
0.29926884,-0.17359364,-0.37655708,0.28141806,0.121124506,0.06262233,0.0412116,-0.3195884,0.07071073,0.09151991,0.00095064414,-0.0092263,0.29735598,-0.6459344,-0.2601683,0.27087125,0.016844878,0.041227818,0.18546835,0.10287291,-0.13341734,-0.20750044,0.00020635613,0.1259772,-0.56584436,-0.07557117,0.1160677,0.40967858,0.06656049,0.122527204,-0.04884026,-0.3975686
0.19506806,-0.13589014,-0.18705991,0.22686274,0.25398275,0.048474602,0.022014964,-0.20270734,0.053110503,0.06541422,0.18887976,-0.08278634,0.30652764,-0.22827034,-0.20362785,0.344447,0.2802251,0.17009659,0.104440734,0.061254386,-0.1539117,-0.38287976,-0.08094759,0.17710687,-0.28363153,-0.10560235,0.10692832,0.055689897,0.2860195,0.2129901,0.03381144,-0.024164328
0.21852283,-0.16284728,-0.13458794,0.010176242,0.1257333,0.0715339,0.098300956,0.06483196,0.20405467,0.3554374,0.1999921,-0.32987672,0.24836247,-0.24852535,-0.37946683,0.48585248,-0.061112843,0.18457037,0.08114976,0.014680726,-0.28801668,-0.11222167,0.006350596,-0.019810159,-0.78689826,-0.2881645,0.06094196,-0.041804913,0.2495936,-0.038399514,0.28899452,0.18093981
0.057125352,-0.4708781,-0.31960177,0.110835694,0.061092086,0.2669423,0.0069547114,-0.044896074,0.08306422,0.09547377,0.057725653,-0.09675285,0.17377712,-0.3221393,-0.574189,0.7017879,0.0879003,-0.20358041,0.1984256,-0.07158801,-0.112969846,-0.18611926,-0.10715371,-0.043815453,-0.8294756,0.06026745,-0.015484292,-0.24784641,0.24601723,0.14561257,0.017653586,0.2976196
0.167689,0.09970974,-0.14812146,-0.06750146,-0.032650154,-0.0488947,0.13296786,-0.10258465,0.1524564,0.0673085,-0.0950687,0.13673037,-0.042411063,-0.09263714,-0.48002833,0.21544622,0.22967471,-0.20760056,0.15281695,-0.006691991,0.04308431,-0.1247617,-0.17984368,-0.29588667,-0.6673457,0.06437167,-0.19761814,-0.3935553,0.23498829,0.26366836,-0.07413995,0.22901401
0.21144173,0.22356881,-0.20687006,-0.42242473,0.10471722,-0.16284151,-0.19159433,-0.16887529,0.306602,0.07714447,0.27738607,-0.13177872,0.04057778,0.050605558,-0.25318685,0.056275483,0.33759278,0.14369169,0.01897146,0.12257524,-0.044820506,0.03087503,0.12494092,-0.3620266,-0.6096579,0.003386676,-0.2221215,-0.5015737,0.06610769,0.24899828,-0.049440246,0.16717483
0.091563396,0.110621534,-0.1696332,-0.66077286,0.018796913,0.11441699,-0.09726321,-0.13378882,0.21887523,-0.1773177,0.16705647,-0.027356017,0.318099,-0.100399844,-0.038470123,-0.05364217,0.31546047,0.055795446,0.014732496,-0.13383912,0.012090984,-0.15518582,0.039802976,-0.18758087,-0.2745832,0.039357495,-0.07446575,-0.4727935,0.046041902,0.1977213,0.19706926,0.26975778
0.045510735,0.23620997,-0.11070218,-0.6760406,-0.13551322,0.0606761,-0.10284278,0.1377224,0.106664374,-0.09964225,0.003854427,-0.13610084,0.041411825,0.15267345,-0.09993297,0.029876009,0.11423322,0.03339836,-0.019614788,-0.09348916,0.177178,-0.029109418,0.111192435,-0.054621566,-0.08728633,0.02614066,0.053258926,-0.44572,-0.025315981,0.18007317,0.2761283,0.17253971
0.06340297,0.10858226,-0.07233396,-0.38664562,-0.27732044,0.31964383,-0.22185428,0.26935467,-0.007107277,-0.28368285,-0.022245545,-0.2653285,0.12862532,0.12309109,-0.09667464,0.19037233,0.027834972,-0.09443642,-0.03552825,0.1743099,0.1718774,0.2071747,0.24306062,-0.10520237,0.10845229,-0.052604515,0.006069154,-0.54199165,0.023564866,0.40613228,-0.052271497,-0.09583816
-0.076106966,-0.15651779,0.020808613,-0.12453959,-0.1970413,0.00073155103,-0.33418563,0.029143529,0.027675463,-0.27512434,0.23147,-0.13191342,0.041754406,-0.021781467,-0.09416016,0.30770737,0.06896811,-0.22807486,-0.06020263,0.0008435481,0.41376737,0.21306594,0.21675774,-0.1282622,0.09952442,0.040534906,-0.259807,-0.51628447,0.053251784,0.32658872,-0.21246731,-0.16025627
-0.08494314,0.0956054,-0.090318106,-0.09953415,-0.040313516,-0.41957262,0.18505882,0.054739635,0.5038614,-0.1505059,0.24808216,-0.20210047,0.027090766,-0.0841154,-0.28757024,0.05364838,-0.12576793,-0.5352725,0.0005369565,-0.07526049,0.25436366,0.07118414,0.20329234,-0.007834655,0.0037990555,0.029953849,-0.10595542,-0.24236946,0.15522574,0.2860265,-0.22901115,-0.15189281
-0.024847806,0.0151903825,-0.0879518,-0.07152847,0.29800335,-0.08333954,-0.027138451,-0.03295125,-0.24237649,-0.26448306,0.09683008,-0.07277166,0.06631754,0.087577134,-0.3559621,0.06347568,0.10068529,-0.11251663,0.2595447,0.07897457,0.14221852,0.19560134,0.101875894,0.24375434,0.11923662,-0.118585974,-0.09748807,-0.09397135,0.039325424,0.41023877,-0.28341272,-0.11684563
0.15458824,-0.07915682,0.066647254,0.13119857,0.12109898,0.16890146,0.07032406,0.013799941,-0.22558534,-0.13671803,0.16234368,0.049699277,-0.042535413,0.084681936,-0.23879911,0.04393306,-0.008377583,0.1923335,0.37397796,0.13751236,-0.07799922,0.13783605,-0.25965583,0.24312556,0.049100015,-0.0033221291,-0.32265177,-0.028312933,0.111977875,0.25841478,-0.22712477,-0.37179822
-0.022130553,-0.15428086,-0.13907865,0.1968825,-0.06583103,0.353939,0.15685731,0.006313769,-0.20188025,-0.06145338,0.16422503,0.13800561,-0.08848099,-0.14338726,-0.120970204,0.24013129,-0.049278326,-0.29301026,0.07282425,0.050463013,-0.16729298,-0.16094173,-0.14554207,-0.18361598,-0.24589847,0.17049606,-0.46223164,0.055716198,0.07569198,0.49306136,-0.11300452,-0.3555428
-0.032334447,-0.16849644,-0.077407226,0.107880086,0.12407957,0.30160502,0.17238891,-0.0025616023,0.046712976,-0.047310453,0.18206093,0.045613594,0.33195257,-0.23352842,0.056164693,0.08350742,0.052771054,-0.17501356,-0.33421353,0.36153853,-0.09394966,-0.04173605,-0.090994716,-0.4552607,-0.07768768,0.004341212,-0.2082969,0.09204397,0.038361102,0.18671368,0.07458149,-0.34009314
0.06357061,-0.06652895,-0.20561011,-0.22698489,0.294365,0.0895368,0.2863226,0.104993686,0.10124508,-0.28473344,0.060365424,-0.010868826,0.22953431,-0.19819422,0.068422675,-0.14662771,0.010903458,-0.042411312,-0.07729078,-0.0026335793,-0.059775732,0.04841473,0.06436925,-0.14807989,-0.2280827,-0.009153832,-0.26570538,0.0069817784,0.15266368,0.056548286,0.1553259,-0.19714533
0.1696029,-0.14559262,-0.2509212,-0.006309479,0.27447683,0.07977382,0.08240354,0.12470668,0.1790671,-0.116768904,-0.12917745,-0.06479661,0.35683626,-0.24945617,-0.074444436,-0.13877006,-0.10108033,0.24284315,-0.05626564,0.039823584,0.12038918,0.08072283,0.16481617,0.08370076,-0.077493064,-0.2878888,-0.028104352,-0.006940894,0.28555366,0.025154524,0.19638705,-0.047951415
0.00094898045,-0.014065072,-0.062408343,-0.044120863,0.04303407,-0.015867561,0.0813769,-0.0054996014,0.038492978,0.0723748,-0.0016758516,-0.0030423626,-0.05224591,-0.053558756,0.029204495,0.06427402,0.027230851,0.032109164,0.067195915,0.010678999,-0.009366974,-0.003490381,-0.026284546,-0.0066890046,0.073408626,0.044642515,-0.053550538,0.04470905,-0.028549358,0.03010919,0.016318746,-0.011830926
0.04823894,0.08153149,0.04632408,0.004114993,0.08048039,-0.03321712,0.0461097,0.055704318,-0.059389345,0.018501244,0.061752327,-0.055401064,0.031591393,0.062597,0.019900389,0.03466028,0.03168325,0.011465102,-0.0035575181,-0.05160212,-0.044532694,-0.059720237,-0.03826108,-0.028644994,-0.0033225939,0.055612303,0.00035049766,0.0038130134,0.07759901,-0.051052805,-0.040095642,-0.02743126
0.0006682837,0.07409844,-0.053583108,0.006348036,-0.030184543,0.028260533,0.10959183,-0.0017354265,0.039254915,0.04006147,-0.0025258588,0.0081942985,-0.00438829,-0.01387604,-0.017507128,0.0077566174,0.02574353,-0.09495136,0.007906276,0.03717037,-0.066993535,0.057665773,0.053360123,-0.07137367,-0.016317435,-0.041152995,0.07655191,0.00848373,-0.07972365,0.10000138,0.003177889,0.03788427
0.078572884,0.18319365,-0.058996245,0.2041992,-0.25577614,-0.10351347,0.22607473,-0.1029014,0.08862297,0.21345823,0.16241756,-0.18465494,-0.18995649,-0.012660612,0.08293613,0.1715661,-0.15676899,-0.02789252,0.081753924,-0.13842696,0.07817525,-0.09607752,0.29492885,-0.046353288,-0.13746978,0.23675442,0.06764407,0.16806962,-0.084464304,-0.16823153,-0.15006997,-0.066136
0.27843696,0.09634579,-0.12722155,0.03522912,-0.40608442,-0.21306875,0.2817147,-0.010098599,0.4097895,0.42218682,-0.06225428,-0.4333499,0.12714034,0.13211001,0.121497296,-0.21988843,-0.29392073,-0.10307722,-0.13280371,0.23359956,-0.035480846,0.12051115,0.44973195,0.16750203,0.05181734,-0.14156906,0.3603028,0.29625416,-0.06542408,-0.13461477,0.29445454,-0.020284573
0.015543203,0.08964761,-0.018621273,0.4382426,0.112044096,-0.1116991,0.36753336,-0.100064844,0.029740192,-0.035572555,-0.17842351,-0.09162028,0.19147457,0.13207543,-0.42282838,0.22890201,0.15022585,0.03284701,0.085122,0.06520105,0.058653247,-0.080654375,0.2819926,-0.040403184,-0.44933617,-0.075305484,0.31858695,-0.01024065,-0.13005845,0.20996405,-0.09572741,-0.19291641
0.06805799,-0.19938622,0.24247217,0.028539704,0.30524155,-0.16982564,-0.064570874,-0.3095476,0.1759895,-0.031171735,0.15657409,0.041570727,0.088708684,0.092957124,-0.29423577,0.41768664,0.32886198,-0.40277126,-0.13941309,-0.17797887,0.09369371,-0.013569535,0.22069609,-0.041404698,-0.22261773,-0.49438065,0.07615958,-0.066291325,0.13021003,0.0009130165,-0.20802589,-0.40152854
0.2385794,-0.28305787,-0.23006898,0.08043622,0.29621512,0.031809997,-0.07022043,-0.2064657,-0.06253716,-0.029697252,0.033246662,0.28656986,-0.009254339,0.09782142,-0.29533735,0.26296353,0.5748269,-0.21129823,-0.10179083,0.08517535,0.007134766,-0.041881412,-0.046812236,0.039262526,-0.34694242,-0.18935768,0.041909907,0.11559956,0.17779198,-0.1619885,0.05968454,-0.58959466
0.2716531,-0.28196797,-0.3897948,0.11390369,0.17526199,-0.0364931,-0.10138252,-0.23362525,0.022464553,0.0982455,-0.027941458,0.22951975,0.00076553074,-0.06921271,-0.26289052,0.15929468,0.3768722,-0.33949548,-0.18594155,-0.1340897,-0.037775133,-0.053178493,0.0018796509,-0.015949214,-0.3735145,-0.104596704,-0.090727836,0.17324129,0.08862445,0.083523735,0.116616815,-0.6753221
0.2552725,-0.3327403,-0.53703403,0.21224329,0.2220114,-0.08569251,-0.22111319,-0.16612527,0.26479036,0.16030023,0.14119188,0.023069475,0.06288696,-0.39677075,-0.25610843,0.28797582,0.26119086,-0.25192618,-0.10860371,-0.24952956,0.0072967974,0.0105145145,-0.18850704,-0.11528062,-0.5793919,-0.034061614,0.20484126,0.10060145,0.122898646,-0.12640038,0.0356605,-0.13060184
0.0850879,-0.09281549,-0.22326359,0.30720913,0.25086176,0.07690489,-0.17737833,-0.2373614,0.15996835,0.025646035,0.0046524014,0.13728032,-0.08978294,-0.23720361,-0.3997835,0.28034002,0.22787023,-0.13840255,-0.16820434,-0.12103759,0.0007786081,0.07277638,-0.32796988,0.0013456456,-0.7340738,0.17904048,-0.020416945,0.16761829,0.037837826,-0.04203454,0.29551288,0.14320967
0.24232364,0.058644965,-0.42790744,0.3014295,0.16618212,0.12060317,-0.1486975,-0.31153947,0.04478922,0.22817095,-0.0635164,0.049863003,-0.313931,-0.14048728,-0.15538196,0.4452789,0.16269323,-0.24714504,-0.12848029,0.028016062,-0.10130687,0.029530086,-0.28272012,-0.1290535,-0.8017594,-0.07737668,0.023104127,0.12321942,-0.087768786,0.16694811,0.02826286,0.08326204
0.25815842,-0.022339946,-0.28829056,0.3326371,0.121441446,-0.08211687,-0.08473957,-0.20412078,-0.025902342,0.25594348,-0.04370571,-0.11950072,0.11678409,0.01843929,-0.43356547,0.18516636,0.02232036,0.028732382,-0.10986814,-0.0343941,-0.13238896,-0.0332103,0.08611446,0.10839737,-0.67085,-0.12033721,0.0106440885,0.18381222,0.1292727,0.01277055,0.23679294,-0.04542472
0.2847278,0.044537585,-0.3112634,0.26210293,0.15686433,0.025104582,-0.013104897,-0.15849261,-0.018987821,0.18850684,-0.0067438544,-0.08842289,0.05080766,-0.25520512,-0.21122238,0.040894065,-0.01401809,0.19526069,0.03670103,-0.106947064,0.05953465,-0.0520649,0.0033151498,0.06451527,-0.77127546,-0.23002651,0.060336374,0.14123914,0.087854646,0.07543196,0.097625695,0.13645907
0.16543753,0.15874445,-0.076775394,0.19352037,0.11300362,0.08146577,-0.010452888,0.03657055,0.052003227,0.2133026,-0.10179535,0.03321381,0.06959338,-0.35059553,0.07314869,-0.046225764,0.16076075,-0.010680821,0.1249265,-0.23477286,0.17734018,-0.0033845864,0.022545844,0.036524605,-0.5885148,0.03902185,0.16556396,0.08613178,0.040433787,-0.103519775,-0.09661394,0.17621657
0.10477812,0.19279224,-0.17447491,0.05766521,0.014603696,0.124144346,-0.07456922,0.0115971565,-0.008378721,0.15091382,-0.09411203,0.021736238,-0.037212797,-0.16108696,0.022152115,-0.12660639,0.19537094,0.089126974,0.28037643,-0.03314196,0.095723,-0.13029747,-0.071472935,-0.063658945,-0.6734566,-0.033961706,-0.11719483,-0.02671332,0.08200605,0.12631188,0.03285893,0.101361535
0.18503527,0.4167079,-0.18904649,-0.15512827,-0.089661255,0.07725815,-0.23282807,0.03337493,0.070857406,0.26596877,0.18132615,-0.22167023,-0.062948056,-0.11721261,-0.028602416,-0.2455016,0.09241946,0.03969502,0.18838388,0.15084709,-0.10986092,-0.007922469,-0.030471308,-0.001093131,-0.4108852,-0.17876042,-0.07257027,-0.10644301,-0.045718204,-0.0004733493,0.1921719,0.11502628
0.11481875,0.23659313,-0.15289542,-0.21803716,-0.10569332,0.2580766,-0.21988222,-0.06737927,0.076860204,0.13898225,0.17368457,-0.09475668,0.0035872052,0.0076889447,-0.010694006,-0.104359575,0.08389739,-0.07101986,0.25121155,0.13511634,-0.08952353,-0.17007624,0.15390378,0.09612485,-0.31953275,-0.18544802,-0.045022927,-0.35091722,0.03116771,0.14039338,0.1682703,0.080856495
-0.07968028,0.092503704,0.027111145,-0.18706912,-0.27930486,0.15531774,-0.16871922,0.0033915134,-0.024300372,-0.086078666,-0.14682293,-0.050002087,0.12754522,0.03841611,-0.09409662,-0.1235551,0.14860599,0.122682884,0.19937998,0.23284122,0.040982798,-0.1745136,-0.1478459,0.19049226,-0.14603148,0.12998961,-0.034134597,-0.3557197,-0.018847052,0.20259237,0.26326224,0.021999134
0.01501944,0.02603407,-0.059193384,-0.17772193,-0.13965634,0.090306364,-0.14378999,0.035390668,0.14181271,-0.06365674,-0.15475795,-0.03632703,0.16051285,0.19311313,0.00019201751,0.0026323427,-0.071636535,0.17865877,0.044066265,0.3662221,0.04911356,0.0083914,-0.035447214,0.22180365,-0.11665839,0.038267802,-0.028693533,-0.027356705,0.11697619,0.1659483,0.20312902,-0.12911804
-0.16363072,-0.094182625,-0.031170232,-0.09613387,0.10411739,0.0029894253,-0.114415064,-0.20657343,0.1601449,-0.1316099,0.18504147,-0.13462427,-0.05471888,0.2234472,-0.07251219,0.24821886,-0.30958253,-0.050349973,0.009326294,0.051418077,0.09157125,-0.018645754,0.14459151,0.121854536,-0.10753065,-0.016674235,0.052614596,-0.114569604,0.00892611,0.15727428,-0.10364939,-0.07107054
-0.0367685,-0.07029526,0.06909448,0.15611786,-0.13224982,-0.12209194,-0.22964972,-0.26985547,0.13353735,-0.09051555,0.14801699,-0.03420807,-0.16505125,0.1057318,-0.18005688,0.12392881,-0.10630078,-0.14881893,0.079367794,-0.091315016,-0.02075142,0.050266135,0.014600426,0.3435209,-0.31904334,0.037174266,-0.0005400063,-0.13548853,0.15270193,0.28306803,-0.12260058,-0.0321689
0.15943548,-0.09705686,0.14270984,0.18391213,-0.0766938,-0.079745755,-0.26965865,-0.18196873,0.102592684,-0.3019534,0.0387506,-0.07174247,-0.24668096,0.26188704,-0.21479008,-0.09199908,-0.22055298,-0.14229673,-0.11263472,0.10300287,-0.18888634,0.22380914,0.007417215,0.51552033,0.09701701,0.007842813,0.06342463,-0.12542234,0.13981213,0.30453652,-0.08804926,-0.13411835
0.15320604,-0.053395808,0.065584436,0.049402174,-0.1387694,-0.21125077,0.010469636,-0.16873877,-0.16925466,-0.08237993,0.055163927,0.024068346,-0.0192563,0.09955626,-0.19326788,-0.22211008,-0.2616132,-0.0022887418,0.05834769,0.33318233,-0.3667477,-0.004914968,-0.105061114,0.46229,0.1078926,0.09588305,0.0055033406,-0.19273193,-0.026614672,0.30326495,0.042863682,-0.2716872
0.060275532,-0.100713015,0.42165923,0.43105212,0.059765406,-0.24542463,0.22300331,0.20436677,-0.21601102,-0.27146795,-0.03027797,-0.03114362,0.110578544,0.07796722,-0.045096662,-0.377817,-0.28256068,0.04678045,-0.177774,0.2587541,-0.25719813,0.12011105,-0.0034709554,0.18011557,0.12994877,0.03470474,-0.010388429,0.085751526,-0.08212625,0.5053994,0.04621159,-0.27927053
0.39881828,0.09980315,-0.044205762,0.3808211,0.03325895,-0.22363745,0.077981405,0.26858908,0.15249744,-0.008945784,-0.29958287,-0.12211498,0.28485072,0.23499249,-0.14232878,-0.45478153,-0.2500099,0.17689726,-0.591812,0.314084,-0.14171061,0.12764388,-0.12387423,-0.16150032,0.24133267,-0.23569696,0.014318375,-0.0060837176,0.12576275,0.3800355,0.23378932,-0.5403107
0.5206116,0.23992255,-0.11024796,-0.012823549,0.032895677,-0.20397353,0.19096719,0.068012185,-0.014792729,0.032198675,-0.26380816,-0.16257398,0.14107263,0.32827505,-0.2028478,-0.40981904,-0.33244112,0.18976404,-0.59638774,0.08899562,-0.30855843,0.11970801,-0.086561,-0.016924134,0.07542493,-0.049842745,0.23533344,0.10105141,0.16097064,0.12673633,0.19024034,-0.11958173
0.25729665,-0.01891455,-0.15816163,0.036899034,-0.13745874,0.18035026,0.016023383,0.09420814,-0.061332032,0.24683933,-0.28993532,0.1964516,0.21595661,0.20847261,0.019444458,0.014529199,-0.18191458,-0.0978054,-0.0980102,0.08579738,-0.31397665,0.28286064,-0.10257024,0.047937598,0.029432544,-0.25769824,0.2770188,0.0601067,0.2808434,0.13083474,0.123403154,-0.16932528
-0.22889324,-0.14307135,0.041327257,0.08088906,0.054081813,0.24709879,-0.08336038,0.10242462,-0.18759905,-0.00817475,-0.28272107,0.36424598,0.15908156,-0.28652617,0.038103044,0.18085824,0.21629171,-0.32653084,0.24348101,-0.09920757,-0.037651204,0.022513239,-0.29427972,-0.01959044,-0.2285639,-0.055098817,0.036325745,0.032688335,-0.021502055,0.24323872,-0.05362622,-0.1641339
0.0578639,0.06665527,-0.07620918,0.051873215,-0.05827955,-0.06579154,0.043071978,-0.04377176,0.027945615,0.06903798,-0.04936256,-0.054700732,0.07034362,0.06298301,0.017827876,-0.011615835,-0.07523225,0.010523297,0.054539002,0.07181909,0.030438282,-0.05438319,0.058645867,0.040702842,-0.033552222,-0.015361153,-0.04485612,0.029656574,-0.05716767,0.039624996,-0.06564401,0.046433248
0.065505885,0.057965748,-0.05463633,0.009880163,0.005247928,0.038538568,0.07448045,0.065191336,-0.06683724,0.03326629,-0.008788481,-0.041009907,-0.037509754,0.020195723,-0.0077756345,-0.02439724,0.053103976,0.071705125,-0.028068732,0.06645738,-0.058008403,-0.020270772,0.08265195,-0.08112029,0.0021735653,-0.042874154,-0.01243154,-0.07282768,0.084341906,-0.0062195435,0.06742676,0.066406645
-0.027246928,0.14882001,0.19379278,0.0022549743,-0.1010778,-0.013602888,0.041916393,-0.17585169,-0.212694,0.22715949,0.15785286,-0.046475086,-0.117699735,-0.09667286,-0.03930079,0.49846652,-0.01226567,-0.11491084,0.0013645204,-0.011562079,0.41800213,0.07456872,0.14245309,0.075462066,-0.3109568,0.20721255,0.17731673,-0.019460145,-0.15000932,-0.22151525,-0.11338223,0.0040689884
0.21818207,0.10280044,0.08099557,-0.2118639,-0.014138618,-0.24968788,-0.046975497,0.21268967,0.33978862,0.056742456,0.30222046,-0.017652702,0.24302304,-0.33364052,-9.771452e-06,0.1681238,-0.095301874,0.028742695,-0.31696305,0.07859331,-0.14478225,0.10650267,0.3780687,-0.23288098,-0.0763278,-0.16620539,0.1162484,0.2226129,0.21097083,-0.20681384,-0.02720339,-0.36229378
-0.21652827,-0.28418407,0.058424857,0.12899068,0.31605667,-0.3043062,0.05329516,0.07946506,0.1333008,-0.15136316,0.38603833,0.32010064,-0.29542893,-0.18907647,-0.40310347,0.5822472,0.124597326,0.031824645,-0.08753169,-0.08671832,0.07103468,0.093817286,0.12997763,-0.45511514,-0.4449038,0.19140086,0.2816611,0.3870377,-0.120309845,-0.049966037,-0.32708186,-0.31738067
-0.16005154,-0.43414423,0.10882026,-0.1402441,0.15044467,-0.2984366,0.11036039,0.11584737,0.50330627,0.09529984,0.18694705,-0.029168611,-0.34230766,0.16076863,-0.2325961,-0.030886214,-0.40200925,-0.42391288,-0.2116509,-0.0976045,0.09740354,0.22276588,0.36385348,0.09099175,-0.2826022,-0.06938311,0.26657766,0.23877266,-0.09550234,-0.2308736,-0.45495826,-0.5774318
0.014751239,-0.25862283,-0.14814831,0.17404443,0.2401476,-0.1515422,0.045113634,0.41793373,0.17769383,0.17251548,-0.041904595,0.27250367,-0.20569603,0.04531235,-0.34501103,-0.05180436,-0.27660793,-0.16991206,0.01986242,0.007812841,-0.09811672,0.012128793,0.13668597,0.008766824,-0.35371432,0.026379684,0.15889038,0.25059965,-0.012325206,-0.32184306,-0.2550327,-0.93223655
0.16723329,-0.27910963,-0.27404734,0.2526108,-0.047448676,-0.22318858,-0.01635988,-0.0191418,0.031898357,0.097681224,0.05153765,0.08010126,0.24724936,-0.20686854,-0.43592134,0.032920133,-0.13851385,-0.041270707,0.062258836,0.18949974,0.083816804,-0.13822614,0.019530749,0.116232134,-0.2155321,-0.17114705,0.1446201,0.20817867,0.15437405,-0.06555037,-0.03397959,-0.8533351
-0.08685943,-0.19125561,-0.4392068,0.11106085,0.20849766,-0.0364012,0.06082055,-0.1426162,0.04012935,-0.041838225,-0.11315895,0.1898037,0.08074927,-0.08836823,-0.10750238,-0.06889767,-0.105405636,-0.21875596,-0.05584965,0.017838847,0.17832293,-0.12681139,-0.27878517,0.030570831,-0.077765964,0.061646555,0.13924856,0.26491246,0.2559658,-0.11878201,0.04005104,-0.4018886
0.038018093,-0.23891549,-0.32508692,0.1966788,0.008942189,0.07942449,0.05312954,-0.017596329,0.030712236,0.089508295,-0.0021386174,0.14934008,-0.1537599,0.030989558,0.03261603,0.03386479,-0.2644996,-0.28326783,-0.11238873,-0.11744497,0.112316065,0.036812846,-0.04933435,0.2008694,-0.11212966,-0.021302672,-0.030678768,0.17245999,0.118111804,-0.034752034,0.042773746,-0.09212583
-0.091694735,-0.08687266,-0.50785995,0.07437742,0.057887334,-0.14119492,-0.19442338,0.0068413317,-0.07754054,-0.033550274,-0.032297224,0.048948117,0.024465999,-0.028286962,-0.25601035,0.16393599,0.0786615,-0.11993874,-0.051392265,0.0044009336,-0.0028331464,0.12022788,-0.23169935,0.24097796,-0.16879398,0.01256692,0.065544985,0.105594456,0.12380969,0.007513389,0.17388014,0.15670814
0.19070032,-0.081884995,-0.21951069,-0.098893784,-0.04693734,0.032382872,-0.17367786,-0.0656867,0.13347611,-0.019510845,-0.01087103,0.0950973,0.084116645,0.12775666,-0.12070314,0.045674443,0.022752525,0.14320488,-0.0024720838,0.103930645,-0.19442368,0.102293044,-0.26222315,0.04304457,-0.13668284,-0.09509261,0.047214463,0.26565108,-0.051369216,0.24832122,0.23488809,0.12014567
0.29541636,-0.037851267,-0.15591632,-0.20422839,-0.07006497,0.12798809,-0.109743714,-0.17212903,-0.056252174,0.012225421,-0.13423249,0.34525323,-0.04775225,0.17274392,-0.15415236,-0.026998803,-0.08148108,-0.011936469,-0.10351098,-0.01749654,-0.047183093,-0.02039561,-0.28436282,-0.04847559,-0.22456037,-0.08729277,0.10525378,0.25944427,0.024262706,0.18511814,0.065228865,0.10633174
0.13742206,-0.009444886,-0.08033035,-0.45756698,-0.19836813,0.015607084,-0.06271282,-0.03461033,0.0024850175,0.03958441,-0.12661493,0.06683649,0.042139508,-0.005260596,0.08217342,-0.06806443,0.0785585,0.07346501,0.036308624,0.011898654,-0.037326373,0.032096185,-0.09091527,-0.104237214,-0.36453792,-0.0009942657,0.13476431,0.33867002,0.10879358,0.13194758,0.043473084,0.24583775
0.098590165,-0.010016436,-0.12527809,-0.3900497,-0.1019681,0.09689085,-0.16301936,-0.1690435,-0.018508885,0.027009606,0.06937163,0.10685163,-0.053517897,-0.054802664,0.06036325,-0.10803301,0.12449567,0.06882787,0.22332767,-0.11569361,0.0676358,0.083502986,-0.025856357,-0.049878206,-0.23409306,0.01423934,0.026954263,0.14345983,-0.06517871,0.123368286,0.109834105,0.15374841
0.20446718,0.11835995,-0.08398963,-0.32019064,-0.09014439,0.0593164,-0.03776334,-0.17343006,0.06904815,0.0853639,-0.028506389,-0.009633584,0.027106464,-0.06520383,-0.117805645,-0.047346186,0.079926535,-0.13205692,0.12896854,-0.030217618,0.16228609,0.13291422,0.033103548,-0.0317486,-0.33332497,-0.11895834,0.07190717,0.11435937,-0.037243936,0.0043859854,0.1284138,0.11034893
0.29661882,0.16835792,-0.13628294,-0.019297918,0.012834045,0.0913451,-0.18060833,-0.26431167,0.0638354,0.097760096,-0.0726623,-0.09646154,0.14297718,-0.10081468,-0.21170436,-0.07573733,0.14040418,-0.04955042,0.13738905,-0.0030333137,0.01873631,-0.0023001698,-0.007997904,-0.06230234,-0.25288647,-0.14620394,0.09355617,0.013366712,0.10312428,-0.01030181,0.08001314,-0.0932905
0.12962112,0.22770555,-0.085201845,-0.05077309,-0.008957252,0.091140576,-0.3092462,-0.11844314,-0.08801079,-0.0037763743,-0.20506689,-0.12669335,0.25608397,0.009113257,-0.034796093,-0.048687603,-0.058396723,-0.13021691,0.08557753,0.18241653,-0.057520643,0.07315015,-0.11345619,0.078405306,-0.18903293,0.057809364,-0.09595124,-0.09673635,-0.1568106,0.17111447,0.17062812,-0.121376775
-0.0127402125,0.24917147,-0.03692677,0.006771374,-0.08142193,0.22605796,0.06368223,-0.16543388,0.09725622,-0.17785689,-0.10069781,-0.017168833,0.20817633,-0.090974234,-0.03382102,0.13379775,-0.05962606,-0.20852052,0.05077189,0.43167385,-0.123922944,0.19164188,-0.0017426799,0.013173543,-0.22274391,0.03646941,-0.00747324,0.010228325,-0.03714978,-0.009520426,0.015724134,-0.24244002
0.12813488,0.16175191,-0.12258407,0.10126014,-0.17254053,0.14793,-0.14286804,-0.22578414,0.084449306,0.011685078,-0.08195913,0.07204169,0.10741246,-0.08893327,-0.17808132,0.26342094,0.031993896,-0.15070343,0.021666747,0.10510034,-0.12585177,-0.0013489033,0.03902439,0.016719906,-0.18711507,0.06853408,-0.0864725,-0.06184627,0.054062832,0.16842829,-0.15923165,-0.16969626
0.19011235,0.008008031,0.06391957,0.13653189,-0.050518576,0.08121501,-0.2793074,-0.104170375,-0.036681063,0.008849404,-0.10573074,-0.0052609956,0.21075961,0.13708095,-0.422134,0.3200829,-0.019957708,-0.002972114,0.033762515,0.096139364,-0.18345012,0.16469173,0.04544772,0.10252018,-0.2417014,-0.04261487,-0.06860957,-0.008631939,0.01014559,0.17088303,0.09848018,-0.10390993
0.0105406875,-0.015046971,0.056476425,0.10784304,-0.0706148,0.1651057,-0.27165124,-0.32422602,-0.05448927,-0.06574055,0.045312338,0.11695727,0.18183462,-0.026911292,-0.3247766,0.18647315,-0.01098144,-0.11754545,0.09206822,-0.04520513,-0.31053388,0.12637112,0.019339446,0.15135035,-0.08365589,0.027907664,-0.23775943,-0.14965063,0.1362184,-0.026043534,0.12315557,-0.120599575
0.2502107,0.13106446,0.15012282,-0.0211533,-0.13880412,-0.09191187,-0.10796786,-0.34190014,0.05685443,0.17314468,0.19099507,0.03513961,0.26460674,0.026182828,-0.30026448,-0.089375116,-0.20518225,-0.18516636,-0.04590388,0.21438855,-0.38088983,0.22400734,0.21064857,0.14894313,-0.03135456,-0.07111744,-0.081090644,-0.1624373,0.07871886,-0.24726133,0.19389029,-0.15920593
0.16840523,0.09924589,0.44093028,0.09422289,0.15685876,-0.16601355,0.090255246,-0.3420288,-0.050180975,-0.060630165,0.12203015,0.21523514,0.0149721345,0.025946548,-0.1765762,-0.20237875,-0.14078647,-0.17059775,-0.065442264,0.0035444144,-0.13525146,0.133202,0.12630112,-0.005695956,-0.047088187,-0.13958961,0.21252921,-0.15133037,-0.024507677,0.023918824,-0.030042427,-0.04202903
-0.05930801,-0.11038026,0.38422704,0.2840742,0.1718433,-0.03404854,-0.16783851,-0.09701508,-0.23930575,-0.17116323,0.1341456,0.14251272,-0.11338884,0.06873167,-0.14660122,-0.014686521,-0.041748095,-0.23506723,-0.11225774,0.07845782,0.038942926,-0.01985711,0.1299277,-0.21045125,-0.033174418,-0.22038189,0.038421378,0.016367294,0.096420005,0.31200647,-0.08063996,-0.008633624
0.19963692,-0.018236946,0.00954364,0.24417259,0.28348568,0.14685442,-0.28741086,-0.22861376,-0.30088368,-0.007823387,-0.26006225,0.26657522,-0.0023390185,0.39911106,-0.24248677,-0.19643714,0.049342904,0.0040505584,-0.24294958,-0.111302964,-0.23812166,0.091019765,-0.1360989,-0.22290555,0.03400958,-0.098442964,0.17025992,0.3083327,0.43139657,0.35469657,0.21370046,-0.13260645
0.077181906,0.007146855,0.0891102,0.044779256,0.055887435,0.35185227,-0.18630536,0.21648955,0.28410828,0.11964449,-0.21191487,0.07892264,0.20002039,0.059633724,-0.30024153,0.13771543,0.09823481,-0.24248904,0.24076922,-0.025956413,-0.09940786,0.02867688,-0.19358581,-0.03444176,-0.07191422,-0.45794117,-0.11036429,0.19679086,-0.13381524,0.33503073,0.30301312,-0.029411519
-0.12920535,-0.07815037,0.16320983,0.25310424,0.16741854,0.19898011,-0.092077196,0.12874426,0.23789926,-0.15002061,-0.29977188,0.1042494,0.17353176,-0.2167069,-0.06360873,0.06268871,0.14422256,-0.023788882,0.037726004,0.026554488,-0.07519225,-0.014714226,-0.119850256,-0.07044119,-0.16477068,-0.1949434,0.052779917,-0.021303274,-0.1534862,0.16911303,-0.018714644,-0.16846359
0.021219917,-0.0016417354,0.06022177,0.031113677,0.008933879,-0.015168063,-0.017591722,-0.034000073,0.07093874,0.03616575,0.04897166,0.02897092,0.04088389,0.06545932,-0.01948455,-0.037978355,0.032226987,-0.027083077,-0.027714662,-0.036598474,-0.042839132,0.07316094,0.006180659,-0.009925753,-0.057722613,0.023946911,0.065975614,-0.0027766302,-0.06522609,0.018814102,-0.06487316,-0.044630703
0.096712075,0.11843218,-0.103626646,0.060205482,0.13524625,0.087467074,0.09535661,-0.13234778,-0.02154766,0.23430362,-0.06374643,0.04525204,-0.013987726,-0.11409528,0.07814277,0.14205728,0.16798896,-0.024305962,-0.040673535,0.04755452,0.020866895,-0.075389504,0.117104925,0.055829592,-0.045713533,0.07964816,0.19925573,0.02821636,0.112285994,-0.09456679,0.12719402,-0.08235957
0.10174329,-0.35380083,-0.112394474,0.19741252,-0.08665119,-0.265679,0.1104567,0.007856756,-0.06026816,0.114596836,-0.18832625,-0.19772029,0.008253002,0.15945625,0.32498726,-0.23120365,-0.05741179,0.25211194,0.052390076,0.12924427,0.0044641355,0.24671403,0.052969348,0.3231358,0.2372246,0.08659098,0.104082726,-0.19366622,-0.17425774,0.17502831,0.017987065,-0.049822345
0.1640421,-0.32735705,0.115060836,-0.16380572,0.17104703,-0.33936045,0.30392104,-0.0231881,0.20116867,0.06354359,0.31630787,0.06492481,-0.27263373,-0.28297663,0.44833827,0.1691807,0.10963194,0.008055203,0.042240735,0.20960006,-0.35536778,-0.07728504,0.12630317,-0.12647381,-0.002414225,0.26543078,0.2896222,0.3287334,0.10117224,-0.11806088,-0.30988416,-0.2612255
-0.17434989,-0.34743217,0.3049682,0.27025437,0.14032768,-0.35941848,0.098200046,0.19332615,0.21342774,-0.055589885,0.20410818,0.26234746,-0.19930033,0.102076955,0.2964051,0.13572161,0.1352965,0.003094947,0.08909712,-0.016273417,0.03313166,-0.18202502,0.15381987,0.06711866,-0.109320864,0.20773014,0.40769812,0.17995399,-0.0754581,0.022493973,-0.23431374,-0.16904685
-0.12173525,-0.30069742,0.3019875,0.373913,0.08210555,-0.461003,-0.03146019,0.16898473,0.19610669,-0.03371987,-0.19629185,-0.0070936712,-0.13651359,0.18110043,0.3187124,-0.27268392,-0.33176067,-0.06835137,-0.18511124,-0.07867024,-0.14656201,0.09137784,-0.028403698,0.21558256,-0.011320283,-0.0822335,0.16961542,0.038112428,0.13646719,-0.20145811,0.011302485,-0.57674164
-0.013282734,-0.28811198,-0.31141624,0.26953566,0.101107195,-0.22125664,0.072070844,0.18770786,0.075857036,0.090172745,0.025380403,-0.0063276864,-0.20477344,-0.051620293,-0.38715738,-0.06060838,-0.12073456,-0.23737444,0.029802075,-0.124496914,-0.3133561,-0.14936957,0.02063341,0.030092847,0.07437449,-0.16198358,0.25780883,0.26569492,0.21513209,-0.204868,0.008463717,-0.8010408
-0.17953528,-0.30361423,-0.5891151,0.24623238,-0.11730152,-0.115521766,0.08767386,0.01102811,-0.10706148,-0.088053994,-0.02036479,-0.052824177,0.025039779,-0.034290448,-0.29012033,0.064737044,-0.1303177,-0.08248202,-0.13699594,0.09064523,0.026535226,-0.05351408,0.17500322,0.118629776,0.07130156,-0.06577757,0.026143493,0.27978522,0.26292402,0.027990356,-0.059472844,-0.6208368
-0.10710754,-0.15510444,-0.5536011,0.17974207,-0.14513175,-0.06504362,0.18829688,-0.19067344,-0.15170476,0.019514643,-0.06475658,0.069812365,0.0065011024,0.13931108,-0.07171989,-0.014700457,-0.21855089,-0.21993168,-0.10586893,0.077398404,0.018042242,0.09322841,0.025607184,0.15011059,-0.009444582,-0.19891468,0.060250428,0.32137945,0.057629995,0.05178471,0.06265681,-0.3020516
0.1846426,-0.019176142,-0.55062467,0.09323018,-0.066176355,-0.04426242,0.04189496,-0.10413545,0.01461972,0.018170662,0.011630988,0.015904866,-0.04463217,0.26755992,-0.11383741,0.18847096,-0.2080114,-0.19598691,-0.19285467,-0.02543893,-0.09890665,-0.058576737,0.18215626,0.005127881,0.31780696,-0.17651811,0.09700129,0.23655476,0.12101993,0.07014379,0.039490562,-0.16889961
0.003391688,-0.052927155,-0.34442928,-0.15959872,-0.29921255,0.05102809,0.004552352,-0.26978636,-0.13378763,-0.04187013,0.013849798,-0.048022136,0.07484291,0.13164684,-0.16947299,0.029688116,-0.102920376,-0.014539926,0.06501623,0.053604737,-0.100009486,-0.028257897,0.10740225,-0.05460515,0.114019014,-0.027709486,0.0852987,0.3767525,0.22580394,0.08122729,0.28490973,0.07164013
0.015355923,-0.14809187,-0.2358822,0.029357325,-0.26036832,0.10301846,0.05065313,-0.26266557,-0.1232515,0.12238872,-0.0013001842,0.061859943,-0.13132304,0.21471795,0.07385666,0.062237598,-0.20184216,0.06911921,0.051347308,-0.03965998,-0.071693115,0.10477229,0.039413802,-0.017406913,-0.1227103,0.011899124,0.1345716,0.3757272,-0.042276356,0.13599008,0.22454593,0.18068336
0.084174775,-0.17137198,0.033513423,-0.023783138,-0.25854343,0.18181352,-0.011924826,-0.29131192,-0.08154034,0.019671535,-0.02290558,0.10350862,0.04143428,0.18299933,0.20375012,-0.059224144,-0.18024275,0.28801998,-0.06175861,-0.05197676,-0.20746973,0.09554747,-0.05988505,-0.061641034,-0.089139566,-0.046147693,0.04605905,0.3413493,0.006328466,0.11600326,0.06581922,0.12134659
0.061852537,-0.14411087,-0.17113626,-0.4649724,-0.22809327,0.009178772,0.045492526,-0.27654198,-0.16928573,0.20333824,0.03986975,0.14824995,0.10678683,0.15003781,-0.05036836,0.013850273,-0.15478665,0.22501338,0.017850265,0.10855743,-0.17161942,0.055298198,0.06413509,-0.17513193,-0.06097263,0.026086733,0.12596306,0.401707,-0.07462103,0.04045659,0.15070537,0.33570242
0.06791682,0.0041670008,-0.070575036,-0.46476117,-0.10557799,-0.16672884,0.04338277,0.09389113,-0.09283986,0.16524677,0.059985496,0.004006448,0.13809007,0.062160835,0.041784924,0.023775628,-0.10097779,0.09357629,0.078951225,0.07611812,-0.09218521,0.07887689,-0.067405246,-0.14368938,-0.06332773,-0.047659315,0.020984963,0.4651594,-0.12853089,0.08701259,0.11058413,0.19924986
0.1746646,0.10942176,0.0026665954,-0.4518939,-0.04817866,-0.014054978,-0.12769543,0.020490525,-0.1923095,0.047093034,-0.125653,-0.009058722,0.08349333,0.073601566,-0.17776993,-0.016233709,-0.057228345,-0.21613565,0.14066567,0.09002943,0.18729739,-0.020955121,-0.09836719,-0.13096583,-0.12863256,-0.13575427,-0.062880345,0.397072,0.020395579,0.2359531,0.1078813,0.123138815
0.17844842,0.29745218,-0.12363909,-0.15701081,-0.1159261,-0.09201252,0.04152445,0.1362551,0.021564841,-0.08226208,-0.09392527,0.09938243,0.08415796,-0.031213792,-0.14131872,-0.049898542,-0.15550657,-0.30363202,0.1441835,-0.02707748,0.16779883,0.09785695,-0.12297784,-0.09127555,-0.17518216,-0.111260444,-0.0039169546,0.29065257,0.029635668,0.17871843,-0.0028503276,-0.18517356
0.11385417,0.26399323,-0.16435513,-0.043364897,-0.31061435,0.029291082,0.088952154,0.16158646,-0.054323,-0.112882204,-0.11218056,0.15584604,0.132587,0.028160822,-0.021955965,-0.021188114,-0.08853389,-0.2937762,0.15209772,0.06105026,0.07079077,0.21590617,-0.036913294,0.036669098,0.038017243,-0.07187586,-0.042829297,0.20001075,-0.20983295,0.13941094,0.04911454,-0.1726329
0.06416507,0.41252282,-0.07683531,0.009100472,-0.24394949,0.05737918,-0.019503055,0.113854386,0.09843146,-0.26123133,-0.008746573,0.070969075,0.23837934,-0.050223924,-0.013401952,0.051002853,-0.10202228,-0.43068936,0.017580248,0.17818092,-0.051246617,0.19642384,-0.027938398,-0.103394054,0.038258888,0.031570498,0.085083134,0.13055868,-0.079094216,-0.14990045,0.07647521,-0.09188844
-0.0047368035,0.16320801,0.06358171,0.21574208,-0.19968204,0.17698212,-0.22663757,0.08611169,-0.12025482,-0.24291271,0.050833397,0.05812318,0.19629067,0.0024257216,-0.18598041,-0.15133032,-0.040161207,-0.15140714,-0.048377007,0.04784809,-0.3074883,0.25858256,0.07423875,0.087034106,0.09795011,0.0248255,-0.040819094,-0.078469366,0.0047944686,-0.044620287,-0.0039811274,-0.10033354
0.12234031,0.008864282,0.10177961,0.05478545,-0.22537985,-0.06669055,-0.22705008,0.071979046,-0.11080792,-0.12040853,0.08576637,-0.03758071,0.081295386,0.08959888,-0.026779748,-0.028413158,-0.0969221,-0.08376303,-0.15341732,0.12961647,-0.41149205,0.23307179,0.14244702,0.02502122,0.12127985,0.087945424,0.1027698,-0.04035025,-0.060456753,0.028788416,-0.2883265,-0.09589615
-0.010689635,-0.080172405,0.059988465,-0.120363325,-0.3407085,-0.031873647,0.037997596,-0.011051526,0.063004814,0.06999672,-0.13110632,0.23537603,0.055238612,0.015477501,0.1502166,-0.11321277,-0.036888696,0.038227662,0.095870934,-0.016094018,-0.2682246,0.16720366,0.04118527,0.023577942,0.028323112,0.10384947,-0.0041084955,0.019472595,-0.022553278,-0.32443753,-0.22511232,-0.22625163
-0.04642158,-0.054458383,0.19408295,-0.0701061,-0.05584299,-0.09480997,-0.2481453,-0.062471755,-0.03685822,-0.0034494083,-0.0424284,0.16258411,0.33275962,0.053816613,0.036890168,-0.22325025,-0.088100195,0.07905928,0.05545443,-0.0046988735,0.023984289,0.16399923,0.19406947,-0.04175949,0.14131705,-0.16819753,0.061002053,-0.21521291,-0.040983047,-0.21525,0.21157092,0.07436318
0.07822394,-0.037812367,0.32173228,0.14475226,-0.021316295,-0.035467874,-0.89653575,-0.06859189,-0.11579309,0.05780457,-0.08391353,0.22555836,0.0018700303,0.16736326,0.08815597,-0.06805776,-0.00049740373,-0.11026721,-0.0233801,-0.27942103,-0.14716412,0.05222631,0.07113252,-0.13188888,0.1646956,-0.1662483,0.03982846,-0.093170494,-0.06801379,-0.15863276,-0.06443691,-0.13068178
0.17450817,-0.18536936,0.39925984,0.18905085,0.0012437295,0.0232818,-0.8751709,-0.15018894,-0.15917546,-0.04396677,-0.019137211,0.03518317,0.19001664,0.35654184,-0.051678136,-0.10654949,0.1470601,-0.233461,-0.10834014,-0.038682792,-0.18289751,0.34390944,0.2719846,-0.19110751,0.11197245,-0.37826484,0.02269047,-0.3310175,0.13342267,0.23668377,-0.016117634,0.19503951
0.29669252,-0.31374747,0.13896385,0.22918683,0.0043581296,0.48613423,-0.60344666,-0.07462454,0.02040501,0.08196942,-0.2260513,0.15564997,0.00075311377,0.2900568,-0.1642113,0.13847387,-0.11860713,-0.13692905,-0.15244105,-0.050952222,-0.36572945,0.5903239,0.07685567,-0.1724759,-0.15967661,-0.47256055,0.3279946,-0.10052624,0.017995458,0.2465718,0.05759986,0.24435653
0.37215573,0.07056864,0.16804567,0.17096703,0.069683634,0.3212878,-0.1463129,0.022108123,0.28492773,0.12574777,-0.04640704,0.1631924,-0.16007347,0.3031419,-0.07673246,0.12246402,-0.24446316,-0.072793595,0.0960194,-0.17461373,0.07387823,0.05782715,0.14695738,-0.1688257,0.0031549123,-0.22489643,0.16845362,-0.05392857,0.013897624,0.23531626,0.30898416,0.14718975
-0.14047047,-0.0035742254,0.15474749,-0.15972249,0.11481046,0.19219936,-0.19977392,-0.14112018,0.2910074,-0.0052096182,0.1989821,0.17426388,-0.053910237,-0.124025665,-0.08656044,0.25013363,0.14930768,-0.1333518,0.17444918,0.16127697,0.19459817,0.02823253,-0.058914993,-0.14824897,-0.20007214,-0.23607567,0.1825321,-0.09134357,-0.12017043,0.23585115,0.32409847,-0.3125145
-0.055719726,0.0014240618,-0.018782623,-0.031038629,-0.0776304,0.029220065,0.095919326,-0.05927533,-0.059666943,-0.045105524,-0.07478362,0.01368247,-0.05855871,-0.031047044,0.096731074,-0.091003254,0.010124552,0.0068639545,-0.0018942356,0.062112514,0.06870032,-0.022858568,-0.036233936,0.08212526,0.08269325,0.032562986,-0.052011006,0.075809814,0.0017332456,0.050046258,0.0262301,0.05946349
0.3513205,0.06203664,-0.33915102,-0.05695993,0.22100013,0.37780386,0.4005741,-0.3959869,0.27607304,0.35490814,-0.011930593,-0.19018707,0.29345176,-0.31081858,0.21842937,-0.3123526,-0.16346546,0.08273753,-0.057357542,-0.043325294,-0.11994304,-0.15445158,0.34644815,0.03679802,0.21626586,-0.08602001,0.24969146,0.2137778,0.26523206,-0.18197583,0.0898599,-0.26686585
0.30613825,-0.29832593,-0.10361365,0.26493803,-0.19613284,-0.1697097,0.2794474,-0.15767595,-0.20516135,0.11241903,-0.1778732,-0.20687799,0.03719756,0.22056453,0.39279786,-0.40020186,0.036514703,0.23559865,-0.11166022,0.27782556,-0.048179198,0.2300278,0.13964841,0.26463747,0.25964233,0.13609768,0.26050028,0.08109812,-0.084761046,0.1701707,-0.13763177,-0.10601785
0.2058698,-0.07417538,-0.24871157,-0.3158134,-0.06936659,-0.19535464,0.45746988,-0.041511483,0.123351075,0.17051397,-0.026993243,0.171493,-0.083722845,0.11721927,0.57103986,-0.18680854,0.21768677,-0.26733896,-0.23283984,-0.1281078,-0.43267745,-0.1626961,0.0444096,-0.006989254,0.40215564,0.23181364,0.34980956,0.4904465,0.25416368,-0.22856447,-0.17907946,-0.24847722
0.12757508,-0.36288872,-0.040106487,0.13532054,0.17576443,-0.25971526,-0.057509366,-0.16725788,0.010672806,0.17147033,0.066285886,0.24229692,-0.07817179,-0.15961571,0.34074226,0.2998021,0.4390779,-0.4588726,0.05395951,-0.22127225,-0.29168704,-0.3784068,-0.028456071,-0.258596,-0.11438265,0.27584827,0.262417,0.19043368,0.23077509,-0.3170406,-0.33392975,-0.40318307
0.05789075,-0.18400666,0.15527017,0.38149887,0.2003311,-0.2534114,-0.21579763,-0.31206986,0.18977559,0.0018946672,0.047694433,-0.00087230426,0.08431189,-0.14976145,-0.08624646,-0.19657749,-0.11806117,-0.21907987,-0.15701717,0.021678802,-0.47689936,-0.058292523,-0.20253126,0.059636172,0.06326632,-0.075474754,0.22243893,-0.090851694,0.11986521,-0.33571064,0.031134022,-0.4958093
0.042961575,0.004962803,-0.35673675,0.026104217,0.036327466,-0.14440605,0.088049546,-0.2405007,-0.12812231,0.08423497,-0.14358094,-0.037183385,0.001986841,-0.010507158,-0.019771889,-0.1253205,-0.10784773,0.057310313,-0.04111152,-0.11740237,-0.3624643,-0.16509646,-0.16887027,0.19149213,0.21747978,-0.1574661,0.18757866,0.21842454,0.29122064,-0.1809573,-0.024705797,-0.6901447
-0.06711101,-0.30838963,-0.2974512,0.18914917,0.046883404,-0.010148675,0.16358298,-0.14886498,0.038207706,0.045435883,0.04969186,0.054503184,0.05924762,-0.25278336,0.007326276,-0.0735622,-0.1559407,0.00443223,-0.065014325,0.0077453163,-0.111398086,0.033372253,-0.056566257,0.1995898,0.054870646,-0.18883367,0.120601445,0.14932615,0.10603492,-0.14052711,0.08961535,-0.4422637
0.06872404,-0.17711665,-0.50690687,0.27566636,-0.0007069444,0.097832814,0.057365354,-0.2036874,-0.036282387,-0.023989473,-0.033910833,-0.061527375,-0.033731733,0.19890998,-0.07052786,0.1466868,-0.1703714,0.09200095,-0.23982745,0.07210921,0.092885785,0.018815925,0.018164983,0.013857469,0.011925324,-0.29353857,-0.009074928,0.17160848,0.109335385,0.15241876,0.049866173,-0.26788205
-0.06905922,-0.22869535,-0.39215165,0.19715048,-0.2129706,0.18785769,0.012402301,-0.24216145,-0.18113208,0.07617455,0.05785035,-0.03993515,0.07151714,0.1457579,0.066174164,0.033624656,-0.2970878,-0.0037549883,-0.018648613,0.0024424153,0.085446194,-0.05205075,0.15892868,0.1689891,0.08707927,-0.05228539,0.10235904,0.12816957,0.07373877,0.060556225,0.15467022,-0.13855065
-0.08022039,-0.17830871,-0.30516618,0.07164567,-0.13694045,0.2155909,-0.119016506,-0.3213179,0.013223969,0.050963804,-0.0080097765,-0.041238397,0.004416604,0.11922002,-0.07060353,0.08105385,-0.20066798,0.17355128,0.083077244,0.13744617,-0.15208384,0.1258156,0.11495732,0.1726815,0.039790783,-0.003856716,0.015125461,0.22585556,0.1445186,0.09882786,0.32729265,0.17938834
-0.085142784,-0.12933391,0.11506035,0.01756507,-0.042502336,0.0017142505,-0.06223243,-0.34719828,-0.0047426866,0.00075635815,0.038298942,0.03452538,0.027931111,0.0035888138,-0.07218925,0.0145700835,0.0024148491,0.18353406,-0.045939155,0.12472688,-0.06086065,0.110679604,-0.03742202,0.1669028,0.06764505,-0.029348368,0.14359151,0.25031355,-0.025674567,0.085716195,0.06897405,0.20913431
0.07300047,-0.105423145,0.13278829,-0.17013794,-0.13587806,0.014908202,-6.789324e-05,-0.026621696,-0.0007717378,0.12279747,-0.021028277,0.009259332,-0.08344683,0.03122886,-0.07766716,0.042430732,-0.21929206,0.19260898,-0.12516823,0.009198891,-0.16344886,0.019807834,-0.082786456,-0.06778806,0.25593922,0.01270638,0.14698485,0.3500402,0.09948777,0.045415916,0.006401175,0.15817395
0.031928323,-0.094051346,0.025223726,-0.35633194,-0.19217476,-0.08453315,0.043041375,-0.07576333,-0.09876637,0.102051936,0.008999102,0.20740296,-0.06667291,0.062152658,-0.049646392,0.10040788,-0.121425316,0.3138845,-0.06296581,0.06589815,-0.11009113,-0.030722996,-0.15632781,-0.100048184,0.13199261,0.11926796,0.11993822,0.548643,0.08004686,0.034737702,0.046052836,0.1471182
0.050207753,-0.10225147,0.0789588,-0.4085186,-0.021664245,-0.1683166,0.07300049,0.04984711,-0.09320237,0.15220386,0.09634548,-0.062807225,0.17312743,-0.012949067,-0.04948488,0.16756307,-0.17465341,0.11384719,-0.16511191,0.20616356,0.092447326,0.1677653,0.1571549,-0.111429736,0.09833727,-0.11663844,0.039223477,0.39769894,0.06368297,-0.11499323,0.11094991,0.25036988
0.04034191,0.010755124,-0.17501242,-0.18398345,-0.12991044,-0.15561184,0.01682647,0.13763721,-0.04362732,0.18903741,-0.079071365,0.16995363,0.083189026,-0.0018747074,-0.041503884,0.18755911,-0.07515363,-0.3922262,0.023837982,0.098779246,0.16100203,0.08795805,0.01633845,0.054678615,0.049705803,-0.02014626,-0.11411377,0.32311437,0.025239373,0.16016744,0.0072808377,0.028217232
0.009178535,0.08255288,-0.12004145,-0.14259431,-0.26403293,-0.15156047,0.0036383714,0.21229151,-0.06650859,0.0028847894,0.06870162,0.0751673,0.20444496,-0.04140222,-0.12322322,0.003773993,-0.078640684,-0.25398868,0.004842835,0.14469184,0.026169203,0.19612977,-0.053980324,0.10560646,0.035640832,-0.08256861,0.041947994,0.08479682,-0.012384263,-0.019604258,0.056981,-0.036265135
0.054196652,0.20323624,-0.063047215,-0.048326742,-0.17404026,-0.058853023,0.047729023,0.20575117,-0.07460342,-0.09774397,0.2328171,0.17842767,0.22476046,0.08568788,-0.03557236,-0.22032182,-0.14137733,-0.14912781,0.19516277,-0.034713216,0.09379748,0.28801018,0.09630391,0.23919639,0.035254255,0.03916754,-0.019227486,-0.010571067,0.02569231,-0.029511286,0.031087032,-0.20009969
-0.12545335,0.27047488,-0.0016666268,0.094840825,-0.21990067,0.17604977,-0.052169967,0.23973487,0.0040272744,-0.033038564,0.021233125,0.20073599,0.27093035,-0.03627047,0.07590895,-0.16636962,-0.006079161,-0.025849426,0.09338676,0.03697996,-0.14500311,0.2784073,0.059655532,0.08989423,-0.044400044,0.055546302,-0.041314885,0.08032499,0.029465687,-0.107223675,0.125814,-0.10514099
-0.083971925,0.37476948,-0.052410245,0.07813073,-0.25061622,0.06625586,-0.09683917,0.0923728,-0.118935525,-0.19133903,0.054279275,0.09657918,0.20506622,-0.004739103,-0.030773196,-0.31222707,0.014483597,0.0007835443,0.06866695,0.09939473,-0.22612904,0.22648871,0.16389385,0.092544325,0.09961622,0.097619936,-0.004376268,-0.18840694,0.14220825,-0.18814418,-0.019184163,-0.054928426
-0.0957423,0.16802639,0.050161336,0.02839251,-0.24129613,0.013735517,-0.07880692,0.11519276,-0.1296106,-0.03523438,0.13836427,0.087667525,0.21154782,0.026908357,-0.15406664,-0.2993323,-0.26512527,-0.044668663,-0.06830417,0.08737738,-0.16663069,0.21953613,0.22645083,0.107240684,0.17366508,0.00064180145,0.13931563,-0.11110137,0.14359722,-0.24996653,-0.11599489,0.08441953
-0.10491425,0.1629934,0.04212593,0.04972063,-0.17945078,0.008654501,-0.018159827,0.23171717,-0.048266467,-0.048770305,-0.040007345,0.1008326,0.21235648,0.018158643,-0.21159409,-0.13114747,-0.06006251,0.027311279,-0.0034431894,-0.05183239,-0.2760301,0.061214127,-0.057206243,-0.054258104,0.066230424,0.026273562,0.0060863816,-0.13065985,0.13936928,-0.19235353,-0.12373972,-0.043210015
-0.0937229,0.108390905,0.15471299,-0.046834335,-0.022865044,0.15022665,-0.31335714,0.1310858,-0.021360908,-0.090861134,0.040952012,0.19102769,0.42678085,0.24919493,-0.013828897,-0.13423203,0.08762247,0.03202512,0.06024054,-0.09941403,0.023612523,0.04903528,0.101492405,0.11041094,-0.051356666,0.015738377,0.077291586,-0.3459595,0.17104292,-0.2095942,0.07925075,0.10027979
0.055731915,0.04751869,0.26422566,8.035582e-06,-0.36077508,0.058213584,-0.7528819,0.005707658,0.17548148,0.096042626,-0.07406728,0.17659351,0.27223507,0.14609446,0.18586832,-0.24625108,-0.29132396,0.008293892,0.07578564,-0.3246445,-0.024401406,0.15645033,0.094494455,0.08102507,0.2508132,-0.060011283,-0.054931108,-0.49318498,-0.05822999,-0.20440795,0.11937282,0.1561315
0.040382836,-0.13157623,0.11467858,0.07735724,0.1804638,0.0014460282,-0.6379748,-0.114407845,0.11230566,-0.040475044,-0.20703763,0.21962872,0.17870821,0.272961,-0.056171395,-0.22765522,0.12284263,-0.1876497,-0.12044119,-0.29651678,-0.29830945,0.028697403,-0.061755717,0.06116806,0.3001009,-0.17129536,0.053807784,-0.38931203,-0.043043837,-0.02251644,-0.23181958,0.12487452
0.13809094,-0.21302083,0.025555503,0.21119736,0.3514915,0.35002056,-0.5192105,-0.06785356,0.0006528749,-0.09551474,-0.54535323,0.08959325,0.08908328,0.08880651,0.026270177,-0.027800675,0.14713752,0.053709093,-0.114635214,-0.09961047,-0.2270643,0.10289154,0.12288987,-0.016491054,0.06409943,-0.26881126,0.35072583,-0.31499127,-0.052692723,0.078449376,-0.18951507,0.23194572
0.21316405,0.18764235,0.10708888,0.45878577,0.30938435,0.021407537,-0.3079161,-0.094558895,0.11909537,-0.036905512,0.09315737,-0.10888367,0.17058949,0.25669527,0.118801594,-0.12001134,-0.1855514,0.1440613,-0.043780863,0.32334942,0.21063833,0.38401768,0.37504128,0.04902299,0.18734786,-0.3766701,0.25219393,-0.255032,0.23338024,-0.017575983,0.007054576,0.07271402
-0.041802503,-0.14575179,0.01521754,0.17583784,0.25277886,0.15348941,-0.2364415,0.02080345,0.3220688,-0.1640273,0.11452788,0.0456923,0.21801333,-0.20469953,-0.17227827,0.17964968,0.13312882,-0.038040042,0.013048432,0.26979375,-0.007831654,0.07214682,0.1713646,-0.11804783,-0.154264,-0.15559538,0.18880713,0.0074195056,-0.051112674,0.32329693,0.35773316,-0.23956603
-0.28920293,-0.25393736,0.075149216,0.069878995,0.23426013,0.13810939,0.1640447,-0.1685342,0.00712419,0.019896971,-0.009779066,0.14198615,0.0025520518,-0.06008013,0.029355928,0.21148668,0.22127695,0.25376,0.10003161,-0.040689364,-0.0016375157,-0.009392999,-0.038850926,-0.16416731,-0.33592853,0.22110061,0.057161443,0.096787885,-0.01863042,-0.1297255,-0.0077416417,0.16288954
0.008501345,-0.04090673,-0.4782971,-0.038159337,-0.1266706,0.39527822,0.26822022,-0.034716032,0.21539882,0.04477305,-0.049330845,-0.03216547,0.109641895,-0.24376439,0.28064197,-0.1937916,-0.1624666,0.2419999,0.13741806,-0.1825416,-0.13439061,-0.08312414,-0.124426164,0.2588639,0.08400407,0.13015237,-0.12624925,0.030713191,0.06162076,0.077766314,-0.13193892,-0.25678322
0.2676908,0.31842163,-0.17557937,0.38678417,0.17128412,-0.10732543,-0.004516284,0.16812937,-0.2720327,0.20038931,-0.11300885,-0.048662048,0.036603406,0.4096997,0.23927046,-0.20767175,0.18314442,0.23046991,-0.0072505935,0.16237134,0.09919716,0.08425363,-0.123308636,-0.0077499943,0.42523107,0.14177965,0.44982585,-0.13520108,-0.09050539,0.34134573,-0.08978495,-0.09112709
0.3634913,0.2620206,-0.25641227,0.17038694,-0.0839606,0.1534137,0.03279622,0.28784862,-0.07587717,0.22048762,-0.19056806,0.024026563,0.034585137,0.43258536,0.08268418,-0.015202624,0.28816792,-0.19561556,0.09845406,0.058689196,-0.39830348,-0.24269585,0.08782774,-0.051047854,0.2862321,0.43023968,0.49842286,-0.019751558,0.09057938,-0.0049771164,-0.14994454,-0.17095998
0.21509734,-0.14707291,0.0814059,0.13081306,0.15665016,0.016080223,0.07771994,-0.25817162,0.034520358,0.14546761,-0.040291645,0.22846994,0.06070563,-0.04466019,0.15774192,0.001782922,0.14068517,-0.46950996,-0.049162146,-0.1439992,-0.48149806,-0.43123734,0.035348676,-0.06408398,0.014349902,0.048130088,0.25863087,-0.056108553,0.11586777,-0.3816132,-0.25315621,-0.36473948
0.04161909,-0.13440394,-0.1560563,0.19032076,0.361148,-0.050572775,-0.16284554,-0.3551381,0.16946395,0.00798935,0.04291552,0.04794157,0.07840258,0.093198314,-0.0023462947,-0.11120894,-0.09830193,-0.09041885,-0.23491988,0.103614345,-0.29307917,-0.19793756,0.021115137,0.15867275,0.0139584895,-0.21808586,0.045871343,-0.25541052,0.030950343,-0.17208615,-0.09200828,-0.35493276
-0.07132885,-0.1467387,-0.016820896,0.06711946,0.07283895,0.11535675,0.062302228,-0.05814745,-0.025962781,0.038690247,-0.1549644,0.011673858,-0.044403303,0.2127883,-0.08266502,-0.15901811,-0.099528685,-0.12126484,0.10041087,0.008815543,-0.1863767,-0.12882355,-0.03333513,0.22066931,0.09224107,0.0577687,-0.140635,0.01647743,0.2348876,-0.0362039,-0.058287583,-0.18916903
0.08718896,-0.29596466,-0.4061548,0.14687522,0.039762802,0.31616583,0.06425066,-0.31269675,0.052991066,-0.0010769755,-0.18807915,0.13782348,0.047615495,0.087387,0.07794289,-0.09391008,-0.11209802,0.01386807,-0.029224837,0.11533338,-0.10506614,-0.013979433,-0.010420482,0.055646744,0.012256683,-0.060949042,0.1149116,0.003556585,0.1733877,-0.014994184,0.16523233,-0.15904796
0.02576381,0.045103338,-0.50208,0.08194467,-0.10054078,0.008228189,0.07153087,-0.1725323,0.03185708,-0.039830793,-0.032268208,0.06486437,-0.13786599,0.17678624,0.039267547,-0.11492352,-0.15415952,-0.082133904,-0.032233562,0.02864501,-0.036060743,0.044778727,-0.075432375,0.19719206,0.080862105,0.07892722,0.10197621,0.20683591,0.088802636,0.11351986,0.09650771,-0.22711618
-0.06019876,-0.0050652316,-0.44517767,0.29996794,-0.115894444,0.20422423,0.050998647,-0.17938249,-0.029683216,0.02533762,0.14312175,0.01267271,-0.0821937,0.23754372,0.096878074,-0.13505077,-0.26458845,0.1075422,0.07744907,0.03758528,0.03852796,-0.033908002,-0.11927926,0.10630112,0.07106068,0.07192661,-0.04236654,0.11719832,0.08143086,0.011946426,0.15257098,-0.04659555
-0.043391444,-0.027812004,-0.3396089,0.14522536,-0.02806548,0.12330797,0.052483745,-0.2570228,-0.06364533,0.14408492,0.15309167,-0.09449968,0.07706798,0.029206865,0.07267095,-0.037890974,-0.057997137,-0.04640968,0.079190254,-0.01596388,-0.005612142,0.1092415,-0.111367315,0.16890936,0.18224119,-0.14597243,0.016575713,0.27108642,0.17085652,0.041566785,0.120527476,0.102459885
-0.12060708,-0.17267342,0.019743532,-0.06895435,-0.098267965,0.084190644,0.1008049,-0.12669484,-0.07908788,0.065124296,0.007634147,-0.10858414,-0.024721604,0.007818781,-0.020090513,-0.055846862,-0.03960247,0.24080466,0.101663545,0.050998442,-0.12870272,0.15016235,-0.2418052,0.116180904,0.15702854,0.056356903,-0.03207129,0.15151489,0.09409159,0.19228056,-0.022938546,0.14910695
-0.020078259,-0.2945105,0.12928121,-0.14971319,-0.22848503,0.10265562,-0.0462824,0.0050653787,0.048628792,0.29690695,-0.17620192,-0.038996182,0.15769146,-0.16467348,0.076534376,0.011624948,-0.07691395,0.27750075,0.07819662,0.0010682293,-0.004184903,0.084139414,-0.09693324,-0.11735528,0.18296495,0.039822523,0.0328866,0.36187378,0.060346417,0.017600168,0.1647646,0.1417007
0.0053334497,-0.23127252,0.20775387,-0.20812942,-0.09342508,0.14200419,-0.07887863,0.078958355,-0.17022881,0.20239681,-0.23992123,0.083070755,-0.12910917,-0.032464713,-0.109011635,0.23837733,0.1382221,0.18723768,0.058953285,-0.029014628,-0.036111042,-0.0774292,-0.07642584,-0.3463085,0.15069288,-0.023698187,0.09744762,0.27122217,0.1134049,0.009502078,0.20699961,0.121591985
-0.0733782,-0.28468373,0.1913864,-0.30031204,-0.21620442,0.011105263,0.018814843,0.07626884,-0.140885,0.18164593,-0.064912654,0.23210974,0.10220128,-0.06775998,-0.0068672053,0.17664102,0.03604131,-0.019016765,0.018536119,0.071712404,0.15583228,0.11803876,0.21996212,0.04876432,0.14611991,0.11907123,0.019861186,0.34583548,0.21491458,-0.37430802,0.17013869,0.08397734
-0.013079682,-0.1241332,0.033301372,-0.12846196,-0.18586321,-0.09795438,0.13372785,0.09757751,-0.04675196,0.2447225,-0.0085067935,0.15452641,0.15831324,0.026199814,-0.08788634,0.079640664,0.043064304,-0.05728976,0.036583126,0.20383385,0.0069683115,-0.08040042,0.09607377,0.28008753,0.09091338,0.1398652,-0.012719559,0.28043103,0.17901944,-0.3399733,0.05699991,-0.004434422
-0.06871396,0.06555537,-0.15691382,0.14607985,-0.20635255,-0.13717143,-0.0064128498,0.20072424,-0.02035278,0.23017704,0.21844316,0.14518903,0.30266833,-0.04555974,-0.117029086,0.012094502,0.10599863,-0.20085825,0.0940035,0.055508126,-0.16735859,-0.11111477,0.09636786,0.061205298,0.0726248,0.07431424,-0.04866315,0.14223279,-0.01742715,-0.11086216,0.37067774,-0.16130172
0.10431666,0.13162065,-0.04515969,0.14547788,-0.06311903,-0.0021556965,0.035942286,0.22106582,-0.14223383,-0.006648912,0.23144498,0.021252964,0.19035497,-0.04253065,0.04716536,-0.12815231,0.0305115,0.054112844,0.1273394,-0.15624036,-0.08294058,0.13179985,0.19606747,0.016670235,0.071587294,-0.04442889,0.061348315,0.0039074263,0.09642209,-0.15890476,0.20855671,-0.17022863
-0.0077692075,0.3579501,0.073718384,0.15873815,-0.2096473,0.04360434,-0.07012552,0.23788759,0.033985406,0.20013157,0.051186968,-0.10998276,0.16792087,0.17169274,0.029303452,-0.1869226,-0.087091856,0.11513209,-0.00033561126,-0.06624151,-0.13753048,0.052217036,0.11123614,0.081958115,0.12511545,0.097557105,0.0426874,0.10811257,0.01103273,-0.15785058,0.11687261,-0.13894576
-0.035300016,0.30336848,-0.025667269,0.07469473,-0.17953311,0.08670854,-0.1643435,0.19280209,0.08563412,0.058665,0.12553926,-0.02836832,0.28480425,0.06929685,-0.05963333,0.047485657,-0.038901664,0.16545202,0.0035899817,-0.10845272,-0.24010433,0.06366222,0.24345858,-0.17314449,0.08216241,0.0543697,-0.10959156,0.029733282,0.054137245,-0.22164771,0.04069312,-0.08540562
-0.19717501,0.15488724,-0.12352055,0.0010791025,0.044158753,0.13222162,-0.15978666,0.19558375,0.0015738378,-0.04608049,-0.22591437,-0.17953722,0.33569685,-0.09207989,-0.036964893,-0.21969138,-0.041748706,0.2968782,-0.14353368,0.03852947,-0.13207345,0.02492305,0.18824454,-0.029613169,0.11937235,0.024513505,0.009710094,-0.14407901,0.15706888,-0.2618958,0.13737413,0.009211871
-0.06520861,0.14933503,0.0118925115,0.02033958,-0.014739615,-0.20238331,-0.20608146,0.14234704,0.095759794,-0.08472594,-0.12652072,0.04554048,0.29994664,-0.06517513,-0.12785737,-0.2675896,-0.08994111,0.121192686,-0.011887346,-0.30642,-0.16494638,-0.13280554,0.17288086,0.042157855,0.10787633,0.11485528,-0.03942835,-0.1373919,0.057902955,-0.06479607,0.11516885,0.107235
0.06098894,0.14848685,0.048136704,-0.07205369,-0.087394975,-0.091347255,-0.21089143,0.1176545,0.10378308,0.11498553,-0.06723639,-0.040777747,0.3533359,-0.09536858,-0.13886125,-0.18774767,-0.22264995,0.14145285,-0.021986663,-0.16132821,0.020712944,0.034655932,0.2968887,-0.017019715,0.04702722,0.054445993,0.040617246,-0.1320121,0.20313178,-0.2844426,0.09768929,-0.19143388
0.1152871,-0.2445042,-0.09465822,0.123047195,-0.14315405,0.076529846,-0.5560218,0.04336938,-0.03417103,0.0014595828,0.049193684,0.02356649,0.30250332,0.10108005,0.17509146,-0.26714355,-0.16928627,0.3292397,-0.04633221,-0.16089307,-0.09750492,0.1724775,0.090149105,0.13814962,0.012809709,-0.15091354,-0.23856199,-0.427045,0.13731068,-0.4319366,0.012883599,-0.008428026
0.068794385,-0.31237713,0.33506745,0.19569977,0.073706314,-0.041934993,-0.6266788,0.24615973,0.0268991,-0.086914465,-0.32685664,-0.059904415,0.24235585,0.46953806,0.23695986,-0.36927664,-0.32544988,0.20471768,-0.041009326,-0.32630432,-0.18047698,-0.31773406,0.045331668,0.07650572,0.2716906,-0.10498503,0.07580759,-0.45344764,-0.23734276,-0.18542333,0.0075438037,0.14850739
0.35678673,-0.17330253,0.34809217,0.40597737,0.34607616,-0.0015858697,-0.44304708,0.25393584,0.12834924,0.0043361867,-0.5504292,0.0020711364,0.011590014,0.6354951,-0.054194342,-0.17228836,-0.37339693,0.10192098,-0.21765968,-0.053959306,-0.34057492,-0.2438472,0.30879024,0.14925937,0.27479178,-0.35903037,0.13117696,-0.026909266,-0.09422679,0.031098362,-0.14262903,0.22854006
0.35104254,-0.09665337,-0.009734157,0.37850514,0.12590714,0.4195724,-0.34122282,0.07823905,-0.21985687,0.4201928,-0.04626607,0.14772832,0.012900347,0.38455766,-0.0156015735,0.08859412,-0.32913873,-0.009754883,0.040629484,0.2626851,-0.20774302,0.401063,0.4641887,-0.10963957,-0.15499309,-0.28366798,0.07732143,0.11283246,0.3854835,-0.16193561,-0.12556148,-0.17841198
0.3870894,0.028403156,-0.27797985,0.10406312,-0.0138790365,0.2648725,-0.21755598,0.21537742,0.09715045,0.22381924,-0.0064025456,-0.06811689,0.28164062,-0.052681487,-0.1561623,0.15737565,-0.20785806,-0.013864826,-0.35920972,0.20109692,-0.35967055,0.09622858,0.27964678,-0.009353237,-0.28049892,-0.21068837,0.18045513,-0.014886156,0.30708575,0.21770522,0.15568487,-0.25956798
0.1590479,0.008474925,-0.20398417,0.06094969,-0.15805565,0.1836781,0.29092896,0.21501821,0.088110045,0.16176204,-0.02114708,0.16326721,-0.042820852,0.30069324,0.16871656,-0.17295007,-0.08399183,-0.05784134,-0.00964798,-0.027631517,-0.12973551,0.0060995743,-0.13245001,0.18462902,0.27870566,0.02323827,-0.08906759,0.20553489,-0.22077076,0.13170122,-0.0941272,-0.21236531
0.073077604,0.096232615,-0.24658945,-0.21388349,-0.06650212,0.34864208,0.34643865,0.11094169,0.33723938,0.08447308,0.0814214,-0.015364432,-0.05777131,0.009985963,0.5734368,-0.4087415,-0.33718976,0.20537199,-0.07097466,-0.1167288,-0.21475111,-0.050698053,0.15278429,0.32201752,0.25974882,0.14262006,-0.11626785,0.1415409,0.03425595,0.09657968,-0.19332863,-0.07142774
0.21285558,0.23358521,-0.0392588,0.08684537,-0.04505764,-0.023259312,0.023333946,0.17764327,-0.31689167,0.18009105,0.09711911,-0.11238431,0.21381818,0.3443655,-0.050552003,-0.065391675,0.097966604,0.23989542,0.27926046,0.13589288,-0.26474074,-0.54949015,-0.112991236,0.036039922,0.31423458,0.35610586,0.3676239,-0.08248874,0.19574979,-0.18681197,0.008791355,-0.11129561
0.36369067,0.2417462,-0.28911808,0.07320437,0.030775618,0.3217829,0.038106866,-0.38072437,-0.2981014,0.28753853,-0.15745434,0.037517153,-0.047601156,0.59338355,0.099415645,0.15480912,0.16770102,-0.30546376,0.038045563,-0.047354665,-0.35468748,-0.20235409,0.16529432,0.017608197,0.1860735,0.26267013,0.5477648,-0.16847433,0.3902843,-0.10724909,-0.294003,-0.28356472
-0.029656706,-0.22052215,0.156687,-0.270776,0.06406498,-0.016015563,0.33105263,-0.12656505,0.1488689,0.04547851,-0.019983321,-0.07433121,-0.035292935,-0.112525344,0.21760058,0.016860247,0.011133949,-0.32364705,0.0074285064,-0.00990818,-0.10746603,0.17430411,0.19124235,0.0051135346,-0.012884913,0.09203174,0.20284888,0.048986223,-0.09557716,-0.09158513,-0.39264068,-0.33848798
-0.068024635,-0.087069154,-0.076802485,-0.19019328,0.10379811,-0.05632851,0.1988443,-0.16140513,0.18479581,0.0030547418,0.23937705,0.13735239,-0.27950224,0.03897812,0.16779257,-0.0011265997,-0.07994308,-0.0756587,-0.29868925,0.04935104,-0.11315769,0.003547495,0.083916776,-0.08921403,-0.09186222,0.04831588,-0.14151117,0.090317026,0.11854288,-0.1607081,-0.10372396,-0.5769444
0.09996901,0.028948456,-0.22861582,-0.011027843,-0.23826368,0.07745827,0.035298824,-0.39661753,0.08546165,0.15612869,0.10204268,0.03203526,-0.21930873,0.2508518,0.05660559,-0.037010636,-0.18688618,-0.18708745,-0.0049903677,0.07208712,-0.19777095,-0.054950714,0.09230547,0.013570061,0.11168154,0.20253758,-0.087411165,0.0142813735,-0.13522767,0.023739096,0.13482042,0.0013391055
-0.04711705,-0.0066399435,-0.56443334,0.13036227,-0.09190039,0.16044655,0.15276948,-0.25340754,0.12970082,0.07410047,0.19010031,-0.12233403,0.0030257767,0.14345522,-0.004228439,-0.08496348,-0.09179396,-0.13115305,-0.06857858,-0.032365907,0.11809069,0.14519006,0.24273749,0.10100654,0.12474548,0.024907364,0.015457864,0.18189403,-0.02433337,0.038281955,0.016526088,-0.07379508
0.0623059,-0.043494828,-0.6678852,0.24587013,-0.096495464,0.05118098,0.04491452,-0.27063936,-0.0018504072,0.25790235,0.17195027,-0.29573953,-0.19133213,0.17671129,-0.00062320475,-0.14561152,-0.27785352,-0.09519684,-0.07803472,0.009074068,-0.10832074,0.10504919,0.20513873,0.033740837,-0.035120964,0.07446212,-0.05608756,0.1634788,0.11594795,0.17869036,0.15606496,-0.087241866
-0.10675559,0.07253181,-0.46073878,0.23152028,-0.16311823,0.09841008,-0.02442163,-0.26347163,-0.124250986,0.13011178,0.27009115,-0.1903339,-0.25188226,0.13242012,0.17636994,-0.088853076,-0.15630007,-0.16781016,0.04705474,0.03109255,0.01191349,0.025602443,-0.0073919706,0.121609405,0.28928024,0.08403602,-0.18257166,0.056992706,-0.10003615,0.21301244,0.19749063,0.05295012
-0.11942391,-0.04905158,-0.22512734,0.12935613,-0.25156847,0.038122363,0.079163335,-0.11384849,-0.09040015,0.06966191,0.06629938,-0.1271989,-0.030970458,-0.030562734,0.2043098,0.053312417,0.0054769902,-0.098806314,0.10732311,-0.15623842,0.022072243,-0.021435527,-0.097588584,0.27359033,0.11095792,0.008270621,-0.1964338,0.19943602,0.13521855,0.18632413,0.2002249,0.23015167
0.015517664,-0.21221493,0.07570771,0.017932728,-0.21057844,-0.08846362,0.0033089847,-0.11422276,-0.045757517,0.10655808,0.015031287,-0.27175704,-0.0545004,-0.08491831,0.08105366,0.004738292,-0.26660797,0.10820139,0.05776501,0.1063224,-0.03120368,0.17598054,-0.14794695,0.22808492,0.28616956,-0.03494606,-0.30569205,0.026499206,0.024506802,0.03755109,-0.03583766,0.24989821
0.05008911,-0.17943299,0.15472984,-0.3366898,-0.21643952,-0.051930223,0.08385564,0.07836848,0.07389008,0.0867731,0.009184119,0.0052474234,-0.016436934,-0.056800716,0.122744516,-0.01963151,-0.026364055,0.3110497,0.06329684,0.23799162,-0.08696881,0.044384196,-0.26707515,-0.12433193,0.25361052,-0.036367707,-0.21759538,0.05199794,0.26900083,-0.07051497,-0.012332583,0.062262114
-0.0065829665,-0.08999297,0.31512597,-0.5024541,-0.22792098,-0.0684508,-0.017509988,0.18733183,0.08962004,0.23329528,-0.49528933,-0.0042746942,-0.15407749,-0.23884904,0.09327761,0.1313388,0.20960444,0.21969305,0.21537086,-0.045288455,0.004324208,-0.112353176,-0.009070827,-0.3374826,0.23660646,0.120741434,-0.031713814,0.0055893674,0.3614589,-0.36968386,0.085496016,0.1091023
