Layer,dense_18
Weights
-0.045349754,-0.012851991,0.017469548,0.010774724,0.06502336,-0.011395864,-0.0016961396,-0.032057375
0.0012540445,-0.07413737,-0.07537537,-0.036267534,0.010208555,0.04438241,0.05565633,0.06143388
0.012899011,0.0048445836,0.0765264,-0.065642774,-0.03665804,0.029787406,-0.07226046,0.07252586
-0.08464934,-0.074963324,0.05056849,0.004086189,0.065174446,0.026327424,-0.07647864,-0.005007714
0.031275906,0.068376616,-0.0014530122,-0.004790008,-0.034460913,-0.012566298,0.029814467,-0.031106945
0.010498211,-0.035399824,-0.084785596,-0.00011969358,0.0390459,-0.06689964,-0.038640864,-0.025281742
0.06402309,-0.06641121,-0.03424045,0.015023753,-0.067029856,-0.037821356,0.01707396,0.04492575
-0.009202994,0.038657293,0.04462947,0.028016068,-0.059888273,-0.019045122,0.009864099,-0.0051799715
-0.010968067,0.07331386,0.018806063,-0.07588555,-0.017445624,0.07878913,-0.004630968,0.0051886663
-0.060000893,-0.018604375,0.045723096,0.056607455,0.028683148,-0.022148594,0.085702255,-0.051411588
-0.031315997,0.018424377,-0.061792903,0.02304706,-0.04095781,0.055189475,-0.010141529,-0.053790685
-0.04290722,0.020928212,-0.076679364,-0.08576605,0.07115717,-0.022376843,-0.015876152,0.086933315
0.31275284,-0.08013481,0.15922567,0.04663433,0.15780225,-0.1600583,-0.18499361,0.12729254
0.2288208,-0.0010455208,-0.01616636,0.1081495,0.07845035,-0.07652803,-0.1037169,0.22785613
0.03322511,0.158785,-0.16206737,0.054334,0.1984311,0.055746593,-0.062220808,-0.17648038
-0.024721991,0.14537573,-0.04500045,0.055376023,0.01149628,-0.047779016,0.031573854,-0.01429777
0.022754982,0.017962545,-0.02228377,0.017101541,-0.03951235,0.081578836,0.07009253,-0.031082772
0.021137036,-0.07143542,0.03206476,0.0229714,-0.027463451,0.06847878,0.028695084,-0.027190711
-0.055278145,-0.05396147,-0.06136986,0.008498497,-0.05787138,0.047077894,0.049473614,-0.070861675
-0.08467051,-0.07204892,-0.0039910227,-0.076994255,0.0342832,-0.05227513,-0.01507248,0.026313849
0.06800051,-0.0036623776,-0.047734372,0.05638145,0.07795425,0.03627681,-0.060480505,0.036354378
0.07553154,-0.017836727,-0.04048469,-0.084071696,0.0005589053,-0.047953945,0.08319983,-0.0077469945
-0.022524714,-0.057416957,0.08667946,0.048398152,-0.018917702,0.031665973,0.0038794875,0.068187535
0.035266623,-0.048758216,0.034706116,-0.0387143,-0.061716124,-0.048310645,0.014927156,0.0271236
0.044601202,-0.013224132,0.067081556,0.060499385,-0.007812217,-0.071502194,0.050852045,0.06855671
-0.016574383,-0.053909406,-0.073345006,-0.007687688,-0.0813707,-0.07707852,-0.03710169,-0.03495186
0.0475242,0.033032537,0.05245191,0.06600952,0.025824942,0.08070077,-0.05292096,0.0006477833
0.026461452,-0.07182068,-0.082034685,0.06295209,-0.036994673,0.06724836,0.054706022,-0.06192447
0.00090929866,0.053639844,0.04663007,0.06550272,0.03285727,-0.03071256,0.030032195,-0.022923313
-0.061649553,-0.0659947,-0.06789002,0.054075703,-0.03964132,-0.0840211,-0.04795681,0.06886518
-0.03372552,-0.072418734,-0.0282146,0.034754924,-0.034773186,-0.0013826191,-0.04027352,0.058718547
-0.061276726,-0.0027590394,0.0826339,0.057661474,-0.035180397,-0.017943367,0.006032951,0.06479029
0.28375268,-0.16522543,0.1053872,-0.07563398,-0.0994393,-0.07775009,0.010521971,0.09550611
0.3067248,-0.26618186,0.3107265,-0.09426663,-0.0007857499,-0.28540936,-0.18664357,0.19050801
0.4340772,-0.314191,0.5076928,-0.017067984,-0.02270713,-0.34101874,-0.29315192,0.46170747
0.5950775,-0.45546955,0.55217063,0.15390241,-0.1780326,-0.49591258,-0.42637092,0.45608184
0.4480081,-0.45347565,0.46407104,0.18938272,0.047078278,-0.39129242,-0.43704593,0.56365937
0.4207133,-0.33045742,0.706261,0.13490815,0.06761373,-0.64315027,-0.31900144,0.7200372
0.40957546,-0.43171698,0.6265384,-0.15974073,0.103126585,-0.6538755,-0.13685608,0.6963086
0.22387359,-0.5421427,0.57769996,0.2703641,0.16585642,-0.8114202,-0.16407229,-0.082403086
0.2238242,-0.68288636,0.5448871,0.16750568,-0.059287544,-0.79753137,-0.39099732,-0.003914586
0.4040016,-0.6807901,0.36601242,0.31505916,-0.2502588,-0.47644538,-0.4485458,0.11603858
-0.018143833,0.054933924,-0.16471674,-0.19970204,0.32269448,0.112242915,-0.35409504,-0.31513956
0.05885696,0.17350471,0.34506837,-0.32176876,0.10849889,-0.7056837,-0.51892483,-0.19915864
-0.27020285,0.45050627,0.5246566,-0.115446866,-0.22515625,-0.5081004,-0.51436436,0.026038019
0.3119031,-0.04110861,0.78453547,-0.1612281,-0.32996872,-0.55638504,-0.36240566,0.23267871
0.7132691,-0.68235403,0.97017014,-0.1770392,-0.2363032,-0.74743116,-0.2875258,0.8375119
0.67534405,-0.5699482,0.5025042,-0.1575451,0.06600808,-0.39711097,-0.30752236,0.51158714
0.5474362,-0.5875651,0.4670904,-0.13987918,0.041050553,-0.4263305,-0.39574653,0.61331266
0.61670303,-0.5707876,0.50571704,-0.03499275,0.0036298032,-0.46956787,-0.48339602,0.55965376
0.36622778,-0.33102497,0.3910022,-0.031747907,0.13699318,-0.32133347,-0.32453138,0.33165765
0.31621584,-0.20547763,0.30760595,-0.0039884746,0.12588038,-0.19147426,-0.3130393,0.29355833
0.07095842,-0.028388932,0.054875672,0.01037804,0.030341461,0.06982313,-0.0050220117,0.069306254
0.053055286,-0.0011651888,0.019004963,0.01511915,-0.030261356,0.07401621,-0.025442652,-0.07302304
0.008219242,-0.036483705,-0.083469644,0.06280346,-0.055639327,0.07967335,0.07114099,0.04827304
0.050631613,0.082364306,0.0858586,0.048379898,-0.015998356,-0.014524743,0.010825507,0.073564276
-0.0057570115,-0.005342439,-0.042144492,0.05024475,0.009871803,0.027503066,-0.014317371,0.003664434
-0.03421617,0.016554236,0.06502944,0.049330175,-0.01513654,0.08545442,0.0040263236,0.04012759
0.22601269,-0.15183944,0.17084193,-0.062768556,0.03299778,-0.18029413,-0.23406261,0.1690638
0.1377655,-0.011548698,0.35896784,0.2403304,0.047098845,-0.31893024,-0.08856214,0.24910139
0.50921035,-0.4035975,0.48076406,0.32752788,-0.174862,-0.33348268,-0.27173078,0.23762481
0.52395177,-0.4660091,0.4608873,-0.19588655,-0.20493546,-0.20532416,-0.27970716,0.35509717
0.5221089,-0.13504495,0.55984324,0.018443463,0.23260611,-0.5249236,-0.45405993,0.45685458
0.48805523,-0.3240317,0.8067257,0.26754335,0.09092331,-0.7507051,-0.70910907,0.41462055
0.394765,-0.3513471,0.87670565,0.51410806,-0.22783454,-0.9520444,-0.8821247,0.77402896
-0.0032748366,0.13841972,0.57239336,0.43011618,-0.12534797,-1.1390173,-0.9450361,0.7379659
0.272184,0.09430278,0.7614125,0.266388,-0.18770133,-1.0980834,-1.142641,1.199885
0.4258231,0.115227245,0.7110913,0.35660183,-0.33275348,-1.2047276,-1.1958734,1.0385371
0.6401181,0.34987384,0.47382206,0.3261438,-0.023687799,-0.9504731,-0.7953228,0.7211608
0.49367055,0.3222233,0.19695146,-0.21019886,0.41129062,-0.7368176,-0.4382884,0.1863287
0.2484596,0.33213,0.13351034,-0.31863546,0.31958178,-0.22962908,-0.983671,0.5651265
0.13051294,0.23406935,0.15803544,-0.5823967,0.7232423,-0.48238754,-0.50033766,0.17006785
0.27839726,0.30127585,0.5174681,-0.7292249,0.74746615,-0.70034146,-0.42268178,0.007294247
-0.018596146,0.08018847,0.64254147,-0.727794,0.49508995,-0.6527209,-0.4154592,0.19751728
0.09665816,0.06310027,0.9437956,-0.564134,0.41206998,-0.6275265,-0.15528318,0.058474604
0.2135862,-0.43889344,0.8507809,-0.5660809,0.46804714,-0.52882946,-0.2339495,0.071596846
0.44702283,-0.51630914,0.89596486,-0.52814835,0.37755358,-0.63,-0.36002433,0.22499812
0.53010726,-0.5186761,0.8143709,-0.08615314,0.12455163,-0.41222474,-0.2778053,0.3110566
0.461841,-0.6211805,0.7920116,-0.25741,0.10012022,-0.24415685,-0.19015504,0.27330086
-0.11117794,0.30576,0.7256663,0.12520114,0.028744321,-0.45841336,-0.6197894,0.42510295
-0.30040237,0.22827372,0.0026680762,0.34208596,-0.10814008,-0.37139767,-0.50075406,0.30149195
-0.3010814,0.29028204,-0.29130682,0.2153343,0.15154989,-0.23119564,-0.2792434,-0.12527266
-0.07358239,0.08489591,-0.050349705,0.076299876,-0.052948147,-0.07345665,-0.0389009,0.056142613
0.047244772,-0.026059143,-0.049364477,0.07346891,-0.06660036,0.028110318,-0.08156962,-0.06337202
0.023089394,-0.05743555,-0.03549985,-0.079911314,-0.08675244,-0.0700573,0.007093586,-0.017142624
-0.07305463,-0.003096506,0.08503428,-0.055403464,0.004900299,-0.05075621,0.046357065,0.06341596
0.32984278,0.18221992,0.0053601074,-0.22552286,0.3237274,-0.19017825,-0.208691,-0.117934614
0.39950246,-0.2399447,0.57857317,0.15282057,0.26442045,-0.40774688,-0.29104814,0.40515834
0.44110438,-0.31137043,0.50519633,0.0483853,0.01926801,-0.5088125,0.10414923,-0.060287993
0.34179416,0.121944584,-0.23570986,-0.15491615,0.085438974,-0.28304243,-0.12522633,0.5981526
0.52799827,-0.055675346,0.2429701,-0.38752335,0.15705079,-0.6151051,-0.0705778,0.86362064
0.20724626,0.093617775,0.25357664,-0.16322756,0.16630137,-0.56342024,-0.27511278,0.91761976
0.06571603,-0.16826664,0.47109026,0.40676102,-0.11648061,-0.8917709,-0.2690851,0.93566823
0.25814736,0.11497052,0.5036352,0.4334088,0.083829895,-1.0299885,-0.21366784,0.763241
0.21484882,0.033261433,0.5749706,0.20990042,-0.16938952,-0.85713655,-0.103597976,0.6076821
0.072847106,0.18417953,0.46109855,0.46408406,-0.33197036,-0.89838874,-0.046628308,0.8575712
-0.08673773,0.14224702,0.4121994,0.56368816,0.030605122,-1.2691436,0.12001441,0.421958
0.07538481,0.3272013,0.5602438,0.3932596,0.056084163,-1.3329623,-0.34742853,0.31010294
0.18223451,0.044596545,0.39756796,0.26526195,-0.14676797,-0.9000012,-0.07843871,0.5057039
0.115377255,0.1810453,0.46746406,0.17853655,0.10781822,-0.9865253,-0.06272966,0.30162352
-0.17461456,0.26010835,0.41003796,0.06706393,0.051541094,-0.69271463,0.019077769,0.19392905
-0.030630965,0.041558266,0.34342808,0.075333364,-0.11488365,-0.37520638,0.09391313,0.22508936
0.060424816,0.09527513,0.7329472,-0.068177246,-0.28545305,-0.54710513,0.41535243,0.32444683
0.16375877,-0.04473303,0.47866327,-0.26608807,0.025028827,-0.41835546,0.10747791,0.36039683
0.1241273,-0.06170162,0.5587435,-0.09406991,0.06779249,-0.6561159,0.3668631,0.15575531
0.20150752,-0.18349344,0.77640676,-0.17503518,-0.05007631,-0.14054565,0.28195488,0.05522619
0.116150945,-0.26412854,0.8318922,-0.46344793,-0.027766904,0.23970534,0.2524296,0.03657422
0.5461317,-0.40845585,1.2988529,-0.41931173,-0.24248433,0.10648282,-0.119820915,-0.033447493
-0.013209959,-0.03570055,0.6900821,0.13634288,-0.14883457,-0.25282606,-0.16360456,-0.06287644
-0.44951928,0.099689834,-0.21668577,0.37709168,0.15800506,-0.16857778,0.03400055,-0.15358171
0.04409523,-0.35275084,0.1983423,0.22765392,-0.034292832,-0.3731085,-0.13995565,0.09359615
-0.06641214,0.016124405,0.021637626,-0.027795061,0.0055110455,-0.028241452,-0.07592235,0.06051503
0.053063422,0.006396495,-0.06455323,-0.047503985,-0.011922188,-0.08006737,0.03891866,0.032859117
0.032540016,0.10287772,-0.18372704,0.07557489,-0.03603365,-0.1579769,0.26305434,-0.04559519
0.3270862,0.40091237,-0.3445178,0.029713368,0.038444214,-0.04259546,0.29073402,0.0033165806
0.15569861,0.27015737,0.08936954,0.5325409,-0.15668511,-0.465668,0.09273349,0.06260474
0.33544716,-0.119889505,-0.33541405,-0.20471229,-0.04405546,0.10480662,0.25613973,0.34403026
0.07946905,0.04281346,-0.28991532,0.052192114,0.065702125,-0.40332785,0.20789182,0.87503016
-0.18930957,0.15015376,-0.11677838,0.065816164,0.082974285,-0.25757036,-0.046924714,0.8294383
-0.01738479,0.01647369,-0.07119097,0.07678154,-0.098876484,-0.049626272,0.17427263,0.13243306
-0.11191046,0.41420847,-0.09203187,0.22101001,-0.13480109,-0.056337807,-0.010747379,0.06564398
0.11413408,0.38198993,0.11130572,0.41148686,-0.043099225,-0.045263637,-0.10223265,0.06797724
0.16048063,0.26739746,0.39474535,0.15074228,0.1354295,-0.48541257,-0.022625063,0.14400844
-0.18369374,0.2927492,0.38342193,0.36587682,-0.012948109,-0.25564674,0.20172511,0.0066211605
-0.01559061,0.3048297,0.3251714,0.31680945,0.13941325,-0.15094899,0.11910756,-0.056116987
-0.109594636,0.38299134,0.031283304,0.15899728,0.107139714,-0.20855749,-0.019928562,-0.09962596
0.06998924,0.27954397,0.3400214,0.19486879,0.06107758,-0.19158716,-0.046468608,-0.09605105
-0.07509555,0.16104849,0.3176255,0.27418762,0.09737299,-0.3305641,0.07507317,-0.13432911
0.07852167,0.13122788,0.23393784,0.2671865,0.11372305,-0.3017505,0.069082595,0.04355766
0.11592886,0.019854778,0.43493164,0.14357994,0.109954886,0.0077894377,0.12396926,0.12876137
-0.04545034,0.1644115,0.23518004,0.26031232,0.06973382,-0.24345517,0.1967023,0.016860925
0.19205917,-0.010480669,-0.062148474,0.016916813,0.009452551,-0.1500344,0.1837802,0.12965548
0.17656583,0.1361418,-0.20098871,-0.18219937,-0.114194706,0.2465754,-0.040384952,0.06252264
0.1433127,-0.23683916,-0.2757348,-0.15368943,-0.06590282,0.21650198,0.17186366,-0.11133199
0.101416156,-0.1555251,-0.19748864,-0.2652375,-0.12868805,0.20899759,0.0975438,0.010828852
0.07792274,-0.6200762,0.2603651,-0.37157142,-0.0064341645,0.5308833,-0.095413744,0.052822657
-0.15472628,-0.26961082,0.07490491,-0.09182263,-0.16049284,0.432882,0.59373283,-0.38309875
-0.45526066,0.0025100913,0.18844801,0.39949712,0.14412515,-0.028679756,0.4921478,-0.3703661
-0.17921917,0.20715155,0.22548333,0.65048575,0.20010655,-0.3389928,0.22187111,-0.34662628
0.41856915,-0.033638503,0.47210142,0.1281484,-0.47961634,0.040215287,-0.32967326,0.042617105
0.06925763,-0.03257955,0.06953518,-0.017786674,0.028563768,0.024233744,-0.0747329,-0.08342781
0.01753807,0.005779259,0.0033785999,-0.013485312,0.055750057,0.017279424,0.059120268,-0.08167994
0.4989801,0.45690385,0.28131562,-0.105972715,0.19322252,-0.40777826,-0.38615417,0.40934432
-0.18668969,0.32908455,-0.32856208,0.3429445,0.07890501,-0.39159238,0.35190982,0.17848596
-0.24877043,0.21206774,-0.45212233,0.027210288,-0.15292566,-0.08057726,0.13979702,0.774514
-0.10152117,0.24283025,-0.65200984,0.007210075,0.41622764,0.095791556,0.29754964,0.38677847
0.024833681,0.25550708,-0.344426,0.025912084,0.17468727,0.044603482,0.12095889,0.35013118
0.042087536,0.13745697,-0.21223412,0.16235822,0.002231914,0.06314051,0.20363475,0.07216676
-0.0059846044,-0.02081714,-0.1744997,0.22245827,-0.106544934,0.2727753,-0.059862856,0.101549715
-0.08650764,0.07132564,-0.091240644,0.14456533,0.07101941,0.21795548,0.13001242,0.16912492
-0.20634545,-0.026809685,0.25658587,0.16873206,0.10460116,0.02919422,0.0366914,0.0836352
-0.20933959,0.17642117,0.40388614,0.23550992,-0.08048376,0.3721778,0.1596887,-0.09185819
-0.054415103,0.20299819,0.33434194,0.13089533,0.016994588,0.2812729,0.0051827105,-0.05132781
-0.164662,0.20077738,0.24248315,0.1595614,0.07757997,0.1122808,0.019628407,-0.23323123
0.004823668,0.10977847,0.2171587,0.18173622,0.04632681,0.062256638,-0.119847156,-0.08782411
-0.066876024,0.23228641,0.09151745,0.11433521,0.14392246,0.093099065,-0.031050576,-0.0024221481
-0.0074117673,0.0049472977,0.16461875,0.21208055,0.099424414,-0.15885328,-0.08962549,0.12465285
0.012202492,-0.11360791,0.35725874,0.1726044,-0.18496387,-0.031052606,-0.026700355,-0.11615688
-0.114343815,-0.11642549,0.09503854,0.055579323,-0.027732093,-0.096338555,-0.1364076,-0.01571264
0.07435285,-0.04342072,0.1677663,0.020439275,-0.029613398,-0.09182993,-0.08193032,-0.013002123
0.050419275,-0.065604076,0.24897169,0.046508208,0.069380514,-0.11044135,0.046867624,-0.12454505
0.051765386,-0.008687463,0.13220075,0.003145141,0.20632601,-0.19144775,-0.046388686,-0.118023664
-0.05160667,-0.092843175,-0.13343959,-0.10371558,0.18428822,-0.027650448,-0.052359473,-0.11056028
-0.07451613,-0.1387815,0.05880141,-0.38580832,0.15399748,0.20801796,0.0061807586,0.15638551
0.11440828,-0.09237577,-0.0073719,-0.031618528,0.0354297,0.2381557,0.40791512,0.14090282
-0.21692555,0.13911831,0.51647824,0.8029264,-0.21968123,0.081202894,0.57908136,-0.23081681
0.05252379,0.0128664095,0.8813942,0.54204327,0.09617607,-0.34249336,0.3503382,-0.011921096
0.06440406,-0.14829662,0.438785,-0.2642211,0.19071704,-0.04974055,-0.009872628,0.17603523
-0.03504692,-0.08125756,0.042322233,-0.040958494,-0.010970786,-0.062404435,-0.06858246,0.041278094
-0.03430866,0.31993967,-0.10789791,0.17460689,0.16228946,-0.1923155,0.31873012,0.27702233
-0.01052332,-0.18671054,0.005448692,0.23980936,-0.041701548,0.15273905,0.1311075,0.15815578
-0.22770873,0.48018524,-0.51273096,0.5291963,-0.027009144,-0.007571308,0.073929295,0.5021685
-0.12866262,-0.08326098,-0.3835034,0.030947639,0.12331524,0.2140918,0.101407096,0.92005986
0.058769345,0.0045025446,-0.39260533,0.3136606,0.06114453,0.31312132,0.29343128,0.4804178
0.08531946,0.08790288,-0.22578311,0.35058266,0.0893349,0.07090291,0.16052243,0.3756246
0.07862084,0.08290718,-0.14087203,0.119263254,-0.1003384,0.0677037,0.013152881,0.26789394
-0.014113005,0.11326194,-0.03923013,0.27628887,0.053402092,0.24664843,0.051706266,0.15973826
-0.11241797,0.17849728,-0.06131112,0.22915184,0.07667224,0.24920356,0.13567309,0.0910189
-0.1824167,0.20006156,0.013046583,0.24483463,0.21511693,0.14168698,0.12296233,0.020655546
-0.10808966,0.16683373,0.0080604525,0.17837483,0.1810295,0.28841847,0.14850439,-0.084699534
0.030525178,0.19642887,0.09398329,0.25388652,0.06663421,0.1365605,0.09251675,-0.1872946
-0.23033966,0.23158935,0.13753258,0.2932381,-0.005109871,0.058002584,0.12295993,-0.25294372
-0.16573207,0.077150255,0.13680492,0.30993927,0.16593105,0.15231355,0.031032136,-0.3461566
-0.11823977,0.124752946,0.106101796,0.2704549,0.073595375,0.14675269,-0.036144514,-0.2868426
-0.21708478,0.2491886,0.1204461,0.28328183,-0.06587338,0.0955325,0.01616038,-0.24038953
-0.14035644,0.06389514,0.081217535,0.1911899,-0.05745682,0.1273383,0.048647236,-0.28469
-0.28853655,0.05949345,0.05386236,0.179845,0.14126365,0.06749334,-0.025327329,-0.28165773
-0.10090225,-0.04184134,0.16062969,0.113944635,0.06744409,0.12609579,0.13068703,-0.1753968
-0.084368765,0.0020150002,0.26030672,0.100411855,0.07331561,0.04508395,0.17126991,-0.14024413
0.011525869,-0.016171083,0.067656204,0.28624275,0.03171363,0.20714138,0.07430162,-0.030879842
0.098161764,-0.25936687,0.037476677,0.20998138,0.0074155373,0.09059218,0.054007202,0.021488491
0.49131858,-0.23385642,0.29291457,-0.14852192,-0.030183911,0.19415076,0.35127,0.10622881
0.12530252,-0.046195406,0.3497796,-0.11696626,0.44421157,-0.21011168,0.8433222,0.26824424
0.2709843,0.22800624,0.68510294,0.124834165,0.1390906,-0.06053843,0.91415966,-0.04887746
0.0224256,0.14701074,0.23002389,0.058344997,0.30190572,-0.018197017,0.6333429,0.27617094
0.0027128723,-0.020628585,0.42293495,-0.08329633,0.23644665,-0.21240494,0.088716716,0.07712209
-0.017792428,-0.14650394,-0.12398872,0.0239536,-0.038728956,0.22230075,-0.14729282,-0.012364572
0.10115208,0.50374377,0.10529818,0.53903097,0.18164387,-0.51584744,0.5679455,0.6099064
0.012809005,0.07556755,-0.032163974,0.5304537,-0.018729024,0.5543271,-0.27109843,0.25970474
-0.058773734,0.21298681,-0.50053525,0.6129762,0.0752945,0.27737427,0.069078945,0.39836317
-5.7227444e-06,0.47339764,-0.18849999,0.21037757,-0.26858532,-0.011259628,-0.037245158,0.97665447
0.09615033,0.03890506,-0.09314116,0.3033513,-0.10351547,-0.0021085264,0.14754608,0.62622225
-0.038216863,0.09191837,-0.06490769,0.48063612,-0.06804238,0.15280586,0.123439275,0.2898736
0.1404472,-0.092734605,-0.00068777543,0.24801964,0.08950825,0.14936697,0.024704719,0.23660377
-0.11940472,0.047825515,0.14812028,0.32891712,0.050323546,0.14494643,0.07280306,0.0006092967
0.0410177,-0.003782599,0.08445769,0.26882383,0.16833004,0.255802,0.18153973,0.051005866
-0.11324147,0.052231416,0.0432074,0.36952353,0.19863862,0.24343272,0.096883886,-0.14039159
-0.103777096,-0.028965538,0.06646605,0.3870016,0.20171037,0.23681526,0.042102285,-0.049713448
-0.15869187,0.07962796,0.013797439,0.24452236,0.17142218,0.18579349,0.14826572,-0.22901554
-0.2551767,0.16697562,0.014431696,0.17389494,0.047157563,0.2319097,-0.023355557,-0.13620695
-0.23636962,0.12121268,0.0775229,0.12398379,0.18071377,0.009433522,0.08449902,-0.21126917
-0.1978043,0.22461514,0.07412218,0.25265273,0.042454593,0.25787303,0.10880534,-0.3792247
-0.28724033,0.06629134,0.055000767,0.10981702,0.07829661,0.19067895,0.10416592,-0.36603037
-0.099670924,-0.0222443,-0.08418195,0.28537536,0.21801287,0.19203019,0.16279541,-0.13032319
-0.05475837,0.08908282,0.016801238,0.3096915,0.1896474,0.29397783,0.07253512,-0.20825982
-0.033466164,0.059797406,0.013842977,0.17898232,0.18267836,0.19279996,0.0921238,-0.067490436
0.0072028595,0.139534,-0.04175167,0.17724028,0.2861655,0.3515958,0.15819208,-0.1632433
0.20257665,0.01800921,0.22006655,0.20168065,0.31076902,0.38722056,0.11862588,-0.069167316
0.15531021,-0.053440735,0.1385891,0.18155782,0.37777513,0.39200285,0.01185135,0.029854681
0.4241738,-0.34865355,0.21844715,0.27677163,0.09549957,0.25583038,0.4277535,-0.082078315
0.29430142,-0.11629118,0.6101389,0.30255786,0.15101053,0.15886343,0.5499113,0.098747365
-0.19219267,-0.069723785,0.70243,0.257486,0.38399827,-0.2416935,1.1065311,-0.32866463
-0.018621087,0.22202612,-0.015276151,-0.26765364,0.30791312,0.24857086,0.63902813,0.26581314
0.02132247,-0.19107668,0.56384534,0.21688682,0.26287082,-0.22004084,0.09277395,0.20891075
-0.06629707,-0.31477085,0.3567895,0.3068702,-0.28723094,-0.17919317,-0.2984587,0.32722467
0.35497913,0.43382615,-0.19771262,0.50524634,0.5711461,0.031095805,-0.38343987,0.29399267
0.26874337,-0.10273079,-0.07902856,0.31513286,0.1566135,0.4749378,-0.18088745,0.44863474
0.2803826,0.14683467,-0.1823939,0.38173762,-0.10379178,0.15150297,0.07183393,0.297099
0.2009804,0.38524577,-0.19173405,0.18763483,-0.26150146,0.12370931,0.069697976,0.6450324
0.24099797,0.010170806,-0.011338077,0.16470394,0.08478409,0.16833965,0.26184413,0.18623437
0.091354735,0.14114161,-0.029089972,0.30873597,-0.05158802,0.14340478,0.025549494,-0.062744275
0.15505321,0.20020728,-0.19933301,0.28456277,0.14100777,0.17023769,0.12407481,0.17985742
0.048700064,0.03516146,-0.0034751624,0.30852392,0.20371178,0.2750091,0.12755343,-0.09523006
0.11653414,-0.057458084,0.045873024,0.28861094,-0.017348103,0.30974558,0.059030484,0.01418913
-0.0097965,0.055949967,0.13354446,0.25884756,0.14941578,0.24100487,0.009511147,0.031222308
-0.050564665,-0.063097745,-0.017264528,0.28235584,0.26802042,0.24982516,0.017834065,0.020215107
-0.038709737,0.1409618,0.02377929,0.40169063,0.12037527,0.12270294,0.01761352,-0.04259903
0.03655407,0.17573693,0.05971192,0.23526093,0.18264894,0.07387382,0.06615933,-0.09916403
-0.18276745,0.20516557,0.006405738,0.34578565,0.10692086,0.10388848,-0.043033753,-0.17613631
-0.22094166,0.12667273,-0.08954495,0.2776394,0.1184886,0.07869625,-0.0908508,-0.15806049
-0.12453711,0.105284326,-0.040565945,0.43361938,-0.023221629,0.0142490165,0.023620544,-0.18448502
-0.09205528,0.10533089,0.04876585,0.30036312,0.3083253,0.12245683,0.017343802,0.015977478
-0.14664647,0.15435058,-0.05347567,0.343659,0.1776163,0.22605428,0.23902886,-0.054934997
-0.07751322,0.22051029,0.12135156,0.39272603,0.41281152,0.21316902,0.11620301,-0.08429715
-0.031341225,0.07064872,0.17824274,0.46648413,0.31705496,0.27327546,0.2299769,0.007288038
-0.014984112,0.015218256,0.2567092,0.21868531,0.2382331,0.43162262,0.22482295,-0.17831878
0.048083294,0.16035625,0.17877628,0.45222417,0.21561976,0.11399346,0.11840371,-0.13646811
0.23668754,-0.6627201,0.22628514,0.5480176,0.18196565,0.26799756,0.16596863,-0.31580794
0.40053257,-0.45872438,0.5857847,0.54453117,0.09090866,0.15121944,0.99900734,-0.6279794
0.09728157,0.16002922,0.4777692,-0.024195272,0.29689732,-0.06872267,1.2712266,-0.26633152
0.14064512,0.41649368,0.41488814,0.28484887,0.24718769,-0.319121,0.80724585,-0.30545887
0.23644666,0.22544123,0.44424397,0.32283482,-0.075047925,-0.3361836,0.16629751,-0.2596731
0.38172796,0.21434236,-0.218189,0.38383368,0.15934187,0.3659797,-0.25646177,0.23829477
0.5156959,0.24456654,-0.3043487,0.412914,0.59986496,0.5514668,-0.14015491,0.29056063
0.4450855,-0.068826355,-0.15613335,0.3447494,0.24240914,0.33961535,0.094727024,0.43530512
0.0783043,0.43172356,-0.08637405,0.45471057,0.15556704,-0.07591107,-0.0018355405,0.06268663
0.10746773,0.52357066,-0.20989348,0.624557,0.037212748,-0.026718894,0.052296277,0.40638226
-0.07320659,0.26419106,-0.14097768,0.43917835,-0.17919931,0.30260617,-0.09104782,0.095283166
-0.068205066,0.2040623,-0.08660402,0.08950749,0.15520756,0.13666067,0.09865748,-0.18940076
0.07875576,0.15443002,0.024327708,0.2207353,0.17602357,0.021518165,0.11160949,-0.0038862235
0.023791935,0.07920232,0.100739665,0.14077678,0.16609514,0.13593598,0.1902049,-0.025311274
-0.10770336,0.052654635,0.08153077,0.24364808,0.05568788,0.16942523,-0.013936325,-0.019849138
-0.13376236,-0.009783699,0.18059306,0.20801365,0.020820757,0.24027319,-0.094526485,-0.18001708
-0.10955683,-0.16210572,0.11185847,0.13247648,0.17801662,0.24043636,-0.03439503,-0.2794212
-0.050774295,-0.104964815,-0.077779114,0.19747302,0.18732955,0.21830325,-0.08848465,-0.27380952
-0.11483848,0.0068539865,-0.08459616,0.29428533,0.10679633,0.13564385,-0.1644514,-0.35762608
-0.26835138,0.20188713,-0.26665962,0.3214747,0.16908881,-0.017018244,-0.21570453,-0.32932866
-0.34815314,0.39929497,-0.41763243,0.23497431,0.2726886,-0.10655716,-0.1278058,-0.29191592
-0.15645364,0.2857226,-0.2434853,0.35570976,-0.0013726556,0.07288692,-0.042807795,-0.037901767
-0.029806148,0.293184,-0.2029029,0.42717236,0.12146813,0.21949635,0.13833131,-0.115060166
-0.087568745,0.094452515,-0.10151077,0.3205606,0.13096085,0.34495947,0.10088932,-0.08737332
-0.04133295,0.09584767,-0.03429103,0.37085882,0.073062696,0.22402804,0.103420265,0.025980847
-0.04100991,0.103732646,0.009664592,0.43179792,0.09621776,0.21254127,0.25671223,-0.0077600465
0.10660917,-0.0656309,0.08381015,0.3075507,0.3500316,-0.022866132,0.3270958,0.06116093
0.063409664,0.002567619,0.018028965,0.31090507,0.2667584,0.08144313,0.3594232,-0.028115993
0.21360017,-0.6305853,0.13363773,0.41457272,0.08665924,0.16494611,0.19057514,-0.36453867
0.22712299,-0.7786882,0.6534793,0.66553664,0.31855735,-0.24698111,0.80268306,-0.7069919
0.08595564,0.026804702,0.7154559,0.56635404,0.17398258,-0.5647678,1.3837708,-0.24539192
0.025444997,0.59971225,0.28810212,0.15145436,0.22647154,-0.25185826,0.9122003,-0.645824
-0.36700538,0.15706229,-0.27859634,0.5204888,0.44785348,0.22541031,0.5403255,-0.382828
0.26990765,0.16432926,-0.04336489,0.21975027,0.29765546,0.4079879,-0.2653859,0.2991558
0.58483964,0.05971279,-0.31360918,0.34791028,0.66662323,0.41568282,-0.3030928,0.2219689
0.4478918,0.14566441,-0.18621624,0.42779464,0.41281086,0.2512883,-0.1529667,0.18951704
-0.23839265,0.57753164,-0.19795327,0.6779708,-0.074826784,-0.2867075,0.07518469,0.08933448
0.21248348,0.1403549,-0.1237162,0.38520238,0.15202719,-0.075733855,0.17017718,-0.035122547
-0.2598473,0.1370177,0.017817132,0.2058284,0.13821457,0.19160847,-0.26173797,-0.158651
-0.11917882,0.3424576,0.020741008,0.030248698,0.04059451,0.065624855,-0.030122666,-0.31178018
0.10538461,0.05699403,0.11257538,0.07496591,0.07691956,0.09717806,0.076232836,-0.30696487
0.044773497,-0.03918643,0.20463845,0.14836787,0.1689097,0.15684846,0.094205506,-0.35609958
0.04231659,-0.18491516,0.18772638,0.08389683,0.019543277,0.30837715,0.07864107,-0.42553145
0.17336854,-0.13010779,0.1675325,0.02910256,0.15546755,0.19196418,0.017042845,-0.52576786
-0.005963266,-0.2357992,0.1948467,0.024634823,0.10732722,0.12648012,-0.28187272,-0.59384805
-0.057808246,-0.23067856,0.17919457,-0.082912095,0.031791896,0.09340577,-0.052385103,-0.49093038
0.035545558,-0.16499022,-0.17650868,0.3351609,0.05504651,-0.31372175,-0.0237557,-0.3440667
-0.05615068,0.07463475,-0.27306938,0.39480805,0.11703672,-0.439773,-0.07042079,-0.41225848
-0.047666363,0.024524817,-0.4749881,0.1335829,0.23646733,-0.14080757,0.12728664,0.0147561785
-0.1848514,0.117294855,-0.32879546,0.24981506,0.06879407,0.030992573,0.069078214,0.06664317
-0.033122804,0.15097755,-0.13431562,0.20396611,-0.06268118,0.013558661,-0.0017043174,0.16730602
0.070178054,0.23420903,-0.08864236,0.28891772,-0.14726906,0.13626198,0.09454088,0.021970132
0.0066659614,0.25586352,-0.11186808,0.1613775,-0.31563184,0.13226682,0.14776938,-0.004159422
-0.006347556,0.15159546,-0.14627251,0.32664606,-0.37653157,0.017414471,0.063845076,-0.055970106
0.06924208,0.10171836,-0.16779433,0.30736908,-0.13666105,0.0013122696,0.18508436,0.05501556
0.05394837,0.040700894,-0.14016084,0.36806846,-0.31687656,0.16147768,0.19141416,-0.06863431
-0.1554821,-0.48141804,0.24903126,0.37320435,-0.16293412,-0.36560884,0.1519592,-0.5529219
-0.080084026,-1.0981429,0.6372198,0.39072576,-0.15766354,-0.59431463,0.78289133,-0.46769282
-0.5811024,-0.24173675,0.46565187,0.04097328,0.42229843,-0.6664028,1.2666268,-0.24761878
-0.6218957,0.19943273,0.4951021,0.019563682,0.7447235,-0.752538,0.9472442,-0.2595956
-0.117161036,0.36216664,-0.20677531,0.11819424,0.3377928,0.0672989,0.41285074,-0.038502894
0.20632069,-0.015729114,-0.21016784,0.33333117,0.26470014,0.4700243,-0.30490845,0.2553106
0.72401786,0.26878503,-0.15259846,0.503761,0.6103012,0.3579508,-0.5309083,0.3782169
0.5126606,0.5389807,-0.32531795,0.37519065,0.5909386,0.47096434,-0.4312481,0.2004115
-0.09573635,0.5152024,-0.28581023,0.45115116,-0.22066759,-0.32606903,0.16041034,0.0783029
0.098324455,0.09038479,-0.086314425,0.115845196,0.24579926,-0.111226685,0.15212667,-0.2598321
0.024230415,0.20254815,0.008043408,-0.18660001,0.3566095,0.15051636,-0.124446504,-0.46436393
0.11344816,-0.08946246,0.16465941,-0.040682036,-0.12523136,0.10284375,-0.082200915,-0.4354437
0.23847246,-0.15781702,0.015590157,0.010737588,-0.045093164,0.21664596,-0.0106050335,-0.5893235
0.18306412,-0.2527147,0.15089768,-0.10921458,-0.115359284,0.27109152,0.073651776,-0.5948431
0.30687314,-0.25399536,0.05854984,-0.052027192,-0.10831713,0.26022428,0.17213944,-0.38210404
0.19097959,-0.27620974,-0.068593346,-0.08250155,-0.21679303,0.2517585,0.17149624,-0.40110457
-0.016037561,-0.14196198,-0.017131379,0.037430916,-0.2505356,0.13291715,0.16947675,-0.26954138
0.18790884,-0.18761106,-0.038520996,-0.14781097,-0.29565465,0.0028825242,0.39274168,-0.22186522
0.45204848,-0.1716526,-0.09239822,0.07702621,-0.2896494,-0.45117292,0.30386162,-0.200518
0.43613,0.16325155,-0.24354954,-0.10656685,-0.14062618,-0.3596671,0.39958557,-0.0784782
0.16107243,0.27984312,-0.4737311,-0.34739143,-0.030034384,0.06709604,0.4635863,-0.0062871254
-0.006871598,0.13735583,-0.27476418,-0.25705525,-0.14930215,0.21413854,0.35674798,0.11540389
-0.15334004,0.11170822,-0.30167997,-0.14139055,-0.46813166,0.074553534,0.28472146,-0.09005603
-0.10344801,0.12041616,-0.34905273,-0.08803417,-0.38455436,0.07736487,0.14556764,-0.13619438
0.1164551,0.17047541,-0.049932595,-0.060695324,-0.509146,0.06078351,-0.115047365,0.12813728
-0.06172868,0.38253954,-0.19623831,0.022974303,-0.8531801,0.12894385,0.053319555,-0.090414815
0.088183306,0.19264363,-0.05795507,0.011623778,-0.8290837,0.18891782,-0.2769489,-0.18117568
0.17140648,0.31570977,-0.17311205,0.033223625,-0.9012241,0.25997964,-0.14474349,-0.14205666
0.12051535,-0.24269189,0.31173941,0.05403888,-0.5444171,-0.3394395,-0.10366724,-0.38856342
-0.1303091,-0.5498762,0.74761206,0.10127458,-0.5562365,-0.71186095,0.203118,-0.56510466
-0.8687055,-0.24989937,0.6687535,-0.1739105,0.273015,-1.0828904,1.0329072,-0.3614938
-0.29080325,0.06738455,0.658644,-0.075545385,0.6743531,-0.7599692,0.96848434,-0.7655803
-0.27117336,0.20565636,-0.21024473,-0.518596,0.25281894,-0.078624964,0.31923935,0.29224232
0.050227024,-0.2177736,-0.2100254,0.06967876,0.26009795,0.3284174,-0.06879683,-0.037171435
0.6708028,0.28604954,-0.21682839,0.26746616,0.5514444,0.71007115,-0.30348366,0.09428091
0.7284518,0.2579302,-0.3385915,0.15800083,0.6115027,0.9050552,-0.50269943,-0.12694699
0.74485284,0.18586887,-0.31747118,-0.020080367,-0.03172098,0.043403182,-0.12952621,-0.099377595
-0.027506273,0.1921805,-0.06502857,-0.16892344,-0.015802044,0.047973588,0.074558005,-0.56242687
-0.05926452,0.017676532,0.031822115,-0.36513162,0.019793075,0.118767194,0.024180947,-0.4821637
0.26499957,-0.43164015,0.12491252,-0.19058882,-0.10439519,0.032798436,0.19758008,-0.50370497
0.24434632,-0.2964963,-0.116519436,-0.27039614,-0.045733713,0.2526578,0.21843411,-0.4665879
0.23193271,-0.20564528,-0.10576313,-0.1762062,-0.19249079,0.1682169,0.10285184,-0.22656234
0.14793654,-0.03939309,-0.025808875,-0.29612318,-0.38857308,0.03487456,0.12528615,-0.19190826
-0.07496267,-0.224722,0.07634252,-0.22596525,-0.15411073,-0.024979731,0.19248782,0.011034054
0.11673668,-0.26250646,-0.006528529,-0.15471463,-0.3945162,0.12328185,0.31024024,0.16441973
0.16542216,-0.23133588,0.07553143,-0.25858042,-0.5456965,-0.1308484,0.45578197,0.3858259
0.3289136,-0.038639225,0.3049636,-0.16863477,-0.48962578,-0.51621616,0.39738083,0.20541444
0.1452554,0.43333733,-0.12100302,-0.3197887,-0.20458335,-0.47018027,0.38589814,-0.042591013
0.16616046,0.32257307,-0.1418274,-0.42931145,-0.17887011,0.00270109,0.46162587,0.027086807
0.030299036,0.11350791,-0.2509105,-0.24508888,-0.3247806,0.055913147,0.21614961,0.12890604
0.0075164675,0.093839005,-0.27078736,-0.17816263,-0.44421983,-0.12780988,0.09878645,-0.031352945
0.06440223,0.031803016,-0.2780833,-0.07519302,-0.30149645,-0.034692887,0.095205694,-0.09416513
-0.033840597,0.29750794,-0.05693768,-0.15566562,-0.36749324,0.12012102,-0.0530822,-0.09404623
0.08857935,0.16732313,0.07632367,-0.0672146,-0.5234867,0.08716911,-0.07299137,-0.18686156
0.39679044,0.25810778,0.12368866,-0.33086693,-0.7789378,0.42427862,-0.26587152,-0.17672648
0.37594834,0.12950327,-0.01542491,-0.03686667,-1.0405242,0.5828949,-0.43228108,-0.16245387
0.64047635,-0.027501961,0.36813834,-0.24845116,-1.0822045,0.2263806,-0.28525135,-0.42268464
0.36537242,0.14139631,0.42627695,0.17458436,-1.0642674,-0.3256557,-0.6793238,0.09904344
-0.6792388,0.48568732,-0.03442113,0.03445596,-0.010136964,-0.7208242,-0.15911807,0.19660947
-0.80638915,0.2791375,-0.24516286,-0.16861024,0.52297914,-0.33376378,0.23454973,-0.25950462
-0.38300756,0.5125257,-0.29297054,-0.21971221,0.3297765,0.18041229,-0.09349674,0.35327414
0.19007263,0.16230501,0.009154836,-0.09458036,0.21756563,-0.22854665,0.0016863885,-0.11106948
0.43455637,-0.044996355,0.06777228,0.010566896,0.35443228,0.4372404,-0.19801508,0.03375598
0.9524826,0.30935308,-0.41173095,0.29258183,0.56417215,0.73132914,-0.53562105,-0.085973926
0.58639437,0.1437692,-0.03599167,-0.11816761,-0.07305324,-0.13055004,-0.13476755,-0.10187157
-0.12774776,-0.22929999,-0.11294231,-0.49040666,-0.43628025,0.4207905,0.28388005,-0.6725254
0.13039258,-0.59619737,-0.068193026,-0.1866931,-0.34504688,0.06711712,0.11478529,-0.40005985
0.20458595,-0.45798612,-0.149675,-0.21290767,-0.36716595,0.043361705,0.13839826,-0.03955311
0.084598675,-0.39875564,-0.11243153,-0.17144872,-0.40980047,0.019032903,0.26383463,-0.12848264
-0.037443276,-0.1380221,-0.11428041,-0.22525315,-0.40076554,0.060042836,0.16644646,0.07407252
0.02933664,-0.20896901,-0.087133855,-0.115311354,-0.27590263,-0.040901836,0.10464744,0.23731497
-0.05828278,-0.4154529,-0.01226634,-0.03901211,-0.45303702,0.15513657,0.14448039,0.2381206
0.0026323136,-0.268993,0.23637491,-0.03364651,-0.42249933,0.18279465,0.18364646,0.24267296
0.1572546,-0.15096493,0.32846773,-0.3259709,-0.32555556,-0.2980615,0.2980911,0.29674047
0.112382434,0.16376376,0.48551396,-0.26067427,-0.16019565,-0.45823872,0.3098105,0.11816698
0.00971393,0.38627926,0.1444085,-0.32374334,0.10658464,-0.1584257,0.20669137,-0.106105976
0.3016477,0.38644654,0.18056567,-0.42371494,-0.029110027,0.11067747,0.32499778,0.1046552
0.0658926,0.27104813,-0.16822456,-0.32116124,-0.21766013,0.060823377,0.22723472,0.113347106
-0.033065442,0.16431826,-0.09741441,-0.28052336,-0.00260191,0.042789202,0.17128333,0.06599714
-0.056486227,0.11706356,-0.02838766,-0.113351874,-0.096270375,-0.030702142,0.16519347,0.028781623
0.089919135,0.09107658,0.24577476,-0.18781681,-0.11868489,0.17468059,0.19846423,-0.013697423
0.16942419,0.066344075,-0.020378267,-0.24266665,-0.09359125,0.24771738,0.12366822,-0.24905886
0.13774116,-0.13375716,-0.053352464,-0.18239006,-0.23533969,0.46294063,-0.043052204,0.1217151
0.34432873,-0.21367612,0.1442593,-0.26036674,-0.5256082,0.5125023,-0.29098585,-0.13590118
0.57945615,-0.44493464,0.5086773,-0.16111062,-0.6419267,-0.12307139,-0.47611764,0.08576813
0.17578453,0.03783583,0.08582575,0.17490977,-0.72432524,-0.38283148,-0.6434524,0.44781953
-0.72962785,0.7884152,-0.37070352,-0.07916418,-0.08507488,-0.09869181,-0.45803118,0.38893226
-1.092402,1.0277938,-0.38906038,0.1432209,0.29788804,-0.07554005,-0.5168997,0.28068194
-0.41206202,0.48232052,-0.07417672,0.21879171,-0.2231194,-0.15833132,-0.2941305,0.18323481
0.010858042,-0.24798004,0.30985615,0.24691245,0.1838687,-0.2305417,0.32600522,0.014630411
0.20047069,-0.26184902,-0.07173072,-0.10465968,0.037112705,0.20063587,0.12490726,0.13054934
0.7893363,-0.059570264,-0.46952575,0.35442623,0.49015394,0.3787914,-0.22206521,-0.006918086
0.5942417,-0.09777174,0.029531382,-0.2112757,-0.065493315,0.07623524,0.23000309,0.17800306
-0.25219402,-0.24242826,-0.28586677,-0.37939006,-0.5345766,0.5063564,0.3533519,0.03764081
0.16704181,-0.4894934,-0.035577532,-0.07892636,-0.92434144,0.12426113,0.031157607,0.07933019
0.086043894,-0.30996102,-0.06039052,-0.23265737,-0.5326161,0.076055445,-0.05612851,0.050509784
-0.11962369,-0.29633835,-0.05149404,-0.07251889,-0.4757304,0.20076828,-0.18780164,0.19409299
-0.1398028,-0.21931003,-0.015159891,-0.120589666,-0.33233508,0.048041187,-0.011320457,0.25977293
-0.11854211,-0.2141766,0.1170395,-0.15089917,-0.2540603,0.042370886,0.10661191,0.26156098
-0.09052246,-0.30368185,0.19419324,0.013552586,-0.42837065,0.2150758,0.015177697,0.17436479
0.23935169,-0.1864721,0.26498646,-0.16141385,-0.36689374,0.104467966,-0.028165638,0.32545188
0.146841,0.0415299,0.3332847,-0.26210397,-0.19712873,-0.118121974,0.18506344,0.35348937
0.14648171,0.40432772,0.40409595,-0.071908735,0.02110126,-0.08192492,0.22367063,0.075881645
0.27652118,0.45601192,0.3188233,-0.14772937,0.2426128,-0.050486162,0.2238121,-0.02347445
0.2647016,0.29187024,0.24675232,-0.28949293,0.086272895,0.13196504,0.27209947,0.025272988
0.003921082,0.1403342,0.02015871,-0.46954682,-0.040771134,0.10966525,0.22369398,0.18709114
0.06787337,0.11859595,-0.14167622,-0.11973836,-0.1996432,0.34267113,0.28798014,0.09641124
-0.09762186,0.14233446,-0.049837492,0.07565784,-0.086987786,0.28974465,0.11693676,0.16748554
0.11939375,0.12878464,-0.24024941,-0.1047291,0.04984782,0.4877238,0.15224941,0.24713579
-0.058228623,-0.1184948,-0.13686162,-0.10421918,-0.0009738547,0.24828477,-0.036330152,0.017860511
-0.08017734,-0.06460971,0.008446397,-0.05457757,0.02978737,-0.061836924,-0.013989976,0.06723408
0.029245272,-0.30156347,-0.12868148,-0.23999143,0.031385206,0.0337843,-0.07077054,0.115661085
0.14416322,-0.2747585,-0.046580434,0.1917419,-0.11450459,-0.35417822,-0.22732352,0.07095063
0.15067019,-0.19976117,0.1043529,0.33150825,-0.37271437,-0.6142839,-0.25055507,0.1701035
-0.3473654,0.4508316,-0.22154547,-0.2744574,-0.31833762,0.014040477,-0.18052666,0.016689014
-0.73049384,1.0316577,-0.45814946,0.36544603,0.31529686,-0.27298132,-0.52103317,0.20156649
-0.26149338,0.43549022,-0.11887222,-0.060612626,-0.08625795,-0.032632284,-0.37382627,0.17253792
0.19099729,-0.29248947,0.103630885,0.28167695,0.25467965,-0.216963,0.23633581,-0.0710605
0.09218293,-0.26389098,-0.24337791,0.1052979,0.019722583,-0.22701436,0.31468827,-0.033559714
0.4054152,-0.18872924,-0.043313064,0.16232932,0.43961716,-0.17758486,0.050145697,0.59348065
0.2499416,0.025458803,-0.15076557,-0.12900877,-0.1734941,0.18836603,0.09084945,0.6094249
-0.59054494,0.06204,-0.26618263,-0.038627815,-0.832866,0.16919483,0.030715609,0.37256747
-0.33583286,-0.08848839,-0.056268252,-0.0038007596,-0.8833174,0.0077477247,-0.29475012,0.40146077
-0.051114716,-0.064080566,-0.028766273,-0.27735552,-0.48929122,0.16851729,-0.2389291,0.40039155
-0.24352273,-0.18660791,0.00013087272,-0.0884141,-0.46719053,0.30892688,-0.22367078,0.13959476
-0.2598209,-0.28240722,0.075125664,-0.19944616,-0.3142304,0.3358952,-0.1873379,0.1699039
-0.097684145,-0.20182234,0.29878792,-0.031362623,-0.2832232,0.26027563,-0.1279906,0.13544746
-0.05453624,-0.22410356,0.16303074,0.023442164,-0.1856323,0.23793879,0.028979784,0.064114265
0.0833892,-0.034440607,0.23417762,-0.33971298,0.008455778,0.20485744,0.10776776,0.2568655
0.18793704,0.10467118,0.38269353,-0.21528217,0.097715594,0.016810933,0.24283916,0.23137237
0.22785719,0.46146184,0.5179504,-0.08773258,0.14418006,0.03443105,0.19557847,0.21882294
0.40450466,0.5048661,0.42007002,-0.29931006,0.3512241,0.036008358,0.11267777,0.17233789
0.14637962,0.30424777,0.030019417,-0.15070066,-0.023020051,0.22850804,0.22675443,0.24331453
-0.019410623,0.13889505,0.14398882,-0.37240234,0.076058455,0.22636542,0.16968201,0.21280706
-0.0015293385,0.069986686,-0.037879385,-0.118137464,-0.22589642,0.49897805,0.22422566,0.2956697
0.044854533,0.014355897,-0.028201679,0.044120386,0.029866934,0.32357568,0.20058464,0.110094205
-0.08441038,-0.056796428,-0.08300084,-0.1120903,-0.015060912,0.19027448,0.09709628,0.21331483
-0.10378486,-0.21456644,-0.29653484,0.011146965,-0.15004456,-0.12468406,-0.023353904,0.10502383
0.028604357,-0.24452405,-0.27013907,-0.06345197,0.010520685,-0.23230056,0.03364299,0.103129044
-0.17650972,-0.1842609,-0.4808517,-0.048991546,-0.012320514,-0.12411506,0.12754379,0.09211599
-0.00026455414,-0.20109172,-0.28426704,0.107484855,-0.1352285,-0.59284556,0.17429471,0.22837177
-0.10922249,-0.3165036,0.115159385,0.16597296,0.029629223,-1.0233914,-0.35560167,0.47388828
-0.18016729,0.04207509,0.33066046,-0.307927,-0.32027134,-0.39505306,-0.5648781,0.2518913
-0.71499574,0.57634825,-0.4477414,0.16791695,0.26377317,-0.17665109,-0.15220545,0.5188174
-0.28487554,0.4408228,0.05574267,0.25115043,0.10990917,-0.15082541,-0.2532587,0.51589245
0.28103045,-0.012266479,-0.23329489,0.24685663,0.12467145,0.2079131,-0.10164224,-0.027375795
0.0467174,0.11050104,-0.11299091,0.22420773,0.06436939,-0.31606695,0.33406478,0.12615298
0.30091748,0.3214524,-0.06322874,0.29643652,0.30610427,-0.5155499,0.059815135,0.17731255
-0.15049048,0.39356,0.31050494,0.1866345,-0.023842106,-0.3481469,-0.077983096,0.45341626
-0.5737259,0.34012607,-0.25042063,0.09009429,-0.4090708,-0.27966493,-0.13344555,0.18433858
-0.35464537,-0.043367922,-0.08181147,0.038165983,-0.32760224,-0.2039596,-0.20452288,0.42906153
-0.40001512,-0.077523,-0.08621409,-0.12671274,-0.2263279,0.07927853,-0.16147874,0.20684612
-0.25903302,-0.03817097,-0.012696078,-0.05871383,-0.34359986,0.4069892,-0.30804694,0.26906016
-0.027357211,-0.16160645,0.086141855,-0.009136941,-0.28267986,0.5918768,-0.19246598,0.07667244
0.11491964,0.032493114,0.14470276,-0.04881916,0.0053559924,0.21217738,-0.25640416,0.13656221
0.018569576,0.065889634,0.21557783,-0.047758326,0.15335615,0.15837798,-0.24561015,-0.02970391
0.08936742,0.0069490885,0.44342664,-0.14425026,-0.062865816,-0.0040335874,-0.14224422,0.26783603
0.14144187,0.27825373,0.3777598,-0.03473677,-0.0045212545,0.21865353,0.28167516,0.20579621
0.2234487,0.4935102,0.44053134,0.028309625,0.31862032,0.1523856,0.2176819,0.21724434
0.30875784,0.36814103,0.36019364,-0.29852033,0.4061165,0.10917144,0.10635489,0.28781143
0.0762047,0.15137704,0.1576705,-0.26726484,0.016345445,0.3843673,0.16989122,0.30809304
0.13537177,0.21088274,0.082654,-0.21113779,-0.023541203,0.4259468,0.079606265,0.19154799
-0.11938853,0.11361358,0.03727445,0.08358847,-0.14383169,0.59668165,0.17125785,0.2764857
-0.16471441,0.017431254,0.13422363,-0.028582456,0.042588126,0.21460463,0.06985749,0.16065523
-0.13957256,-0.09865261,-0.1506382,0.032240327,-0.05442226,-0.1141283,0.053566907,0.33479068
-0.023624128,-0.28304425,-0.34521103,-0.03921316,-0.04442629,-0.07584867,-0.046521556,0.2443621
-0.17705311,-0.13874799,-0.32042804,-0.04409704,-0.011016263,-0.13977022,-0.1560674,0.4510308
-0.31457862,-0.09422654,-0.14551783,-0.07089769,0.0916524,-0.3902122,0.062300365,0.3173077
-0.39445442,-0.13884228,-0.17617586,-0.06373095,-0.15745024,-0.5761199,0.11295193,0.2760777
-0.27439594,0.09614231,0.029798219,-0.06138778,0.050226178,-0.8680769,-0.34024012,0.38486445
-0.3819593,0.37624666,0.51003313,-0.13954459,-0.47127476,-0.11336618,-0.9180667,0.84073144
-0.7607192,0.8650463,-0.19697575,-0.00070131966,0.20599462,-0.07640037,-0.56751317,0.8047212
-0.33282655,0.4018512,-0.031634886,0.30036253,-0.114590935,-0.1748575,-0.49459177,0.2621184
0.015213735,-0.02357874,-0.055947177,-0.070324376,0.046697304,-0.0627591,-0.022995949,0.037694983
0.18855193,0.2151068,-0.4958086,0.13743873,0.29032466,-0.4778481,0.3848054,0.038352694
-0.10867371,0.1439099,0.06441098,-0.043304905,-0.24632514,0.02942006,0.026236186,0.46536475
-0.29407075,0.38718763,0.14742088,0.05211079,0.20557843,-0.5152585,0.05684148,0.20218524
-0.6031368,0.28098413,-0.1712877,0.12996086,0.13682927,-0.23442091,0.0068338863,0.18239495
-0.8188463,-0.03016182,-0.09023221,0.109434515,-0.049578294,-0.09166058,-0.1940851,0.08561835
-0.5265915,-0.3157553,0.1852494,0.0068381135,0.0889882,-0.051053714,-0.15445678,0.046560537
-0.30355853,-0.182238,0.12973186,-0.1129627,-0.2305225,0.26209277,-0.1547806,0.13277355
0.09450962,0.0018118058,0.11573287,-0.18928364,-0.18693566,0.33417925,-0.1859404,-0.036855057
0.21301438,0.057199437,0.22463785,-0.12629654,-0.168587,0.344176,-0.23709986,0.022143971
0.23362333,0.009982,0.35282397,-0.16058221,0.051567927,0.16088644,-0.5039969,-0.013507194
0.26327032,0.047907002,0.3383135,-0.15923531,-0.20387627,0.22204003,-0.25982228,0.17207414
0.2112933,0.38912585,0.3121803,-0.09148815,0.024453783,0.49195,-0.15154077,0.02779362
0.19328105,0.45101964,0.23431167,-0.32289803,0.24971971,0.38004097,-0.01660779,0.23763338
0.34099138,0.23941489,0.054733817,-0.38139626,0.2588153,0.4202559,-0.013928718,0.14007987
-0.03708043,0.09110635,0.020911137,-0.2781757,0.1235022,0.391992,0.080541275,0.1203922
0.027929034,0.015295563,0.13980858,0.06690694,0.034853358,0.38223615,0.14707424,0.17350839
-0.07935714,-0.1668028,0.12809375,0.12618855,-0.10906407,0.3141061,0.12420076,0.08259814
-0.1233759,-0.164647,-0.0030911977,0.02706304,0.056637626,0.18576139,0.016329583,0.25906098
-0.05583835,-0.0038323463,-0.048264887,0.05758206,-0.090383224,-0.2443502,-0.030992026,0.20259306
0.060562387,-0.21950652,-0.20165092,-0.1215367,-0.10073631,-0.23487021,-0.033106193,0.19894278
-0.09587852,-0.079591595,-0.19649394,-0.1844139,-0.064480744,-0.29589164,0.05580205,0.39750648
-0.1649107,-0.041990373,-0.2939291,-0.10564123,-0.0077237627,-0.313795,-0.09262859,0.23958135
-0.22286756,-0.09675299,-0.1588269,-0.24573846,-0.0798367,-0.27907723,0.12185021,0.08518912
-0.3186799,0.09098961,0.06742326,-0.2094301,0.19310135,0.04197975,-0.36103043,-0.033512298
-0.49975988,0.5354543,0.09651712,0.019935736,-0.37951577,0.58853114,-1.0161773,0.8932036
-0.4746587,0.9303233,-0.3073884,-0.20106462,0.2757771,0.058527123,-0.49755976,0.4480048
-0.4345794,0.4811028,0.36855975,-0.052439988,-0.0018910597,-0.4118214,-0.37675357,0.07573991
-0.09779143,0.36777318,0.08893742,0.27371195,-0.115393095,0.28508714,-0.18275103,-0.45256752
0.11818427,0.33000877,-0.40604067,0.09124091,0.034365483,-0.37648106,0.18985404,0.18594807
-0.021998195,0.17203616,-0.1837285,-0.29002166,-0.30962417,0.05630166,0.23156038,0.43875137
-0.21785979,0.24503402,-0.16411941,-0.06504451,0.47889736,-0.42735592,0.25128365,0.6986834
-0.5638588,-0.09150479,0.06099178,0.21746705,0.49869663,-0.057943106,0.027585207,0.2948481
-0.62057763,0.014721233,0.21599643,0.19118682,0.150247,-0.15824184,-0.13634841,0.12017696
-0.4118007,-0.085460916,0.44532818,0.033452258,0.063349485,-0.047800444,0.16664098,-0.17158493
-0.17951658,-0.12188212,0.35605434,-0.048293423,-0.08925059,0.108585924,-0.08112475,0.009711593
0.15383695,-0.080914356,0.1799467,0.0016396726,-0.1253483,-0.02129768,-0.07316369,0.1557976
0.3314247,0.018410137,0.16960754,-0.14373535,-0.15666214,0.08672541,-0.17403473,-0.1105746
0.13914698,-0.014493162,0.19398746,-0.16233246,-0.3062925,0.0995953,-0.34335858,-0.14694162
0.121254124,0.04458328,0.23919304,-0.2719249,-0.117643766,0.16844998,-0.23499586,-0.13135028
0.2903356,0.029018978,0.35862952,-0.24145004,0.10687002,0.28326523,-0.31973556,0.13620478
0.19958577,0.18470578,0.1114175,-0.2384894,0.30218157,0.35962,-0.12825948,0.26269963
0.040792383,0.13404654,0.12280689,-0.32106707,0.28185046,0.2746103,0.012463192,0.15577932
-0.04233551,0.11092591,0.19651705,-0.08083602,0.069986396,0.26328692,0.05347449,0.11915703
-0.0036496767,0.029530749,0.14966996,0.02332315,-0.1182142,0.10886257,0.15998796,0.24342601
-0.10948263,-0.004316533,0.15839586,0.11981045,0.08009877,-0.03339872,-0.018835677,0.2893375
0.054334074,-0.0080430675,0.0035355918,0.0721732,-0.022856308,-0.036101867,-0.06972587,0.30387744
-0.05263465,-0.0008141934,-0.026683759,0.071589164,-0.009024536,-0.10969811,0.072687045,0.16159867
-0.07999025,0.038976394,0.043215387,-0.075796664,-0.0034844144,-0.06334974,0.06787879,0.11120541
-0.26804504,-0.02773191,-0.16389939,-0.06366877,-0.07120882,-0.17565338,0.0046583503,0.2103775
-0.2670908,-0.021704298,0.10398817,0.052707624,-0.2189803,-0.30921006,-0.17565234,0.07199375
-0.31086645,-0.024544943,0.27400497,-0.15525335,-0.060199365,-0.37431943,-0.3504705,0.14876929
-0.56781405,0.048436493,0.54482394,-0.1655524,0.18810146,-0.13114755,-0.504428,0.1240707
-0.33527943,0.4404777,0.29144937,0.07954437,0.1084673,-0.041346874,-1.0011555,0.734123
0.387639,0.39984065,-0.3493975,0.05250039,0.29433864,0.14295878,-0.023021417,0.15483932
-0.06995527,0.5287294,-0.4066261,-0.21791421,0.40397173,-0.3611322,-0.10790877,0.52736074
0.24664994,-0.04096548,-0.16941041,-0.19730878,0.25959292,-0.29920065,0.112380415,-0.15391685
0.4783105,0.07666217,-0.3251496,0.3699109,0.25072736,0.17405094,-0.36408877,-0.40881202
0.4095824,-0.11010016,-0.18895143,-0.13087747,0.058807593,0.1082843,0.24746203,0.046078093
-0.43441483,-0.052967813,-0.3801275,-0.005200121,0.25705206,-0.3035627,0.48533645,0.4748267
-0.74445677,-0.077773765,0.10236844,0.35113803,0.36763796,-0.10583688,0.0065614707,0.1423515
-0.431232,-0.0059656026,0.06451468,0.27274606,0.15113516,0.03698316,0.08524828,0.0835741
-0.23959169,-0.19523005,0.30197462,0.24858914,0.18789625,0.19002682,0.023589846,-0.1801437
-0.22464934,0.007331468,0.38236386,0.11757378,0.10604835,0.032043986,-0.12212483,-0.018883992
0.09813279,-0.05668672,0.25962025,0.24035822,0.26198396,-0.04989466,-0.07626388,-0.07517941
0.2164482,0.06518283,0.17652726,0.20610012,0.18795909,-0.11515286,-0.22001849,-0.0034177443
0.21809451,-0.008342237,0.2373467,0.11133081,-0.000168331,-0.2376313,-0.24154994,-0.11145142
0.20471255,-0.22629455,0.24077252,-0.041052178,0.059024703,-0.10728322,-0.3283107,0.092952326
0.19472352,-0.17529371,0.2390491,0.15866484,0.049710363,-0.00032603522,-0.3209154,0.00054040534
0.061974883,0.05895546,0.21116793,-0.030040525,0.2960986,-0.021353502,-0.11643801,0.08621272
0.003650779,-0.047832362,0.082324,-0.028173966,0.16267286,0.16330166,-0.0074074687,0.26047936
0.083286606,0.01827438,0.18375568,-0.02657163,0.073314615,-0.05689519,-0.0003044291,0.24243231
-0.025826646,0.104081735,0.23497275,-0.06651057,0.17573674,-0.12849164,0.040032644,0.21360281
0.039433975,0.06560602,0.12784709,0.10021812,-0.019983593,-0.11369449,-0.038028628,0.37614167
0.05214286,0.068732254,0.22350767,0.007847512,-0.0690001,-0.1587029,0.07528438,0.23449384
-0.02359119,0.011638536,0.15994717,-0.00094359694,0.09644217,-0.07254043,0.0048935036,0.12202529
0.08261267,0.0010630818,0.19090928,0.10041865,0.13901749,-0.040824696,0.01778949,-3.5800513e-06
-0.14524683,-0.09156904,0.17174543,0.16337422,0.061932273,-0.22573122,-0.08726264,0.020967849
-0.14580272,0.18465471,0.4239627,0.22724211,-0.10930642,-0.30834672,-0.19422318,-0.24856448
-0.28867957,0.19272779,0.6273776,-0.110608436,0.1969973,-0.40948462,-0.23344304,-0.27486378
-0.57070714,-0.04316264,0.3396596,0.084951416,0.42576393,-0.033098716,-0.4225035,-0.27059445
-0.5674851,0.57408786,0.13657975,0.004719899,0.31462127,-0.51640946,-0.73325914,0.22660007
0.015103224,0.6650245,-0.25905582,0.13004847,0.3434748,-0.021158805,-0.41846743,0.32850355
0.092953466,0.37789994,-0.35842964,-0.1213183,0.2419493,-0.31279114,-0.07838611,0.37886474
0.054450005,0.027016312,0.011520937,-0.045746047,-0.01331006,0.004344076,0.0113142505,-0.040285807
0.1408237,-0.21802734,-0.2792748,0.27680743,0.11100664,-0.12697995,-0.0080057345,-0.1813802
-0.117570885,-0.18423305,0.16510391,-0.066943355,0.110812895,0.30788863,-0.033916667,0.16443996
-0.86324304,0.083071016,0.14641385,0.08175574,0.22755219,-0.44025335,0.16361229,0.4978004
-0.81006575,0.15520029,0.27529567,0.43138564,0.09147724,-0.10388924,0.0012525931,0.028633147
-0.4550839,-0.018498722,0.3672282,0.69195914,0.026294323,0.027082691,0.05956118,0.07315228
-0.2331377,0.24060252,0.2529079,0.31294537,0.23824443,-0.16493225,0.044816144,-0.19909298
-0.020858426,0.26186922,0.4378957,0.42167765,0.19062996,-0.018449923,-0.18366046,-0.019334944
-0.08735933,0.0774653,0.20613684,0.37094685,0.35028708,-0.12355376,0.04846796,0.023631027
-0.012142497,0.0393851,0.2170771,0.15421377,0.23287219,-0.20791845,-0.07537575,0.1220977
0.21757965,0.03846958,0.13566022,0.24436198,0.2574661,-0.2514886,-0.20933639,0.048844155
0.08253681,-0.17090213,0.13755098,0.06928143,0.28040993,-0.1792851,-0.3154253,0.115113996
0.30111206,-0.16745386,0.09034228,0.22740774,0.13337626,-0.09305906,-0.3655895,0.02902067
0.03689474,-0.07802167,0.14585881,0.1114144,0.048192624,-0.0497911,-0.20202613,0.011592992
0.1158894,-0.067033984,0.046667594,0.07977069,0.07681404,-0.088395394,-0.056018125,0.25055552
0.13433562,-0.09846344,0.19254296,0.14871562,-0.080465235,0.00058998977,0.007324155,0.29399258
-0.01344803,0.037076697,0.14053276,-0.10582238,0.19225733,0.0065449956,0.00674053,0.2676186
-0.08026984,-0.11104062,0.14332399,-0.018938655,0.0650857,-0.14024751,0.17379996,0.16673732
-0.017151698,0.026989792,0.28410956,-0.069406874,0.171247,-0.19627455,0.034078635,0.18753062
-0.043302994,0.15745768,0.20730683,-0.042235497,0.21367651,-0.12448422,0.029804919,0.020010024
-0.08670252,0.12250829,0.3680158,0.08082427,0.08565706,-0.31017798,-0.07285991,0.061426733
-0.12694761,0.08861236,0.34839693,0.068231516,0.09355717,-0.1395677,-0.17359392,-0.16846438
-0.22710267,-0.02078084,0.68901,0.20952806,0.24705467,-0.37105373,-0.16649263,-0.5457239
-0.3187297,0.0504249,0.4818854,0.020341119,0.2688379,-0.29059377,-0.26473856,-0.45154834
-0.89492357,0.13947019,0.03678854,-0.17996593,0.1766658,0.07488019,-0.69932765,-0.21754783
-0.6978897,0.05511992,0.15512387,-0.04561056,0.14477102,-0.09180775,-0.59842294,-0.15522456
0.06633342,0.37025434,-0.04299617,-0.025015816,0.39560273,-0.22649613,-0.34112912,0.11411367
0.11662593,-0.2794725,-0.16331936,-0.16783759,0.44237968,-0.31091726,0.34149483,-0.29694742
0.2586328,0.06368794,-0.18438229,-0.20806289,0.23429045,-0.21505193,0.2030436,-0.2956603
-0.32640806,0.50609916,-0.051582858,0.14017887,-0.077212244,-0.035718996,0.14623776,0.3582896
-0.20122398,0.64332676,0.33566272,0.24526227,-0.2812829,-0.100084476,-0.10022602,0.98984885
-0.55974007,0.2552413,0.26923367,0.24808209,0.27574107,-0.50824606,-0.053515915,0.4467464
-0.5741265,-0.009536672,0.2995561,0.4267595,0.16159958,-0.27367377,0.15574074,-0.34309193
-0.21885912,-0.102286965,0.12774259,0.0954182,0.35175917,-0.02188325,-0.04859185,-0.17640011
-0.054675203,0.23593757,0.24058713,0.16676405,0.33611876,-0.28496763,0.06536745,-0.2988355
-0.029576106,0.14815913,0.430643,0.28930008,0.2935624,-0.24227637,-0.02068811,-0.25420055
-0.02852054,-0.020601667,0.13365996,0.01759094,0.2999739,-0.07132962,0.031531557,-0.06332924
0.095370226,-0.0278566,0.29450932,0.075927265,0.16308968,0.08702176,-0.112018645,-0.09689007
0.039685514,-0.024412494,0.14538263,0.06862936,0.24575101,-0.016940244,-0.19272448,0.013902436
0.024632165,-0.1894626,-0.017127313,0.058079265,0.08794401,-0.16256985,-0.21256167,0.023605911
0.12723982,-0.16651213,0.07285985,0.099800006,0.06689913,-0.13015704,-0.16183054,0.13493234
0.16610053,-0.17119531,0.169275,0.079764545,-0.021676889,-0.1765784,-0.10483229,0.089639366
0.1493502,-0.07725992,0.21329859,0.078189425,0.19049299,-0.141661,-0.11400033,0.097054265
0.06964061,-0.09132133,0.11818605,0.0015250839,0.20654996,-0.15497655,0.012276155,0.1269488
-0.08513825,0.034355473,0.119596675,0.05642719,0.027256422,-0.0049807825,0.06469064,0.1666689
0.08517982,-0.038783476,0.2150689,-0.07347464,0.08407596,-0.12862305,-0.06420049,0.18948637
-0.0051751127,0.12966196,0.29374555,-0.12543206,0.11407099,-0.15015844,-0.04582384,0.16896789
-0.17781651,0.18148325,0.26988384,-0.09194482,0.08590257,-0.0009089794,-0.12081268,0.10437338
-0.078878805,0.042598814,0.30319375,-0.21267474,0.20129214,-0.063105665,0.053042244,-0.12147343
-0.22182402,0.013610028,0.29972902,-0.095366746,0.31707448,0.08435504,-0.027539918,-0.3528262
-0.15955216,-0.15539579,0.41448715,0.22274421,0.340191,-0.09409794,-0.23992272,-0.40907627
-0.5800967,-0.034371078,0.5711538,0.0005257444,0.0075419117,0.017396182,-0.4970163,-0.26424083
-0.77052855,0.06546436,-0.07677448,-0.2877197,0.4524179,0.23043159,-0.7129248,-0.11133046
-0.40625283,0.05759542,0.10085329,-0.027007934,0.24741003,0.041134287,-0.6319685,0.04801016
-0.0024722076,-0.28762951,0.46197245,0.26866058,0.14185724,-0.25996312,-0.5401078,0.42940685
0.046967153,-0.25896022,-0.057400014,0.14418401,-0.075264126,0.036673658,-0.040965818,-0.07860884
0.23091766,0.0152250305,-0.0913167,-0.21234548,0.24535392,-0.3182693,0.064393364,-0.2925634
0.16475412,0.1906179,-0.18613438,-0.06432458,0.19900854,-0.15097027,0.2181044,-0.04239446
-0.17404556,1.0293069,0.53670716,0.019388516,-0.21064489,-0.20651948,-0.02962476,0.8435845
-0.13440031,0.330896,0.55248535,0.09451388,0.094873585,-0.5939284,0.07364155,0.20846725
-0.4508611,0.16828267,0.28946215,-0.10676478,0.29592618,-0.43812904,0.0122110685,-0.20218076
0.052414995,0.17772548,-0.21997143,-0.02302635,0.272761,-0.31184214,-0.40966862,-0.103109285
-0.057290304,0.30033424,0.09472328,0.13037588,0.08067808,-0.25401706,-0.09346673,-0.07696063
-0.10888125,0.19401462,0.10727944,0.3257598,0.21198912,-0.05942742,-0.1148027,-0.040455066
-0.13292472,0.10065468,0.15284862,0.19731446,0.109245025,0.03262736,-0.089672506,-0.1305365
-0.17397942,-0.001476488,0.10395968,0.17402302,0.14301077,0.044606086,-0.25468114,-0.07476707
-0.13339888,0.036323234,0.058524437,-0.0072759506,0.03719745,0.08763428,-0.10344181,-0.0012353183
-0.043833096,0.064900875,0.14780103,0.18208483,-0.066451125,0.09720652,0.08266601,0.018874478
-0.033455636,-0.14777371,0.188381,0.17700414,-0.12330908,0.161901,-0.083264254,-0.024804266
0.060011048,-0.14682612,0.2052631,0.19023575,-0.12054609,-0.0051834094,-0.08764105,-0.021322804
-0.0062263734,-0.010789076,0.17793523,0.15855424,0.067038156,-0.03330585,-0.048273683,-0.24727777
0.12922803,-0.010100632,0.11788938,0.16725661,0.05127309,-0.060820755,-0.025781939,0.07176953
0.00056374323,-0.05306439,0.1645894,0.20045958,0.09003102,-0.05304696,-0.019797608,-0.033690333
-0.027229076,0.060155526,0.19590184,0.12626116,0.21005297,-0.10697879,0.04260028,-0.04494361
-0.098811336,0.051071376,0.32341316,-0.08849994,0.23466939,-0.09224022,-0.042058714,0.00068391935
-0.10666901,0.055554774,0.21213531,-0.031028297,0.24426341,-0.113602936,0.09110059,0.048066236
-0.2510648,0.13422187,0.31880093,-0.09245196,0.24307986,-0.092990585,-0.14725222,0.010438104
-0.030348128,-0.0017321302,0.37720665,-0.2964843,0.1270387,0.14425701,-0.15758337,0.0017564863
-0.15989248,-0.05608712,0.33942586,0.12680626,0.01184394,0.15841205,-0.14078082,-0.15746997
-0.44249052,-0.22264643,0.26187024,-0.2150814,0.120780855,0.24364097,-0.105178826,-0.14860514
-0.29801133,0.0061846687,-0.14370196,-0.31106877,0.4198335,0.338697,-0.5549593,-0.22017714
-0.030892747,0.07164859,0.16153297,-0.17882834,0.42556745,-0.07528722,-0.49344257,-0.21775831
0.30827948,-0.24802656,0.17713696,-0.2955144,0.56273466,-0.6058024,-0.28461516,-0.2234389
-0.05888023,-0.15827869,-0.10080722,0.13401237,-0.021506637,0.0732893,-0.1702274,-0.042530876
0.025962338,-0.025392722,0.017966822,-0.05333149,-0.023826323,-0.040310916,0.034212433,-0.043236405
-0.03549246,-0.058257192,0.008996949,0.015575543,-0.0527034,-0.024618726,0.042478845,0.03486134
0.021721944,0.64020693,0.59756714,0.28499275,0.0005492037,-0.52032197,0.1283863,0.6520106
-0.5997416,-0.040823318,0.63519895,0.3098811,-0.021680871,-0.9682844,0.71291935,0.5989377
-0.28697747,0.037618052,0.004623921,0.17665239,0.2439319,-0.5548154,0.39663962,0.19763763
-0.005457478,-0.09491045,-0.10726585,-0.0875912,0.3715299,-0.42652223,-0.015382297,0.27983415
0.015325303,0.014438975,-0.2167499,0.14910598,0.06539068,-0.2838733,0.015438655,0.1953428
0.010459968,0.08724766,-0.289685,0.3389071,-0.0012838626,0.09315686,0.010697353,0.3337773
-0.04593784,-0.05334947,0.30416557,0.0010362401,-0.026698122,0.06893349,0.021694168,-0.035231944
0.04366746,0.06393808,0.21034354,0.16626966,0.06202429,-0.14129205,-0.06802037,-0.02420129
-0.025857266,-0.039375704,0.19302703,0.3366262,0.10091652,-0.02171075,0.14889508,-0.036834285
-0.01411928,0.060408384,0.2522445,0.40850228,0.106064186,0.008674145,0.054885168,-0.06468781
0.16808301,0.07798965,0.23944166,0.28401682,0.21308589,0.10212088,-0.056995396,-0.12911956
0.07947391,0.115234785,0.26839045,0.28093952,-0.01574732,0.0074807694,0.028230557,-0.10878024
0.10391639,-0.039617907,0.22709139,0.2887174,-0.034472007,0.09437651,0.05379401,-0.10964431
0.1346019,0.051263392,0.17721616,0.28175753,0.07746588,-0.11451935,0.009929699,-0.18642902
0.21897496,-0.010541568,0.32196116,0.12984088,0.13909018,-0.03313905,0.11619544,-0.18508893
0.099287346,-0.0105552655,0.1909847,0.12911336,0.14308311,0.00595497,-0.017947968,-0.19749807
0.07205134,0.24707243,0.17427123,0.045248643,0.037797082,-0.034605898,-0.004728763,0.024320036
0.071111865,0.2080065,0.46186936,-0.06999952,0.07494849,0.014651461,-0.14104232,0.04830787
-0.14746092,0.07387897,0.5666694,-0.15674664,0.061172124,0.0574398,-0.04223791,0.1177172
-0.180736,-0.004677511,0.472493,-0.15518163,-0.08664134,0.18937513,-0.25080335,0.115117244
-0.2775183,0.029052315,0.56381154,0.039128885,-0.0024423702,0.3484394,-0.49100015,-0.020158483
-0.21884345,0.13755839,0.84339094,-0.14206436,-0.020793078,0.22751601,-0.10366502,-0.0689172
-0.31222248,0.0055044927,0.13677114,-0.14521633,0.2589299,0.2568137,-0.35485345,-0.13329494
-0.17861284,0.048783556,0.44930544,-0.24877615,0.2560833,-0.07400999,-0.60645866,-0.122186705
-0.23503467,-0.1882625,-0.081347175,-0.26810187,0.6375724,-0.56586707,-0.1611069,0.14956318
0.0052795187,0.016224965,-0.003511928,-0.054759976,-0.04567375,-0.042232044,-0.08160635,-0.061123207
0.016506404,0.073157564,0.003607452,-0.005980842,-0.043272614,0.06745461,-0.07951529,0.013002627
-0.068076655,0.004365571,0.046089917,0.007235259,0.01457683,0.008886822,-0.07588198,0.08370881
-0.025658116,0.38726386,0.26805723,0.27638495,-0.060271714,-0.36829507,0.4053575,0.42905328
-0.5079564,-0.0065389774,-0.08385914,0.7316762,0.2569696,-0.60400814,0.90951025,0.6586919
-0.33925813,0.3636099,-0.2735746,0.38941753,-0.24946332,-0.36703366,1.0026845,0.22598805
-0.06486997,0.11376656,-0.54478455,0.016679056,0.08311392,0.11779963,0.58260846,0.004012939
-0.22040547,0.0114261955,-0.443397,0.07047792,0.070101835,-0.0827175,0.5062551,0.2094303
-0.113151826,0.15244043,-0.16248669,-0.036950123,-0.067857325,-0.075324774,0.47908023,0.11480963
-0.04924296,0.08920801,0.09351837,0.15208884,-0.12890749,0.06565093,0.25963557,0.14717776
0.043027032,0.010867497,0.33148876,0.07323969,0.15017158,0.033531304,0.12636147,0.24111153
-0.07108745,0.10015284,0.09742174,0.14374605,-0.110985644,0.0075308452,0.41699964,0.14650953
0.051740948,0.06590932,0.30396318,0.14677174,-0.016731162,0.09354225,0.37162966,0.121170215
0.1069833,0.05989465,0.39602628,0.36610273,-0.013856263,0.02390972,0.11075128,0.07998287
0.02346263,-0.08092495,0.25365427,0.4812936,0.04988603,-0.031112853,0.33008385,0.0697093
0.16843711,-0.03779832,0.23536384,0.43599162,0.18626165,-0.10320342,0.10435941,0.20565213
0.08749573,0.057497542,0.29035166,0.3030769,0.043314155,-0.024876151,0.19365859,-0.05395185
0.21791084,-0.021357445,0.28196612,0.18449897,-0.21731043,-0.06641123,0.16836879,0.087997645
-0.11242562,-0.031065483,0.11266137,0.18169926,0.14732186,-0.12700796,0.037179865,-0.05929028
0.18078153,0.009942271,0.51464814,0.054908223,0.17673105,-0.12640165,-0.051634848,-0.035949823
0.37821335,0.10034286,0.3191935,0.028863858,0.087059,0.058283925,-0.058107488,-0.14166199
-0.0010643707,0.17288125,0.27213275,-0.23797576,0.18547356,0.21268784,0.11343935,-0.14810465
-0.17241155,0.06747488,0.12547463,-0.25997,0.1110317,0.237557,-0.17853221,0.014126147
-0.17060803,-0.08958774,0.27810174,-0.17306286,-0.07676966,0.21156165,-0.08816413,-0.17725746
-0.36537725,0.18870927,0.58626485,-0.1969746,-0.10067335,0.18382919,0.024936935,-0.19917895
-0.6689605,0.27535525,0.562841,0.14643776,0.25115967,-0.17524262,-0.62095225,0.3228167
-0.012653833,0.56189215,0.37695286,-0.29525906,0.37482628,-0.092554726,-0.52319324,0.28619263
-0.15407698,0.2445807,0.28124088,-0.12208172,0.4512476,-0.30317286,-0.23534837,0.3347845
-0.0231807,0.055187225,0.0063261464,-0.0445603,-0.069817536,0.023507081,0.08240181,0.016699806
0.00037106127,-0.042829797,-0.082784735,-0.06855919,-0.06993638,-0.033882048,-0.030800506,0.07530214
-0.04436623,0.07036631,-0.06537518,-0.06754033,-0.0031622872,0.06869289,0.018107556,-0.08484345
-0.28968325,0.37178275,0.37484923,-0.27046603,-0.10042664,-0.19974959,0.47110686,0.21283433
0.53080595,-0.30741224,-0.14202978,0.012143826,0.35131645,0.4810984,0.43346736,-0.054658618
0.25858313,-0.13151126,-0.31914198,0.11166988,-0.054248534,0.18676384,0.72581595,-0.28687757
-0.39203697,0.17860542,-0.3215666,-0.118458465,-0.52646387,0.14725974,1.2073684,-0.3853344
-0.26144475,0.30910102,-0.012366314,0.11060805,-0.29124215,-0.23288105,0.65965676,-0.013450377
-0.37578264,0.27125993,-0.16987301,0.24262051,-0.14903133,-0.14401753,0.7879353,0.041762028
-0.5152763,0.39257964,-0.2428684,0.39333144,0.06816883,-0.118566416,0.9052038,-0.317862
-0.31832218,0.19242868,-0.17513783,0.46411863,0.34023327,-0.12091339,0.9060838,-0.36467752
-0.109321475,0.007583414,0.08871602,0.33096337,-0.223781,0.023745725,1.0273286,-0.026189405
-0.18485843,0.021562172,-0.07801668,0.7153607,0.14244087,0.21394448,0.8265166,-0.13560717
-0.34936824,0.28647003,-0.07678457,0.57089967,0.2752224,-0.0822122,0.6332284,-0.1475543
-0.2358708,0.13420841,0.0063087004,0.3875093,0.117873676,0.082595296,0.6106647,-0.1944363
-0.21251069,0.119731754,0.058900367,0.3230068,-0.07644484,0.20874898,0.321305,-0.29851952
-0.091467485,-0.104423895,0.12703648,0.46690947,-0.061820973,0.13578793,0.39400882,-0.31424955
-0.28166807,-0.03447423,0.10003154,0.5364258,-0.07863388,0.02848678,0.49911302,-0.42037517
0.008972059,0.10869332,0.10773631,0.45240074,0.004899873,0.07394229,0.56338674,-0.41472748
-0.10386734,0.13694265,-0.0122106895,0.31223825,0.14463578,0.011519527,0.5206236,-0.67070436
-0.04812789,0.18450302,0.12237986,0.3440766,0.19738027,-0.1686266,0.7159831,-0.65722615
-0.1138915,0.37439644,0.104089625,-0.25253084,0.1962068,0.20154624,0.5405084,-0.6257757
-0.012623,0.1035949,0.055552866,-0.27567425,0.18945892,-0.023239922,0.34200457,-0.6318342
0.28821623,-0.4953663,0.101985656,0.22705883,0.09737153,-0.14462993,0.4259194,-0.49905288
-0.07023909,-0.37665668,0.34221086,0.2119932,-0.11104373,-0.05004364,0.8379876,-0.218594
-0.18026066,-0.30258745,0.45124844,0.19565068,0.30909,-0.35543695,0.43216705,-0.3025978
-0.18217067,0.12648006,0.14889508,-0.18339342,0.26167646,-0.1100657,-0.09758574,0.0050925985
-0.13418433,0.28050643,0.3033771,0.043825317,0.17194805,-0.3083556,-0.33501774,0.3529384
0.07401334,0.073782995,-0.048987627,0.05356443,0.08129294,-0.030128255,0.008029796,0.025294028
-0.0677008,0.037948005,1.5124679e-05,-0.014329858,0.040417835,-0.033886425,0.059622213,-0.07428384
0.083696455,0.051417664,-0.0784566,-0.05452274,0.012224272,-0.023351133,-0.035806246,0.016481474
-0.08297036,0.047852576,-0.07761006,0.0806053,0.041957483,-0.069786675,-0.03187146,0.08013897
-0.23211554,0.25742143,0.07042412,-0.18203725,-0.11808433,0.14909479,0.1626956,-0.021923054
-0.50151366,-0.04687496,0.56688046,-0.5224869,-0.47642666,0.08432873,0.6317495,-0.35006356
-0.41979966,0.044116955,0.16354841,-0.27079436,-0.20107272,0.07027569,0.7307416,-0.4141452
-0.40727818,0.23169804,-0.020267481,-0.16231298,-0.23142761,0.2712922,0.65770113,-0.7031633
-0.28024325,0.72858804,-0.3076094,0.41648826,-0.3026432,0.31905794,0.36068237,-0.56212443
-0.44572166,0.8079841,-0.36561424,0.39576483,-0.25224984,0.45682248,0.09496739,-0.73152155
-0.5518436,0.5326564,-0.20893829,0.1916165,0.042695295,0.59007967,0.49143407,-0.6427801
-0.6742033,0.19377087,-0.08958017,0.30100095,0.003296261,0.34392935,0.46317,-0.5346748
-0.51241344,0.016720897,-0.11119849,0.47851625,0.09426546,0.1777737,0.50094754,-1.0820241
-0.56254435,-0.048401352,0.16750571,0.21198113,-0.059227314,0.030932756,0.5141517,-0.66518545
-0.5404687,0.0439427,-0.1208567,0.47682455,-0.011379799,0.29129866,0.7819033,-0.6288563
-0.8068308,0.31554285,-0.14270326,0.38969654,-0.05368614,0.41489884,0.78971696,-0.91147715
-0.8021778,0.21827815,-0.21776773,0.58541423,0.33328006,0.21927992,0.689261,-0.75612026
-0.43355405,0.47462437,-0.25797307,0.5116643,0.22563381,0.2500491,0.70530313,-0.6296805
-0.36824894,0.6352455,-0.123528354,0.4329276,0.1656243,0.17593974,0.7022226,-0.5599285
-0.33240837,0.6256497,-0.2393738,0.37164798,0.10477758,0.3318074,0.54510653,-0.6499426
-0.33383662,0.4562073,-0.41907445,0.85696906,0.2011969,0.11729039,0.11652804,-0.5012464
-0.3856998,0.55810577,-0.073442854,0.13088925,0.17389268,0.0056076646,0.6618997,-0.6712518
-0.047647625,0.61094344,-0.120267004,0.033175442,0.01570165,0.071801364,0.44700587,-0.6364427
-0.056546412,0.57000333,-0.30988902,0.40247598,-0.28591198,0.19579262,0.03657467,-0.6784274
-0.20646957,0.5589024,0.023031803,0.16521752,-0.070931055,0.30264336,0.056868657,-0.42382693
0.25774,-0.07062325,0.08312783,-0.25129226,0.08291048,0.1241333,0.155334,-0.22306314
0.030778928,-0.0071932315,-0.1655778,0.09291718,0.1613696,0.100969285,0.00038432973,0.071880504
0.05734822,-0.03382604,0.009262346,0.06378125,-0.033394363,0.03316533,0.078195736,-0.019649342
-0.014704555,-0.04271757,-0.06358759,-0.03283029,-0.023144491,-0.03931056,-0.0483927,-0.033210482
-0.031759713,0.06853072,-0.0851049,-0.063848585,-0.08288071,0.013965771,0.0022728667,-0.06615337
0.0012775585,0.0571703,0.01511199,0.07630393,0.034313455,0.04169126,0.033507936,-0.07596738
-0.038103435,-0.0071328282,-0.08383494,0.08654119,-0.08150264,-0.08404229,0.021967888,0.06502454
0.056656227,0.05873537,0.08337927,-0.04489002,-0.05670111,0.0063919723,0.013394296,-0.08287992
0.33345532,-0.29265368,-0.19804907,0.34628695,0.33648047,0.27122265,-0.3646649,-0.043873105
0.28423545,-0.26914537,-0.4599491,0.42619827,0.3447237,0.34056282,-0.46328914,0.06894393
-0.020945994,0.23121604,0.042940337,0.19965373,0.46710417,0.20478044,-0.07071475,-0.18766746
0.024360878,0.18619223,0.1752777,0.11540117,0.42569506,0.09202277,0.079361066,-0.21621867
0.09246103,0.39939833,-0.0513745,0.27228963,0.60529655,0.17442587,-0.17116916,-0.2502791
-0.008660092,0.5413997,-0.06818501,0.23184158,0.08229457,0.6877939,-0.08019193,-0.19909538
0.15650265,0.2975592,-0.29536346,0.38814634,0.6366897,0.24384281,-0.12289397,-0.10603448
0.014625539,0.28738853,0.1261427,0.12137543,0.646351,0.0072083515,0.10968692,-0.1732905
-0.11755806,0.3859959,0.102275,0.091977045,0.5907813,0.13321164,0.31062332,-0.48216194
0.4130579,0.2196478,-0.5410755,0.8071178,1.0379884,0.6501007,-0.5012955,-0.5613516
-0.31720978,0.89368993,-0.060622506,0.4524861,0.113932595,1.3239357,-0.23553053,-0.80751395
-0.17487454,0.6514429,-0.009632437,0.12522446,0.093296096,1.2649475,-0.07437272,-0.3274642
0.0550969,0.69781053,-0.0461912,0.3986181,0.2978161,1.3372964,-0.31283563,0.23984553
0.22883084,0.72428,-0.33441412,0.74557626,0.3106799,1.5183582,-0.6201773,0.3934815
0.057384305,0.74328274,0.011079262,0.25975096,-0.3324826,1.036365,-0.11415976,0.12820396
0.42981234,0.5349275,-0.26465687,0.607063,0.07860944,0.8659698,-0.4899352,-0.073673114
0.28197092,0.30828428,-0.09625791,0.0160452,-0.091137476,0.49289477,-0.06675719,-0.0539285
0.49866217,0.5408567,-0.41134915,0.08252854,-0.20465554,0.8677701,-0.18825367,-0.17301993
0.38928986,0.443981,-0.3826385,0.25527078,-0.2771232,0.5191901,-0.09707548,-0.19000746
0.050702825,-0.044057798,-0.43276155,0.5458809,-0.0009802058,0.34335744,-0.28210148,-0.016838409
0.057542384,0.016946234,0.04697001,0.02587115,0.07691282,-0.033473406,-0.027514521,0.046255708
-0.082697764,-0.0727025,-0.07673575,0.0031016096,-0.026862066,0.072437644,0.079237804,-0.079628825
0.056673646,-0.00477276,-0.07868989,-0.007848531,0.05309044,-0.009334952,0.036778837,-0.008649528
0.0065087453,0.001989007,0.0045418367,0.070144996,-0.006953515,0.08447239,0.06883161,0.08537644
Biases
-0.30526772,-0.4576631,-0.0492544,-0.15493153,0.8955392,0.4189199,0.48336148,0.38503343

Layer,dense_19
Weights
0.40786284,0.6760525,-0.41749707,-0.99241805,0.25634542,-0.15395533,0.91930604,0.5587444,0.6347802,-0.6565313
-0.33283406,0.41909212,0.4780725,0.45192957,-0.5996035,-1.305306,-0.847695,0.05509306,0.12223703,0.28424534
0.00932836,-0.29582098,0.12236676,-0.10300885,-0.28140077,0.2777117,0.4575351,-1.4702767,0.32613346,-0.24677564
0.7346083,-0.81010956,0.0870842,0.31224984,-1.1144413,-0.068494715,-0.37552822,0.17765248,-0.011555835,-0.6580417
-1.310551,0.9917419,0.17863405,-0.032599527,-0.3371958,0.7110637,-0.01593375,0.3516524,-0.29849112,-0.73300296
0.09410291,-0.53318757,0.02998323,-0.45375055,0.67459804,-0.23907073,-0.07884057,0.82053316,0.046294574,0.6792728
-0.5921604,0.121786155,-0.94222856,0.46389303,0.47060683,0.65297604,-0.7204581,0.28335682,0.14031906,0.577624
-0.06982486,-0.50376564,0.41489336,0.24657185,0.11540803,-0.34223145,0.39109123,-0.22605968,-0.9795276,-1.4764348
Biases
0.40073743,0.38714185,-0.19136481,-0.2616418,-0.094447486,0.8712256,-0.025252057,0.161491,-1.3274066,0.25174645

