Layer,dense_15
Weights
0.0033140928,0.009022936,0.07314315,-0.06442586,0.08677647,0.0089818165,-0.0437882,-0.034682047,-0.030260213,-0.009988129
0.07193983,-0.006053321,0.025997907,-0.02076003,-0.033447694,-0.023366988,-0.08213574,-0.029684562,0.044096805,-0.003734529
0.022875898,-0.03333385,-0.03311706,0.029963069,-0.08306656,0.012028575,0.012175329,0.03504754,0.056823827,-0.03047866
-0.004831739,-0.030387592,-0.07507294,-0.029436871,-0.025725719,0.02499742,-0.047182497,-0.051968373,0.024032295,0.05132886
-0.023241512,0.027689815,0.04215362,-0.043693293,0.06322814,-0.0004810989,-0.044160116,-0.05744617,0.054660536,-0.035108205
0.04985846,-0.022416927,-0.034115884,-0.08033282,0.062774636,-0.037621524,-0.060603082,-0.06937128,-0.072431386,0.050571866
-0.039502885,0.0029138252,-0.06873277,0.07121683,0.069640584,-0.019192353,0.00767155,0.036880046,0.08336414,-0.057331868
-0.08235361,0.014448337,-0.06628217,-0.013382532,-0.08685341,-0.006111726,0.035227165,-0.039066672,0.077036284,0.05065448
-0.0013328567,0.08445708,-0.051448163,0.08142667,-0.05494692,-0.012604125,0.05066926,0.0766876,0.01609397,-0.07632503
0.065873615,0.0115650445,0.057979383,0.023851551,0.070151694,-0.053202163,-0.07145001,0.043441854,-0.052273184,-0.03278618
-0.05084302,-0.08062501,-0.007764131,-0.019835047,0.03643951,-0.009760268,-0.025483686,-0.06384364,-0.005671352,-0.008634187
0.052268066,-0.009702735,0.02362299,-0.06525287,-0.034571536,-0.06273912,-0.05949516,-0.00961148,-0.027956512,-0.05836752
0.016462123,-0.04904729,0.06591124,-0.009013653,-0.04431669,0.18080908,0.011770777,0.16309659,-0.01804634,0.070105754
-0.13747126,-0.14212495,0.06259377,-0.00046213716,0.018740816,0.215673,-0.06744626,0.2332312,0.12356227,0.30368716
-0.14969885,0.017839523,0.0038851425,-0.04143328,0.080409005,0.030749412,-0.028924217,0.32891396,0.25873542,0.28076288
-0.19125535,-0.061009884,-0.02377829,-0.065789,0.020024534,0.030135449,0.034401484,0.14227663,0.13415696,0.2615429
-0.047965154,0.02798032,-0.008719869,0.02713611,0.07833683,0.044160925,0.0071676746,0.058393143,-0.022268347,-0.0562443
-0.04411201,-0.038910404,0.025485925,-0.05739251,0.008715726,-0.04515465,0.04127314,-0.023747988,0.035702176,0.06381645
-0.0809583,0.05119788,0.045997374,0.05951505,-0.018579312,0.0018451959,0.050081186,0.015163064,0.013926968,0.02995298
0.06636218,0.03502263,0.055066355,0.047332264,0.08198007,0.08557213,0.012393631,0.00993111,-0.035130296,0.07858602
0.03176588,-0.00773263,-0.021576636,0.030709691,-0.055554323,-0.009679481,0.070675455,0.001534082,-0.04600674,0.06616954
0.044039063,0.081333555,0.053374223,0.010845624,-0.08674016,0.07363763,-0.03268587,-0.00813178,0.067656346,-0.029391233
-0.04358834,-0.00912945,0.071247466,-0.040359285,0.0141101405,-0.042867467,0.07766,0.04765431,-0.01830528,-0.08224007
0.05612368,0.0138977915,-0.07419873,0.056437813,0.08312108,-0.03804254,-0.03875894,-0.023576707,0.022977658,-0.010822162
-0.059084065,-0.021909073,0.061679192,0.038642548,-0.003488019,-0.02288831,-0.078659095,-0.07213623,0.039045177,-0.036400337
0.08564264,0.008399494,-0.034601983,-0.06817834,-0.058834367,-0.03923594,-0.011689112,0.06977176,0.08073581,0.06383326
0.06980351,-0.012202337,-0.0661849,0.03783311,0.02656158,-0.03069742,-0.001604341,-0.079470746,0.023309499,0.01406581
0.07950149,-0.061037652,0.08262072,0.05640971,-0.08653533,-0.043136712,-0.02669049,0.025453798,0.061151914,0.0034661144
0.07144017,-0.013752401,-0.07212112,0.065734126,0.084007524,-0.03962647,0.0016297698,0.032352127,-0.031214666,-0.006250009
0.04753033,0.042944707,-0.0046903715,0.03165386,0.004029788,-0.022266276,-0.04225741,-0.07232517,-0.0748514,-0.05504174
-0.027302787,-0.039963655,0.039318897,-0.0023914352,0.06415937,0.018056512,-0.014706872,-0.041931126,-0.045067064,0.06710144
0.014807761,-0.08052263,-0.016693741,0.05347397,0.029402673,-0.0037948415,-0.06756126,-0.02118656,-0.0012280941,-0.08333815
-0.06557888,-0.011105855,-0.05566391,-0.060420718,-0.008491993,0.1336688,-0.063622236,0.03335899,0.22300205,0.057250295
-0.05911608,-0.04239732,0.059313398,-0.019776024,0.108659506,0.21602227,0.06955157,-0.012004159,0.11717867,-0.026153015
-0.35755238,-0.03554769,-0.46870443,-0.032307066,0.17651248,0.49491236,0.03551919,-0.12615213,-0.29019484,0.2729408
-0.3381007,0.023798851,-0.363858,0.07275931,0.2608571,0.64679384,0.04455828,0.04657481,-0.51962066,-0.07817439
0.14529668,0.009347393,-0.37987965,-0.060799208,0.30665922,0.37861493,0.14646824,0.10741846,-0.29440418,-0.09109729
0.281974,0.023463583,-0.23559935,0.015170686,0.26331058,0.32615057,0.042636443,0.08865669,-0.36594236,-0.161145
0.18150961,0.14122139,-0.2781137,0.057723142,0.26087,0.42627752,-0.021845492,0.122533195,0.14409325,0.21509966
0.11765714,0.2827319,-0.525438,0.11262863,-0.37418735,0.03099527,0.012036219,-0.045005552,-0.01382637,0.37883297
-0.05158639,0.094583504,-0.6141526,0.09859846,-0.22573587,0.07434868,0.10191682,-0.11509395,-0.56431615,0.37878415
0.2678842,0.18426283,-0.5971563,0.20911297,-0.28535601,-0.00957044,-0.03105947,-0.060726456,-0.20765147,-0.121109776
0.25772864,0.46437222,-0.12546164,-0.12033703,0.48579508,-0.1892833,-0.010904343,0.26341826,0.17699341,-0.30465627
-0.02090949,0.036871713,-0.3477205,-0.17941695,-0.11567547,-0.07440465,0.029643875,0.13212699,0.15491141,0.025226973
0.07758753,-0.15305835,-0.38764387,-0.2650134,-0.19909354,-0.33849472,-0.07433023,0.29042083,0.56951886,0.106578946
0.2761805,-0.41541043,-0.34962958,-0.21432388,-0.12627137,0.084836274,0.057153046,0.016221145,-0.018553242,-0.039807998
0.11223196,-0.47105244,0.38907114,-0.063322246,0.24877855,0.5537379,0.03615433,-0.34651825,-0.16614115,0.031679373
0.08472395,-0.261575,0.3197445,-0.07902801,0.19406524,0.6194436,-0.016859857,-0.5014402,-0.27053323,0.28114843
-0.17491479,-0.19977766,0.26389408,-0.039860502,0.1091797,0.65646213,-0.12913707,-0.3086813,-0.19315678,0.6400285
-0.0662003,-0.2310213,0.01630343,0.076512985,-0.038919188,0.3512186,-0.09438441,-0.18705632,-0.3669631,0.24317135
-0.44131583,-0.18500422,-0.42501086,0.020342514,0.042136453,0.45791054,-0.040306587,-0.08548193,-0.41200954,0.46478346
-0.27677307,0.048361108,-0.22512655,0.039769046,0.067122914,0.39440545,0.090444535,-0.020345336,-0.32560432,0.3571243
-0.06760356,0.04171198,0.039276727,-0.0603597,0.03170091,0.064614706,-0.076377794,0.015369736,0.085781194,0.012098566
0.052174173,0.03268572,0.063881196,0.04426845,-0.029251028,-0.046972714,0.038289525,-0.020982519,-0.055121407,0.0031664222
0.06970032,-0.02934112,0.040714256,0.025165342,0.039329223,-0.012473717,-0.044674523,0.034446977,-0.064406276,-0.047932535
0.05841384,-0.004782416,-0.0145891085,-0.056591347,0.085180454,-0.07538761,-0.025730755,-0.03577022,-0.07262882,0.07809424
-0.07954067,0.035868853,0.04001213,0.08223163,0.027785853,-0.009092681,0.037045002,-0.0808075,-0.07844276,-0.044399746
-0.033319157,-0.009925455,-0.014428504,-0.022901304,-0.0049122423,0.0032759607,-0.031720493,-0.02373039,-0.009401739,0.015130043
-0.03950834,-0.09013917,0.065924026,0.043394662,0.066892885,0.2094019,0.10342333,0.044840448,0.24874248,0.2602797
0.3164808,0.146021,-0.30455863,0.20025441,-0.17994522,-0.13949561,-0.1696746,-0.046697542,-0.3250433,0.10374922
0.18413582,0.2250224,-0.3372151,0.2548757,-0.18809299,-0.01751864,0.020557769,0.07290802,-0.2897502,0.39032054
0.103956535,0.13147317,0.08015473,-0.27153558,0.16356352,0.22216119,0.005445881,0.24757014,0.23654707,0.104715124
-0.16392839,-0.27811897,-0.49568757,-0.2959616,0.22419374,0.3411218,0.067232125,0.22290055,-0.08110185,-0.004756683
0.056114413,-0.015966987,-0.44646478,-0.06020644,0.08588663,0.5156676,-0.22821814,0.20469454,-0.25234455,-0.04622368
0.24629271,0.11047813,-0.45006776,-0.3323348,0.29205087,0.383731,-0.014610879,0.10125414,-0.34256727,-0.20411405
0.30346772,-0.05265005,-0.72871035,-0.30337653,0.50695056,0.52559984,-0.23392665,0.1871785,-0.4213454,-0.13617314
0.3913395,0.051203366,-0.8031278,-0.16577618,0.030163372,0.6717374,-0.329144,0.09827539,-0.48856086,-0.16217
0.41982856,0.2741189,-1.0675287,-0.1348302,-0.22188056,0.5573261,-0.36350894,0.23800093,-0.29122198,-0.20205249
0.44204158,0.20262535,-1.0297618,-0.40855664,-0.19854593,0.41650888,-0.23903076,0.3110672,-0.23670328,-0.01523834
0.24052525,-0.05916884,-1.088416,-0.37058303,-0.15478861,0.48015967,-0.2922575,0.10566534,-0.24971274,-0.24956158
0.50273836,-0.08624376,-0.5028049,-0.35336438,0.4824397,0.293359,-0.287414,0.22021644,-0.07700754,-0.17461449
0.42321697,-0.30424562,-0.29229894,-0.4998857,0.2664606,0.43732408,-0.3601267,0.06278865,-0.031361792,0.1581649
0.64537984,-0.019072786,-0.5693811,-0.48779118,-0.44713086,0.33335555,-0.19577974,0.23109366,0.14910845,0.083601356
0.34185338,-0.23050149,-0.24797392,-0.44420227,-0.32248592,0.51784736,-0.110097475,-0.007904452,0.1477536,-0.044940114
0.32349432,-0.55910647,0.22226569,-0.59199566,0.33673933,0.45706654,-0.17988196,-0.1984029,-0.0012254507,-0.046561714
0.27706778,-0.42593786,0.7366874,-0.28858137,0.5623582,0.7814416,-0.09329854,-0.46895298,-0.3936341,0.26453686
0.4152294,-0.3325477,1.1495073,-0.6652411,0.26464596,0.82921,0.009822832,-0.2549804,-0.27616546,0.6088673
0.5126148,-0.016636325,0.59461373,-0.4373542,0.05307209,0.5906131,0.051750246,-0.50754607,0.0034399356,0.12236374
0.37335962,0.115596525,0.21860856,-0.19885422,0.074943855,0.6231966,0.09898224,-0.56398964,-0.44387472,0.03513741
-0.096540555,-0.1793119,-0.27294886,-0.03660967,-0.034331456,0.70462996,0.064300306,-0.20099495,-0.122469164,0.4785259
-0.2622629,-0.007660645,0.1539904,-0.05754735,-0.025864206,0.027578706,-0.08086127,0.035353635,0.22537915,0.55248785
-0.3518648,-0.020797053,-0.04150671,-0.041775417,0.07854112,-0.12013641,-0.0071912413,-0.010585001,0.3053817,0.4456654
0.06897219,0.057735287,-0.01238472,-0.053536154,0.026827738,0.032661,-0.02627026,-0.022751525,0.08302731,0.057998843
-0.046668462,0.022676602,-0.0045182034,-0.024551101,0.04484249,-0.03199268,0.019505866,0.01206439,-0.04857635,0.0049707443
0.051736765,0.083508946,0.026434943,0.07796294,-0.059782475,0.028333858,0.024712466,0.05791191,0.014036857,-0.049801685
0.045934178,-0.044875767,0.045877226,0.08332247,-0.011950545,0.017842457,-0.025253218,0.037180945,0.0761336,-0.021037586
-0.32486653,0.021958215,0.067226,-0.038166545,0.11623661,-0.2657926,-0.058650095,0.16770066,0.31155533,0.38255703
0.057372455,0.041757036,-0.4030277,0.22366786,-0.22244157,-0.057851076,-0.15451416,0.1682085,-0.41749644,0.41946298
0.20723233,0.19310297,-0.38881946,0.16913676,-0.28650516,-0.14408988,-0.12436987,0.080023244,-0.121979,-0.14814155
0.0053266753,-0.11874763,-0.09948224,-0.119667545,0.29986015,0.24186037,0.029067205,0.25122905,0.12862253,-0.017814381
0.08879934,-0.01949776,-0.39308712,-0.4657469,0.42354888,0.47650123,-0.2595303,0.43346822,-0.04679619,-0.08901368
-0.105685346,0.037677508,-0.4732842,-0.2659637,0.22049534,0.35939354,-0.041805483,0.47218895,0.1634824,0.035539523
-0.0018778765,0.25507912,-0.5760311,-0.49550512,0.30962563,0.33912542,0.07769807,0.8415473,0.0514716,0.0039492953
0.25675714,0.3114346,-0.5271213,-0.67168593,0.048854925,0.44389784,-0.12493205,0.74598944,0.020527648,-0.21048501
0.1992419,0.37058747,-0.44055215,-0.5173261,-0.4701724,0.54945993,-0.21443596,0.8373771,-0.047631726,0.086952254
0.30822092,0.4013001,-0.93222886,-0.35968202,-0.93508697,0.4503928,0.1855796,0.44455934,0.029552482,0.03453228
0.06905536,0.04770551,-1.0447042,-0.4574805,-0.59280163,0.28758284,0.37514716,0.46640608,0.07402706,0.018625036
0.15617687,-0.19106767,-1.4270943,-0.14921488,-0.012873174,0.37578398,0.15274444,0.49577394,0.056238845,-0.18618622
0.16741534,-0.031008644,-0.9444729,-0.09291802,-0.17808594,0.33424792,0.3235443,0.38474873,-0.1791945,0.014649969
0.16922086,-0.03454047,-0.96391463,-0.27760145,-0.22805028,0.15621142,0.19012485,0.0944472,-0.38526788,0.20648517
0.18229087,-0.033899527,-0.6002899,-0.031448275,-0.053374674,0.019164454,0.12630996,0.2828657,-0.3173492,0.14430827
0.24654834,-0.09749148,-0.15897016,-0.15447235,-0.17527191,0.27320448,0.15509233,0.15866888,-0.42318106,-0.14958675
0.20434427,-0.27008545,-0.3774237,-0.19518612,-0.19784848,0.07349018,0.08036646,-0.050663866,-0.31752193,-0.13444662
0.20259097,-0.32837507,-0.29741,-0.14866836,-0.32748526,0.19337332,-0.17344911,-0.14835288,-0.5195392,0.026185883
0.17170593,0.024016144,-0.31454176,-0.010242192,-0.6865534,0.16904354,-0.11133795,-0.0076400614,-0.5149708,-0.0583176
0.40318957,0.051812995,0.02691003,-0.2542871,-0.5975026,0.36851823,-0.117558464,-0.5646669,-0.3864794,-0.2696235
0.4338504,-0.09313611,0.29809636,-0.38869184,-0.27498314,0.2599597,-0.15721495,-0.35877144,-0.35777017,-0.38020343
0.2904943,-0.07666988,0.18534206,-0.15844946,0.111348584,0.080735624,-0.20822908,-0.51726234,-0.08371095,-0.3977218
-0.10526798,-0.14999332,0.24980032,-0.023173906,-0.12034991,0.061633762,0.18285844,-0.4210847,-0.09281201,-0.068743676
0.0032361902,-0.12479716,0.23224284,-0.13344856,0.0032191102,-0.21406125,-0.10621916,-0.182487,-0.08091099,0.18958761
0.020256743,-0.08196414,0.07107713,-0.036001295,-0.016254298,0.1450435,0.09844514,0.07368895,-0.37753356,-0.070441484
0.041697092,-0.043425895,-0.07322724,-0.051259477,0.06544454,0.0067449585,-0.0074701235,0.038303472,-0.010346301,-0.040892053
0.0602471,-0.037709173,0.055330597,0.024837896,0.053355224,0.03147641,-0.025666546,0.07254612,-0.034259826,-0.028461672
-0.14919299,0.16733864,0.051058687,0.0044857264,0.0072938055,-0.050701983,0.13290448,0.04506262,-0.055505246,-0.17970803
-0.27614912,-0.23172806,-0.017384753,0.0030334294,0.1180952,-0.19274975,0.16173014,0.17571992,0.36536852,0.2041017
-0.6600783,-0.20135115,-0.294744,0.06951378,0.35389423,0.033625446,0.36895397,-0.005734501,0.2762856,0.5478225
-0.097629204,-0.2782022,0.03432122,-0.23501872,-0.06693537,0.34919202,0.47067833,0.20740852,0.026978506,-0.027955137
-0.13025045,-0.18749547,0.20204625,-0.50533366,-0.13457741,0.36025405,0.16202244,0.24532214,0.14113955,-0.2769997
0.20696463,0.039854407,0.23299699,-0.43271467,0.27815792,0.04713794,-0.035395186,0.5371621,0.31521422,-0.44895342
0.009187723,-0.25465813,0.041469067,-0.40078583,-0.0037400986,0.040107,0.24932577,0.802739,0.28691542,-0.14312558
-0.10868454,-0.17261945,-0.057439737,-0.16879746,0.107091874,0.1731252,0.22141397,0.6742629,0.31097287,-0.090867445
0.09159711,0.018311212,-0.12048082,-0.082440294,-0.47802863,-0.010781702,0.14727946,0.8913165,0.3802692,-0.11098196
-0.09908303,-0.2286818,-0.2827955,-0.10360139,-0.4868228,0.2817651,0.11825128,0.75182027,0.3416845,0.051028386
0.114960425,-0.06580888,-0.27260426,-0.026330056,-0.11951447,0.1149184,0.2421659,0.5878382,0.28319028,-0.12060212
0.09362839,-0.04544829,-0.22356486,-0.30302966,0.045159895,0.14867248,0.32935306,0.6684836,0.3864402,-0.11536285
0.09045143,-0.08976192,-0.4053299,0.02321946,0.0959339,0.3465127,0.21278659,0.3618434,0.3537288,-0.0052791256
0.07620901,0.034612924,-0.5542007,0.08324679,0.050215866,0.11255889,0.19075197,0.38601637,0.2668817,0.1581006
0.063032635,0.093832396,-0.7051294,-0.061559778,-0.038639233,-0.05546719,0.2076196,0.20865914,-0.06311816,0.3452075
0.0006013975,0.05500037,-0.3228435,-0.10630546,0.049494117,-0.17333715,0.07365158,0.32102588,-0.3079192,0.3924637
0.038838614,0.14518295,-0.09571899,-0.23019423,-0.026935454,-0.15108006,0.013259742,0.0764385,-0.37098914,0.19627984
0.024082216,0.10604052,-0.19399084,-0.07905632,-0.31922343,-0.034996316,0.33375296,0.05868941,-0.22516108,0.04637985
0.06912952,-0.08921832,-0.052270327,-0.043962773,-0.31743422,0.06983555,0.18888183,-0.035732567,-0.476389,0.035807747
0.021423226,-0.11878108,0.12948172,-0.17354311,-0.38669485,0.16559348,-0.12162252,-0.016284171,-0.33904564,0.030513845
0.052663367,-0.16651568,0.22300784,-0.20822084,-0.33228958,0.2019037,-0.04799631,-0.29823735,-0.59020394,-0.19201544
-0.038036782,-0.2571071,0.21671817,-0.14421333,-0.37171766,0.107303746,-0.107162,-0.4563252,-0.3750808,-0.28789473
0.040301934,-0.032099742,0.46986428,0.02985644,-0.094406955,-0.1288528,-0.09061005,-0.4560878,-0.61353445,-0.41075808
-0.021474566,0.15490197,0.09627602,-0.101495855,0.057517696,-0.38351002,0.3738332,-0.41065797,-0.45304665,-0.51637065
-0.13347444,0.15405923,-0.2902338,-0.11283298,-0.15229553,-0.33790183,0.31685266,-0.3701751,-0.09109255,-0.08482302
-0.121924214,-0.21636069,0.14056899,0.06432203,-0.10370131,-0.16477211,0.3306869,-0.101297624,0.17729259,0.3525954
0.2537393,-0.0781778,0.059783764,0.03127054,-0.014716655,-0.079292566,-0.022855984,-0.19800147,-0.011167805,-0.049064912
0.08039815,-0.054985385,0.04091587,0.042843588,-0.001184009,-0.03650871,-0.029625867,-0.057467557,0.013541125,-0.08005247
0.04653164,0.078209825,-0.06108746,-0.0011431128,-0.05703054,-0.019789763,-0.026705664,0.0118352845,0.004388258,0.07062764
-0.61091024,-0.17708091,-0.15991265,0.13844015,0.2142886,-0.08138366,0.28212592,0.16088714,0.7145798,0.7501004
-0.5049154,-0.10991548,-0.27775678,0.25087753,0.030388966,-0.41338408,0.3590349,0.087786876,0.4946568,-0.11719748
-0.28065172,-0.44348451,0.20776418,-0.2444842,-0.24013335,0.040054474,0.35094196,0.022115448,0.39653644,-0.53525347
-0.20498095,-0.18487994,0.32089195,-0.5640051,0.25526717,0.09961432,0.185158,-0.19643715,0.17726392,-0.190757
-0.10266321,0.020969681,0.114428625,-0.023763336,0.16310401,-0.0144758625,0.075146034,0.060678713,-0.060539138,-0.30217877
-0.03240023,-0.050355393,-0.013426773,0.023042027,0.002648385,-0.15116097,0.23401919,0.45646954,0.16060165,-0.16007765
0.08319972,-0.26289976,0.16383688,0.02888285,0.22191429,0.06400617,0.0062693832,0.124329396,-0.012165434,-0.04193093
0.070958756,-0.19268432,-0.035608336,-0.14021067,0.019222682,-0.2598478,0.024342835,0.2097563,0.05443821,-0.035866007
0.055048265,-0.25923753,-0.097137436,-0.14145443,-0.22676884,0.03859592,0.10977791,0.32235467,0.13427456,-0.08558254
0.13140471,-0.13565303,-0.0061132745,-0.07528383,-0.20044713,-0.045373406,0.0053513213,0.29528573,0.37177292,-0.12381527
0.14559282,-0.22723706,0.08796369,0.033552017,-0.01898419,0.012525821,0.057901934,0.3275963,0.34793764,-0.124471456
0.1530504,0.03385284,-0.11388135,0.12896463,-0.18801945,0.10411468,0.044951495,0.38767025,0.41254348,0.029451564
0.13803875,0.011157634,-0.30302292,0.18058784,-0.17580618,0.17687844,0.05537322,0.26255542,0.28130367,0.13793038
0.039700452,-0.13388672,-0.2272121,0.080202565,-0.2187007,0.03181015,-0.0004484409,0.4000594,0.04719224,0.18427238
0.06415559,-0.047579605,-0.47711962,-0.01758498,-0.22609213,-0.18983181,0.07512101,0.40630692,-0.116718315,0.211966
0.08661795,0.15906735,-0.32832456,-0.07842999,-0.20149149,-0.08567218,0.09974228,0.15521725,-0.22970459,0.24200298
0.00078720145,0.17494492,-0.39499882,0.040303335,-0.15940216,-0.21251176,0.052394636,0.09539598,-0.15402772,0.10995918
0.020426953,0.18320784,-0.2605053,0.05529151,-0.34383276,0.005136235,-0.024687294,0.05651997,-0.0066976803,0.21984224
-0.06764254,0.14905092,-0.1076379,-0.02997343,-0.45294303,0.010153725,0.029279012,0.1021868,-0.088378124,0.0032514348
-0.103894554,0.07224367,-0.0030047297,-0.1100149,-0.3351843,-0.06198975,-0.012710499,0.16201071,0.04572079,-0.069001324
-0.057569284,-0.05011889,0.03266368,-0.03808194,-0.449478,-0.22835152,-0.068338804,-0.004886257,-0.18383105,-0.1033798
-0.04486309,-0.19856864,0.37797466,-0.04349255,-0.4528023,-0.07930379,0.03532962,-0.4710792,-0.25356284,-0.17838034
-0.0378378,-0.27355236,0.2915709,-0.25042504,-0.6867502,-0.06912087,0.19870143,-0.55220336,-0.20000046,-0.19692017
0.3347609,0.20275012,0.20877951,-0.5322847,-0.4244289,-0.3375021,0.25513536,-0.13627487,0.12678488,-0.24333903
-0.0035084835,0.16283907,-0.36292666,-0.5433312,-0.12559235,-0.6428495,0.13912204,-0.18194462,0.18430933,-0.036421504
0.100246415,-0.31067148,0.0083136195,-0.3047299,0.058661334,-0.17228734,0.044275716,-0.1861204,-0.13607338,-0.05590961
0.021728426,-0.029961724,-0.08125376,0.0758358,0.060883872,-0.046001412,0.055062078,-0.06481422,0.041502573,-0.0754009
-0.2873633,-0.22578593,-0.29092783,-0.06641615,0.062410187,-0.08048557,0.21180783,-0.05664452,0.05876414,0.23326807
0.13338192,0.004978759,-0.09769519,-0.08188141,0.06545614,0.01252909,-0.26273575,0.11308365,0.08792912,0.15803356
-0.545682,-0.36122066,-0.07791332,-0.08034916,0.2301035,-0.5987277,0.58609205,-0.17303391,0.54514927,0.19314879
-0.08696467,-0.52628464,0.17504504,-0.18041927,-0.083888315,-0.22319691,0.25366846,0.14927492,0.12768711,-0.3437376
-0.17578427,-0.19267592,0.28165457,-0.07129924,0.028742472,-0.059470788,-0.03014093,0.07577872,-0.22761378,-0.13532048
-0.31175783,-0.0347423,0.22405444,0.10927207,0.032433514,-0.104572594,-0.018148366,0.21464129,0.07745508,-0.05067408
-0.14968684,-0.116317,0.1226992,0.09819017,0.09486773,-0.12219815,0.06287128,0.11844543,-0.085308105,-0.048327096
-0.021707766,-0.23828058,0.18607701,-0.05160158,0.019116262,-0.27221587,0.0682152,-0.0017674302,0.0538204,-0.12259048
-0.033515494,-0.12270132,-0.013258928,-0.35794455,-0.054293483,-0.0538187,0.11016018,0.08175285,0.11481047,0.084105864
-0.04555822,-0.0318308,-0.17211558,-0.080872744,-0.07372343,-0.024271756,0.14268874,0.0932809,0.22344343,0.033550892
-0.032264955,-0.027261958,-0.032169595,-0.09876457,-0.0847105,-0.028132662,0.063324966,0.10987844,0.22318248,-0.053631626
-0.05436522,0.0965578,0.0033279036,-0.0909235,0.06419687,0.030101534,-0.03378671,0.263697,0.2975494,0.025973095
0.09435008,0.1376682,-0.052832607,0.15211202,0.044101596,0.11959092,0.15637134,0.2207235,0.3280961,0.0038573085
0.09268471,0.13735877,-0.050538417,0.041632757,0.13156366,0.06411714,0.12659274,0.1344471,0.32645354,0.21056251
0.086621046,0.20564595,-0.1369125,-0.033774264,0.14354974,-0.04156846,0.09853322,0.14036319,0.3593862,0.20879017
-0.0107218,0.02767495,-0.067947924,-0.00074681395,0.31707463,-0.10477101,0.029999265,0.13579185,0.22498244,0.09001873
0.03494168,0.022760116,0.17421708,0.06203864,0.2647715,-0.2533659,-0.033687282,0.016906312,0.12018013,0.13116816
-0.029747818,0.08623146,-0.139381,0.17475861,0.17198595,-0.17646922,0.15482728,0.08035645,0.21097115,0.14245908
0.10508031,0.18033616,-0.1746781,0.14733025,-0.020083476,-0.20740288,0.032017417,-0.07927798,0.03604238,-0.002749558
0.015463204,0.06445433,-0.35861787,-0.08519596,0.08594583,-0.24278888,0.199363,-0.037977587,-0.050127726,0.008947922
0.0072538625,0.10942234,-0.0615305,0.01655764,0.19759566,-0.1251155,0.00026222965,-0.02643399,-0.034440633,-0.03296991
0.049963728,0.15322988,0.08675657,0.08863617,-0.2030475,-0.1813764,0.007837542,-0.10569636,-0.2550705,-0.14886343
-0.050218135,0.09147497,0.0017062539,-0.11129281,-0.6217876,-0.085000634,0.02614258,-0.6055376,0.03097769,-0.19410601
0.010959752,0.23512645,0.059558883,-0.3543952,-0.6081338,-0.28175253,0.31644276,-0.49175438,0.10466985,-0.4105853
0.018307926,0.16910535,0.12481694,-0.85626775,-0.45172685,-0.37047103,0.29023978,-0.26896557,0.28532588,0.16454166
-0.046647765,0.1657022,-0.014587982,-0.6037248,-0.23096697,-0.587872,0.42815313,-0.21323374,-0.17115405,0.40409485
-0.049999595,-0.09292648,-0.06344739,-0.1877339,-0.06779283,-0.43746364,0.39650574,0.057380557,-0.1755101,-0.012724193
-0.064953946,0.02350384,-0.054307394,0.05674527,0.03709517,-0.0272513,0.08063083,-0.0023670783,0.037532467,-0.007554494
-0.31635782,-0.18206081,-0.46081105,0.082838774,0.12016735,-0.017918695,0.5201488,-0.055595826,0.29624516,0.2761513
0.14608204,0.061086375,0.16414322,-0.15937611,0.3017645,0.16740485,-0.2533154,0.02375305,0.39238003,0.0009403391
-0.41104972,-0.32669756,0.65042055,-0.11573212,0.5910656,-0.34727603,0.35749072,-0.2664508,0.2959091,-0.0251017
-0.3484568,-0.27109098,0.23758921,-0.2297395,0.100789525,-0.21121126,0.31272557,0.39270717,0.1403596,-0.17876668
-0.2694604,-0.3853002,0.10514184,0.11086814,-0.04109704,-0.09407668,0.09716861,0.34603536,-0.06669287,-0.14468086
-0.28657588,0.082415596,-0.005831634,0.06312243,0.13127233,-0.17328964,-0.1267358,0.3244366,0.12037391,-0.10449367
-0.16793731,-0.058428675,0.044854846,0.12456555,0.31715572,-0.038115356,-0.16301665,0.002193369,-0.13873512,-0.20732942
-0.0071074353,-0.115369804,-0.10445991,-0.1674119,0.054026775,-0.31660825,0.058668215,0.112338394,0.054170053,-0.105440445
0.0036892325,0.014743964,-0.029970268,-0.059174366,-0.09946413,-0.20652469,-0.06053909,-0.043439828,0.041741263,0.15753308
0.05117993,0.1776063,-0.054750927,-0.054346673,0.15753865,-0.1399243,0.026529768,0.20974913,0.015104495,0.07673867
-0.03107738,0.2346872,-0.09946838,0.022257462,0.018948067,0.021464068,0.096270345,0.22081828,0.054804612,-0.03609113
-0.073712796,0.1562265,-0.05481181,-0.086879484,0.06766068,0.031684455,0.066390514,0.073486134,0.27463558,-0.029737063
0.04534202,0.22799169,0.10103758,0.16522853,0.14179915,0.084129706,0.0076260543,0.18648262,0.47776523,0.038082533
0.10880246,0.027320875,0.035362072,0.0549449,0.15166725,0.13061745,0.2755763,0.24989289,0.4522384,0.14994878
0.116171375,0.057791192,0.11484822,0.059591636,0.13191822,0.1443253,0.10599792,-0.0010072184,0.4310868,0.16396627
0.1470742,-0.13860334,0.059774812,0.022019649,0.3002774,-0.14003102,0.20250851,-0.09923538,0.19466503,0.082083285
0.09228765,-0.027459476,-0.023084091,0.16759592,0.2478515,-0.37784946,0.14446068,-0.14222743,0.06862306,0.03957288
0.1931902,0.013161437,0.002213954,0.20609169,0.15367493,-0.32911065,0.10520825,-0.08074045,0.05397041,0.100632995
0.07335827,-0.008361334,-0.07696414,0.111679494,-0.0006504732,-0.3861486,0.019155128,-0.020680476,-0.026367286,0.10245591
-0.04642901,0.024945585,-0.09684658,0.05319879,0.093702585,-0.23108932,0.08428423,-0.12038974,-0.19957443,0.02441667
0.017162817,0.18731323,-0.08466624,-0.0068198806,0.15303482,-0.1904028,0.08212193,-0.011914785,-0.12308116,0.0015356428
-0.12341116,0.17228672,0.043229245,-0.0033448266,-0.0022405218,-0.20380163,-0.060050316,0.01366338,0.08982174,0.11626245
-0.008212874,0.31318235,-0.08093681,-0.15710473,-0.42786577,-0.06452497,-0.036106575,-0.57234186,-0.116772786,-0.18849547
0.041400503,0.15127666,0.15143156,-0.5290506,-0.6903303,-0.18122433,0.18927738,-0.43331608,0.06525914,-0.27787143
0.024066113,0.26824123,0.09450029,-0.68182766,-0.6995814,-0.059681103,0.594227,-0.07698076,-0.1386924,-0.28724837
-0.073956974,-0.11802646,0.22838178,-0.670038,-0.39312813,0.05295333,0.4517635,-0.04336425,-0.34043926,0.45367038
0.06114392,0.13702537,-0.033865847,0.07824066,-0.028333468,-0.7015252,0.062513754,-0.07293204,-0.1885953,0.14506404
0.33828583,0.16378538,-0.34184036,0.21315904,-0.31300193,0.037111975,0.022115214,0.1594622,-0.18909529,-0.0034442719
-0.4367054,-0.30418962,-0.36060306,1.0358074e-05,0.74811816,0.1523827,0.19731374,0.048474394,0.44738078,0.37230238
0.14001937,-0.006822655,0.13716167,0.17298193,0.21610819,-0.031284124,-0.20567264,0.020661443,0.20461708,-0.051025577
-0.53674203,-0.059736628,0.17153856,0.17752884,0.27398127,-0.16929622,0.2445389,0.14181253,0.030023102,0.23141833
-0.3657352,-0.09316449,0.27923134,-0.13051426,0.16466586,-0.19672677,0.22960676,0.25480565,0.18031213,-0.20685308
-0.2135542,-0.24966325,0.2040414,-0.1434441,-0.039802276,-0.21827571,0.10970875,0.19838111,-0.0134748155,-0.17320971
0.025650822,0.16594563,-0.03141371,0.12785141,0.1315767,-0.2058673,-0.026486436,0.10143641,0.26219583,-0.105438076
-0.019203637,-0.16151106,0.009827437,-0.111561775,0.17401062,0.042791683,0.05985768,-0.14339192,0.0067656506,0.03422449
0.20190592,-0.121339,0.051124815,-0.17728376,0.24393144,-0.052803364,-0.049691126,-0.11705496,0.088220365,0.14043614
0.2015179,0.1865415,0.07512997,-0.015531925,0.09145115,-0.18062341,0.064747274,0.06738281,-0.084878184,0.08501813
-0.058489002,0.32015193,0.07468163,-0.01833438,0.15270929,-0.06348048,0.08934929,0.039556004,0.14824693,0.1845993
-0.12019902,0.31900933,-0.011874875,-0.17393507,0.017606506,-0.073528655,-0.01936875,-0.05924845,0.03919039,0.008715077
-0.026770208,0.20050289,-0.19260532,-0.0677668,-0.019560834,-0.01583524,0.15495066,-0.0043072086,0.3257433,-0.14574789
0.11234707,0.1628879,-0.041155096,0.004223321,0.15286656,0.14505388,0.15416303,0.04062239,0.43434742,-0.07494859
-0.007487795,-0.09587063,0.04528217,0.29561567,0.33212715,0.019195339,0.14926277,0.21724266,0.48144448,0.0030933574
0.06176499,-0.09077138,-0.059676662,0.2511756,0.23855789,-0.10818701,0.16230969,0.21614207,0.13272245,0.24610785
-0.01111333,0.052893337,-0.16397183,0.4677281,0.16963111,-0.3116041,0.10635744,0.11438341,0.04761771,0.12497624
-0.08755449,-0.11984835,-0.044410255,0.28986853,0.15681385,-0.31258166,0.1400134,0.11680407,-0.20136863,0.2723235
-0.036315028,-0.03241956,0.06867383,0.2493106,0.052742634,-0.4844549,0.14626205,0.07583356,-0.025861152,0.2314026
-0.055430025,0.2448988,-0.04410066,0.18658787,-0.014048772,-0.46254072,0.071260065,-0.009274531,-0.03991281,0.23529492
-0.0070530255,0.29109633,-0.13220328,0.15026784,0.048206087,-0.32863015,0.15134233,-0.1318516,-0.20476556,0.13401851
-0.057801407,0.25309905,0.00506184,-0.08259667,0.030807657,-0.20852327,0.077293515,-0.11128935,-0.16814446,0.049864154
-0.1028601,0.16427071,-0.24633738,-0.043005127,-0.059766833,-0.18666063,-0.009808046,-0.005951678,-0.021136524,0.088265665
-0.23097935,0.4546039,-0.32554233,0.050520547,0.13151518,-0.31497133,-0.102914095,-0.46032763,0.027020223,-0.0532848
-0.07821833,0.7010494,-0.3323031,-0.3227521,-0.57093495,-0.17840633,0.27039844,-0.34181184,0.040767755,-0.4705657
-0.078348204,0.41614202,-0.22857201,-0.6936771,-0.8309818,-0.035748057,0.5311118,0.1455969,0.038191665,-0.31328964
0.012341767,0.40854442,-0.2710519,-0.64480513,-0.50661016,0.15353815,0.42140037,0.07637746,-0.049658433,0.5591282
-0.07693426,0.54823446,-0.15584837,-0.0718997,-0.3599317,-0.5796591,-0.025914026,0.1613791,0.33580545,0.33359465
-0.101280406,-0.2422961,-0.16729748,-0.0006696433,0.27137005,-0.006395321,0.006085473,0.016586518,0.17552778,-0.044882007
-0.5185829,-0.39467376,0.098667964,-0.0081259515,0.75363225,0.069436826,-0.025023956,-0.24808536,0.13026099,0.46742606
-0.17292947,-0.12200722,-0.016085872,0.44141933,0.28154582,-0.1488624,-0.1280976,0.20264296,0.10814605,0.23597139
-0.49608842,-0.06357741,0.2666722,0.1197035,0.1435967,-0.20147908,-0.0052885,0.2547418,0.2432361,0.2358047
-0.515429,-0.28624642,0.15517664,-0.09346904,0.08810796,-0.10728311,0.18451382,0.21871457,0.08396001,-0.03194231
-0.14779103,-0.08082102,0.27192548,-0.074355915,0.065950595,-0.28974465,-0.29133216,0.33004606,0.3425485,-0.17524801
-0.0153681785,-0.083612144,0.14472014,-0.011987065,0.004935624,-0.27596325,0.0094719175,-0.28566,0.28780624,0.16963378
0.010838556,-0.18240398,-0.0027507343,-0.13666281,0.009228673,0.07222373,-0.07427901,-0.29967245,0.1157233,0.1859068
0.10639739,-0.12759681,-0.04972985,-0.10169567,-0.14904915,-0.08066028,0.006359729,-0.2257094,0.09213466,0.18106703
0.062460475,0.0997334,-0.016485281,-0.0050029694,0.06493163,-0.16584079,-0.104296416,-0.13538124,0.16044073,0.1584135
0.037678503,0.19176552,0.038141873,0.050741997,0.10041541,-0.10213847,-0.2439254,-0.2886151,0.1633756,0.110991955
-0.13330522,0.16550885,-0.051915247,-0.23688112,0.06920748,-0.04159414,-0.17525214,-0.31699416,0.03603373,0.1589105
-0.12731916,0.2086089,-0.069963165,-0.14727148,-0.0020367652,0.049708545,-0.3028898,-0.20490718,0.29982713,-0.11678937
-0.02483752,0.11495796,-0.091279864,0.020148844,0.14591925,0.16469716,-0.15465549,-0.26704904,0.45058084,-0.45286906
-0.10993427,-0.10427056,-0.14625809,0.035760656,0.505461,0.24569239,-0.1023388,0.07877568,0.4089666,-0.3105556
-0.33331168,-0.2532257,-0.069369964,0.25724193,0.3093412,-0.05779567,-0.045077734,0.20448618,0.13185188,0.046782598
-0.27516362,-0.09233553,-0.09968255,0.26763663,0.14774689,-0.31366932,-0.08664484,0.29644418,-0.15812334,0.20940827
-0.17151442,0.051506612,0.057088707,0.3657193,0.2333431,-0.5274425,-0.14325234,0.39121732,-0.12605573,0.10776363
-0.04372116,-0.024025643,0.038110267,0.28862438,0.09725466,-0.47185114,-0.030466521,0.07981326,-0.14051032,0.14857921
-0.005940363,0.02481477,-0.0048678066,0.24143702,0.16071436,-0.18912208,-0.065691695,0.06292969,-0.020653732,0.12397684
-0.040523075,0.18675745,-0.054420948,-0.038797766,0.024323115,-0.22520085,0.08541673,0.03987345,-0.13964601,-0.06309374
0.066916056,0.1501608,-0.05231565,-0.14351456,0.02607786,-0.08135795,0.0021112333,-0.18835218,-0.1961464,0.015581256
-0.18418916,0.083237,-0.18624854,-0.08151964,0.056449708,-0.14582498,0.20853633,-0.15376379,-0.052632406,0.09088343
-0.062076036,0.26931548,-0.36436743,0.065889,-0.22073601,-0.05235866,-0.1016855,-0.41642025,-0.041999593,-0.019920133
-0.3408595,0.6915118,-0.68100023,-0.094322205,-0.5647356,-0.47864887,0.16028316,-0.2619271,-0.048509642,-0.6223736
-0.52307963,0.58293134,-0.673488,-0.5539613,-0.73871845,-0.76346654,0.6249139,0.38819575,0.22085993,-0.15990895
-0.14298347,0.4266525,-0.53309005,-0.6839283,-0.53351367,0.01168631,0.27255234,0.0023002615,-0.033573218,0.24613142
-0.17756267,-0.122589804,-0.12085996,-0.08904915,-0.13154818,0.13948838,0.3093702,0.26747164,-0.16145138,0.28869188
-0.139491,-0.10630029,-0.23120402,0.054047637,0.2140279,0.093130186,0.17228222,0.013199214,0.03483793,0.033310883
-0.4700323,-0.21431185,0.17617138,-0.018822536,0.7460412,0.0050531905,0.009667328,-0.20108815,0.15940118,0.3800277
-0.28929883,-0.2134942,-0.022094117,0.3052203,0.45611587,-0.087132625,0.15599959,0.12766974,0.0036079234,-0.26296765
-0.6400654,-0.10075421,0.026550695,-0.10352472,0.06623977,-0.23806088,0.3890354,0.1349456,0.16460733,-0.2934397
-0.28020012,-0.18645489,0.022062702,-0.036721256,-0.12479109,-0.35401335,-0.011539186,-0.20976889,-0.012678722,-0.41964525
-0.31511006,0.059394296,0.06895127,0.11023287,0.18761577,-0.22640102,-0.28956833,-0.2519341,0.42774376,-0.15718085
-0.13318114,-0.07770132,0.0036040882,0.14837678,0.13244206,-0.23795208,-0.16333157,-0.69626576,0.35533077,-0.038228504
0.07091432,-0.21098658,-0.007955912,0.057804022,0.046575025,-0.04675514,-0.13330364,-0.79423815,0.22108404,-0.04763228
0.15175799,-0.2986736,-0.05108833,-0.09891366,0.104074664,-0.16906856,-0.24147005,-0.55862683,0.2808062,0.019866848
0.08982393,0.024193726,0.034306824,-0.053288803,0.039949816,-0.16721037,-0.27017465,-0.5290514,0.10049296,-0.16630355
0.032308817,0.023329888,-0.022201523,-0.1335932,0.19097212,-0.02522418,-0.30919006,-0.6900565,0.1834784,-0.25935116
-0.09231656,0.2627591,-0.056876436,-0.17549774,0.11543244,0.019337375,-0.35699898,-0.62935007,-0.023353864,-0.20261604
-0.008887298,0.25445107,0.001215016,-0.17281592,-0.044373542,0.05744506,-0.3974306,-0.58241194,0.030750666,-0.5680121
-0.2786739,0.12382136,-0.3728473,-0.28703868,0.21098295,0.3495722,-0.10396873,-0.7241844,0.06859124,-0.7521923
-0.38298586,0.071041636,-0.18765472,-0.06226165,0.5343164,0.03987166,-0.0056166705,-0.34218624,0.10174368,-0.50815296
-0.31567034,-0.12916243,0.0764414,0.05038242,0.2394504,-0.3772231,-0.15684707,-0.18238676,-0.21851169,0.043361906
-0.37825656,-0.017274896,0.16966407,0.004039273,0.21652524,-0.49593773,-0.072112784,0.07196535,-0.17348216,0.25609258
-0.18303479,0.024799388,0.17302586,0.3075991,0.22808604,-0.40943524,-0.041264337,0.17019452,-0.19688469,0.18564735
-0.004342174,0.014416956,0.07919713,0.29691815,0.23250686,-0.29553756,-0.11082301,0.12765539,0.025571514,0.17883036
0.012410159,-0.10759105,0.030788356,0.2334021,0.110732734,-0.24225351,-0.1370628,0.117700234,0.07297397,0.16632536
-0.04522799,0.06120228,-0.16646448,0.10019084,0.11410801,-0.16107553,-0.14063019,0.077653915,0.094213024,0.07267319
0.030985856,0.1935987,-0.18973441,0.0040720534,0.28945076,-0.121439464,0.081322215,0.08102301,-0.0014682476,0.0788456
0.05500495,0.32521814,-0.05799747,0.26368746,0.29302233,-0.12294099,-0.14304444,-0.3317606,0.18591562,0.028925924
-0.17169157,0.34945747,-0.4767206,0.19741048,-0.08718097,0.057356708,-0.10786782,-0.42352217,0.16506447,-0.031537462
-0.23916657,0.3903364,-0.6313842,0.035940453,-0.6081165,-0.26952732,0.44343558,-0.44886705,-0.15475026,-0.54667187
-0.61653686,0.51327693,-0.15237112,-0.23267703,-0.4515822,-0.528251,0.672058,-0.016930843,-0.22466478,-0.07641202
-0.41357744,0.2300902,-0.5784568,-0.46302143,-0.44985196,-0.30212945,0.7766427,-0.0807616,-0.20646316,0.03257646
-0.119079135,-0.10452508,-0.0007600355,0.070686676,-0.25252393,-0.14016096,0.48182878,0.14150941,-0.07571012,0.101250425
-0.06239541,-0.10391081,0.06598669,-0.05474576,0.42005315,-0.06413455,0.047575716,0.05216112,0.07834745,-0.06908757
-0.23409042,-0.051619098,-0.14408977,0.23172206,0.34895337,-0.0020105452,0.036867958,-0.1358031,0.35808086,-0.24756095
-0.5194537,-0.052998774,-0.027054051,0.30977547,0.7481428,0.28224918,0.13415374,-0.1500162,0.42606694,-0.3486709
-0.49388137,-0.115836404,0.34392223,-0.16451262,0.3297739,-0.3129093,0.37385365,-0.21447672,0.2969365,-0.41189584
-0.33829772,-0.24283938,0.06421196,-0.50661033,0.28030804,-0.12729676,0.040710315,-0.63015276,0.09916828,-0.6483672
-0.13894738,-0.20793788,0.05311664,-0.12473852,0.12338641,-0.12827359,-0.5187968,-0.7387293,0.47149235,-0.20710884
0.0491428,-0.1251256,0.019496843,0.17600031,-0.03700783,-0.11430418,-0.19529037,-1.1197735,0.10136235,-0.15412499
0.15727846,-0.34970963,0.057514247,-0.08966801,0.29228985,-0.09995494,-0.33917093,-1.2008543,0.1325568,-0.24671662
0.16124593,-0.4088805,0.18325213,0.011475368,0.07106519,-0.082683384,-0.46494853,-1.0527695,0.21631528,-0.34420818
0.22284155,-0.5360047,0.05588301,-0.16210543,0.033726912,-0.014394082,-0.4263523,-1.111813,0.05027673,-0.38595387
0.10812628,-0.10512302,0.31060383,-0.01665481,0.16183777,-0.07864988,-0.25559014,-1.019054,-0.09573501,-0.5534119
0.06879661,0.28286356,0.31284428,-0.23263024,0.16753653,-0.054010402,-0.06812323,-0.8145969,-0.021695143,-0.33385316
-0.011237151,0.17533463,0.2411131,-0.3610221,-0.066400856,0.22313263,0.030540543,-0.8132304,-0.0117207775,-0.39193478
-0.21960227,0.32391977,-0.38132715,-0.26673838,0.06332964,0.356649,0.1332621,-1.0247092,-0.057055585,-0.55603427
-0.34513554,0.1660159,-0.2669478,-0.3455919,0.25826493,0.03027255,-0.029899528,-0.6893818,-0.0046074037,-0.19147694
-0.1916985,-0.032508288,0.41332096,-0.43788958,-0.06429938,-0.4325276,-0.17763534,-0.4623913,-0.1925142,0.2653528
-0.20468172,-0.014786717,0.31257266,-0.42824757,-0.011130958,-0.37860188,-0.14911686,-0.12951432,-0.31030157,0.2192644
-0.038796786,0.031048737,0.34306195,-0.016333876,0.16662274,-0.31481504,0.044104278,-0.046596937,-0.0621533,0.032999825
0.00058073783,-0.03243139,0.2398244,-0.04672576,0.24793269,-0.1618732,-0.0156639,-0.12311097,0.14509006,0.14179601
0.004696384,-0.18412751,0.27475497,0.17444754,0.13823096,-0.14879021,-0.09476872,0.07999066,0.14501534,0.13618618
-0.033600293,-0.12180951,0.09544111,0.30755946,0.38782504,0.024376208,-0.18327221,0.08920417,0.17528906,0.14246732
0.14950716,0.14189501,-0.02411612,0.21181078,0.313787,0.08330234,-0.59785837,-0.09962877,0.093599826,0.034621146
0.06691516,0.2766646,-0.2638135,0.03644402,0.3703563,0.08084243,-0.82920295,-0.017773837,0.3842896,0.02876378
0.002698073,0.2137335,-0.81028765,-0.0812637,-0.013691224,-0.06424529,-0.691741,-0.2400123,0.32151982,0.15629749
-0.24307959,0.092545785,-0.86484116,0.043986466,-0.5161582,-0.36182374,-0.13031909,-0.2407555,0.12312101,-0.10675629
-0.5486315,0.27161357,-0.5496915,-0.24070744,-0.5149462,-0.6407967,0.5037191,-0.2413029,-0.023517424,-0.50018835
-0.11420778,0.3452082,-0.3631659,-0.38147387,-0.39390975,-0.5461309,0.5653305,-0.12475248,-0.15368016,-0.01434599
-0.14456636,-0.016222185,0.18321241,-0.02641565,-0.04777895,0.025375795,0.29008064,-0.06908122,-0.06484268,0.17904991
-0.066831425,-0.03931339,0.07111255,-0.009975046,0.3184718,-0.07532297,-0.11081243,0.051696498,-0.11899899,0.039780848
-0.046201214,0.071669795,0.058690175,0.24998578,0.31537682,0.023805201,-0.07580685,-0.22743598,-0.08659967,-0.23131686
-0.4221769,0.05099171,0.11510863,0.17257279,0.65955365,0.19903287,0.010663815,-0.2907723,0.22114854,-0.24857667
-0.16769062,-0.0029856467,0.30866358,0.11706199,0.36323437,0.114267565,0.20639941,-0.43119884,0.045548495,-0.6243592
-0.26827818,-0.112304546,0.088640615,-0.14590584,0.38216648,-0.11222408,0.12475918,-0.9073124,0.20093435,-0.63620913
0.07699698,-0.15077314,0.08440019,0.13685957,0.0678928,-0.11342856,-0.30142012,-0.9983332,0.07958367,-0.49126408
0.27383113,-0.25475037,0.04785258,0.34876567,-0.039545972,0.046044014,-0.22151053,-1.3409256,-0.32054532,-0.33241975
0.121029176,-0.38265997,0.18216479,0.034576956,0.12993033,0.043898072,-0.09317818,-1.130391,-0.11886448,-0.5552129
0.08256579,-0.3149688,0.19710895,-0.023338642,0.051761877,0.20139417,-0.015197227,-0.9718988,-0.10435996,-0.41397554
0.045125976,-0.42900547,0.18654293,0.01081207,-0.11580573,0.0004654866,0.045748573,-0.8781492,-0.104150526,-0.44748068
0.12233031,-0.2658956,0.1513042,-0.06300095,-0.13527116,-0.11113633,0.27810434,-0.61432934,-0.16838089,-0.33429924
0.21115106,-0.08623534,0.38238245,-0.16229944,-0.17596589,0.14084032,0.19885519,-0.73470086,-0.04986748,-0.19024302
0.23764223,0.08130204,0.17741796,-0.11072938,-0.6302485,0.26408082,0.12324515,-0.8285496,-0.03380245,-0.1843868
0.010284926,0.2981081,-0.42047063,-0.3162537,-0.5671243,0.34942275,0.11807984,-0.9885179,0.009104398,-0.18753085
-0.13213097,0.13571164,-0.3340591,-0.52042794,-0.18136434,0.13137034,0.043507323,-0.7726225,0.1952937,-0.01377367
0.041237995,-0.009812699,0.30639103,-0.69652945,-0.048053354,-0.14645286,-0.06594936,-0.5029012,0.06153885,0.17940797
-0.00034385468,-0.052769743,0.4055002,-0.66097134,0.083809465,-0.10307187,0.013913283,-0.19268233,-0.08609054,0.15520781
0.012509262,0.011251579,0.24408641,-0.08730487,0.2353176,-0.13443655,0.024682729,-0.29006755,0.065721735,-0.111110136
0.035306375,-0.137845,0.299269,0.0581749,0.2442944,0.022139685,0.059718966,-0.17160013,0.15934739,-0.03351584
0.0950225,-0.06529123,0.20145997,0.15672395,0.12927102,-0.05928335,-0.093331285,0.15834211,0.24186458,-0.053965166
0.11475084,-0.1737867,0.13181035,0.029326363,0.077835135,-0.022319745,-0.038586378,0.1170565,0.32541665,0.20432909
0.28852287,0.17719333,0.1794508,-0.023149058,0.2636854,0.03331648,-0.53524655,0.08606748,0.13414471,0.20433225
0.21321836,0.1386331,-0.22227882,0.10787018,0.14818776,0.26004735,-1.0202402,-0.060179558,0.049524657,0.25863853
0.22120593,0.22272363,-0.66573524,0.008051744,-0.086601436,0.23490654,-1.1681504,-0.3698835,-0.18033628,0.21311331
0.06840876,-0.06540893,-0.49752083,0.050554585,-0.55983466,-0.030255163,-1.0693573,-0.27970883,0.007690923,0.21638803
-0.5811544,-0.055382773,-0.366397,-0.2069561,-0.49365962,-0.24189329,-0.2953959,0.19415997,0.066882,-0.02521457
-0.12312073,0.13765725,-0.37417147,-0.23966856,-0.4604013,-0.76803064,0.023358928,-0.019787,0.28678432,-0.48133472
-0.28303218,-0.253202,0.23028369,-0.0193457,0.28681803,0.17023027,0.117487706,0.034541044,0.4367013,-0.069505624
-0.15108353,0.13422465,0.021580288,0.009986222,0.29288954,0.0029938614,0.07420664,0.015665032,-0.036788248,0.23972844
0.061180383,0.22991711,0.085197516,0.20752563,0.0072129825,-0.12826174,-0.15899298,-0.23679076,-0.17497246,-0.3183055
-0.3108314,0.061639264,0.049966346,0.060994074,0.695358,0.0732936,0.12205868,-0.17812523,0.05886931,-0.110269815
-0.2895137,0.24843495,0.19086352,0.042543765,0.2510758,0.30141315,0.32130772,-0.407503,-0.22592413,-0.43944144
0.118063875,0.12602037,0.38019168,0.19351998,0.40180138,-0.092268996,-0.02359057,-0.7339227,-0.2628773,-0.91729105
0.14851889,-0.2967291,0.18543299,-0.034137987,0.17949815,0.078900404,0.14550279,-0.56878984,-0.41490382,-0.47571102
0.13116242,-0.27758414,-0.001007832,0.25424036,0.16621765,0.3596131,0.12105144,-0.79654044,-0.43572226,-0.32191327
0.18600695,-0.087660916,0.1930568,0.26122615,0.14815758,0.11345698,0.24708834,-0.5121565,-0.13514794,-0.39245242
0.08177325,-0.13762026,0.23403876,0.050606467,0.011560239,0.12990165,0.050397087,-0.34602743,-0.205054,-0.36858913
0.11300938,-0.1792082,0.20935452,0.0689541,-0.1891502,0.05314544,0.14346775,-0.27706552,-0.085322544,-0.33266717
0.14389318,-0.1374443,0.3772049,0.2588728,-0.12893793,0.08333765,0.15840968,-0.17180634,-0.11851683,-0.21898353
0.20673946,-0.09793228,0.3451789,0.03607514,-0.62759745,0.043713458,0.019379878,-0.15603049,0.0008126151,-0.087539904
0.18448795,-0.04173311,-0.090678945,-0.0429875,-0.9547859,0.08383563,0.071171634,-0.17652082,-0.0070753917,-0.07889119
0.037714858,0.12670808,-0.38221422,-0.397775,-0.4603264,0.15878645,0.09148886,-0.32958713,0.27629012,0.13803524
0.0073253587,0.15503784,-0.15944724,-0.43800086,-0.040426277,0.109572366,-0.007123002,-0.37481442,0.33033937,0.06671999
0.27063012,0.017784672,0.3066736,-0.7891806,-0.17241976,0.22088602,-0.13599753,-0.23778981,0.18110341,0.1269813
0.0782916,-0.09767875,0.2573528,-0.55300415,0.15349513,-0.058343124,-0.017434489,-0.15465304,0.057193063,0.20915411
0.05632873,0.019138867,0.33925524,0.021867108,0.24673888,-0.08379753,0.042065598,-0.27015507,0.07002553,-0.12418741
0.031451564,-0.17738232,0.28068906,0.113569304,0.12834385,-0.1377593,0.07966309,-0.044094913,0.14856052,-0.112649836
0.09262737,-0.16656055,0.32412884,0.0176232,0.13799821,0.05446392,-0.112501554,-0.011360593,0.20296657,0.058283158
0.01630015,-0.17602976,0.24653322,-0.06523786,0.12017922,0.029178731,-0.2870027,-0.06258496,0.16056201,0.09359326
0.25091535,-0.00060309115,0.17307724,-0.037246913,0.2143629,0.15172923,-0.16828002,-0.20130585,-0.14062259,0.15487385
0.414271,0.1627935,-0.39854586,0.0188295,0.122047484,0.079420105,-0.3130037,-0.42709875,-0.29374763,-0.024940912
0.13596003,0.12951802,-1.0359313,0.16623218,-0.27746055,0.28701824,-0.42770424,-0.35920754,-0.33948663,-0.018598186
0.0951148,-0.09534518,-0.74748904,-0.034915484,-0.42990905,0.049053058,-0.49357668,0.0024291773,-0.42656156,0.0952426
-0.057803266,0.0013835514,-0.6488971,0.0022970743,-0.51188034,-0.2210842,-0.16989063,0.31227615,0.12218814,-0.20420547
-0.24869546,0.07028695,-0.42120847,-0.35358924,-0.37045953,-0.6333472,0.07028689,0.37194863,0.53878236,-0.3401315
0.001191945,-0.1263719,0.060759626,-0.007518828,-0.06560216,-0.033549007,-0.09508939,0.041203693,0.20072252,-0.31185028
0.29421276,0.3074581,-0.014364138,-0.05653006,-0.05027311,-0.12982969,0.13276078,-0.006339833,-0.070415676,-0.016599275
0.11080094,-0.3658423,0.101734325,-0.0860311,0.13490711,0.05798078,0.050832685,-0.31732386,-0.33861306,-0.20151998
-0.20440231,-0.21685526,-0.018949632,-0.2851837,0.3576915,0.13396832,0.055749655,-0.21400462,-0.10678219,-0.21327402
-0.27655703,-0.0064108754,0.39007816,-0.16314015,0.2690188,0.3799129,0.3428381,-0.37504098,-0.18889123,-0.30837405
0.05666812,0.06039738,0.42004758,0.02949786,0.31022528,0.03485539,0.16495003,-0.5067139,-0.27403077,-0.4644208
0.3445783,-0.19411606,0.39755028,0.09654382,0.0017489515,0.038879525,0.042722832,-0.21470883,-0.5394236,-0.17137603
0.35661298,-0.1535134,0.09058068,0.09049037,0.1284487,0.14727983,0.18959865,-0.056037914,-0.28069067,-0.15753941
0.22827113,-0.0614706,0.1818995,0.29999283,-0.0030262722,0.007322912,0.15674819,0.034383986,-0.12999389,-0.17121562
0.04501679,-0.15992023,0.1486441,0.14036803,-0.122225195,0.23775963,0.20595981,-0.020362971,-0.14284238,-0.1729758
0.10293218,-0.31930965,0.14317305,0.27342787,-0.09898274,0.12019492,0.13001673,0.030021392,-0.14189436,0.008852844
0.049971517,-0.12010589,0.19840705,0.19973241,-0.14365217,0.22113292,-0.0034448577,0.15878694,-0.19911456,-0.05412069
0.29391462,-0.09129677,0.09868225,0.07622633,-0.58779067,0.023438359,-0.08217569,0.31128657,-0.07446647,0.10386601
0.2779512,-0.08624358,-0.13289884,-0.006554143,-0.7069735,0.050217077,0.042681556,0.38945362,-0.021910932,0.12263443
0.086553745,-0.002837763,-0.23382042,-0.2746179,-0.23874438,0.13226186,-0.041660413,0.3103003,0.30614948,0.015167986
0.18688771,0.0952091,-0.022861464,-0.6967607,-0.04229148,0.20946878,0.021239202,-0.07418327,0.4601448,0.17542711
0.09668365,0.014561655,0.17628968,-0.8282449,-0.047222305,0.20134887,-0.04678402,-0.2055771,0.11047248,0.09760792
0.11235204,-0.2117416,0.30674902,-0.48046586,0.064486094,-0.07163526,-0.074161895,-0.068828546,-0.031721648,0.03983037
0.16130964,-0.29691556,0.4873604,-0.12385908,0.1984882,-0.22532208,0.07693542,-0.06745117,0.006169188,-0.08848295
-0.0012278,-0.30892575,0.4502304,0.011630572,0.18658149,-0.051571645,-0.051665183,0.040043864,0.1797412,-0.035283014
0.047832202,-0.23326622,0.47693354,0.08825267,0.31086087,-0.09816189,-0.10102348,-0.027474003,-0.044160616,0.063750654
0.19271421,0.0039808536,0.28183475,0.024156656,0.12473195,-0.046002395,-0.11992912,-0.21158852,-0.23353799,0.026860053
0.06799187,0.011695434,-0.13197571,0.03964281,0.18190368,0.06767887,-0.05682962,-0.20642072,-0.24702825,0.14151111
0.06707996,-0.037060656,-0.09656071,-0.068613686,0.11037468,0.12253626,0.09132319,-0.33096743,-0.36755753,0.090726495
-0.02309497,0.11291474,-0.37683615,0.087528974,0.022788981,0.24645862,0.21959734,-0.2153179,-0.45926353,-0.150602
0.12767175,0.15396966,-0.59995824,0.15635756,-0.23192193,-0.014632934,0.34874764,-0.041865885,-0.5229994,-0.19492178
-0.09141154,-0.02220365,-0.5723452,0.10310773,0.009635315,0.055196203,-0.05687099,0.2669628,0.15583362,-0.013082354
-0.55622697,0.22993581,-0.2875392,0.006168352,0.15368149,-0.5668042,0.011028927,0.6064965,1.1978581,0.23380361
0.28467813,0.3979545,-0.050001416,0.016338177,-0.06275876,-0.26698762,-0.3004168,0.11047396,0.4014579,-0.3443714
0.25515947,0.13984595,-0.015596778,-0.022978261,0.3023942,-0.10082676,0.113856554,0.046326555,-0.070803106,-0.044554148
-0.0025669287,-0.16568099,0.35306907,-0.021650732,-0.228482,3.4593046e-05,0.12693344,-0.26911762,-0.3231314,0.013148515
-0.061066337,-0.005448835,-0.11974609,-0.27829772,-0.23287213,-0.08141043,0.13687067,-0.0042558704,-0.0922229,-0.11570854
-0.044527013,-0.042564638,0.5336457,-0.37005103,-0.114327684,0.03009725,0.3021721,0.053585246,-0.29586545,-0.2991826
0.06493314,0.1809158,0.14581576,-0.032073166,-0.08879824,-0.17157029,-0.13392916,0.015339991,0.029800236,0.041867603
0.2719996,-0.05327047,-0.14062117,0.069016986,-0.2276675,-0.1992319,0.05346592,0.3273033,-0.23077682,0.14798024
0.11994434,-0.29492632,0.101629905,-0.13312653,0.19108897,0.08577272,0.2661264,0.41259032,-0.04351713,-0.0037642973
0.24891698,-0.19602455,-0.024428068,0.20009096,-0.04337379,0.07471401,0.13339558,0.0640459,-0.07843585,-0.08288697
0.17288269,-0.15492366,-0.019250799,0.28906038,-0.16575268,0.14896023,0.036408972,0.1669163,-0.053819686,-0.04627856
0.07835568,-0.2569202,0.0993637,0.24277544,-0.2194928,0.11114347,-0.005300104,0.16927944,-0.074148715,-0.007528995
0.19994693,-0.014035036,0.058342457,0.48437297,-0.14649397,0.21173647,-0.09576741,0.26601785,-0.054034706,-0.06419541
0.29729658,-0.16716062,0.096457586,0.27230993,-0.5088179,0.030291969,-0.024121122,0.12759858,-0.13111468,0.2581221
0.32601425,-0.2598372,-0.16687882,0.06338117,-0.4413965,0.0433107,-0.0027048625,0.18533859,-0.0770337,0.19384257
0.13614853,-0.030166117,-0.22441065,-0.54991776,-0.2344021,0.014067211,0.010930297,0.31270817,0.29113764,0.20900787
0.19472136,-0.15697107,-0.117329516,-1.0588974,-0.06819367,0.36066583,-0.03166475,-0.14702988,0.18951933,0.19676001
0.10421976,-0.12411989,0.11263882,-0.56259555,0.034134082,0.17760454,-0.06339461,-0.09811248,0.041872393,0.02461944
0.090128064,-0.19075438,0.42530215,-0.23468874,0.012856921,-0.062567845,-0.013963279,0.026082333,0.026252486,-0.069504604
0.059308216,-0.1567295,0.49872467,-0.13528305,0.25509793,-0.06847535,-0.094281785,0.0696621,0.1346578,-0.15312944
-0.04762232,-0.114262365,0.28786582,-0.019081408,0.21841757,-0.09140893,-0.06921374,-0.036409043,-0.053184085,-0.079850346
-0.03455016,-0.088045634,0.32539138,-0.050453078,0.17227313,-0.022366954,-0.015111905,-0.046537925,-0.22128111,0.044730745
-0.058267828,-0.02337911,0.068350695,-0.0031459534,0.32336774,0.062163893,0.25186393,-0.27995187,-0.3142002,0.016968895
0.1033104,0.084211074,-0.08105031,-0.025353292,0.20394857,0.055071134,0.038026307,-0.17969616,-0.32832643,0.14798215
0.013591234,0.110191494,0.25658834,-0.026292656,0.19710007,-0.06979331,0.22949663,-0.2136951,-0.41511232,-0.0039084284
0.013673599,0.19273797,-0.20527312,0.15823393,-0.056745533,-0.009602033,0.31721845,-0.01475678,-0.31121555,-0.043535363
-0.032271456,0.4351696,-0.7274785,0.10384306,-0.20343076,0.0017217225,0.40285107,0.1704481,-0.13581116,-0.055365205
-0.08722101,0.11660424,-0.7784247,0.16253282,-0.4601003,0.12206064,-0.19048236,0.082173824,0.39633462,0.084833056
-0.3192385,0.31400582,-0.21774712,-0.05093065,-0.36230165,-0.4732243,0.022682609,0.9260527,0.8198149,0.23266299
-0.24608703,0.008016895,0.2951645,-0.23424022,-0.0013847417,-0.2953022,0.07119492,0.20249629,0.66998947,0.25320533
-0.12254663,0.03663671,0.030161392,0.04177255,0.3224784,-0.035225283,0.12024824,-0.07094893,0.20132804,-0.06422793
-0.21635489,-0.28554133,-0.073192574,0.08670167,0.033859026,-0.075486414,0.2946563,-0.26096183,-0.27164325,0.31341818
-0.47562426,-0.21349993,-0.3156278,-0.16695268,-0.47324747,-0.03783289,0.72182024,0.37047175,0.37968567,-0.14091802
-0.25194773,-0.19673917,-0.15961936,-0.4605686,-0.40603304,-0.2732862,0.522114,0.5192945,0.04350103,0.012923425
-0.3635236,-0.077908956,-0.06841202,0.046768557,-0.11652825,-0.30978173,-0.06594053,0.47950736,0.24031627,0.14942355
0.036189895,-0.056912933,-0.17255814,0.19957247,-0.17481124,-0.26958072,-0.29048684,0.54189116,-0.10276241,0.273945
0.2150605,-0.13596289,-0.09899566,0.17668334,0.16631447,0.02253711,-0.2896726,0.42990667,-0.094457306,0.04829402
-0.010584568,-0.1399318,0.17333114,0.21710183,0.023144104,0.055609815,-0.38244563,0.12973751,-0.104271255,-0.10855162
0.07602979,-0.053882495,0.31695467,0.16650239,-0.07310144,0.1283198,-0.31891218,0.05474203,0.036514454,-0.15470728
0.13471568,-0.30426264,-0.13206357,0.17901258,-0.2553303,0.20906655,-0.09574566,0.2045045,0.10992959,0.09725551
0.19399467,-0.15413792,0.019050237,0.18546797,-0.2553219,0.22566068,0.00029283456,0.06949928,0.12480676,0.082257174
0.28177437,-0.11062328,-0.06301894,0.121621825,-0.4271403,0.018625764,0.16259588,-0.012786596,-0.037779044,0.18088539
0.35462555,-0.0912625,-0.21617444,-0.55472606,-0.24075022,-0.12155,0.2087257,0.13147062,0.07898601,0.29269177
0.21664542,-0.27631667,-0.109552845,-1.0251111,-0.14860319,0.08046484,0.20358327,0.17020054,0.21180779,0.26782635
0.08906512,-0.1423461,0.0355294,-0.6484413,-0.14046386,0.262422,0.010514023,0.070314296,0.12832704,0.14403304
0.17656316,0.06531773,0.3860848,-0.33333158,0.06050555,-0.009147798,-0.20462346,0.0069980654,0.04156092,0.008035791
0.08393162,-0.19770882,0.45002216,-0.290977,0.2073474,0.0136143,-0.06591023,0.06914626,0.15429467,-0.078865975
0.12101021,-0.008580055,0.35573146,-0.07347216,0.11347813,-0.27470034,-0.016672727,0.0847913,-0.046223696,0.05058237
-0.08849561,0.040928856,0.18707688,0.01561857,0.010592396,-0.026795076,0.10460292,-0.03293905,-0.25256872,0.008461475
-0.08840312,0.15133537,0.12928234,0.0016792405,0.07343265,-0.06108993,0.18153198,-0.09157341,-0.22935268,0.020136733
0.03955493,0.0932384,0.2970284,0.08277835,0.08192444,0.041104626,0.07908133,-0.091706805,-0.2463805,-0.06994261
0.0065774843,0.08179535,0.110805094,0.09444174,0.10253385,-0.20815407,0.09472599,-0.030868812,-0.14206024,0.20833468
-0.07571903,0.1966463,-0.04834001,-0.03851779,0.028031418,-0.03787165,0.2617963,0.038908746,0.05228161,0.11911978
-0.26595542,0.21110989,-0.33354914,0.20694432,-0.27895796,-0.0115807345,0.33739573,-0.0038790274,0.12848754,0.15700695
-0.3370333,0.32816136,-0.36077723,-0.18215707,-0.32209325,0.23946647,0.49586073,0.036044557,0.19544965,0.35528508
-0.32772493,0.22558214,-0.7928786,-0.40008163,-0.7482903,0.05533218,-0.12849721,0.17574273,0.7974904,0.32204574
-0.58261806,-0.05581946,-0.5587816,-0.5772335,-0.27463752,-0.5349026,0.06702594,0.52588564,1.0527642,0.45181313
-0.3077541,-0.07799428,-0.2647116,-0.13959825,-0.09920543,-0.49016696,0.049233448,0.3223407,0.6376208,0.5248799
0.07170618,-0.0053945407,0.038718797,0.083502434,0.019564271,-0.017330304,-0.025933221,-0.066964924,0.075195484,0.02092857
-0.40959272,-0.35253653,0.0017895952,-0.041339703,0.14704613,-0.053260863,0.41930008,-0.23040931,-0.025373269,0.4708722
-0.057289246,-0.49172923,-0.016734185,-0.2989487,-0.5405122,0.07118313,0.34137633,0.25169623,0.09661532,0.09717718
-0.08031083,-0.28772292,-0.3128775,-0.43342468,-0.54548657,-0.02235832,0.43957645,0.29335192,0.0853297,-0.2097738
-0.12208551,0.13152912,-0.26899403,0.08098399,-0.16516739,-0.36579567,0.15494654,0.5237746,0.181583,0.023215355
-0.116728775,-0.02035589,-0.21707514,0.28166655,-0.056508496,-0.07034101,-0.272403,0.51913685,-0.18795793,0.031806324
-0.045854095,0.026107075,-0.23123461,0.42317754,-0.072256,-0.05306502,-0.22821014,0.41553175,-0.19118255,0.07912659
0.061943334,0.05146345,0.06592777,0.13360728,0.004491455,-0.0065596662,-0.37183228,0.23066403,-0.08030171,-0.0035985417
0.054053795,0.049723778,0.20240724,0.19969578,-0.07603036,0.18682435,-0.6652458,0.116343014,0.14976414,0.01802862
0.19211757,0.10187436,-0.1113845,0.19329338,-0.17493808,0.13139403,-0.6838171,0.12558605,0.18218513,0.069647454
0.22373897,-0.03813132,-0.12593253,0.2192653,-0.41367668,0.19839907,-0.47938594,0.07758551,-0.014905691,0.14042631
0.28308728,-0.034853768,-0.18660358,-0.03653034,-0.32607272,-0.057624795,-0.43159905,0.033704225,-0.050103467,0.34464774
0.21124029,-0.1566766,-0.30454728,-0.6422698,-0.2095222,-0.041651383,-0.24621122,0.14287063,0.17472821,0.23068388
0.1269542,-0.15381831,0.12364409,-0.44891885,0.019207573,0.06256165,-0.33188736,0.25048563,0.2604488,0.1617904
0.056195494,-0.04745673,0.24020793,-0.43652484,0.07664298,0.34284654,-0.31898355,0.16929448,0.12975672,-0.0351465
0.07205914,-0.019267498,0.32401618,-0.16274951,0.09001188,0.095708854,-0.107379854,0.08571576,0.08882554,-0.07298903
0.14389881,0.043978736,0.2364344,-0.12658775,0.032772128,-0.10236861,-0.10106924,0.17444232,0.00010225471,-0.1275699
-0.030930782,0.09301104,0.20419903,0.010718853,0.053765483,-0.009843443,0.05712363,-0.079120345,-0.2228223,0.04055903
0.03321972,0.124592125,0.13956058,-0.06821127,0.066997506,-0.010479444,0.16267136,-0.017200746,-0.26327327,0.21500261
-0.05041015,0.10885635,-0.10373778,0.019490639,-0.00455848,0.016789367,0.2265066,-0.1807172,-0.14029501,0.2872283
0.025394583,0.2294004,0.047584,0.003826303,-0.073843375,0.031511273,0.12903982,-0.07381424,-0.21835503,0.17809534
-0.032549676,0.21223053,0.0916658,-0.020533903,-0.29581937,0.019049602,0.2389307,-0.24222739,-0.017028065,0.17648014
0.014720041,0.24456555,-0.256884,0.032596778,-0.27758408,0.006036367,0.15613757,-0.070861146,-0.0687355,0.21107034
-0.1083879,0.24648225,-0.23329192,0.09104033,-0.25116345,-0.0016262066,0.19820648,-0.07946737,0.08269094,0.11240688
0.03897774,0.4987612,-0.6893073,-0.009415161,-0.39640918,0.02535618,-0.26267838,-0.0103743225,0.38175002,0.2394905
-0.3139706,0.45951918,-0.737036,-0.21061225,0.14833307,-0.11014545,-0.48567322,0.24420147,0.84103924,0.33470458
-0.57054716,0.113306046,-0.45452005,-0.28191614,-0.15824087,-0.6446742,-0.40442833,0.43016133,1.1973444,0.52658737
-0.13990507,0.19087145,-0.36229458,-0.1133665,0.013172078,-0.43743983,-0.07297399,0.52397484,0.8530625,0.47891012
-0.16065706,0.07593734,-0.2209601,-0.078617536,0.30104512,0.06462089,0.15291806,-0.08057752,0.3218473,0.14421669
-0.4564968,-0.22547542,0.059256323,-0.05150128,0.20848623,-0.028836811,0.44018474,0.04031873,0.107741185,0.32223338
-0.16487035,-0.7055155,0.123494916,-0.00018981597,0.15641765,0.012722036,0.4895271,-0.25634488,-0.22129685,0.2558427
0.009554017,-0.47323853,-0.07608604,-0.54237443,-0.30744237,0.051087372,0.47500905,0.08724078,0.026071977,0.23588736
-0.1069693,-0.019967822,-0.25477773,0.0672164,-0.07912738,-0.17718635,0.12745799,0.13856538,-0.12227903,0.08706105
-0.061441097,-0.00059407734,-0.19403853,0.011460184,-0.13426884,-0.12298506,-0.060561217,0.51933,-0.15438288,0.17460592
-0.16583009,0.21914901,-0.27547655,-0.0186185,-0.2441918,-0.026273508,0.06559618,0.34979707,-0.098984644,0.013797179
-0.16511348,0.04851093,-0.04664353,0.13754039,-0.11666045,0.051017653,-0.15060145,0.34805486,-0.06829842,0.07317739
0.032130834,0.061583947,-0.08952306,0.15699847,-0.23619846,0.12634268,-0.38292512,0.21312797,-0.05677254,-0.046455644
0.17619275,0.04531029,-0.39055538,0.2487495,-0.26807383,0.17555511,-0.7220312,0.12755486,-0.11998953,-0.074050434
0.32642445,0.16278432,-0.26563025,0.1626781,-0.39462087,0.05557015,-0.8641675,0.045235936,0.0108470395,0.14480628
0.27841473,0.03844359,-0.21965457,-0.06763093,-0.26918694,-0.060665697,-1.097864,-0.0069995066,-0.02588867,0.3163337
0.1508595,-0.2323601,-0.031334925,-0.3779928,-0.19381036,0.067896806,-1.2400459,0.18347223,0.019633636,0.28391695
0.024943614,-0.12529251,0.15490964,-0.5017399,0.08750335,0.13955526,-0.69692016,0.16716848,0.0387039,0.046989623
-0.19815215,0.05638646,0.25499263,-0.20049928,0.08768337,0.17291348,-0.29289752,0.18244302,0.07841544,-0.17379002
-0.055033464,0.09493414,0.040594555,-0.075677626,0.03226679,0.12207759,0.023007555,-0.008198817,0.014776842,-0.029096005
-0.063816726,0.11553643,0.04990011,-0.13927312,-0.019623509,0.02180467,0.16884935,0.10914987,-0.047196254,-0.023634655
-0.07042108,0.13909347,-0.049233444,-0.0659229,-0.024708679,-0.013679867,0.2515909,-0.1020334,-0.044813305,0.16145805
-0.10761423,0.2092948,-0.032306384,0.055759482,-0.0419678,0.06456459,0.085930794,-0.07221845,-0.115723304,0.1883565
0.034769204,0.112348855,-0.18369067,-0.059125915,-0.13683689,0.023449406,0.15612291,0.010498532,-0.10294089,0.12969926
0.07118462,0.20464455,-0.08083351,-0.1528831,-0.12120083,0.10245137,0.1775683,-0.019237112,-0.035572883,0.23991565
-0.06287005,0.26402518,-0.30088302,0.06921213,-0.34078425,0.1479582,0.21037932,0.13662437,0.041118328,0.1683011
0.019001924,0.24715856,-0.7681097,0.10543308,-0.17784807,0.05780874,0.11757635,0.09757799,0.17890266,0.21714096
0.007712951,0.31484792,-1.0151271,0.15304345,-0.5213701,-0.004877802,0.019219711,0.19134489,0.2709201,0.17583503
-0.04784311,0.4465402,-0.95607495,-0.16574137,-0.61227506,0.04955898,-0.19650666,0.27227893,0.54380286,0.37834483
-0.15624867,0.41624317,-0.7126231,-0.14047056,-0.3184655,0.14251442,-0.48428836,0.33499724,0.83411545,0.5281503
-0.039728325,-0.010685606,0.34531212,-0.06934364,-0.23316242,-0.19065745,-0.5222365,0.44041678,0.49579126,0.22850975
-0.42931774,-0.091031514,0.09290296,-0.068375975,0.29360327,-0.14026861,-0.16649877,0.4654332,0.26052558,0.4071845
-0.17845725,-0.013279534,-0.075366944,-0.01642187,0.19399051,0.019197032,-0.008222329,-0.067301154,0.04279158,0.1708678
-0.11218088,-0.0058278036,-0.36954206,0.15657245,0.39149114,0.32215565,0.44964063,0.015669597,0.118484765,-0.22577812
-0.2346737,0.2561633,0.06286054,0.17345761,0.33211058,0.36133572,0.17212792,-0.2723992,-0.32483268,-0.2496631
-0.22230981,-0.1931553,0.44160765,-0.111389756,-0.19681254,-0.04081856,0.6548417,-0.21324414,-0.07579941,0.2112664
-0.03249259,0.058379803,-0.14290631,0.0010203132,-0.06572152,0.03186393,0.17377482,0.15226474,-0.25770077,0.21400136
-0.11180822,0.09273668,-0.063898094,0.025863426,-0.3360389,-0.10266991,0.22637899,0.3468679,-0.5032942,0.035034854
-0.0155801475,0.16498743,-0.09639454,0.0870135,-0.48553953,-0.0035014395,0.12851658,0.15143025,-0.22877736,0.036494564
-0.05885789,0.07057059,-0.11725457,0.17817302,-0.31014705,-0.042142373,0.03364698,0.22909379,0.11553382,0.22690998
0.024193807,0.13021971,-0.2792399,0.05987525,-0.37883037,0.015055742,-0.028160097,0.19774489,-0.00092006475,-0.15657148
-0.09798121,0.060234703,-0.5173899,0.20187914,-0.501769,0.077019855,-0.10743004,0.17813428,0.19844046,0.16294639
0.12514572,-0.009570945,-0.55904615,0.08854365,-0.39573652,0.1376267,-0.03305054,0.05179001,0.073394105,0.048318505
0.08349565,-0.030710192,-0.43512124,0.11758628,-0.077695034,0.22337635,-0.29313925,0.21137288,-0.25474006,0.112224065
0.062414333,-0.016010316,-0.2656,0.0917775,0.23177283,0.14522456,-0.37608445,0.32294917,-0.15035078,-0.07910054
-0.30728483,0.00197892,-0.06607458,-0.1340068,0.1609244,0.09831748,-0.04472627,0.30822423,-0.06806368,0.05865327
-0.17142297,0.100254476,0.031939052,-0.19701114,0.15852128,0.15726984,-0.035509206,0.1666398,-0.15421838,-0.16299053
-0.07505456,0.023648538,-0.009756539,-0.10049375,-0.02626049,0.0601434,0.04515262,0.0483711,-0.012116118,-0.10027446
-0.09631301,0.046746977,-0.16869064,-0.05833795,-0.17522424,0.05462573,0.12643078,0.026796283,-0.08253558,0.09625547
-0.07835826,0.18139367,-0.13839169,-0.15988754,-0.11281758,0.0376343,0.08481399,0.13767545,0.047394197,0.11053811
-0.062228907,0.10420298,-0.34550026,0.074329026,-0.27031767,0.14811608,0.089049384,0.0403166,0.099530414,0.1897647
-0.018375697,0.14721733,-0.27259642,-0.14657143,-0.12592158,0.093350284,0.0541447,-0.010349384,0.08000228,0.06585064
-0.009531213,0.17211747,-0.5483407,-0.059908863,-0.15156746,0.08410896,0.03609967,0.2176958,0.06387587,-0.05562771
0.045367826,0.18303373,-0.6262974,-0.091520414,-0.3773241,0.19165199,0.104144335,0.22237438,-0.0056818523,-0.02212205
-0.035396047,0.22546047,-0.95870227,0.021012537,-0.34216756,0.14616895,-0.12416496,0.20009203,0.13020562,0.056248844
0.033793505,0.3920302,-0.9322409,-0.11438653,-0.06342464,0.13300757,0.0814142,0.2199277,0.26694518,0.30535176
0.03880672,0.30402035,-0.8847633,-0.10333,-0.07069119,-0.10842372,-0.087074295,0.30779254,0.61958957,0.42262045
-0.4464439,0.2661521,-0.084518045,-0.35207915,-0.07610499,-0.39159846,-0.45694673,0.4287925,0.9260132,0.61063236
-0.2950459,-0.0019011539,-0.05715857,-0.06880956,0.21050325,-0.40744537,-0.3577877,0.19657315,0.5315935,0.40975606
-0.13979714,0.15147138,-0.010333677,-0.044002984,0.32772997,-0.101497956,-0.1934892,0.34906718,0.19839911,0.33909026
-0.06354909,0.060759373,0.0124233365,-0.034180176,-0.046960674,0.07636929,-0.08396514,0.06168271,0.025303543,0.04047417
0.24376813,0.21557042,-0.2328057,0.297701,0.21693216,-0.11708927,0.5150753,0.036934283,-0.004430963,-0.26586094
0.08549912,0.36442244,0.11305353,0.079110235,0.20118594,0.32210457,0.13390231,-0.101580314,-0.16089465,-0.23706108
-0.36250687,0.062610514,0.18676384,-0.14024146,-0.051916234,-0.39239132,0.73023117,0.04194497,0.15350547,0.0962231
-0.4024283,0.16561766,-0.013502804,0.24650598,-0.42043784,-0.31543794,0.18515101,0.5543737,0.121097006,0.30697623
-0.067024,0.3690822,-0.36471778,-0.032350864,-0.8586251,-0.16891436,0.12927003,0.55416083,-0.15867633,0.059215505
-0.17700942,0.1551892,-0.63974404,0.015086461,-0.9781341,-0.14701508,0.19203664,0.31470722,-0.0038744155,0.2729661
-0.09852669,0.23408635,-0.6413621,0.0832644,-0.601196,-0.05901867,-0.06578506,0.32640406,0.17494172,0.23490235
-0.10024736,0.054383513,-0.41315025,-0.002315206,-0.5599457,-0.044287853,0.008407964,0.2806864,0.15568055,0.09565981
-0.12572768,0.0068267933,-0.3794843,0.030128503,-0.5775087,0.053453688,0.06868614,0.2349067,0.099380665,0.096094534
0.021366213,0.109798774,-0.5083963,0.24140164,-0.18328492,0.055784088,0.007626528,0.14099996,-0.10855077,0.049942717
-0.07935271,-0.044366222,-0.457919,0.30421123,-0.10231386,0.08605696,0.064102575,0.22323336,-0.19960098,0.09102808
-0.062228918,-0.039003197,-0.20056824,0.10255941,0.13106722,0.103394285,0.075868584,0.101650946,-0.29321876,-0.039751142
-0.039297942,0.043015923,-0.17049338,-0.00050726655,0.09347001,0.24133979,0.1735218,0.064566396,-0.17825921,-0.12626594
-0.029891295,-0.09465602,-0.19152135,-0.2193094,0.16358191,0.23933002,0.08072674,-0.015163111,-0.11824768,-0.059225705
0.1421609,-0.027407244,-0.19186452,-0.085686386,-0.03437449,0.1693465,0.061498582,0.039711107,0.06623055,-0.23327911
-0.049555473,-0.050067946,-0.22560923,-0.17250319,-0.094400615,0.23776013,-0.04273118,-0.040805724,0.065455124,-0.0066494546
0.07365945,-0.014560471,-0.30015785,-0.121261224,-0.15095288,0.028499043,0.0559298,-0.09821456,0.0031296464,-0.105549805
0.010329731,-0.12992105,-0.42998433,0.030621352,-0.37969932,0.19004472,0.1684957,0.019596627,0.049933687,-0.096542135
0.034486733,-0.03928943,-0.4455919,-0.22445564,-0.26969722,0.08165414,-0.014730751,0.13999383,0.15976237,0.041352466
-0.052954715,-0.10510596,-0.5307518,-0.12228812,-0.30118686,0.086136825,0.043235384,0.088425666,0.17299403,0.041243024
-0.081398696,0.0025156685,-0.42946702,0.025920635,-0.3893511,0.08059176,0.095413126,0.09130412,0.083463676,0.037472297
0.069808245,0.21049611,-0.4978609,-0.08868315,-0.44710115,0.028448801,0.028579293,0.01770367,0.17346755,0.11755304
0.023087626,0.2328577,-0.6664487,-0.17578858,-0.0016670808,0.17807221,-0.012062483,0.15287668,0.15474828,0.3499238
0.1461063,0.09881481,-0.29998174,-0.37626415,0.09784954,0.053339332,-0.24802075,0.3600322,0.59959817,0.39931792
-0.23313005,0.20330992,0.3196607,-0.3083605,0.46955013,-0.15844922,-0.4434329,0.249433,0.49303037,0.2613079
-0.34479925,-0.10847994,-0.07810368,0.22082692,0.27770415,-0.07696637,-0.20793019,0.12482712,0.17853634,0.3158599
-0.3317665,-0.08901201,-0.012873908,-0.034771062,0.029389976,0.08542127,0.051421955,-0.0010905014,0.25143772,0.32121918
-0.22019175,0.03260176,-0.003782779,0.033950396,0.16477422,-0.029793829,-0.044808507,-0.061984785,0.032293826,0.1481434
-0.26036003,0.10248501,-0.19009924,0.14930034,0.016930116,-0.16415882,0.33962357,0.043215796,0.16321184,-0.005602795
-0.23665637,-0.07153246,-0.46096542,-0.122190185,0.04064205,-0.009962381,0.5283769,0.44074577,0.44948512,0.36803043
-0.31470805,0.10494617,-0.26133728,0.035949048,-0.37526554,-0.46613204,0.5314674,0.24283221,0.20941764,0.24970631
-0.18034348,0.1502357,-0.10510541,0.074332036,-0.4159871,-0.46850592,0.14174011,0.40947878,-0.07814157,0.09405858
-0.13257271,0.18977429,-0.54271084,-0.11292933,-0.57322586,-0.14420302,-0.14733775,0.08250339,-0.20019814,0.16062851
-0.14924398,0.3816126,-0.8111881,-0.04557923,-0.49265665,-0.24057032,0.09448215,-0.030328497,0.031547453,0.2857506
-0.0037543923,0.15236881,-0.7236763,0.17494377,-0.5719109,-0.19036284,-0.08161936,-0.13102688,-0.05077843,0.3571196
-0.05492176,0.06455168,-0.16026467,-0.05515848,-0.3730564,-0.08914306,0.01070989,-0.027709534,-0.12820153,0.24919425
0.07958785,0.0750632,-0.04204045,0.020287873,-0.1856442,-0.16418591,-0.047630053,0.25699303,0.12729079,-0.02470236
-0.08375204,0.039281283,-0.14827722,0.15088949,-0.08546648,-0.023108864,-0.067540914,0.113567226,-0.0898004,0.11670609
0.056572642,0.023817576,-0.27881497,0.21219033,-0.14170477,0.07422794,0.028634874,0.18942295,-0.16269508,-0.08637063
0.055943847,-0.01652649,-0.23285869,0.00367674,0.030263865,0.100074634,0.10019735,0.017717771,-0.16891803,-0.011215715
0.004876061,-0.044842254,-0.27770454,0.012407385,0.012884853,0.22720215,0.1718646,-0.07855137,-0.016489912,0.042357177
0.041137032,-0.08706384,-0.19925587,-0.08542165,0.028181927,0.14775878,0.1636942,-0.13347575,-0.03612912,-0.008219025
0.0062475824,-0.14363107,-0.27330622,-0.0187924,0.08739668,0.14411795,0.16399233,-0.15210423,-0.1398702,-0.20902275
-0.079986654,-0.19749548,-0.2508017,-0.012684922,-0.04393944,0.057031147,0.029590128,-0.018555766,0.03517266,-0.13792305
-0.0072427066,-0.090010084,-0.20972873,-0.17759198,-0.0055625006,0.015244833,0.039909665,-0.15289511,0.06822128,-0.1888241
-0.10328402,-0.14631256,-0.3507445,-0.14166497,-0.121438935,0.12551531,0.076149404,-0.10439594,0.04784198,-0.052199397
-0.07650146,-0.13617818,-0.28333572,-0.11996498,-0.18562467,-0.012689612,0.037418082,0.035577197,0.051889576,0.020395136
0.014420843,-0.014706678,-0.2607066,-0.004701375,-0.12972666,-0.081744395,-0.12082162,-0.08964391,-0.01617149,0.028163059
-0.004563697,-0.06665509,-0.26368865,0.084121525,0.01906212,0.02207847,-0.18316711,0.082280144,-0.010908646,0.030643502
0.18616544,0.17012794,-0.2767706,0.14202243,-0.28997487,0.04219138,0.07985145,0.23239225,-0.06597584,0.012789571
0.26221225,-0.032736793,-0.33394307,-0.26307207,-0.1978466,-0.057893008,-0.07759242,0.4837152,0.2125569,0.08931174
0.026761044,-0.22524796,0.10779372,-0.30660084,0.068862826,0.076885045,-0.6592559,0.2945078,0.2703822,0.22890395
-0.2907476,0.2258658,0.16615601,-0.035397235,0.52064854,0.12259482,-0.42792886,0.6387486,0.20993079,-0.054085698
0.15123776,-0.03052086,-0.32993242,0.36298677,-0.23880792,-0.03135699,0.1112924,0.22353043,-0.060383074,0.02148331
0.08982259,0.085285634,-0.06825437,0.17282055,-0.064063355,0.023228394,-0.014081887,-0.002231322,-0.081222616,-0.109068096
-0.21920972,-0.03736768,0.03724397,0.0054908544,0.12125848,0.07495915,0.030963616,-0.1986685,0.114115,0.21926977
-0.30180696,-0.12700638,-0.15717416,0.025219329,0.23801593,-0.0438249,0.34058177,-0.15502553,0.15056941,0.32706302
-0.43932894,0.122046985,-0.4859027,0.07913695,-0.34512404,-0.06931243,0.4660669,0.32045335,0.49514812,0.28695843
-0.28673637,0.3188092,-0.58177775,-0.04653711,-0.71320695,-0.3162695,0.5346375,0.33801404,0.4754615,0.00859744
-0.08990885,-0.08652457,0.018584425,-0.3382375,-0.01606254,-0.41273287,0.012515434,0.15255727,0.10304068,0.30198488
-0.032709964,0.020296587,-0.44662285,0.14277576,-0.22627085,-0.33892304,-0.050620012,-0.025805915,-0.016448664,0.45238736
0.028969899,0.251813,-0.4580574,0.16834944,-0.49161452,-0.4953016,0.046365697,0.019329242,0.22778744,0.2753725
0.14489104,0.18451788,-0.3025238,0.09227319,-0.21153088,-0.3443041,0.032262877,0.11443783,0.25102058,0.4134093
0.07515824,0.057491504,0.0046181236,0.19292334,0.14085178,-0.035560545,-0.019496802,0.007874707,0.026899198,0.27359557
-0.02720041,0.13771093,-0.07082429,0.08222446,0.046593703,-0.15867461,0.018527748,-0.066446565,0.035295855,0.2282384
0.010571387,0.123154305,0.012238276,0.046534847,-0.047859102,0.15826568,0.08005498,0.17168945,0.10762878,0.14982745
0.10664947,0.07969693,-0.12170799,0.15203309,-0.07070422,-0.043179456,0.18667972,0.17188874,0.14926264,-0.124153726
-0.03558991,0.0628514,-0.096254565,0.03689942,-0.10507936,0.1630514,0.105727196,-0.00036436465,0.0440296,-0.07479773
0.0865456,0.09403517,-0.1431305,0.082719706,-0.1769891,-0.005486983,0.06022567,-0.029386079,-0.071269564,-0.12330781
-0.08538164,-0.005381491,-0.12671629,-0.06403798,0.08452933,-0.056654744,0.10129825,-0.15727615,0.123270325,-0.07281331
-0.0609741,-0.1355966,-0.14361756,-0.021856528,0.041795943,0.046118084,0.1534274,-0.21497928,-0.041539583,-0.20433971
0.037305593,-0.07148308,-0.058132507,-0.11438372,-0.026160082,0.12324029,0.10948072,-0.20863743,-0.078555286,-0.2697624
-0.005947741,-0.13685332,-0.045476735,-0.114690825,0.057026125,0.025547216,0.026869735,-0.09244338,0.017132688,-0.20651136
-0.057185613,-0.03885842,-0.15420619,-0.016420789,-0.20748302,-0.038672797,-0.10620001,0.04658055,-0.040613372,-0.22834395
-0.036874942,-0.15608938,-0.063680366,0.03487906,-0.019356612,-0.08380889,0.057188164,0.0156711,0.0053799446,-0.1342201
-0.036779687,-0.32334787,-0.19267079,-0.02710063,-0.16794497,-0.053759087,0.078497395,-0.0089903865,0.006479406,0.019102363
0.12490676,-0.3852656,-0.0694728,-0.021942152,-0.29248625,-0.040145826,-0.05454956,0.30258632,-0.058248717,0.0605391
0.16128412,-0.14940636,-0.1845987,0.18495807,-0.088520125,0.046717435,0.14244132,0.4409627,0.05875377,-0.039594896
0.09932004,-0.1788149,-0.09303698,-0.058971837,0.26290512,-0.12107527,0.1967152,0.30476168,0.16581446,0.10244209
0.2116051,0.18547373,0.017806254,-0.107725255,0.16770105,-0.011422976,-0.3148991,0.626744,0.32491383,-0.13860576
-0.2640462,0.40154156,0.12211953,0.33564997,-0.041744903,0.11478186,-0.038311902,0.13195907,-0.12747982,-0.45964873
-0.15758899,-0.27378973,-0.21613662,0.18310103,-0.23900706,-0.047135398,-0.014612671,-0.2243537,-0.37115988,-0.026410395
0.05325664,0.117208704,0.06713209,0.13818496,-0.055845786,-0.07867253,-0.033135604,0.021504533,-0.029340884,-0.2409538
-0.0767157,0.032927588,-0.032409597,-0.03391804,-0.0458433,-0.018916763,-0.032896854,0.054234333,-0.063220695,-0.07658985
-0.07697817,-0.014592774,0.03961485,-0.0026710406,-0.06858158,-0.046439324,0.07995101,-0.015397757,-0.036184374,-0.030940756
-0.48588532,0.109235205,-0.429904,-0.023394095,-0.4162235,0.054363616,0.60425913,-0.03849425,0.2493806,-0.061463077
-0.1790335,0.36886942,-0.5503808,-0.43988165,-0.9065564,0.009950098,0.9511792,0.5602594,0.34312817,-0.4154783
-0.07778227,0.08252858,-0.43863004,-0.65393394,0.058594164,0.059437063,0.7707941,-0.1322148,0.0048096227,-0.024728632
0.08594325,-0.22850102,-0.2918027,0.17547026,-0.11280384,-0.3062637,0.2657949,-0.15973835,-0.14281504,0.1480478
0.22519302,0.00014992313,-0.122140825,0.22478943,-0.06412421,-0.35499,0.2626044,-0.20682208,0.03520154,0.28605762
0.1688108,0.0043663136,-0.10735166,0.10212504,0.122709386,-0.31800503,0.30655357,-0.17909828,0.06412572,0.32390296
0.25132003,0.1464925,-0.031135157,0.13843161,-0.15368415,-0.3430972,0.15098725,0.037362907,0.14600419,0.12731111
0.10982028,0.13206092,-0.017570889,0.06187897,-0.2152352,-0.15099129,0.40145648,-0.15386514,0.012391535,0.16162327
0.10131953,0.13415638,-0.013925137,0.15393895,-0.013332258,-0.09939123,0.33136028,-0.28327197,0.0042848396,0.08268517
0.017978564,0.16182949,0.030522116,0.24200584,-0.10039092,0.011384536,0.27982238,-0.33741555,0.06981388,0.10277038
0.07633464,0.1203124,-0.09909607,0.15158352,-0.31066588,-0.014219395,0.0619671,-0.36393264,0.065431155,0.06924702
0.027965004,0.041363094,-0.14288849,0.16235851,-0.13785988,0.14802259,-0.09552823,-0.15456972,0.14894196,0.1340999
0.14084238,-0.0038521138,-0.027076578,-0.058655508,-0.16799794,0.06358585,0.02822577,0.01047789,-0.0265008,-0.087425284
0.037094943,0.010745455,-0.082407124,-0.040506124,-0.036940362,0.056074716,0.15891933,-0.06955068,0.15664978,-0.21684474
0.11704488,-0.07039538,0.02382803,-0.009245079,-0.0448596,-0.0010677399,0.108253196,-0.12643236,0.16761678,-0.11368548
0.05325667,-0.24263419,-0.054801736,0.1760116,-0.11338909,0.04593618,0.10224171,-0.08996047,0.13372798,-0.20477614
-0.00806706,-0.47698322,0.019699423,0.019107109,-0.24957024,-0.07132486,-0.0022039574,0.07237219,0.009823028,-0.08076352
-0.02437983,-0.56646955,-0.05716072,-0.32682267,-0.29686272,0.1238401,0.07368575,0.07852451,-0.007629053,-0.03904263
0.04371202,-0.6909978,-0.08723763,-0.39943424,-0.39002913,0.17358795,0.08528335,0.016269086,0.13528179,-0.11918061
0.23441935,-0.50399107,0.08929521,-0.110889114,-0.32535923,-0.06280304,0.069291845,0.4232126,0.27497017,-0.11728079
0.22801176,-0.21898155,-0.00748177,0.02782807,0.26167843,-0.029077293,0.21955293,0.5788735,0.31760132,0.031211179
0.15007012,-0.34322354,0.16128178,0.10973606,0.26767755,-0.20567802,0.17428455,0.51869756,0.1800611,-0.12028622
-0.062589005,-0.06918415,0.0069849263,-0.27087992,0.08479223,-0.22416696,-0.06251217,0.31367183,0.21377768,0.08830863
0.20906588,0.46730268,0.01449659,0.121971086,-0.40540108,-0.41607076,-0.17387958,-0.054450504,0.031411245,-0.36523378
-0.32666096,-0.3098702,-0.29072124,-0.012222115,0.13467722,-0.23259461,0.37414932,-0.10654727,-0.37433532,0.2947429
-0.028625093,0.05678747,-0.006159276,0.06273248,-0.0053546876,-0.004903406,-0.08479998,-0.055759132,0.024250314,0.034347475
-0.011174783,0.06771026,0.02652023,-0.0482138,-0.012925513,-0.05779019,0.06565284,0.06268724,0.024853714,0.039836116
-0.07870243,0.031078294,0.040109687,-0.085889295,-0.0515835,0.00042705238,-0.07602728,0.026033387,-0.003188245,-0.0864734
0.0908022,-0.025101794,0.0126835145,0.055999074,-0.0627553,-0.010501672,0.020899508,-0.1670764,-0.01808937,-0.13803205
-0.14764838,-0.08856022,-0.06893702,0.045594074,-0.20169072,0.018780187,0.5319786,-0.40142655,-0.23917174,-0.124239065
0.2969614,0.0011710202,-0.03876601,-0.08006722,0.17422546,-0.047327105,0.7971453,-0.54930466,-0.07337373,-0.055412844
0.38537887,-0.5344203,0.20560956,0.14838056,0.42317045,0.010943247,0.48823094,-0.694409,-0.48928407,0.17313014
0.2643152,-0.18473469,0.003472178,-0.078283325,0.34921056,0.097087786,0.5089936,-0.78245044,-0.33029082,0.12773554
0.3164608,-0.26076284,0.029143862,-0.10954784,0.11602658,0.14904125,0.50785744,-0.73543465,-0.163303,-0.06067738
0.1846466,-0.037309334,-0.12821409,-0.19915916,0.03881447,0.21850951,0.26515007,-0.7037538,-0.054707743,0.04721085
0.16539198,-0.091627896,-0.31208044,0.10670196,-0.28526884,0.045680225,0.29968724,-0.76875204,-0.13975571,0.052961018
0.18351743,-0.020443037,-0.135251,0.080474816,-0.26244184,0.17701669,0.17865188,-0.6357886,-0.076303236,0.22244348
0.03610922,0.069330595,-0.12847005,-0.016021647,-0.21271609,0.11424362,0.22436903,-0.24652438,-0.16488191,0.07826649
0.028397655,0.22050196,-0.1793056,0.06285635,-0.25465128,0.14795378,0.095744394,-0.3397165,0.13301331,0.0935956
0.07372704,0.28975788,-0.33359763,-0.043359723,-0.20820594,0.05582132,0.110129744,-0.06538155,0.089451276,0.0569425
-0.024116635,0.12717211,-0.35379604,0.014895605,-0.30973732,0.12946302,0.23416236,0.15514733,-0.042207614,-0.020015908
-0.0022763356,0.06438356,-0.25519595,-0.19268672,-0.0823895,0.10939451,0.02994108,-0.030591838,0.07077016,-0.042797774
0.13069698,0.10991362,-0.24459513,-0.45259777,-0.25971633,0.0689669,0.047663372,-0.020485675,0.0653064,-0.26375932
-0.14187975,-0.18601093,-0.15080014,-0.38037327,-0.10933976,0.13206169,0.22864689,0.009774249,0.03914935,-0.049494207
0.078339964,-0.10674449,-0.0036826024,-0.23011789,-0.21255696,-0.07585648,-0.008250811,0.24403535,0.17547116,-0.36690468
0.11930684,-0.38490975,0.03907975,-0.42090175,-0.11884255,0.18474618,-0.13102612,0.122719154,0.18324386,-0.32712656
0.17042476,-0.23612425,0.10260288,-0.42990205,-0.057802018,0.13605964,-0.11055518,-0.050595663,0.43420973,-0.096432105
0.051694572,-0.26243916,0.02749767,-0.4856578,-0.071170926,0.02863889,-0.013218368,0.26010257,0.25712052,0.11692084
0.18705422,-0.22115493,-0.10171342,-0.22042146,0.15708221,0.1632535,0.3604462,0.29008102,0.24275935,-0.03299766
0.2455792,-0.317493,-0.076144606,-0.19358018,0.23549354,0.025905898,0.065572165,0.28858715,0.11797867,0.038723473
-0.11024745,-0.34329683,-0.112275586,0.031703524,-0.24883349,0.0180586,-0.2562548,0.6082183,0.34489042,0.15234672
-0.37479302,-0.26691628,0.100202054,0.12924206,-0.072807685,0.15883797,0.068341,0.20706955,0.018668594,0.15624918
-0.35246566,-0.37481236,-0.11636236,-0.03513067,0.1199178,0.34624225,-0.21918324,0.33398736,0.18673405,0.29438463
0.035655417,0.07815068,-0.05912081,0.02175682,-0.035622112,-0.028178252,0.08479925,0.08192966,-0.030763637,0.086146064
-0.0012532696,0.051275603,0.03068111,0.0657885,0.0059798285,0.025976598,-0.059800237,-0.002766274,0.011922747,0.06375899
0.0215796,-0.035820704,0.05437889,0.024375558,-0.04923598,0.062201224,-0.08173076,-0.057932533,-0.0161428,0.053237624
0.14446273,0.1558475,-0.03045488,0.079818375,-0.27929896,-0.06144422,0.32692814,0.031876985,0.026039278,-0.27094993
0.74661714,0.06897388,0.2589183,0.04209902,0.20581244,0.027713299,-0.43319017,-0.22385445,-0.15565452,-0.36044395
0.5910864,0.052627377,0.06577555,0.062477894,0.23135288,-0.05587178,0.3144795,-0.24073316,-0.350323,-0.12833041
0.42859617,-0.016838435,0.12413338,-0.16117644,0.5699921,0.086536534,0.3162362,-0.10007648,-0.22739531,-0.025638966
0.27995297,-0.20934533,0.0374727,-0.34638074,0.40031323,0.34715602,0.38424444,-0.1250355,0.22730605,-0.09376967
0.30586633,-0.17455,-0.070646755,-0.520883,0.35098293,0.22104125,0.40539122,-0.3079063,-0.037012264,-0.41131583
0.08413287,-0.2359301,-0.26402935,-0.8061455,0.39351243,0.045832947,0.39002106,-0.3425789,0.02683922,-0.08151695
0.12831558,-0.20107064,-0.15405412,-0.90068656,0.26286405,-0.12942794,0.4191522,-0.49534994,-0.18570164,-0.162194
0.04573879,0.0058064605,0.01724396,-0.9195999,-0.022709282,-0.07480089,0.37447545,-0.31667104,0.112949096,-0.13189343
-0.027854484,-0.086611725,-0.026568118,-0.94973254,0.04290481,-0.17338149,0.32471713,-0.29057062,0.34935588,-0.16872507
-0.3312785,-0.08813645,0.05128212,-1.1639543,0.14310694,-0.23956737,0.34100673,-0.43717235,0.2338571,-0.05411726
-0.09498566,-0.10971152,-0.035186917,-1.2824372,0.04651324,-0.2574871,0.06387197,-0.34487855,0.077418216,-0.06539534
0.039886687,-0.22219722,-0.019841809,-1.2669816,0.15445276,-0.11108651,-0.0064643566,-0.22708674,0.09361567,-0.11096112
-0.038749106,0.09324,-0.15675522,-1.3987792,0.180906,-0.048534382,0.043858666,-0.06954983,0.0036441793,-0.20577624
-0.08481416,-0.01692585,-0.11079262,-1.3097854,0.24309555,-0.13744566,0.17806292,-0.15129231,0.22582135,0.007604086
-0.15039705,0.19888034,-0.13182263,-1.0318842,0.075872265,-0.18912432,0.07515861,0.16596936,0.426132,-0.3177799
-0.0672177,-0.14972758,0.028776942,-0.7458661,0.100308724,0.13060017,-0.05219833,0.20494267,0.6687097,-0.4049495
-0.1560675,-0.07418087,-0.12717234,-0.14783177,0.27659285,0.28693885,0.0762486,0.2884208,0.9999177,-0.4008071
0.3841607,0.06999384,0.30860612,-0.3003451,0.14324233,0.30474636,-0.27962208,0.301236,0.875175,-0.08092649
0.23438403,-0.11366577,0.21658084,-0.52925634,0.1449354,0.42160282,0.0018134048,0.13627926,0.6819717,-0.23038457
0.20182002,-0.3062188,-0.17557262,-0.2768884,0.14787382,0.38034034,0.2608872,-0.0707703,0.06967202,-0.12297337
0.30737934,-0.36202922,-0.14611515,-0.42807168,0.114441276,0.15776391,-0.0048947064,-0.03519432,-0.44615284,-0.2467745
-0.39264238,-0.088507555,-0.051431537,-0.24625273,-0.056624144,0.050834473,-0.22330596,0.20424896,-0.57497394,-0.36541405
-0.09961144,-0.1174278,0.07614658,0.08453453,-0.062905595,0.1052283,-0.17052889,0.16586073,0.21108003,0.20652926
-0.24508522,-0.15811948,-0.16959333,0.013834782,0.010003589,-0.0050358847,-0.020208545,0.2857714,0.3412413,0.29354745
0.07394924,-0.023388915,0.060442172,-0.055184208,0.0008796528,0.07584285,-0.06526734,0.05045823,0.0036305934,0.07399822
-0.06617379,0.054011934,0.06835175,0.071282886,-0.028265588,0.07557576,-0.012973927,0.0017139763,0.037345357,0.030169025
0.017385148,-0.020654932,-0.061019562,-0.057098314,-0.07509333,-0.016732357,-0.008806936,-0.067341775,-0.046769418,-0.030073062
0.013654761,0.064407684,-0.07627976,-0.07954403,-0.07897659,-0.073669426,-0.030018594,-0.055070177,-0.049960528,0.061871774
0.20953095,-0.011791475,0.34742767,-0.08380118,0.03142016,-0.021197587,0.0442525,-0.06711382,-0.23272234,-0.03145166
0.40217918,0.3876529,0.26372287,-0.06940153,0.19644645,0.06652803,0.22150429,0.22905561,-0.0055702273,-0.3344586
0.1035012,0.1266648,0.22838566,-0.05246869,0.077199906,0.15751599,-0.026146473,0.28600964,0.00054231647,-0.2915244
0.18750493,-0.07590791,0.5007275,-0.14494412,0.22542223,-0.04648851,-0.41540766,0.21916567,0.24620993,-0.22218628
-0.015163012,-0.49838725,0.4622959,-0.25079677,0.561888,0.05477152,-0.03070758,-0.11919536,0.5436839,-0.13731281
0.1489803,-0.48109072,0.5475468,-0.49916497,0.6100684,0.055136997,-0.25342548,0.041137774,0.7613851,-0.3254887
-0.0284668,-0.21910085,0.5719404,-0.5196825,0.51281697,-0.034039408,-0.18019466,-0.02055376,0.9424224,-0.3186497
0.033666737,-0.09022712,0.08459531,-0.54386324,0.33488265,-0.005126916,-0.03128035,0.12853523,0.96418136,0.08550261
0.004448897,-0.11673464,0.2911425,-0.4329605,0.23993047,-0.17126839,-0.28917086,0.116411105,1.017872,0.18327785
0.111998305,-0.18268014,0.32023048,-0.55487543,0.1001228,-0.16861925,0.01798144,0.3918369,0.83526087,-0.1809413
-0.082442366,-0.24618886,0.22931819,-0.7857844,0.27745944,0.042894214,0.015818994,0.1823246,0.9936068,-0.061312035
0.029257243,-0.23249415,0.2563152,-0.8374184,0.44878918,-0.31528053,-0.31169927,-0.19068913,1.3998625,0.09448599
-0.021013753,-0.5202088,0.07524804,-1.0047886,0.32365188,-0.16464418,-0.08261183,-0.26143837,0.8458995,-0.10573771
0.05649258,-0.403524,-0.02204091,-0.6766722,0.33115262,-0.01675184,-0.12979537,-0.16371807,0.9878296,0.14544767
-0.08660336,-0.30334613,0.15798554,-0.47866014,0.034514356,-0.22892047,-0.50595975,-0.14730051,1.0239271,0.2062772
-0.0872696,-0.23373342,0.17986253,-0.660737,0.33785343,0.13931012,-0.13817343,-0.104391724,0.8411454,-0.49649146
-0.0045589786,-0.050033845,0.088798076,-0.41907704,0.11033148,0.41752276,0.07200757,0.17092991,0.87298155,-0.57456243
0.23381455,-0.03733118,0.14364564,-0.58345604,0.048846975,0.16041239,0.30180797,0.19883728,0.9429255,-0.1572845
-0.14578956,-0.28116435,-0.060656656,-0.49354142,0.24593227,0.39089108,0.39417395,0.14807233,0.5271593,-0.21755989
-0.3693346,-0.05621758,-0.26935837,-0.2956932,0.37000287,0.41539338,0.42135987,0.013421287,0.23568477,0.01129987
-0.01550628,-0.008488003,0.23811509,-0.2544824,0.031861592,-0.058110274,0.018110292,-0.03431758,0.44382113,0.21116579
-0.19451855,0.03132076,0.2265676,-0.04739201,-0.30805415,0.1350492,-0.07135289,0.10726129,-0.35332167,0.15689367
-0.24656574,-0.094640695,-0.107496984,0.011984572,0.2471359,-0.032312125,0.037714966,-0.07620919,0.0059040342,0.03022065
-0.06645313,-0.067491226,-0.044039223,0.0038966238,-0.0096578,-0.012224205,-0.021065645,-0.03970239,-6.980449e-05,0.018937387
0.07317879,0.058135547,0.044130974,-0.085090056,-0.07528861,0.054752,-0.015351355,0.08015836,0.024273977,-0.01762855
-0.06339763,-0.058217265,0.06990529,0.011493795,-0.0788507,-0.08624016,0.0733804,0.05598683,-0.04839059,-0.05932237
0.046593122,-0.012743667,-0.038138192,-0.07326366,-0.011243738,0.055920146,-0.0360845,-0.036552545,-0.016943112,0.03556808
-0.083808474,0.015306726,0.023263939,-0.05247677,-0.0071881115,0.06895948,-0.058074877,-0.056813024,0.064773165,0.052915536
-0.07055962,-0.016889498,-0.058993578,-0.0059287846,-0.07344401,-0.021596618,0.02663733,0.01619038,0.07047375,0.07757082
-0.2059074,0.09759787,0.13531385,-0.091991894,0.23211141,0.037004642,0.0018580508,0.058086775,0.20329906,0.1229056
-0.10574293,0.030060738,0.028361257,-0.06663816,0.38322222,0.054097008,0.1458526,0.026953224,0.20133348,0.12493838
-0.2784008,-0.13175982,0.06102929,0.10313441,0.5377858,0.154619,0.051287983,-0.12675758,0.3597893,0.2223916
-0.4226914,-0.112426914,0.03775832,0.14324239,0.46740153,0.118205726,0.07434944,-0.10001295,0.5439242,0.07573433
-0.58366287,-0.12673487,0.017832385,-0.08620791,0.5966472,0.020788586,0.07319254,0.046535816,0.44934997,-0.021893034
-0.16076146,-0.06241056,0.48161557,-0.03472688,0.3321885,0.04292426,0.06043756,-0.019785976,0.630952,0.076018415
-0.2827672,-0.19542333,0.24979204,0.053142656,0.3320988,0.04184552,0.09479411,-0.05635753,0.30640957,0.44755882
0.013931043,-0.13983299,0.25790733,0.045682963,0.14441235,0.13936515,0.027569907,-0.04444,0.16551152,0.5405021
0.13595773,-0.17139266,0.3323891,0.017539093,0.02995171,0.08712692,-0.0491761,-0.03176632,0.3540104,0.43167767
-0.534396,-0.27063203,0.11275906,-0.18737431,0.8154484,-0.006957312,-0.06478609,-0.022632588,0.6896059,0.3351953
-0.08953203,-0.2044906,0.59456754,-0.3563236,0.6273153,-0.24546427,-0.039977174,-0.054895725,1.2569542,0.46885663
-0.105218306,-0.25052738,0.7046499,-0.4373723,0.518305,-0.067189544,-0.21680138,-0.13490713,0.8814604,0.38741112
-0.2522703,-0.083601125,0.39445633,-0.1915154,0.50792223,0.011867513,0.10710073,-0.00037508982,0.7727914,0.34703353
-0.305043,-0.087662116,0.20795105,-0.04794613,1.0162468,-0.20329903,0.086623006,-0.043875236,0.62751603,-0.121949494
-0.26926106,0.037729867,0.11451782,-0.066254914,0.78230053,-0.049526975,-0.0012337215,0.03289271,0.46531248,-0.14706169
-0.24576199,0.011611499,0.10134444,-0.06307448,0.63662,-0.113025464,0.007301533,-0.05190378,0.5125261,-0.14440128
0.24982843,-0.007763512,0.5301797,-0.17122832,0.009747044,0.05071972,-0.12450541,0.0701125,0.13030928,-0.021088261
-0.11732969,-0.010278799,0.17795746,-0.4309926,0.14749528,0.35213736,-0.055006992,0.036483686,-0.050472215,-0.07440733
-0.27299088,-0.020712975,0.27995822,-0.31497893,0.13461402,0.35287058,-0.06578441,0.03247497,0.09744231,-0.06491832
-0.38060138,-0.076870725,-0.007938728,-0.3325407,0.3289319,0.19125973,0.050227426,-0.06219819,0.16248806,0.028511576
-0.05720225,0.075221024,-0.07188015,-0.07324677,-0.08340024,0.06819723,0.028749175,-0.05190541,0.0076388046,-0.017634891
-0.007484816,-0.07394161,0.023275219,-0.036916982,0.08530138,0.06454528,0.07272961,-0.064950034,-0.0237175,0.08238242
-0.016848981,-0.0184642,0.049977683,0.018224366,0.083061896,-0.059422866,-0.051442772,0.016872562,-0.056019112,0.062064506
-0.07498017,-0.042792585,0.01659055,0.036040664,0.08424645,-0.07428831,0.057766415,-0.01017271,-0.059060603,-0.01578319
Biases
0.16532576,0.13448423,0.49361387,-0.25166047,0.78455514,-0.30271775,-0.15996669,0.008455107,0.4747147,0.22188069

Layer,dense_16
Weights
0.71309054,-0.43292576,0.029194668
0.963031,0.2506826,-0.154943
0.96839786,-0.2746881,1.7119795
1.8536714,-1.4009426,-0.58965576
0.1852255,1.1982416,1.4673423
-1.1609211,-0.7032912,0.16904262
-0.46688476,0.5641782,-0.9831965
1.1819403,2.3256502,0.9890844
0.5705923,1.028782,0.41226965
-0.45935383,0.6938202,0.6050033
Biases
0.20538472,0.48635888,0.37248114

Layer,dense_17
Weights
1.1903572,-2.2644606,-0.06838218,-0.66020155,0.535886,0.42903236,-0.945746,-0.7134196,0.58674467,0.48367897
-0.8214658,0.39142472,0.5110523,0.84530145,-1.7131659,0.11352634,-1.409952,-0.19950354,-0.03982964,-0.55079603
-0.9827649,0.40540567,-0.4065203,-1.0865127,0.4428821,-1.7924535,0.7114604,0.81191975,-0.5237861,0.25664106
Biases
-0.8460656,0.23380134,-2.51992,0.5914675,0.06112951,3.273803,3.602191,-2.701804,0.15732679,-1.9850249

