Layer,dense_21
Weights
0.07485466,-0.055896834,-0.07678142,0.06606041,0.06391333,0.080225244,-0.07283194,-0.07343673
-0.08030875,-0.086731955,0.012277149,0.039616913,0.033237644,0.041039616,0.015185766,0.05692929
-0.0019421503,0.026666299,0.057649568,-0.02867597,-0.01392819,0.010738656,-0.07283871,-0.046985608
0.044679925,-0.006774716,-0.046178866,0.027937956,0.045415744,0.067189425,0.031029172,0.07254456
-0.08323538,0.08563639,0.0039504766,-0.01951994,0.027979001,-0.029123481,-0.024867147,0.037647292
0.021066204,-0.024593309,-0.07007056,0.06323542,-0.07694781,-0.025976717,-0.07054465,0.06589329
0.00025379658,0.07197587,0.0673784,-0.008224301,0.05555126,-0.08054144,0.01321058,-0.050635267
-0.033222973,-0.048728727,-0.056752697,0.014290057,-0.0057081655,-0.055347245,-0.06101185,0.02820412
0.008426778,0.00021973997,-0.058393694,0.07652517,0.054227218,0.04363799,-0.086435825,0.005359471
0.012726918,0.010693029,-0.07884024,-0.07073123,0.05583118,-0.014416374,-0.08542844,-0.025418475
0.064822674,0.029466152,-0.039141227,-0.056968015,0.06337406,0.061542764,0.036851905,0.05532986
0.08019395,0.06581862,-0.07953145,0.042236477,0.07540858,-0.086864285,0.060356528,0.024942063
0.24493685,0.24666923,-0.18554838,0.014394037,-0.05908909,0.27456516,0.069337025,-0.22501741
0.1195065,0.32087442,-0.22652352,-0.10818046,-0.094058104,0.38636467,0.0074867904,-0.069854155
-0.18481694,-0.12895884,-0.045771137,-0.003536849,-0.055336125,0.31107163,0.009000853,0.30676243
-0.14710277,-0.021380484,-0.029507946,0.0661431,0.031590335,0.16569643,-0.026130468,0.16334383
0.07150291,-0.019698814,-0.010920629,0.02014552,-0.014733583,-0.06869798,-0.017983481,-0.059795782
0.03908308,-0.03526,-0.077612296,-0.018984132,-0.027466085,-0.076960534,-0.07782737,0.022269636
0.06253734,-0.0715432,0.020553477,0.064092234,0.07168844,0.008915685,-0.050357692,0.08689883
-0.06695013,0.048687354,-0.083615676,-0.02204357,0.0054654703,0.031304397,-0.07467982,-0.039794635
0.0031702146,0.033836536,0.021064274,0.0042479336,-0.062154543,-0.026822638,-0.028740134,-0.033255387
-0.08266151,0.052502677,-0.017911434,-0.08624547,0.05953102,-0.035711203,0.00797651,-0.043650046
-0.0063975975,-0.08395617,-0.07606524,0.07031496,0.08686055,-0.0031219646,0.068859726,0.039954573
0.046380684,-0.038080007,-0.01092872,0.014281243,-0.07232025,-0.069633424,-0.060172986,-0.082607225
0.0319262,0.065813124,-0.06049551,0.0811701,-0.08389229,0.041427538,-0.074109375,0.009441473
-0.056233674,0.020933338,0.08545461,0.010407522,-0.05468832,-0.0772203,0.0069144964,-0.05129897
0.03396406,-0.017849676,0.043367803,-0.011994697,-0.024498738,0.011925384,-0.020886704,-0.05110658
-0.04737653,-0.013257973,0.07252534,0.08254734,0.047196597,0.017508082,-0.0017498881,0.031064905
-0.07562211,-0.07366297,-0.03797484,-0.036095917,0.047570348,0.083129436,0.032433286,0.004595518
0.06754722,0.034950674,-0.0679525,-0.033407394,0.013716735,0.018569328,0.061026976,0.03515587
-0.050339952,-0.0375834,-0.03414082,0.042794555,-0.0281953,-0.07511313,-0.06726967,-0.084403515
-0.08168222,0.071564645,-0.08690432,-0.035793692,0.048144057,-0.07857661,0.08519623,-0.03347772
0.18288992,0.106806904,0.13420066,-0.015563511,-0.04459941,-0.029018322,-0.04378624,-0.10947952
0.29474196,0.17588918,0.15396748,-0.15297443,-0.08526624,0.012673599,-0.076295815,-0.1706823
0.43159753,0.45028985,-0.12123702,-0.2774516,-0.42751428,-0.015254724,-0.081398316,-0.22724
0.43523577,0.4899005,0.39055675,-0.43889362,-0.31451643,-0.23218466,-0.14615516,-0.20950821
0.34187,0.46269885,0.43430588,-0.3208377,-0.21280316,-0.08707254,-0.12591624,-0.09359058
0.3359073,0.4993131,0.467933,-0.47968802,-0.2541116,-0.23959191,-0.2768711,-0.28605244
0.38271618,0.39133453,0.67697924,-0.39446074,-0.21564525,0.23673911,-0.21488586,-0.05196617
0.10350586,0.5382091,0.117100805,-0.124117576,-0.08947029,0.17467023,-0.0681468,-0.49388427
0.18521567,0.75600344,0.101526804,-0.111240454,-0.2237612,0.09176086,-0.15679927,-0.5579616
0.22385307,0.5966959,0.08994361,-0.022390805,-0.35152906,-0.028937144,0.042950258,-0.53621095
-0.013645077,0.054151554,-0.03746957,-0.030001095,-0.3920797,-0.23752463,0.45944682,0.12648852
0.44044992,0.33213738,-0.42876065,-0.30469447,-0.06518958,0.15586445,-0.06660446,-0.0045896973
0.08968021,0.4891559,-0.5865561,-0.27049178,0.09674617,0.4457465,-0.5789632,0.20668224
0.22959723,0.54521364,0.0049693896,-0.38690895,0.15578817,0.174365,-0.53396595,-0.15920188
0.63514805,0.66167533,0.5514871,-0.75811785,-0.14598283,-0.11504586,0.18999334,-0.55045843
0.6728214,0.56667304,0.33152673,-0.5177002,-0.06439888,-0.32675117,0.21738814,-0.39599946
0.48323995,0.534017,-0.21846566,-0.47517797,-0.025066659,-0.05963018,0.035448126,-0.33382764
0.35650992,0.37564015,-0.12285032,-0.4270447,-0.097299375,-0.09942123,0.031974133,-0.45980746
0.2855789,0.34024304,-0.29512677,-0.25929305,-0.045124415,0.13379154,0.17407933,-0.34986666
0.32575977,0.28574693,-0.32614398,-0.43364057,-0.06513096,0.08447224,0.10461505,-0.38707638
0.0007927567,-0.08260042,0.020513445,0.0038008988,-0.056664377,0.038865,0.05355671,-0.022864856
0.053944305,-0.009747207,-0.085986495,0.037020512,0.077011704,0.06102173,-0.006181009,-0.05923648
-0.066776626,-0.036911085,-0.009682111,0.04836385,-0.051930025,-0.036076102,-0.024650853,0.06687887
0.0034676492,0.0036570504,-0.010244936,-0.051966198,0.04682997,0.055294663,0.080555245,-0.052785702
-0.046331286,-0.034060013,0.03309857,-0.04505367,0.0045014545,0.027440041,0.06205477,-0.04737597
-0.013348453,0.008846767,0.0014668927,0.05780758,0.051428646,0.04469654,-0.07847416,0.063009575
0.13207853,0.10491384,-0.053642187,-0.21253924,-0.0071434537,0.09188127,-0.02361466,-0.11822806
0.38057777,0.3148273,-0.2604435,0.09805141,0.32009676,-0.075824045,-0.009570092,-0.32222962
0.5006328,0.39966217,-0.09644364,-0.1845739,0.3356295,-0.16990842,0.029897608,-0.42352715
0.31442893,0.449222,0.19931827,-0.26702383,-0.3453427,-0.36194333,-0.051666968,-0.15050872
-0.0767408,0.1218767,0.21131267,-0.12163446,-0.24443947,0.092151,-0.12544735,0.16618414
0.18444623,0.5897413,0.23348027,-0.22648819,-0.2602675,0.10865541,-0.18709764,-0.055845354
0.21924418,0.7552974,0.13097967,-0.6598596,-0.17908362,0.028632523,-0.4017595,0.18106362
0.20376296,0.60555613,-0.16837236,-1.184222,-0.11624917,-0.025814753,-0.45407617,0.3998486
0.5141771,0.5962011,-0.10280298,-1.286879,-0.011039377,0.11255275,-0.6025222,0.23182835
0.51305735,0.7392645,0.021255964,-1.2004495,-0.03503414,0.23740567,-0.6085388,0.37075436
0.45686048,0.3722592,0.100341484,-1.0380101,-0.1534852,0.21209803,-0.4249883,0.3745226
0.24296321,-0.10839374,0.18069176,-0.723145,-0.0009053878,-0.044011157,-0.17549597,0.30372506
0.26386335,0.0501821,0.20468317,-0.5489405,-0.35180247,-0.20199753,0.025259895,0.5883741
0.32360128,-0.13259886,0.19629808,-0.96005225,-0.3171475,-0.13788706,0.31861696,0.24168587
0.14762747,0.047377378,0.0843117,-0.7871593,-0.22201511,-0.024896326,0.16886069,0.08822363
0.09127018,0.13228293,0.13234933,-0.68335986,-0.10003491,0.11132856,-0.0065963273,0.008936856
0.18398848,0.3416047,0.002035473,-0.5587589,0.039962955,0.13217095,0.2600078,0.08300934
0.19359125,0.35304233,0.32804132,-0.81654096,0.3933739,-0.008814385,0.60625255,-0.0811584
0.36304256,0.46055886,0.20471258,-0.7322868,0.34003708,-0.24631895,0.40645966,0.11229411
0.319504,0.7017194,0.2210353,-0.4385658,-0.13529186,-0.324373,0.09083388,0.2794756
0.35357454,0.5504605,0.5348593,-0.29893777,-0.15904707,-0.42018324,0.12308588,0.12214511
0.34149688,0.6234233,-0.1235419,-0.61792034,0.106633745,-0.021710329,-0.25955868,0.20492241
0.038760703,0.20984252,-0.3220027,-0.23031017,0.08961596,0.23641942,-0.27502835,0.3603774
-0.046726916,0.03820308,-0.309445,-0.11790295,0.030380204,0.3277725,-0.03377554,0.2621532
-0.08442783,0.06471644,4.0963292e-05,0.062408835,0.0013770014,0.06805132,0.071447924,-0.00043176115
-0.016481377,-0.04850079,-0.0009467304,0.04298255,-0.0065486655,0.014369249,-0.017870449,-0.030276362
-0.050284687,-0.023887753,0.02971609,0.019437328,-0.04906312,0.06791994,-0.04691356,0.046720237
-0.01468768,-0.044781324,-0.01032979,0.021573298,0.009265147,0.05495186,-0.052645836,-0.032309465
-0.17919336,-0.07731094,-0.23077965,-0.2716225,0.039580368,0.030098729,0.24863462,0.19267789
0.27598312,0.46186122,-0.32234892,-0.22060601,0.094694175,0.38420147,0.18195628,-0.42226028
-0.13315523,0.03230576,0.23276581,-0.20188092,0.23776075,-0.008893053,0.14326735,-0.29281354
0.46283355,-0.18937828,0.025290815,-0.3298887,0.4091047,0.25666222,-0.26958275,-0.08190736
0.537113,0.027764885,0.23468119,-0.5904833,0.18806669,-0.07337629,-0.23786408,-0.260339
0.34977219,0.18187165,0.32597938,-0.51406264,0.15162879,-0.18728125,0.00045465183,0.08801536
0.41121942,0.17866811,0.09851217,-0.6076233,0.26789206,-0.017480163,-0.660386,-0.23376113
0.4355325,0.39535394,-0.05147119,-0.8228405,0.11874437,0.010545129,-0.6946237,-0.0341658
0.21014747,0.3138007,0.13671346,-0.4197336,0.37219834,0.32662353,-0.7116976,-0.0977427
0.25616363,0.35940176,0.01954373,-0.306243,0.2983403,0.4772723,-0.65106535,-0.000545674
0.38135263,0.17702723,-0.18661015,-0.5625168,0.17228122,0.73332345,-0.27750415,-0.024532245
0.40988487,0.25358978,-0.2164906,-0.4886719,-0.25957683,0.46738008,-0.31204715,-0.045222033
0.33062,0.1342987,-0.13283576,-0.26731208,-0.20199029,0.46512705,-0.34829885,-0.13518642
0.20697999,0.12363592,-0.006657504,-0.23582916,-0.29447857,0.38455138,-0.25453052,-0.10918844
0.15508285,0.18850258,-0.27412957,-0.21199976,-0.16644156,0.25638503,-0.25659868,0.0076217656
0.027625045,0.18477638,0.0014765167,-0.08857887,-0.1990913,0.31419474,-0.18244025,-0.09891356
0.17790578,0.07241645,0.12034895,-0.24285346,-0.17571491,0.42346072,-0.17764482,-0.19063954
0.19290146,0.0945186,0.11260133,-0.24794833,-0.17747153,0.13408922,-0.056153283,-0.11080674
0.1556544,0.040749002,0.12052383,-0.24931505,0.2719024,0.25761065,0.027562488,-0.20982075
0.14234504,0.24325897,0.27114952,-0.053369578,-0.1344086,0.051192593,0.004470999,0.034495737
0.021400651,0.28369346,0.6123842,-0.08544,-0.42569035,-0.042275768,-0.011565348,-0.053745907
-0.063670985,0.4811684,0.67175835,-0.017893482,-0.2576796,-0.11237404,-0.12110433,0.034670763
-0.40666354,0.4332855,0.16403751,-0.028851418,0.31945738,-0.037459902,-0.2833608,0.022755913
-0.28906265,0.23877217,-0.29997727,0.11101374,0.26960778,0.23867464,-0.15020844,0.062693164
-0.12766993,0.34444895,0.4342593,-0.058329843,-0.023961043,-0.23260456,-0.13051881,-0.10728276
-0.058300212,-0.03273309,-0.076198675,0.035837665,-0.081131764,0.05549541,0.034736186,-0.07950672
0.053734362,-0.05545962,0.029341519,-0.07441282,0.07164754,0.050832406,0.068391934,0.061293602
0.06383495,-0.17312351,-0.053307593,-0.0072004125,0.26885468,0.22878128,0.079338044,-0.09716131
-0.2198502,-0.40024108,0.043037444,0.27113158,0.33232763,0.3920615,0.2746741,-0.025653781
0.2869502,-0.0025621678,-0.19609006,-0.26277307,0.18496828,0.5551521,-0.04285029,-0.42563325
0.13781986,-0.34649917,0.38319963,-0.27997336,0.43820715,-0.15567799,0.10774475,0.0023866752
0.2015743,-0.22662377,0.19723196,-0.69517255,0.016537227,0.19802721,-0.5511388,0.37568888
0.15759152,-0.16133977,-0.11751145,-0.59956807,0.10314362,0.086817645,-0.283044,0.35525408
-0.07425823,-0.09920313,0.1747111,0.079703584,0.1721334,0.08710911,-0.47480673,0.15984097
0.031063752,-0.1800851,-0.00224196,-0.17213976,0.11030512,0.13795456,-0.6093043,0.29271635
0.02528447,-0.04348288,-0.18210675,-0.048494194,0.08463435,0.26786295,-0.58009,0.12098144
0.05074722,-0.019391714,0.07724166,-0.13502325,0.18939787,0.40821877,-0.52104795,0.034999575
-0.21653245,0.07695813,0.019218458,-0.094541505,0.22324342,0.49039316,-0.55804807,0.0050360467
-0.2124425,-0.03683799,0.0015180755,0.048250884,-0.07860123,0.43804723,-0.33983222,0.06733105
-0.114176914,-0.10265233,-0.092329,-0.03474612,-0.028778361,0.20793667,-0.052345533,0.1592809
-0.18894559,-0.0002625009,-0.11921492,-0.088764414,-0.26376384,0.4291866,-0.095266975,0.09056241
-0.37976113,0.017897282,-0.11927431,-0.06580356,-0.12467267,0.43310443,-0.21465398,-0.23444054
-0.19467783,-0.022853998,-0.046513584,-0.15064643,-0.35189345,0.36767825,-0.20819029,-0.05058997
-0.09218241,0.16947639,0.06267234,-0.04719895,-0.22590208,0.22948705,-0.23539063,-0.19274634
-0.15084164,0.03369744,-0.04924087,-0.050858423,-0.041347004,0.41744617,-0.013020066,-0.13136189
0.023776436,-0.08633001,0.0604916,-0.031267717,-0.25034034,-0.038598027,0.04197644,-0.046401378
-0.035399336,-0.039707452,0.10661654,0.021616908,-0.23887262,-0.11459297,-0.06176706,0.07931462
-0.16473873,-0.06695538,0.30841655,-0.027502568,-0.14891163,-0.21593729,-0.08766754,-0.028713454
-0.197416,0.03362138,0.26860383,-0.102007836,0.008372325,-0.17170672,-0.325068,-0.035656013
-0.58256245,0.42139447,0.6767335,0.03596561,-0.12361107,-0.4814147,-0.23974887,-0.09627834
-0.73109853,-0.1326728,0.6878824,0.46559367,0.16601272,-0.040819433,-0.3453216,-0.45441478
-0.21367908,-0.10535888,0.2701193,0.62817305,0.35074544,0.42845675,-0.53533083,-0.30127987
0.3915332,-0.28750685,-0.2551872,0.016104842,0.362111,0.5469744,-0.56693494,0.031996395
0.17646544,0.22643282,-0.071129635,-0.09444117,0.029895857,0.058399353,-0.39024597,0.19120249
-0.086110465,0.04038021,0.07211065,-0.032141626,0.0843523,0.04723619,0.02409444,0.0524631
0.01344613,0.023739167,0.023707792,-0.03649211,-0.07649995,0.05662945,-0.03939666,0.031058095
0.18852414,0.09844171,-0.20617545,-0.37780765,0.19112366,0.34229946,0.3919377,0.46156776
-0.38260064,-0.39725873,-0.22857991,-0.30716977,0.28758729,0.4946681,0.15066883,-0.0018261066
-0.07980416,-0.5127847,-0.062068492,-0.5332993,0.08595194,0.07258074,0.0826316,0.59633267
0.08268272,-0.7522168,-0.045855045,-0.23324226,0.3236505,0.028277334,0.10610227,0.20981641
-0.080587134,-0.2893811,-0.25949773,-0.16400236,0.13794911,-0.0021906237,-0.22185059,0.059319567
-0.004570154,-0.20607361,-0.05252352,-0.0104634715,0.06952837,0.014268799,-0.41467446,-0.014781157
0.13284564,0.01319686,-0.059959244,-0.013790309,0.18102515,-0.14492191,-0.79078317,-0.02601524
-0.016914787,-0.007359302,-0.05218527,0.11679045,0.12045822,0.022857781,-0.676345,0.0073124897
-0.123924844,0.12545219,0.13682482,-0.03448264,0.17855775,0.17942727,-0.5796171,-0.0032214387
-0.3190227,0.11652242,0.16625728,0.17287318,0.2750089,0.20867337,-0.30890512,0.20223683
-0.023447258,0.022655973,0.16965546,0.08353036,0.21307038,0.25745463,-0.12999354,0.24781132
-0.19629693,0.013003856,-0.025276313,0.16931447,0.20260118,0.31922224,-0.082956344,0.0977215
-0.07411695,0.14288549,0.0010930847,0.09679892,-0.014717339,0.27251634,0.008252584,0.089461826
-0.24155685,-0.12391435,-0.08839213,0.04612482,0.00014623327,0.23820956,-0.026941609,0.13327679
-0.119732976,0.032166332,-0.16974393,-0.027055236,-0.11532258,0.27678752,-0.2759033,-0.017010791
-0.17227206,0.12524438,-0.051250964,0.096057124,-0.15703982,0.27927163,-0.23285803,-0.22323869
-0.11913938,0.22836527,-0.098634705,-0.015963677,-0.091021,0.057632655,-0.18210088,-0.13025112
-0.050027896,0.07031447,-0.049125135,-0.10608793,-0.18696174,0.10731874,-0.16144991,0.007912492
-0.14909336,0.12970312,0.13683628,-0.06524113,-0.13105747,0.24537738,0.06922161,-0.061089013
-0.2236591,0.2005399,0.06683678,-0.18436626,-0.18291822,0.19320998,0.0092957,0.026932476
-0.472446,0.15395899,0.15205139,-0.18854377,-0.12097097,0.08197124,-0.015119974,-0.18169436
-0.7396026,0.28318265,0.24102291,-0.39968926,-0.19768053,-0.22814426,-0.088023156,0.0794314
-0.54949015,0.24984428,0.20496611,-0.36575493,0.18994433,0.09902096,-0.16923949,-0.031817507
-0.24515875,-0.006214383,0.39524338,0.44465175,0.4792636,0.49852824,-0.59490895,-0.009600664
0.121503204,0.2659542,0.80435675,-0.1114138,0.0064892834,0.26162672,-0.1597061,-0.14117628
-0.097793676,0.18111818,0.33845922,-0.2811514,0.20103754,-0.16119099,-0.1816823,0.34570488
-0.00057592243,-0.02798004,0.047198877,0.081778556,0.052351594,-0.054869648,-0.068489134,-0.04488691
0.13099742,-0.24522234,-0.13620245,-0.24931216,-0.10655499,0.32527843,-0.30076993,-0.24198775
0.48539323,0.0864503,0.100044854,0.2187754,0.64616525,0.08666257,-0.03148808,-0.38404742
0.3872086,-0.64528763,-0.49217054,0.02528141,0.558908,0.47582665,0.17821279,-0.12621903
-0.004138443,-0.29996055,0.12739106,-0.03977456,0.088711135,-0.056079697,0.37059006,0.24372117
-0.028922379,-0.30045813,0.05780668,0.096664794,-0.0275312,-0.1513248,-0.29163378,-0.0037835215
-0.07697036,-0.20948973,-0.16904342,-0.065792605,0.0977766,0.03918162,-0.27089036,-0.074079
0.02765541,0.03300369,-0.13006328,0.075441256,0.036617663,-0.12962086,-0.27678016,-0.07264972
0.21990304,-0.11534404,-0.11274108,0.007419901,0.09169913,-0.031507734,-0.42207396,-0.0890589
0.16253443,-0.15404378,0.053226434,-0.0036562767,0.17619596,0.14862731,-0.5503803,0.04333903
0.048711877,-0.018714273,-0.07591248,0.030405471,0.23321325,0.20617165,-0.08231523,-0.0027620425
0.14507025,-0.030444687,0.06690005,0.114285044,0.31401747,0.19299145,-0.0432067,-0.03772592
0.06472025,-0.05802898,0.05316199,0.10853855,0.22209226,0.17604226,0.10269791,0.14422902
-0.061333336,0.034375567,0.10802592,0.13719797,0.43423152,0.3163973,-0.09902118,0.15714207
0.030571999,0.1571418,0.12611684,0.140425,0.48415765,0.30873582,0.08783623,0.22861162
0.16823529,0.102579065,0.12251318,0.16924815,0.36270866,0.40071014,0.009157601,0.22953404
0.050047264,0.08435592,0.071342185,0.14173064,0.44288933,0.38184676,-0.08778534,0.16998161
-0.04087528,0.10600516,0.032099605,0.20796138,0.37536195,0.25568056,-0.0186781,0.20783396
-0.09362289,0.1269649,0.020665035,0.040405992,0.34819967,0.26626626,-0.046725873,0.048813026
-0.15229736,0.032631993,0.06750879,0.19437666,0.12637264,0.15514806,-0.024845958,-0.01021586
-0.11690785,0.021499878,0.061336324,0.006033452,0.09173879,0.15916836,0.06514568,-0.07501468
-0.005679319,-0.024518223,-0.16020851,0.17845549,0.14083566,0.024892319,-0.10659818,-0.20258987
-0.24744385,0.12172779,-0.17558008,0.07378595,-0.11119725,0.0357894,-0.032519683,-0.24759223
-0.6774399,-0.021668077,0.21635711,0.033191845,-0.42686346,0.011465256,0.088402554,-0.13312279
-0.5084176,0.19240917,0.48574302,-0.38835728,-0.18117873,0.27507195,-0.034950905,-0.25996032
-0.338692,0.28455848,0.99780804,0.044841733,-0.19923753,0.51414055,-0.43672827,-0.021357095
-0.45689365,-0.05479811,0.7295904,-0.15401612,-0.35209382,0.39335713,0.04447129,-0.08180262
-0.32779548,0.0850332,0.25310534,-0.22187576,0.4313966,-0.019399313,-0.10070059,0.1800782
0.13266721,0.010843016,0.04213413,0.15524283,0.10597002,-0.16606367,-0.031522103,-0.04428164
0.29158738,-0.2496836,-0.24203676,-0.56409794,0.08306627,0.5774392,-0.5469516,-0.45694882
0.3223251,0.36371928,-0.28415674,0.34141475,0.669734,-0.20884134,-0.13153408,-0.13226378
0.33576983,-0.4126488,-0.2643419,0.4926219,0.4103547,0.100710504,0.11198235,-0.2072508
0.13715085,-0.45113233,-0.28914914,-0.28194633,-0.13462935,0.08313776,0.32831633,0.4260681
-0.0128826415,-0.40325373,-0.048446067,-0.102729276,-0.28742567,0.056073267,-0.21944447,-0.038581263
0.12622482,-0.09079772,-0.2912151,0.041404083,0.13005035,-0.0014396064,-0.4046367,0.04756473
0.26034752,0.020989092,-0.08754228,0.08677745,-0.0054839244,-0.04695565,-0.44608667,-0.06900925
0.07492919,-0.058496196,0.016199369,0.043361604,-0.0036125216,0.116586044,-0.51631266,-0.11585464
0.13477089,-0.02151497,0.031490277,0.14884016,0.08969804,0.02066089,-0.28566563,-0.07299362
0.111777954,0.0791678,0.035986897,0.22940573,0.15517156,0.18183051,-0.122993,-0.0073847375
0.15947635,0.14552288,0.070983894,0.22225247,0.30070117,0.19560604,0.08066491,-0.025401158
0.20564413,0.059646007,0.025570769,0.10344407,0.501916,0.33169693,0.3453579,0.13142157
0.13833597,0.12700123,0.08885366,0.15047695,0.5382385,0.15818982,-0.037258185,0.25783843
0.01492402,0.17076996,0.17647162,0.007871266,0.51015306,0.29127103,0.007877973,0.22728011
0.20470084,0.11275985,0.3418516,0.2700614,0.55637515,0.36450362,-0.12724857,0.3507585
0.10157003,0.049404368,0.30588114,0.22296177,0.49536052,0.29269904,-0.08349772,0.2224807
0.042685572,0.017153883,0.14235695,0.24270517,0.4368452,0.13139415,0.08498028,-0.01283865
0.06298574,0.089913994,0.031427145,0.2603683,0.28288257,0.2593371,0.092812635,0.10786964
-0.10812229,-0.04062013,-0.051252995,0.1758997,0.20581608,0.14956744,0.17066889,0.0038137194
0.017444596,-0.18619622,-0.11029781,0.15131721,0.22317989,0.01014419,0.176685,-0.08349096
-0.011619197,0.035555873,-0.1342068,0.25684837,-0.02506732,0.10656939,0.28432733,-0.09402246
-0.09223617,-0.0242039,-0.11459535,0.111040145,-0.05052474,0.029809231,0.23112582,-0.007831267
-0.26421487,-0.21142693,0.16816865,0.37754917,-0.21499896,0.06402908,0.17961444,-0.36227506
-0.28508154,0.103327714,0.39360428,0.22199339,-0.412442,0.3768206,-0.035659328,-0.34046575
-0.57596374,0.3286033,0.8298409,0.062518455,-0.09887506,0.6014545,-0.002487021,-0.3305974
-0.46666762,-0.0011342682,0.6854403,-0.09074142,-0.042086527,0.20287618,0.14114907,0.04564683
-0.50150114,0.08906236,0.26618242,0.007277368,0.3036764,0.034884997,-0.23709635,-0.013151977
-0.28050786,0.31713432,-0.11194024,0.30549726,-0.21492372,0.07800446,-0.22003551,-0.23188108
0.5642856,0.10822358,-0.3069819,-0.16654885,0.34295285,0.30596712,-0.2902291,-0.31564724
0.28561133,0.09572446,-0.24291326,0.43584776,0.20726097,-0.22153471,-0.11567703,-0.011296065
0.4022923,-0.26559895,-0.27428395,0.34906495,0.026559226,0.3647359,-0.10954037,-0.19280012
0.38350582,-0.52991223,-0.35224137,-0.15492971,-0.2444096,0.13532668,0.1471737,0.23976414
0.11941732,-0.3008884,0.02516873,0.009097759,-0.23157153,-0.11449084,-0.040219907,-0.08911368
0.065275505,-0.18176408,-0.12526551,0.0408575,-0.021029769,0.025897149,-0.22476135,-0.026424121
0.2727989,-0.15618159,-0.19086054,0.26166582,-0.12931757,0.07404441,-0.11128101,-0.040484574
0.1787125,-0.10111008,0.00507336,0.27804914,0.13908234,-0.016294325,-0.18807001,-0.044933792
0.12829444,0.03186702,0.092943184,0.37547034,0.06946348,0.050335847,-0.14246574,-0.029672954
0.095565036,0.10985688,-0.012967076,0.23582847,0.17682752,0.21214642,-0.2002654,-0.022390237
0.100486256,0.09375837,0.035949603,0.24112493,0.18077195,0.1673455,0.103414565,-0.03699909
0.23168877,0.085955106,-0.037148602,0.24256834,0.25893274,0.41318074,0.2910604,0.09439167
0.13264258,-0.028362615,0.044892956,0.25074342,0.2877654,0.422314,0.41699123,0.28759414
0.25343725,0.2062425,0.083692476,0.07727604,0.5090794,0.29898733,0.24022868,0.14081441
0.15737164,0.09460962,-0.017642314,0.1015378,0.42600295,0.22134766,0.080837466,0.11586462
0.07356394,0.06377265,-0.012647984,0.2787322,0.33541012,0.31596202,-0.10865783,-0.030339712
0.01822201,0.018470252,-0.20808811,0.022622878,0.20895228,0.15093026,0.14016335,0.0036365867
-0.2082147,-0.2908298,-0.21874194,0.18760659,0.21229662,0.2243864,0.08463279,-0.08287002
-0.11419436,-0.14943086,-0.15902649,0.091319166,0.09671089,0.30031028,0.29504424,0.050779037
-0.11332231,-0.06959585,-0.17448337,0.092463896,0.003201826,0.19028307,0.26770678,-0.19903745
-0.14400682,-0.13807945,-0.042785246,0.08455286,0.12094232,0.13378815,0.21671021,-0.015536762
-0.038017474,-0.098001584,-0.1444175,-0.023361305,0.071263045,0.30328482,0.17519581,-0.12891641
-0.030147526,0.15652134,-0.16873193,0.28309873,-0.03325448,0.2790071,0.29428768,-0.44820794
-0.34577098,-0.0098428195,0.5559611,0.7130246,-0.16822429,0.6182394,0.63866204,-0.57877
-0.5899266,0.120668136,1.0440692,0.30302435,-0.4910846,0.58578855,0.4610597,-0.17613137
-0.58364516,-0.37407362,0.5776073,0.1136745,-0.3522981,0.5808827,0.29898047,0.21668524
-0.23897985,-0.4339209,-0.08094174,0.34553358,0.17388304,0.40071893,0.033580948,-0.2660569
0.32358333,-0.04421968,-0.0545361,0.2526124,0.25635606,-0.005810205,0.03498499,-0.18554355
0.5821269,-0.31824636,-0.30831635,0.4608836,0.5472297,0.24961512,0.074364394,-0.42988783
0.072684474,0.024037762,-0.21900687,0.10486434,0.24387595,0.110427886,-0.29568556,-0.024421861
0.23394568,-0.10367891,-0.6491969,0.03771259,0.10733557,0.38815582,-0.4080377,-0.06673302
0.30783686,-0.4956787,-0.3222094,-0.14369883,-0.1089353,0.3683915,-0.30400226,-0.0464811
0.11521253,-0.13529018,-0.24785486,0.098641135,-0.1287018,-0.11137321,-0.34630054,0.077709064
0.118603386,-0.13010886,0.05397501,0.09404633,0.10610678,0.030833978,-0.1964724,-0.029933162
0.1288208,-0.1754017,0.0033849212,0.007626156,-0.041011218,0.027355045,-0.12956412,0.01505553
0.16611657,-0.05491816,0.17152691,0.06482112,0.078857236,0.09520668,-0.29449466,-0.0505317
0.062297013,0.016400095,-0.02064333,0.20269717,0.025808258,0.09468898,-0.31991774,0.035594847
-0.028966695,0.14877178,0.0777573,0.24312022,0.13634981,0.09176426,-0.21488383,0.00963569
-0.0009940157,0.11897947,0.069574766,0.17868452,0.12773964,0.12583397,0.27546296,-0.016906679
0.14849968,0.12602854,-0.07887293,0.25382552,0.21339703,0.17061178,0.42590424,-0.018794755
0.064675726,0.07280789,-0.25436577,0.27579945,0.22365096,0.23476034,0.6102451,0.120542474
0.25350127,-0.054155514,-0.2599526,-0.00287085,0.40108705,0.19995977,0.41266167,0.14941566
0.069695264,-0.18544523,-0.38459066,-0.31562695,0.2897588,-0.046958473,0.23023953,0.08161167
-0.13066548,-0.20422477,-0.44097212,0.050651472,0.14485127,-0.037031323,-0.19725963,-0.07193703
-0.17758727,-0.2278138,-0.4199064,0.17376661,0.0966945,0.02374323,-0.026445433,-0.10938566
-0.17643254,-0.1272682,-0.26803967,0.24569593,0.119026415,-0.05873478,0.13053231,-0.07983071
-0.14748168,-0.2669738,-0.26409847,0.2553316,0.069736615,0.11104293,0.11396617,-0.070737325
-0.1282851,-0.20123936,-0.17398515,0.195414,0.07183419,0.14963809,0.053997807,-0.010160523
0.008409434,-0.16456784,-0.004323462,0.1504692,-0.050069667,0.2121469,0.41035795,-0.12361437
-0.073635295,-0.2893161,-0.19815768,0.0813268,0.1489111,0.33932915,0.3282836,0.08173946
0.009388966,0.06494735,-0.2143237,0.2977789,0.022127366,0.3875086,0.106075585,-0.16586226
-0.083715186,0.14343572,0.35714775,0.698019,-0.19817837,0.7628066,0.7887897,-0.89428407
-0.5371994,-0.22268371,0.65976673,0.2876534,-0.3956025,1.135149,0.51222986,-0.35023457
-0.34159175,-0.3017491,0.089125186,0.15651014,-0.7026305,0.94799304,0.3086062,-0.04113367
0.18646823,-0.21869889,-0.053871695,-0.067171216,0.115049765,-0.033542044,0.5093299,-0.40380087
0.30112693,-0.038144834,-0.08582179,0.27433473,0.2837817,0.0045978515,-0.078958176,-0.20486647
0.6998277,-0.28711197,-0.34178415,0.2187263,0.7598497,0.19552238,0.16175546,-0.41335377
0.16565566,0.06316863,-0.51851135,0.44746575,0.42676374,0.2342172,-0.033428673,-0.3407921
0.051427275,-0.0613912,-0.7835075,-0.06589281,0.05224743,0.5305557,-0.34285384,-0.14032763
0.08727285,-0.527271,-0.24937584,0.29659286,-0.27487698,0.2854195,-0.33413675,-0.2065147
0.16765495,0.05337774,-0.30918285,0.17748517,0.08046677,-0.045260422,-0.73478013,0.058277655
0.16084704,0.11339855,-0.18998833,0.0072721737,0.08280761,0.16088487,-0.4985027,0.17118675
0.13732111,-0.0113839945,0.15249953,0.2238991,0.06399323,0.05428482,-0.40148538,0.029075844
0.062485192,0.100700974,0.3493582,0.20185469,0.07381656,0.010241439,-0.21419646,-0.00093363965
0.09230477,0.1111908,0.3743173,0.42245185,0.18262054,-0.12545933,-0.42416278,-0.17399503
0.12718204,0.13638489,0.32323116,0.1836413,0.023680374,-0.08613831,-0.10111869,-0.08472191
-0.063573144,0.159751,0.095423155,0.23185207,0.024200281,-0.09916002,0.2524409,-0.011688588
-0.11056452,0.1903799,0.04823632,0.30355394,-0.09424275,-0.04960377,0.5051437,0.018230783
0.2181301,-0.027497398,-0.24904935,0.2566892,0.014714061,0.23891068,0.6311285,-0.09500795
0.1632042,-0.19688639,-0.50508785,-0.09428843,0.14056191,0.21041435,0.57631177,-0.13915187
-0.08770868,-0.44676068,-0.5534425,-0.23369716,-0.0755867,-0.26421383,0.47596964,-0.15868282
-0.04740088,-0.2928873,-0.52106875,-0.07700008,-0.03170653,-0.18627477,-0.0032329764,-0.17983943
-0.16745783,-0.18010803,-0.46358955,0.13039315,-0.0016914717,-0.08429255,-0.16173284,-0.100940555
-0.1004146,-0.28102776,-0.38271177,0.21217409,0.06607293,-0.06090255,-0.2108543,-0.03038943
-0.08239794,-0.24833065,-0.21295375,0.26345664,-0.02186625,-0.0073220907,-0.103031054,0.10791414
0.061961662,-0.15244883,-0.1693514,0.31254002,0.15593685,0.112484425,-0.19159764,-0.044876054
0.016729439,-0.081843615,-0.14464554,0.26096737,-0.0030060175,0.12147949,0.16468686,0.04898211
0.07697285,-0.26700556,-0.17902116,0.38006747,0.030371638,0.24287629,0.2401098,0.21452582
0.031709015,0.08822381,-0.029671011,0.21642646,-0.06379375,0.7132602,0.52525556,-0.119804345
-0.078057274,0.2758344,0.2826665,0.21393423,-0.36012387,0.8516261,1.0186037,-1.1302818
-0.5530897,0.023412047,0.5748523,-0.10339379,-0.116225585,0.84452385,0.7928333,-0.6791213
-0.3796556,-0.010832319,0.08945417,-0.25494266,-0.19682692,0.8977141,0.24406607,-0.30120656
0.15819342,-0.5838511,-0.3851764,0.23813827,0.045858316,0.20451345,-0.07715362,-0.25851315
0.26867956,-0.0985719,-0.0969087,0.28624502,0.33240238,-0.1506764,0.010019726,-0.28890288
0.34307602,0.24419616,-0.49377304,0.6169794,0.21051183,0.15031916,-0.085345894,-0.28904626
0.5298325,-0.15823957,-0.5363327,0.5342922,0.21942736,0.058014102,0.3915228,-0.29280105
0.31223488,-0.06787086,-0.6716065,0.07651352,-0.090849966,0.35739848,0.0409077,-0.15632585
0.2629998,-0.34579092,0.00112719,0.03027418,-0.07050466,0.17020011,-0.19122146,-0.061175212
0.21269819,-0.0017650615,0.22487348,0.040961552,-0.035056483,-0.05922302,-0.67596215,0.194165
0.092501715,0.2496644,0.32125437,0.27940762,0.14637569,0.038826056,-0.66169137,0.03333093
0.25476834,0.07969977,0.34539455,0.4168576,0.096473664,-0.06392081,-0.43984985,-0.0490663
0.124409705,0.06626348,0.47734928,0.36274466,0.109907225,-0.086923465,-0.18811442,-0.03134134
0.20988892,0.008669644,0.46484497,0.4020456,0.053643897,-0.19362962,-0.40859893,-0.06680493
0.22900443,-0.11853902,0.48755917,0.28523737,-0.060727607,-0.29302308,-0.17807816,-0.07005074
0.039046187,-0.07088174,0.3411075,0.3231809,0.03686035,-0.18270603,-0.010862233,-0.16270202
0.014069696,-0.1975021,0.34501225,0.27419075,-0.103500135,-0.21488671,0.13344169,0.06939159
0.28005993,-0.15364629,0.08303501,0.16356608,0.028601397,0.26982027,0.27522025,-0.2994677
0.116442084,-0.47115266,-0.09473711,-0.04515817,-0.1443047,0.23015107,0.37455785,-0.12958395
-0.126726,-0.7166312,-0.18846333,-0.20143527,-0.0065029804,-0.39097044,0.39766383,-0.06900655
0.03273275,-0.5266665,-0.11274468,-0.066955656,-0.027858468,-0.48990446,0.057228025,-0.08045945
-0.06382162,-0.4242992,-0.059734173,0.027977822,0.20702796,-0.24989621,-0.19156179,-0.117108285
0.152379,-0.29665306,-0.093231045,0.033346176,0.14250948,-0.18283075,-0.25889453,0.066958144
0.00951028,-0.027132295,-0.15361305,0.106838055,0.1256935,-0.059492543,-0.27245286,0.19533437
0.19225582,-0.14129858,0.044032056,0.14469118,0.31251436,-0.063807346,-0.4026474,0.22009698
0.1830008,0.21858343,0.032161452,0.31956434,0.19523662,-0.17285284,-0.13943745,0.2931391
0.30098763,0.0051241685,0.20566022,0.37843752,0.17778309,-0.011593068,-0.05478279,0.35168377
0.31242552,0.26165962,0.11254034,0.11985974,0.10067495,0.39161587,0.4743772,-0.1870766
0.058105353,0.15844713,0.06529388,-0.045554325,-0.20729646,1.0354235,0.70349604,-0.84430295
-0.6828124,-0.27393124,0.20803009,-0.1900826,-0.025763595,1.0987457,0.614965,-0.8325682
-0.86043876,-0.4619778,0.13819024,0.42910415,0.23107122,0.99693424,-0.038195718,-0.469752
0.15796973,-0.2238004,-0.31999758,0.020985931,0.25804612,0.40656477,-0.047310796,-0.49147516
0.2545936,0.032085545,-0.107056715,0.15861705,0.17918585,-0.05938874,-0.04296524,-0.11070995
0.5783977,0.008344975,-0.59251374,0.55509937,0.14913113,0.06012064,-0.09514135,-0.1517876
0.55033773,0.21716598,-0.6006843,0.76990664,0.19915706,-0.08585262,0.25898325,-0.17578046
0.50049466,0.03261396,-0.6498455,0.23994963,0.06854084,-0.049379308,0.40831155,-0.20589595
0.3408777,-0.16187906,0.10397738,0.049769226,0.17782392,-0.04172708,0.12821011,-0.020262782
0.23318179,-0.11204721,0.33187166,0.16210204,0.18576464,0.08959395,-0.6067369,0.16620381
0.14964528,0.14572164,0.54611236,0.31388366,0.27807438,-0.06626703,-0.26021072,-0.20901477
0.22727245,0.015126654,0.42817208,0.34844404,0.16856828,-0.14140506,-0.18709837,-0.036181085
0.22468573,-0.061484452,0.2919817,0.24033287,0.16868713,-0.24599396,-0.20426503,-0.044370417
-0.028404547,-0.0404207,0.22976017,0.1810074,0.06916678,-0.10106635,-0.1527089,0.19161113
-0.1222712,-0.15923373,0.26083678,0.045000132,0.13501936,-0.16855611,-0.13318823,-0.124882594
-0.026687019,-0.058048766,0.3168288,0.11796604,-0.100163475,-0.31431144,-0.0349563,-0.1744847
-0.24256879,0.043990314,0.35155922,0.08083311,-0.2421937,-0.020222154,-0.1954532,-0.12898152
-0.19336432,-0.1023951,0.24722771,0.09690446,-0.23719196,0.1555526,0.10578784,0.064375095
0.0614608,-0.5287133,0.024240214,-0.31083384,-0.056565598,0.30465528,0.43506256,0.2101174
0.055268362,-0.6147717,0.0003035576,-0.16360325,0.02132896,-0.22173284,0.28504285,0.06052421
0.23543759,-0.5066047,0.09116811,-0.03645255,0.029677317,-0.30718413,-0.13940908,0.09289951
0.22916983,-0.28779027,0.15637355,0.06884579,0.1341888,-0.16847317,-0.19173135,0.035082463
0.12742941,-0.20509684,0.08680732,0.02768416,0.19374362,-0.16703148,-0.24143389,0.056197513
-0.033446886,-0.15888758,0.099877775,0.122060485,0.21563913,-0.12618934,-0.32380912,0.2695857
0.11125196,-0.13583197,0.1968992,0.27646795,0.29197827,-0.05090704,-0.54473,0.32919073
0.29186505,-0.03489046,0.32603127,0.43959594,0.03751403,-0.20960557,-0.6720128,0.5475841
0.47464907,0.14091691,0.31139064,0.5155665,0.22816657,-0.390205,-1.0351084,0.50011945
0.45703197,0.18234967,0.36619797,0.42566997,0.16500592,-0.19907688,-0.5680376,0.24872005
0.32009035,0.07574623,-0.03463054,0.34043074,-0.70580006,0.37178904,-0.5728836,0.13788138
-0.03452583,-0.49125338,-0.32583356,-0.30145878,-0.38843676,0.8196258,-0.5592887,-0.15529497
-0.62974626,-0.3108697,-0.37352765,-0.19706178,-0.15889151,0.7894419,-0.23438376,-0.34530222
0.40598556,0.099067576,-0.4824472,-0.26216295,-0.26188654,0.4087658,0.15961598,-0.06735104
-0.2282263,0.081146225,-0.09093502,-0.054103307,-0.14792006,0.12963519,0.16428623,0.11478987
0.23072709,0.17252696,-0.37756526,0.4041721,-0.06072527,0.026348233,-0.12905769,0.003945738
0.5534212,0.22492936,-0.52778506,0.62109,0.09247566,-0.14238389,0.30679283,-0.13954437
0.33558297,0.12461503,-0.48915556,0.21384025,0.22567171,-0.1439056,0.40282103,-0.095420495
0.1336152,-0.03961782,0.2350448,0.15901181,0.5109219,-0.45628726,-0.054702252,-0.23403826
0.12901811,-0.016703498,0.42128542,0.034023855,0.3109628,-0.26524648,-0.35720098,-0.17373148
0.21543293,0.024562862,0.432575,0.27608752,0.113717616,-0.23841164,-0.17182568,-0.14372016
-0.040332146,-0.008751024,0.30972272,0.34397805,0.08083643,-0.11721532,-0.14444897,-0.076614134
-0.075363845,-0.017028155,0.16274181,0.09141111,0.00748508,-0.17526509,0.11863973,-0.01644031
-0.20281622,-0.15032068,0.061664008,0.011508886,-0.19075367,-0.09479019,0.08590041,-0.011209299
-0.094033934,-0.04616287,0.14484286,0.0569682,-0.0999956,-0.38767722,-0.07803383,-0.25173947
-0.31950912,0.013310388,0.17114621,0.11528966,-0.22148415,-0.2134916,-0.27145883,-0.17548099
-0.427734,0.06208947,0.30264458,-0.11736934,-0.22209978,0.005131224,-0.07710848,-0.16382436
-0.2770267,-0.13971832,0.2034746,-0.18209733,-0.093973555,0.46094364,0.11489187,0.2527989
0.0073720547,-0.23048359,0.13757639,-0.29459548,0.16448264,0.19554085,0.34105164,0.45080143
0.14488101,-0.39585766,0.26043397,0.06780238,-0.08934765,-0.11932787,0.3086203,0.46737054
0.26400155,-0.43436486,0.32208785,-0.03694097,0.030087763,-0.23314375,0.067922704,0.3758633
0.056827843,-0.20966311,0.13772239,-0.120281905,0.14758107,-0.24016821,0.030038612,0.12989743
-0.05338842,-0.20621611,0.13559124,0.059564866,0.11269602,-0.03661297,-0.28561592,0.21057762
0.00985766,-0.08448374,0.23017687,0.022217631,0.08497577,-0.053118724,-0.06219615,0.20185566
0.15452622,-0.11918465,0.16032496,0.123917714,0.19652396,-0.07387761,-0.2134538,0.17923205
0.28120762,0.0064004455,0.31720343,0.27063286,0.16578992,-0.25801688,-0.8669513,0.35956788
0.26902977,0.26386192,0.22106594,0.5383813,-0.04969095,-0.32043597,-1.344252,0.16284947
0.4707537,0.46902573,0.15034758,0.29487884,-0.20291406,-0.47621298,-1.0718557,0.005207909
0.41312894,0.38421544,-0.27118617,0.030415392,-0.40280905,-0.18693697,-1.0116392,0.049446017
0.11211415,-0.2877028,-0.629923,0.0344172,-0.502958,0.07881131,-0.7157442,0.3306609
-0.40250164,-0.13173836,-0.8455617,-0.22505595,-0.43275556,0.43612564,-0.5425334,0.83696276
-0.07604592,0.16638938,-0.34997353,-0.336829,-0.38600716,0.1718155,-0.07674747,0.47501317
-0.28230822,0.30143255,0.33585897,0.08083425,-0.3571245,0.19871205,-0.015903523,-0.25800484
0.37814072,-0.3323748,-0.063153304,0.253601,-0.068752855,0.17456904,-0.01103466,-0.1493356
0.7730523,-0.14349069,-0.50917524,0.44055763,0.083767384,0.31142688,0.3871912,-0.24407215
0.16156854,-0.12666279,-0.3774343,-0.052474976,0.08398123,-0.3553224,0.3311928,0.06538828
-0.26472443,-0.13391535,0.22051479,0.27319124,0.21186166,-0.4401121,-0.17572069,0.06120272
-0.049531087,0.1901003,0.12221979,0.3317704,-0.034634285,-0.37729084,-0.041065928,-0.2084673
0.031813238,0.17726932,0.34050462,0.16335152,-0.0054532513,-0.218839,-0.15074864,0.05400814
-0.076095484,0.3061375,0.07791418,0.34679767,-0.028628998,-0.18227373,-0.13698222,-0.049587574
-0.12647024,0.06623843,0.08106465,-0.054109577,0.040346883,-0.19479351,0.082895234,-0.002479193
-0.2668736,-0.031694457,-0.016043875,-0.19440262,-0.09133877,-0.24366862,0.1611078,-0.08613373
-0.15093093,0.0008284345,0.058638234,-0.018473927,-0.04066438,-0.1988327,-0.17131275,-0.23224755
-0.19419199,0.042229716,0.1613915,0.1373639,-0.3166435,-0.23583078,-0.32136703,-0.052457437
-0.24432802,0.06363665,0.27486613,-0.09948819,-0.25139263,0.18092705,-0.119669646,0.11182938
-0.12476162,-0.1007378,0.18322611,-0.05114109,-0.052999817,0.31240574,0.2513391,0.34774914
0.025518155,-0.17292464,0.110407785,-0.12565912,-0.034154452,0.3562211,0.35330734,0.4787103
0.021848531,-0.18715632,0.19289681,-0.08859908,-0.006265654,0.073271334,0.23597093,0.35199782
0.079288706,-0.2912475,0.22742155,-0.13276665,0.05368861,-0.2572779,-0.03300115,0.28527197
-0.05564861,-0.31252688,0.22039516,0.158079,0.05477747,-0.16096793,-0.2445227,0.12832154
0.11257145,-0.20138045,-0.059190784,-0.021603948,0.10417483,-0.093908474,-0.1568947,-0.01884487
0.15472479,-0.18956019,-0.0034595137,0.17297198,0.04672883,-0.25441748,0.12610587,0.08613177
0.17306279,0.09191701,0.10166835,0.10105322,0.10507582,-0.18432201,0.19561267,-0.024203839
0.1478084,0.06995626,-0.028069774,0.09708789,-0.022441719,-0.020407688,-0.37071687,-0.10711064
0.25265473,0.17779551,0.045944437,0.10664838,-0.112448156,-0.40191025,-1.0992298,-0.12780558
0.27415782,0.3606125,-0.19964911,0.23669484,-0.09726648,-0.24558923,-0.7790742,-0.3332332
0.09014816,0.42623505,-0.13592565,0.08755932,-0.108745195,-0.17684951,-0.5254,-0.41187686
0.11106608,0.14530082,-0.34285757,0.018999618,-0.3485528,-0.26391426,-0.56172174,0.36209944
-0.1695224,0.19932881,-1.018085,-0.51605093,0.08635846,0.45803463,-0.4413188,1.11441
0.15201168,0.34790128,-0.3853623,-0.35783124,-0.27735165,-0.092836425,-0.09465184,0.39738986
-0.19306625,0.31066307,0.15305372,0.025274545,-0.32122624,0.3092491,-0.01764199,-0.27336738
-0.071956284,-0.19715245,0.16669045,-0.10773387,0.18877049,0.25609475,-0.042779077,-0.11608503
0.19629844,-0.44764146,-0.103748746,0.29282805,-0.46920946,0.22936411,-0.094142534,-0.04028698
-0.07558549,-0.10399095,-0.44361153,0.03911238,-0.09176061,-0.2303443,0.19041996,0.17400643
-0.4571679,-0.23596872,-0.19998054,0.18707179,0.053958792,-0.23835093,-0.10888888,0.122190125
-0.317468,0.1692986,-0.28000972,-0.13285156,0.028667498,-0.19896689,-0.064992175,-0.06192986
0.07205827,-0.006570814,0.020238422,-0.11794707,-0.039865546,-0.025585186,0.053192697,0.14869611
-0.06927404,0.29662338,0.007286462,0.21973595,-0.044853237,-0.14450265,-0.12440997,-0.008226249
-0.14724608,0.368175,0.12024589,0.044691406,-0.14222445,-0.22704452,-0.029396415,0.069907375
-0.18768406,0.31940213,0.09873427,0.004195138,-0.19931561,-0.13645497,-0.1934521,-0.07034922
-0.08308227,0.15462111,0.084804446,0.15417601,-0.024933219,-0.14690688,-0.21195342,-0.16025996
-0.0066744955,0.13228078,0.23903647,-0.06082427,-0.07283456,-0.12622964,-0.24113539,-0.04058024
-0.09716799,0.07675432,0.46842176,-0.05077477,-0.20334318,0.13856833,-0.0056066816,0.101372235
-0.027644226,-0.061347086,0.16517097,-0.21936302,-0.089245476,0.3846448,0.05938785,0.43087012
0.06977806,-0.22332694,0.040632207,-0.18374968,-0.3333636,0.2627913,0.3485676,0.5539771
0.070354596,-0.2642806,0.05486284,-0.057604786,-0.09130357,-0.020953385,0.19180693,0.31714836
-0.18628898,-0.15990031,0.21740519,-0.1498998,-0.021421358,-0.28339225,0.08221073,0.22636145
0.1214532,-0.26317927,0.111882925,0.25651646,0.19816713,-0.31994882,-0.14959112,0.04876319
0.18020402,-0.11721352,0.039302517,0.04037851,0.0068862,-0.18379748,0.1390363,-0.090399005
0.084736206,-0.15537997,-0.015153802,0.032902878,-0.093441114,-0.25506416,-0.108355165,0.010147473
0.09578064,0.065801404,-0.10171059,-0.03344632,0.10534955,-0.17659229,0.06521463,-0.18434174
0.17412108,0.0076956544,-0.09652594,-0.08534183,0.026233213,-0.1796904,-0.026577903,-0.16593154
0.048779078,-0.09820619,0.03677392,-0.00871884,-0.09004705,-0.09184741,-0.6224996,-0.17918125
-0.05584708,0.002551054,-0.08231251,0.0010323497,-0.05596223,-0.11130846,-0.4428548,-0.29649916
-0.035778224,0.2748039,-0.37316623,-0.22333087,-0.10237524,0.18670449,-0.38467598,-0.30654246
-0.03485486,0.36807644,-0.27075344,-0.19860967,-0.3055926,-0.12130095,-0.52025056,0.3747619
-0.51048553,-0.07797968,-0.37965372,-0.14861488,-0.27097663,-0.068359666,-0.39799348,0.94696915
-0.12720999,0.37199607,-0.30631337,-0.25663146,-0.07011676,0.28269172,-0.16448893,0.42938024
0.23492922,-0.14685161,-0.22715792,0.2508684,0.22321774,-0.025292253,0.08642547,-0.029863525
-0.27880397,-0.26011533,0.22471967,-0.3712307,0.14178044,0.2961769,-0.22525984,-0.25875103
0.13444458,-0.24632594,-0.2340487,-0.337063,0.21578832,0.26285005,-0.46446404,-0.046566185
-0.54221785,-0.009865388,-0.55581343,-0.29906538,-0.19361807,0.25176707,-0.02615705,0.15078048
-0.30076802,-0.28444627,-0.5659527,-0.273059,0.18628539,0.043587178,-0.014338411,-0.017733824
-0.32057783,0.08289712,-0.30645522,-0.28206936,-0.017050562,-0.122939065,-0.061137043,-0.07013649
-0.024856068,0.086957686,-0.22348788,-0.04126147,-0.25657395,-0.1892343,0.06024933,0.010412606
-0.021687929,0.20874614,-0.01441817,0.15739158,-0.085726865,-0.2580658,-0.27042413,0.055257432
0.06157218,0.22737902,0.13078162,0.3896641,0.018857185,-0.27018324,-0.22070913,0.047184635
0.15763426,0.2851374,0.039038565,0.19511198,-0.073616065,-0.03305616,-0.228847,0.1630122
0.024012772,0.32853392,0.16199112,0.11520768,-0.011179582,0.120376796,-0.13168575,0.21114816
0.12964025,0.37415358,0.38569754,0.05581777,-0.07609709,0.10913519,0.08172218,0.35313582
-0.0626466,0.17400661,0.27784044,0.11591902,-0.09047329,0.3163916,-0.09302631,0.3477625
0.09229498,-0.027026927,0.17316306,-0.24778374,-0.22952381,0.38463467,0.32855862,0.397727
0.028570218,-0.14677049,-0.0026595213,-0.15184762,-0.31825602,0.07108723,0.49575266,0.48304385
-0.01131058,-0.19156194,-0.01463381,0.14124383,-0.1535818,-0.19086428,0.07600031,0.14869565
0.029238507,-0.088237256,0.07895479,0.040605776,-0.083417356,-0.25416982,-0.08033684,0.30411056
0.029593,-0.04392003,0.08066577,0.12711015,0.010898307,-0.29695708,-0.15112543,0.09257862
-0.021256309,-0.04185695,-0.109015904,-0.08775556,-0.02149812,-0.12820674,-0.06944787,-0.03456912
0.08492889,0.015001732,-0.061132308,-0.0640047,-0.07377438,-0.1891999,-0.1822064,-0.22744718
-0.015800329,-0.06634247,-0.10044373,0.008488032,-0.06481311,-0.24769881,-0.06050047,-0.2953953
-0.061177343,-0.021207185,-0.28543982,-0.106954336,-0.20816468,-0.19574195,-0.086853504,-0.23360817
-0.07266792,-0.07519794,-0.16759214,-0.1834112,-0.024868265,-0.016607184,-0.8019682,-0.1090404
-0.2264591,-0.16636288,-0.1626711,0.0042626355,-0.2615624,0.1724257,-0.68816,-0.16180962
-0.16434075,-0.1481422,-0.28900418,-0.34633335,-0.16299395,0.39963108,-0.72508085,-0.09723956
-0.21264705,0.7174511,-0.4869036,-0.52717894,-0.7488055,-0.013514853,-0.9025635,0.77639985
-0.2713444,0.36204785,-0.78538626,-0.60829604,-0.4656979,0.10992566,-0.4085376,1.2217983
-0.5281497,0.098342046,-0.4857457,0.12570398,-0.23316053,0.21082197,-0.26096407,0.3670747
-0.004280716,-0.021498337,0.07325949,-0.011194348,-0.017460458,0.046492428,0.042285815,-0.00542254
0.06509632,-0.37606862,0.31284648,-0.5131223,0.43921965,0.3098953,-0.009462579,-0.22254473
-0.063707694,-0.12714371,-0.18246457,-0.01069643,-0.23504838,-0.02148057,-0.42796415,0.25332034
-0.3904955,-0.15188313,-0.29368865,-0.39919624,0.02264734,0.43531048,-0.05606267,-0.25146008
-0.26695925,-0.305942,-0.5234677,-0.30747214,-0.087843135,0.08488673,-0.02889428,-0.16364826
-0.2738299,0.044746492,-0.38252753,-0.13288799,-0.15113129,-0.097071126,0.063513525,-0.26388803
-0.19635205,0.13209072,-0.35658443,-0.25400668,-0.1704069,0.009289371,0.13733618,-0.13944767
-0.1845144,-0.09735248,-0.08199957,-0.15900168,-0.099548936,-0.1828755,0.04220755,0.02061889
0.06879126,0.059616555,0.09880312,0.12165105,-0.003110428,-0.18654118,-0.1511575,0.106065795
0.13577154,0.22188555,0.1321989,0.35822287,-0.053711765,0.039458424,0.038946405,0.3235242
0.18211311,0.5010962,0.11729143,0.30257717,0.01337721,0.11951473,0.20338552,0.40997416
0.3363748,0.447066,0.32880104,0.2266472,-0.068048164,0.23878852,0.02196743,0.4721357
0.16195403,0.026760112,0.15164182,0.22087994,-0.018687097,0.15332001,0.046951234,0.5909514
0.22163352,-0.028564794,-0.07035776,-0.026071914,-0.13607325,-0.120223485,0.30554426,0.4644897
0.18038267,-0.18223214,-0.019764848,0.038794972,-0.3629605,-0.27218518,0.36297944,0.25938886
-0.0014066721,-0.11171464,-0.047981776,0.010904058,-0.0069755893,-0.2917782,0.07720262,0.19063278
-0.04214465,-0.016425481,0.13975848,0.14281763,-0.05986162,-0.14023077,-0.1889703,-0.058328837
0.0007455902,0.066946924,0.16180018,0.038417052,0.07018915,-0.043556727,-0.29221517,-0.08307157
-0.028743552,0.09104846,0.110184595,-0.07396338,-0.01391054,-0.22159246,-0.10680731,-0.2576699
-0.021704266,-0.07660815,-0.03791955,-0.30794758,0.030339362,-0.03648843,-0.277186,-0.22838396
-0.018494114,-0.012045985,-0.072534084,-0.08039266,-0.12809077,-0.1517058,-0.054408006,-0.21799596
-0.2912127,-0.014680812,-0.11728833,-0.22757326,-0.03702945,-0.054006957,-0.25409487,-0.09960975
-0.10451091,0.023163144,-0.27067655,-0.13634884,0.031326193,-0.08830575,-0.43716633,-0.12968975
-0.11200023,-0.27821252,-0.05171426,-0.19797128,-0.1744167,0.20077063,-0.492013,-0.15203552
-0.10107101,-0.22488475,-0.24238235,0.08786272,-0.16444612,0.19776732,-0.47160128,-0.18252483
0.17852964,0.7271892,-0.77993107,-0.378366,0.0769993,-0.25465393,-0.7380888,0.61618125
0.029550144,-0.00034644175,-0.7574343,-0.5788686,0.15875313,-0.02468421,-0.2811265,0.73489857
-0.15530184,0.32249025,-0.3524694,0.22733596,-0.06928611,0.4509854,-0.4861397,0.047040235
0.057063393,-0.06708879,0.13365729,-0.14207587,0.38748348,-0.07288105,-0.03439207,-0.22978972
0.23554067,-0.27448645,-0.06003834,-0.41852862,0.41943827,0.38496572,0.2329233,-0.041453738
0.17452842,-0.31372395,0.02186799,0.18356037,-0.22292542,-0.19027372,-0.4710158,0.020075634
0.028592948,-0.30429903,-0.1275127,-0.43907708,0.033479244,0.24643444,-0.089125454,-0.1250286
-0.13036203,-0.010146156,-0.32518747,-0.25733095,-0.03631327,-0.052256677,-0.06978784,-0.22731718
-0.20445527,-0.093876496,-0.2592069,-0.20310518,-0.22779654,0.11241347,-0.14428271,-0.08746978
-0.28143176,-0.10619335,-0.11642312,-0.24954285,-0.10502191,0.28063786,0.05294378,-0.28433472
-0.19897209,0.10964207,-0.19629769,-0.13745509,-0.24286334,-0.11049172,0.03520581,-0.015393305
0.06754511,0.12465714,-0.10968765,0.06588029,-0.15794545,-0.13487932,-0.08333668,-0.14662927
0.09374787,0.21585198,0.0927901,0.25983304,-0.18624996,0.017660053,-0.014567201,0.19416289
0.2551045,0.4189421,0.10919369,0.20928083,0.05082656,0.12153673,0.042577703,0.2527792
0.17091724,0.249374,0.13604198,0.21944676,0.013292469,0.16366759,0.12971024,0.30572736
0.22503793,0.22558433,0.106178574,0.022415157,-0.4368425,-0.014753271,0.21586052,0.39427328
0.19259846,0.014725507,-0.0127985375,-0.032182876,-0.33624628,-0.12477411,0.33585793,0.2697818
-0.0029082736,-0.101650305,-0.09128428,-0.06908342,-0.06479923,-0.26633546,0.29054525,0.16564932
-0.05440134,-0.046171226,0.11499399,-0.12554492,0.052239038,-0.061823424,-0.10363642,-0.00090391183
-0.05343992,0.11008679,0.13135968,-0.23618719,0.03447856,0.034412377,-0.27616736,-0.019117357
-0.047024474,0.19896108,0.0394148,-0.19356719,0.13251404,0.078426905,-0.15505013,-0.08713725
0.08813143,0.07436231,-0.024415694,-0.2502888,0.019426549,0.04848083,-0.13182598,0.035605036
-0.016975308,0.12612672,-0.02063354,-0.13758758,0.114066586,0.083498165,-0.1789809,-0.04636597
-0.07743458,-0.012061572,-0.055588588,-0.1432141,0.0075120907,0.038726203,0.011925262,-0.07247862
-0.17218675,-0.034341738,-0.061088298,-0.26730707,0.16647543,0.000712995,-0.28931016,-0.031592924
-0.04753868,0.06498311,-0.2568816,-0.2456551,0.16061586,0.23457868,-0.67146784,-0.1281982
-0.235254,0.12246553,-0.10269489,-0.34539008,-0.26424825,0.06691215,-0.4759412,0.05193566
-0.36631927,0.26895824,-0.2522022,-0.26708117,-0.32489562,0.09203317,-0.36903334,0.119060785
0.060598332,0.83234876,-0.57703525,-0.68967056,-0.07160839,0.057232507,-0.1856391,0.3870968
0.38145804,-0.10295006,-0.25941774,-0.5108741,0.10913329,-0.31924048,0.265541,0.13554034
-0.33367383,-0.23589575,-0.43657354,-0.39564678,0.17583005,0.17040595,0.061392475,0.5470844
-0.114145376,-0.07478879,0.048705027,-0.1470085,0.01906431,-0.10617489,0.2955623,-0.045520853
0.32579255,0.30216548,-0.26232693,0.22452544,0.41169763,0.09943814,0.16977367,-0.44316372
0.04461272,0.031845517,-0.10237016,0.20432854,-0.0030985612,-0.17476363,-0.14172478,-0.41383183
-0.38347006,-0.22708818,0.14343677,-0.4209053,0.15080644,-0.022477154,-0.8152737,-0.120519176
0.09620732,0.106972605,-0.05749743,-0.23941259,0.1271278,-0.005289527,-0.35596552,-0.20012143
-0.05202315,-0.11295288,0.021998378,-0.12642534,-0.11835372,0.27937725,-0.16647016,-0.038094554
-0.21716714,0.09608269,-0.14517376,0.038357213,-0.17087859,0.12979376,-0.12438366,-0.24435647
-0.16608994,0.15329376,-0.14701581,0.014759673,-0.3527639,0.137721,0.02700297,-0.037070107
-0.07460307,0.15695815,-0.07309777,-0.055838227,-0.18962707,0.15604971,-0.183312,-0.14833084
0.13616765,0.116848506,-0.1259726,-0.019312764,-0.35418454,0.1268881,-0.062303938,0.010147198
0.23945671,0.33232427,-0.09493269,0.14054143,-0.32607982,0.2681769,-0.07382723,0.032052405
0.19455677,0.48009777,0.018379102,-0.094538145,-0.15929319,-0.019392481,0.0252179,0.054299068
0.31622422,0.38075867,-0.056515954,0.026431577,-0.19801404,0.05565182,0.09548651,-0.029874135
0.04735331,0.15522033,-0.15519409,-0.22329527,-0.25565225,0.021785285,0.13445154,0.051784996
0.06534678,0.059078246,-0.015141444,-0.17358702,-0.2059265,-0.0959279,0.0014518338,0.0796472
-0.082040474,-0.03470666,0.025250439,-0.18098888,-0.15939295,0.05054402,-0.17502229,0.0072815493
-0.12735377,0.1292455,0.059314854,-0.20035991,-0.03988335,0.031705108,-0.11352681,0.021136308
-0.087060116,0.18745854,-0.071404114,-0.1821901,0.04896887,0.26319632,-0.162192,0.0026246577
-0.043273043,0.13741216,0.10631907,-0.1859177,0.035949867,0.20709458,-0.04745523,-0.06734329
0.13290381,0.13338767,0.115797,-0.07636238,0.1374878,0.20807658,0.024399798,0.01705282
0.000209747,0.12804031,0.019688487,-0.18090422,0.14495343,0.16397493,0.05544227,-0.015740411
-0.11514448,0.21145019,0.044770252,-0.2978797,0.019160544,0.15750034,-0.27615297,-0.0040881783
-0.101693176,0.32424462,-0.024205098,-0.12788966,-0.07844433,0.34298602,-0.6779676,-0.022226375
-0.38601783,0.22183934,0.020169908,-0.33779323,-0.09647737,0.414339,-0.5665141,0.055351075
-0.32244325,0.21191567,-0.07673506,-0.12584853,-0.056160405,0.26628655,-0.21551001,-0.10879988
-0.3188436,0.47025105,-0.62708175,-0.67773545,0.32950622,0.29313597,-0.085074164,0.30160362
-0.3617586,0.27181816,-0.5947208,-0.31757635,-0.09034428,0.010486922,0.13477916,0.65154064
-0.19642982,-0.25239804,-0.35083115,-0.3443136,0.06928004,-0.07146398,0.29270762,0.3154479
0.016152956,0.06073919,-0.022081733,0.015463397,-0.074082606,-0.0130918175,-0.03420042,0.06705329
-0.2680836,0.25198373,0.21335578,0.1919944,0.35019207,0.045851678,0.04219769,-0.21428601
-0.38688305,0.3762825,-0.0033919115,0.20143694,-0.10228014,-0.3103515,-0.29044,-0.114070915
-0.59211016,-0.091480255,0.07918641,-0.5773057,0.451778,0.20746474,-0.99849653,0.011426379
-0.38550922,0.25543967,-0.08856647,-0.32541952,0.23535162,0.23823439,-0.570428,0.11555491
-0.19834375,0.3499206,-0.059356622,-0.05756649,0.20086527,0.3349828,-0.25824064,-0.20636798
-0.1274302,0.04973326,-0.18848939,-0.07690265,-0.077576496,0.37138763,-0.021101572,-0.015247264
0.0015688383,0.10114064,-0.22825325,-0.12805173,-0.24768284,0.45340353,8.0769365e-05,0.09919593
-0.14076011,0.19650276,-0.11378451,-0.082967915,-0.07376602,0.33834738,-0.029578501,-0.08418431
0.045470312,0.27605423,-0.030945418,-0.14989321,-0.21594268,0.33548254,-0.117558986,-0.062464334
0.33346933,0.31004864,-0.09571846,-0.060644522,-0.2452882,0.31551024,0.10601876,-0.09282987
0.14759004,0.42515963,-0.23331372,-0.10306706,-0.25468603,0.15171058,0.08457919,-0.05462806
0.24803731,0.50912815,-0.134916,0.15548497,-0.2685879,0.06574773,0.081118725,-0.106540024
0.105041884,0.2324717,-0.035969574,0.011007188,-0.028091121,0.20024255,-0.016943261,-0.07893935
0.22085148,0.121967405,0.0979069,-0.142418,0.039693344,-0.0074764276,-0.048737872,-0.050477993
0.08191878,0.23165627,0.021452984,-0.08258231,-0.1285844,0.07936055,-0.100523286,0.06679474
-0.13338809,0.16193466,-0.011815367,-0.20698343,-0.10786393,0.040220782,-0.0045454907,-0.02073188
-0.09203022,0.15606877,0.05962632,-0.06306824,-0.07612243,0.13945551,0.1031193,-0.0721602
-0.06520888,0.16846627,0.0146762915,-0.18837161,-0.13012113,0.25067285,0.038044818,0.059483424
-0.07856977,0.2917812,0.03551393,-0.16085298,-0.01656704,0.20809928,0.13885517,0.028987851
-0.24756728,0.15594615,0.007163462,-0.24915273,-0.05063673,0.41656724,-0.11201605,0.084905855
-0.4864061,0.27331346,-0.02810758,-0.18142691,-0.14029095,0.36108845,-0.1963096,0.10633618
-0.42941964,0.28467163,0.033671897,-0.060428947,-0.25616032,0.35113052,-0.5840744,-0.0950277
-0.38328186,0.2752267,-0.037431117,-0.3712228,-0.039841857,0.45132783,-0.48960122,0.0092949085
-0.068967335,0.057940006,-0.25067034,-0.3073592,0.09982999,0.09967736,-0.26044315,0.17202844
0.012976673,0.22110772,-0.18141083,-0.6721801,0.56092894,0.1696523,-0.14149061,-0.053917054
-0.37090555,0.11480039,-0.6312197,-0.39648628,0.12105148,-0.09369252,0.21655436,0.44470575
-0.14746597,0.21089008,0.27224937,-0.33016598,0.30199963,-0.21822153,0.28641504,-0.24274835
-0.14764944,0.035803735,-0.081151664,-0.21709761,-0.11190311,-0.19698267,0.22581156,0.15925561
-0.28015193,-0.06874042,-0.03452764,-0.06511888,-0.112057514,0.1300416,-0.26186812,0.15634312
-0.27891803,0.14948028,-0.11228148,-0.49386477,0.03857968,0.20313103,-0.48459852,0.2652752
-0.41546115,0.09042007,0.10477126,-0.52029556,0.1534163,0.59633946,-0.3484114,0.050958853
-0.4974674,0.31272715,0.16808486,-0.2775178,-0.0093940515,0.3800923,-0.28364584,-0.019608364
-0.41496536,0.1422465,0.008703674,0.0040418715,0.038635805,0.009065445,-0.20373712,-0.17075203
-0.396652,0.049913622,-0.06395284,-0.11655391,-0.15829374,0.48093507,0.046192475,0.0011865632
-0.17746305,0.16633332,0.06962604,-0.15920395,-0.11595116,0.39358628,0.08575559,0.020532021
-0.12020098,0.12839782,0.12279947,-0.16965407,-0.0408267,0.20976987,0.09654762,0.065985374
-0.046794537,0.23144439,0.014771376,-0.05413662,-0.1553013,0.11576615,0.124217,0.10023136
0.16926873,0.28718776,-0.016203221,-0.06092413,-0.08012505,0.09211905,0.039023332,0.07162932
0.19067988,0.34885186,-0.059026085,0.033811007,-0.09550613,0.17720035,0.08040457,-0.020834785
0.26506135,0.347659,-0.064110644,0.0042691194,0.010857972,0.12099295,0.019578421,-0.1565374
0.24730375,0.35195428,-0.012697543,-0.021630378,-0.15078731,0.18180144,-0.059160106,-0.0026209438
0.23299432,0.2510888,0.08048042,-0.19198793,-0.21740599,0.21955264,0.003803879,-0.045356926
0.13901679,0.11269594,0.10864386,-0.033742774,-0.13983928,0.13489093,-0.03101698,-0.112529546
0.09757087,0.1327024,0.015489221,-0.22989787,0.022576995,0.1436343,-0.16855362,0.06401972
0.032902192,0.1916638,0.16894354,-0.16544686,-0.20787166,0.08478535,-0.062201533,0.101802215
-0.018866645,0.25741026,0.12292359,-0.34836164,-0.11631873,0.19546959,-0.1295876,0.11638645
-0.21077184,0.20686316,-0.039309315,-0.22273135,-0.05153566,0.18194726,-0.089167185,0.11546524
-0.33405495,0.16910054,0.20181386,-0.16028942,-0.2126815,0.18105717,-0.15256305,0.0067142495
-0.5973513,0.31145617,0.16777243,-0.21805245,-0.21474929,0.16595106,-0.018572867,0.065308
-0.43531454,0.49840093,0.08447439,-0.13258435,-0.12419651,0.41744426,-0.5585594,-0.108608104
-0.5824413,0.5482099,0.057594255,-0.19650911,-0.13095531,0.26732057,-0.3821819,0.12659064
-0.10709967,0.3193924,-0.09059307,-0.56095695,0.23192345,-0.0397383,0.0066192406,0.13417284
0.12140139,0.59842885,-0.41293877,-0.4967255,0.32619452,-0.011544186,-0.3250667,0.065807514
-0.34724715,0.55575633,-0.62337434,0.2120981,-0.20123649,-0.05468341,-0.09029189,-0.017608892
-0.0807419,0.042293295,-0.088070326,0.09936352,0.07178134,-0.1181673,-0.046099678,-0.17405482
-0.23366992,0.08125219,-0.03267764,-0.22853126,-0.06630794,-0.21367663,0.20754728,0.13654381
-0.14647932,-0.20295706,0.0056628725,-0.24518418,0.059470043,0.09128734,0.17256051,0.030504638
-0.44531348,0.15403615,-0.23956618,-0.5725878,-0.085423514,0.1519712,-0.6349146,0.38344434
-0.5748692,0.29317236,-0.02035535,-0.422377,-0.13506223,0.3489604,-0.04249439,0.12105142
0.012347466,0.12052475,0.24377947,-0.49462858,-0.083642356,0.28892606,-0.103297375,0.20757934
0.018483877,0.18792905,-0.16910005,-0.28895056,-0.20762685,-0.027435692,0.095618516,0.1440317
-0.11816203,0.043395177,-0.35147622,-0.06336567,-0.18434958,0.30794376,-0.04173537,0.11383482
-0.00015665847,0.039568663,-0.12840997,0.11021409,0.024784345,0.26842606,-0.01560983,0.09004861
-0.07162813,0.17525527,-0.15392686,-0.023237793,0.13781327,0.13057442,0.07077974,0.05551309
-0.02805797,0.26581165,-0.13721733,0.0141004035,0.13566847,0.19765884,0.09577873,0.048229832
0.090397514,0.20813185,0.01320559,-0.010278866,0.053630747,0.13816747,0.06701261,0.17109439
0.10150326,0.25558537,0.0014737882,0.14476007,-0.012484458,0.2744193,-0.08599026,0.018106319
0.21072526,0.27424362,0.09128642,0.27504474,0.1418663,0.22799402,0.0026377982,-0.0022054873
0.03513873,0.30461395,0.16604833,0.33609623,0.026033094,0.29565775,-0.1147335,-0.071243055
0.09929291,0.16765217,0.009858194,0.17746004,0.10284234,0.21045741,0.0674897,0.046026085
0.15011045,0.21507025,0.055679277,0.053700097,-0.051676523,0.19774495,-0.050206054,-0.06037929
-0.053839456,0.19854608,-0.0011660184,-0.15885021,-0.043607913,0.14214276,-0.069941625,-0.07900506
-0.083765194,0.047626983,0.07947743,-0.16504675,-0.07561238,0.1200908,-0.0061505623,-0.034248486
-0.19922881,0.11831973,0.10309507,-0.28384826,-0.15433954,0.113606095,-0.07696196,0.07858751
-0.27538645,0.18013665,0.065989114,-0.22511356,-0.28914046,0.13893683,-0.026725661,0.017013764
-0.39208695,0.20983796,-0.03549814,-0.4108786,-0.030923633,0.21454759,-0.3208292,0.0613811
-0.7146413,0.30936447,0.076799974,-0.11739218,-0.24866132,0.07054827,-0.30359215,0.11837532
-0.510394,0.26435882,-0.014440539,-0.15678392,0.09795726,0.30642647,-0.46987268,0.045905974
-0.46212935,0.1272184,0.124779075,-0.10019298,0.13196996,0.25874704,0.09907344,-0.01584526
-0.20934102,0.25842905,-0.001158691,-0.46497846,0.23114914,0.19462766,0.18806924,0.22205894
-0.027374981,0.4297924,0.0067241574,-0.4426814,0.10845522,0.19747274,-0.15742755,-0.03262384
-0.26627678,-0.09325781,0.1527499,0.06722339,-0.10355052,0.05879274,0.46547362,-0.18186061
-0.06171265,0.15284216,-0.060403563,0.21020186,0.047527436,-0.09698331,-0.07089499,-0.0759959
0.04523684,0.064884305,0.030006006,0.049027324,-0.0744315,0.067532346,0.056100488,-0.052682877
-0.0014887229,-0.041069224,0.061241075,0.027944557,-0.07702061,-0.057811197,-0.002242051,0.045280054
-0.34527117,0.0052205417,-0.23400953,-0.6162749,-0.3069597,0.59785694,-0.61999625,0.18578814
-0.52800834,0.23840739,0.38893268,-0.6318287,0.36426198,0.73534757,-0.6303612,-0.3094469
0.13796195,-0.044737007,-0.055959508,-0.6597998,0.14300872,0.48528942,-0.16361411,-0.15702932
0.22579595,0.18525548,0.07238029,-0.5060526,0.103177294,0.22104554,0.2629545,-0.058423508
0.21657741,-0.0041866726,-0.018070435,-0.25466216,0.11400275,0.11559311,0.06613911,0.033679698
0.15023711,0.0016673259,-0.19940111,-0.02613764,0.29325533,0.02043693,-0.09934779,0.11643235
-0.277865,0.11239339,0.09986006,0.01857937,0.09515941,0.1521699,0.066708356,0.15851873
-0.39857492,0.17906849,-0.06935114,-0.06940687,-0.0369483,0.28260615,0.0014419215,0.02842094
-0.47815427,0.07929598,-0.0065428843,0.059344888,0.13008821,0.26587647,0.010796373,-0.10672355
-0.4639539,0.23105747,-0.07958824,0.14459349,0.12952186,0.33467433,0.013011376,0.08763636
-0.18360575,0.17836463,-0.018543888,0.13661535,0.028596345,0.26908585,0.18687174,0.12353325
-0.12016064,0.13927768,0.085321195,0.18527886,-0.068286605,0.30913547,-0.06264702,0.15048721
-0.042486455,0.14794903,0.11968531,0.29847288,-0.023388084,0.1554228,-0.0041608694,0.07330682
0.11129654,0.09780195,0.13256249,0.20425728,-0.16967218,0.18896683,0.020215765,0.04056606
-0.07056565,0.09588867,0.2507382,0.16455752,-0.1268863,0.19588438,0.023075294,0.015131689
-0.060334727,0.16250661,0.095999725,0.0031270157,-0.10891798,0.14468767,0.0524337,0.047694955
-0.012831999,0.04925183,0.11660111,-0.24028648,-0.20331024,0.26124337,-0.14795096,0.2831076
-0.09098397,0.1840972,0.11940364,-0.21214241,-0.14521155,0.12848721,-0.37700504,0.30716178
-0.26556885,0.18039474,0.20497604,-0.20335136,-0.15479843,0.19631334,-0.5169273,0.2040487
-0.32098374,0.11634965,0.21116821,0.01969873,-0.2273957,0.105058245,-0.39783385,0.44294676
0.21303095,0.4998189,0.005006053,-0.44872376,0.15359472,0.16094014,-0.2774447,0.24963994
-0.13608705,0.08383262,0.2005928,-0.31484583,0.1802447,0.33828497,-0.1495539,0.2017823
-0.4466382,0.027214224,0.030662611,-0.5737141,0.35329482,0.15173785,-0.15400752,0.17850898
-0.23991457,0.29973456,0.0737451,-0.121864974,-0.051507354,0.15919738,-0.03304726,0.008433981
-0.09757425,-0.39294058,0.0009942405,-0.403962,-0.025760354,0.04433796,0.31928566,-0.05225318
-0.018711284,0.0822597,-0.012485117,0.034860097,-0.010606281,-0.0505677,0.03961405,-0.05078389
-0.05983013,-0.07811451,0.054032773,-0.079769164,-0.020446353,-0.07145115,0.0009136349,-0.0357309
0.02683451,0.05441603,0.008722074,-0.012513734,0.039767474,0.045873463,-0.023315981,0.05346431
-0.018667448,-0.2967285,-0.085714936,-0.24834488,-0.16256349,0.23476735,-0.5107425,-0.04589647
0.19760683,-0.38727093,0.37873846,-0.2720688,0.617654,0.48619023,-0.49113062,-0.70638543
0.25254056,-0.25218263,-0.01682742,-0.4177203,0.71807295,0.2501527,-0.43058848,-0.37732437
0.2771505,-0.120155655,0.0016587316,-0.1792692,0.6681712,-0.07046188,-0.042566907,-0.22977985
0.3278052,-0.31514713,0.07179407,-0.21639611,0.4965973,-0.039335556,-0.06198063,-0.022478957
0.16713922,-0.2804032,0.12730287,-0.1277902,0.37736693,0.094431534,-0.024512308,0.14139763
-0.00798266,-0.026163267,0.11965355,0.11459489,0.08775617,0.19167198,-0.075915664,0.120771475
-0.012623529,0.10709279,0.0598063,-0.008312566,-0.07120727,0.21229103,0.050364934,-0.046609454
-0.013485873,-0.19587408,0.17103748,0.05685238,0.12372871,0.10183296,-0.004767201,0.03171798
-0.13680014,0.013449982,0.14915636,0.20955156,-0.018368036,0.27567315,-0.06782949,0.040983997
-0.045893386,0.060788654,0.032783143,0.06877735,0.027147403,0.25763464,-0.064351104,0.039741166
0.0720023,0.073525995,0.07489321,0.092904106,0.024560384,0.29183465,-0.15918092,-0.23023097
0.024933988,0.15929012,0.008284895,0.12082976,-0.08195795,0.3678661,-0.023416497,-0.07849895
0.16711701,0.17335527,0.1233009,0.05639131,-0.021166027,0.2945723,-0.08827765,-0.07345371
0.12597416,0.07389486,0.22046529,0.28168502,-0.084493384,0.18338564,-0.32921076,-0.0052819992
0.25968713,0.1696212,0.031574618,0.018587854,0.11894732,0.19527155,-0.07617744,-0.0723284
-0.037928734,0.360822,0.15663432,0.10641852,-0.14069766,0.20669085,0.041567672,0.17244515
0.099512175,0.17814651,0.3512541,0.21469827,-0.14197294,0.20009322,-0.25751656,0.08278157
0.11781111,-0.044120327,0.3417993,0.028271435,0.18718101,0.06197309,-0.39497614,0.24404998
0.06702453,-0.34469318,0.084928446,-0.057277665,0.19369857,0.0781551,-0.1807318,0.3412439
-0.23551717,0.029478105,0.15802503,-0.12203977,0.17529526,-0.023321168,-0.0715271,0.21822636
-0.5056482,0.081199005,0.3085551,-0.53262585,0.35889342,-0.15530963,0.18144536,0.13327457
-0.2208111,0.6437302,-0.46465856,-0.85718954,0.10964986,-0.0062492657,0.130904,0.31087387
-0.36021116,0.56719375,-0.60976255,-0.42519087,-0.65042686,-0.33735165,0.24040878,0.6243911
0.29673758,0.18574317,-0.26125592,-0.38934007,-0.21141714,0.2627689,0.23263438,0.4277565
-0.012405641,-0.0075062513,0.037256144,0.065853566,-0.07689273,0.04203859,0.064658314,0.02229172
-0.0003469661,-0.035515826,0.04613875,-0.046964295,0.016371638,-0.01220379,0.04701142,-0.052062713
-0.06798086,-0.057578653,-0.015336134,0.05011639,-0.014053971,0.08243638,-0.078462034,0.06704451
-0.26743224,0.26266658,0.21515909,-0.39719424,0.12544386,0.062156864,-0.058953702,0.22992215
0.28576916,-0.07696226,0.22484611,0.3525429,0.12492698,-0.29297826,0.33166528,-0.47357935
0.035015088,-0.23319906,0.20318544,0.16187243,0.4124211,-0.16371052,0.04590337,-0.191843
-0.063635886,-0.4393021,0.38940623,-0.386849,0.71034807,-0.017567795,-0.29393566,-0.00047458403
-0.18624645,-0.45168442,0.43341115,-0.4280108,0.4324656,0.22317073,-0.5850592,0.27220994
-0.006685049,-0.6240472,0.4375376,-0.27635452,0.48392683,0.24670568,-0.4825354,0.18052426
0.17893969,-0.9542031,0.2851625,-0.4864117,0.5808645,0.16728413,-0.26159075,-0.028971482
0.10312367,-0.74910396,0.48860508,-0.37910196,0.37534907,0.16340755,-0.18854535,-0.31426308
-0.06390291,-0.5081041,0.6123168,0.010827389,0.33322534,0.20268893,-0.46023747,-0.06808546
0.26798347,-0.43359306,0.35129884,-0.039720267,0.38562793,0.1928662,-0.13590527,-0.1639698
0.36056426,-0.33712637,0.36994103,-0.3785813,0.5034322,0.2622629,-0.2806012,-0.029985258
0.14580323,-0.049976617,0.4378656,-0.0768275,0.3512232,0.23357457,-0.26844478,-0.07459964
0.28957173,-0.38401544,0.31310984,-0.0067610466,0.2613302,0.088370346,-0.13037078,0.18461539
0.21453695,-0.13774863,0.42087725,0.2846395,0.30166122,0.25620297,-0.31011474,-0.086339094
0.20764366,-0.05381807,0.37037623,0.254954,0.43497235,0.34061533,-0.39121154,0.04524802
0.3093217,-0.1407582,0.4359884,0.26473287,0.3569637,0.35495794,-0.18720512,0.044362172
0.24351622,-0.04936613,0.47255415,0.048499715,0.42397326,0.25043523,0.21272923,-0.031982653
0.3686133,0.02439784,0.40803504,-0.08071668,0.5201501,0.28847802,-0.06142792,-0.11163
0.20352986,-0.17221259,0.64865774,-0.14257258,0.5922629,-0.2477704,-0.076797135,0.13936049
0.022974724,-0.4146688,0.3936881,-0.14826353,0.7857043,-0.24295276,0.31075904,-0.20947474
-0.09362472,-0.19121653,0.47049773,0.0025416508,0.3004854,0.02147486,0.2734207,-0.54363734
-0.11025554,-0.099682,1.1033766,-0.38428882,0.27011386,0.06518133,0.25875878,-0.53631043
0.08354194,0.14025556,0.5588063,-0.6036038,0.2649397,0.2878889,0.18801099,-0.566025
-0.1899543,0.1421459,-0.23430154,-0.24338762,-0.14837207,0.11426644,-0.031468086,0.20153528
-0.029606745,0.22219896,-0.19414745,-0.31708947,-0.3156697,0.3315093,-0.0040944517,0.28168055
-0.03279306,-0.051551454,-0.059156135,0.03641367,-0.017762974,-0.05675535,-0.057042327,-0.06231767
-0.005263105,0.08190124,-0.007846475,-0.06895621,-0.032817777,-0.018246077,-0.08034339,0.01513046
0.035985023,0.060936645,-0.066239156,-0.016788125,0.016740061,-0.045721415,0.040184096,-0.07280866
0.08453572,0.028573625,0.024265222,-0.08648812,0.01564394,-0.03351018,0.02605775,-0.03296887
-0.27286637,-0.065921634,0.2033777,-0.084908545,0.29304734,-0.19292082,0.0315167,0.1917656
-0.42826924,0.22252688,0.6275587,-0.18881391,0.12101067,-0.54096913,-0.08360539,0.5047138
-0.118911766,0.17597012,0.12136562,-0.3287183,0.19927247,-0.31126544,0.24806508,0.105141535
-0.0622243,0.09737822,0.1392556,-0.21147133,0.68453884,-0.4227385,0.09520889,0.37435108
0.34997848,-0.5610584,0.10153314,-0.12769902,1.0459487,-0.22176492,-0.26228324,0.38905796
0.2421441,-0.70381105,0.077155024,-0.050049093,0.89572906,-0.11918274,-0.37391505,0.41363442
0.30558673,-0.54722387,0.10408928,-0.20203575,1.047319,-0.07543363,-0.07083656,0.13187486
0.21730882,-0.26053956,0.08823179,-0.25622427,0.8784045,0.06507576,-0.28160256,0.17509131
0.22596525,0.25455073,0.30783173,-0.21213757,0.84753215,0.24121228,-0.17375822,-0.033812754
0.028273387,0.45772496,0.37948415,-0.09547458,0.83776164,0.0828731,0.15032688,0.14166722
0.2832073,0.17566124,0.16692099,-0.1729783,1.1225129,0.23478127,-0.05140935,-0.010885985
0.19054167,-0.054715306,0.19295007,-0.4276255,1.365002,-0.0018610052,0.062988654,0.26616868
0.2317113,-0.037072055,0.18091287,-0.32823837,1.0742047,0.07046784,0.29991674,-0.14286035
0.24317421,-0.13369313,0.18654753,-0.37372565,1.102949,0.15035,0.16197273,0.053324345
0.30149534,-0.34548178,0.27877992,-0.49356547,1.0734997,-0.007270574,0.09908999,0.079797305
0.39460444,-0.21686202,0.054021865,-0.26089734,1.0830374,-0.012388037,-0.16957168,0.05801594
0.31455794,0.4047259,-0.046522036,-0.39319596,1.0228016,-0.07500049,-0.057378907,-0.118512504
0.063897006,0.29933843,0.33216482,-0.7382972,1.1784691,-0.07143397,-0.10547059,-0.0352738
0.027543817,-0.12432523,0.12229931,-0.63952136,1.0713267,-0.02003094,-0.26813534,-0.15540183
0.07413025,-0.15403736,-0.19948204,-0.13357633,0.82345,0.010924258,-0.20958641,-0.23887748
0.023361241,-0.031143261,0.10492099,-0.21722552,0.27572176,0.28535694,-0.23054765,0.25388214
-0.21595795,-0.013567967,-0.14875866,-0.1964849,0.22906914,0.0027028024,0.035351075,0.0803359
0.29768693,-0.0014445797,-0.06923321,0.22699751,-0.04053508,0.18207735,0.010826223,-0.17833562
0.0009986088,-0.0769972,-0.036882136,-0.06150958,0.017034799,0.0616038,-0.06447242,0.060989335
0.062084988,0.0725383,0.047059983,0.006240733,0.014687434,0.046354756,-0.045541435,-0.006138094
-0.076842785,0.04530084,0.07346836,0.07998894,-0.038194597,0.065455526,-0.00965903,-0.08691179
-0.06941682,-0.0735044,0.05237919,-0.033201184,0.034253955,-0.030689113,0.053726226,0.017291956
-0.08332239,-0.01909849,0.050606564,0.0145474,-0.0149651915,0.026525036,-0.078114286,-0.045710232
0.049250007,-0.06833956,-0.04153429,-0.07255979,-0.062000006,-0.037929725,0.0074277073,-0.012794942
0.35346812,-0.09675338,-0.1389676,0.2957013,-0.016235294,0.3062433,0.012976709,-0.19235852
0.4031569,-0.08956882,-0.3896693,0.33188927,-0.11318748,0.19164877,-0.0051906165,-0.34454152
0.051961657,-0.071026996,0.0042606504,-0.17396747,0.35269716,0.29309982,0.0639312,0.00082345994
0.15001878,-0.06538929,0.053772002,-0.085060984,0.31969282,0.51477796,0.00012370796,-0.065161325
0.14875542,-0.117981985,-0.06701943,-0.20329167,0.30686364,0.3436949,0.11833711,-0.15353201
0.06598887,-0.23258372,0.04395166,-0.11920077,0.66210294,-0.006977785,0.19412825,-0.031915177
0.43243617,-0.14205907,-0.33680353,-0.10229725,0.5918067,0.3442493,0.53503215,-0.2817854
0.095532,-0.04846278,0.031468187,-0.17953378,0.44868383,0.19125521,0.5103691,-0.06767466
0.019809315,-0.057825103,0.119154975,-0.31038946,0.49203858,0.09508277,0.31758553,0.077513404
0.7626014,-0.02946101,-0.5405487,0.32383934,0.6925997,0.40642166,0.40305084,-0.41667873
0.22336869,-0.29551616,0.083361365,-0.37480676,1.0346608,-0.03331995,0.031766385,0.45009473
-0.007852698,-0.56740224,0.11922493,-0.29673693,0.7050512,-0.16143398,0.16067475,0.26458362
0.27010605,-0.38259628,-0.1860911,0.19147983,0.90944517,-0.0034218456,0.11796554,0.13825196
0.5416253,-0.3101517,-0.57407737,0.29951912,0.9870103,0.0033249094,0.3662527,-0.03346816
0.1468305,-0.2309295,-0.23489507,0.11504507,0.68929434,-0.28299928,0.11637823,0.27115807
0.39679733,-0.1865191,-0.31865484,0.18688373,0.6258783,-0.13065638,0.013754812,0.0057335845
0.079736516,0.09820197,-0.37390077,0.067690894,0.7774564,-0.23969902,0.067194045,0.06548736
0.24784945,-0.30223423,-0.2754256,-0.29354852,0.50066745,-0.33190963,0.0017975941,0.08545603
0.062340572,-0.35454187,-0.49065998,-0.36603457,0.6193835,-0.18779375,-0.06973426,0.16457051
0.23940787,-0.3543597,-0.32748607,-0.099179015,0.33123097,0.07892954,-0.016544148,-0.120642975
-0.07811868,0.038020343,0.04423526,0.009202264,-0.0511607,0.03428019,0.050717294,-0.015732385
0.05661024,-0.054828145,0.071442574,0.08352983,-0.042322356,0.035977513,-0.031874698,-0.04127257
-0.04571928,0.08012815,0.006492637,0.073902205,-0.054229043,-0.04288709,0.0137484,-0.08433954
-0.038113147,-0.013744853,-0.0055711195,-0.02072063,-0.065091774,-0.022315852,0.03529667,-0.049924586
Biases
0.2831375,0.54210067,-0.18759352,0.10152355,0.23934,-0.09204239,0.779684,-0.049043376

Layer,dense_22
Weights
-0.49602863,-0.1535509,-0.10477216,-0.08782097,-1.0786257,-0.69083756,0.6142107,0.84079295,-0.15288973,-0.44948354
0.605874,-0.34641796,0.41599473,-0.91006875,-0.10379073,0.05214017,0.8221115,-1.1129664,-0.58137727,-0.25240988
-0.691973,-0.12083938,-1.035352,-0.10489834,0.80542946,0.8685586,0.50071174,-0.55463135,0.33904514,0.43355536
0.7371275,-1.2207025,-0.31901145,-0.6829139,0.5472229,-0.2314896,-0.59493923,0.35579076,0.42051244,0.06693262
0.012740504,-0.45547712,-0.11657912,0.40225595,-0.738035,0.19073527,-1.4344634,0.747346,-0.76181114,0.7858094
-0.14914033,0.027360285,0.013622523,0.70412,-1.4272717,0.22712043,-0.5031093,-0.46762356,0.43387422,-0.83784956
-0.5962032,0.5093539,-1.2444646,-0.9293906,0.17423864,0.6947472,0.1295022,-0.05354722,-0.22141573,0.2848034
-0.5960197,0.21927883,0.7518005,-0.2536816,0.26751167,-1.3969115,-0.09329875,-0.49477378,-0.010090884,0.18885145
Biases
-0.45972192,0.29593793,0.4544564,0.8356181,0.8396928,0.54023427,-0.64860344,0.55923283,-1.4612174,-0.9756864

